[[[0.426481,0.176138,-0.112842,-0.291742,0.470397,-0.200186,-0.0702078,0.0538194,-0.484008,0.301386,-0.219871,-0.389279,-0.195181,-0.207297,-0.147237,-0.399533,-0.120197,0.268181,-0.0488754,0.170034,0.194906,0.163259,-0.376583,-0.489044,0.45706,-0.193838,0.16451,-0.104541,-0.0430464,0.388028,-0.14742,-0.346583,0.182943,-0.0938597,-0.222251,0.466979,0.465636,-0.397519,0.159017,-0.468566,-0.415433,0.437132,0.00886563,-0.352412,0.252678,0.063036,0.235923,-0.304437,-0.36642,-0.493744,-0.398923,0.177267,0.358089,0.304254,0.352474,-0.212119,-0.148976,-0.28222,-0.323572,0.378201,-0.0789972,0.0223243,0.0789972,0.0934935,-0.153096,0.432859,0.164052,0.167898,0.106983,-0.237724,0.144917,0.479034,0.173482,0.291436,0.269189,-0.36697,-0.361202,-0.195029,-0.357997,-0.226035,-0.371853,-0.389035,-0.0920896,0.112781,0.23455,-0.439421,0.350826,-0.375698,-0.421018,0.187399,0.135426,0.468444,0.46881,-0.166311,-0.494659,0.285394,-0.0128025,0.453826,-0.248863,-0.227439,0.385525,-0.194906,-0.256127,0.453887,-0.460936,-0.0607166,-0.388882,0.101459,0.330226,-0.489074,0.00395215,-0.452818,-0.149556,0.383419,-0.0723441,-0.342616,0.0235755,0.207205,0.0549486,0.0591906,0.187704,-0.387783,-0.363399,0.416593,-0.0688955,-0.175466,0.322291,0.381039,-0.402615,-0.344172,0.176687,0.0296487,-0.0559557,-0.350703,-0.191,-0.485717,0.476318,0.0809809,0.231864,0.142689,-0.419706,0.241111,0.344874,-0.0937376,0.0788446,-0.140797,-0.363857,0.305139,0.35815,-0.179525,0.499237,0.0244606,0.315821,-0.320093,-0.264641,-0.390408,0.0789056,0.496429,-0.0353252,-0.136738,-0.303858,0.165609,-0.264977,-0.0126804,-0.384426,0.253868,-0.258263,-0.0457015,0.229026,0.002884,0.397641,-0.450621,0.258324,0.193899,-0.199759,0.151051,0.101428,-0.42169,0.341151,-0.0619373,0.247093,0.405057,0.440336,0.200583,-0.172994,0.0978271,-0.0156102,0.361476,0.100513,-0.0886715,0.30166,0.0124058,0.107532,-0.211447,-0.153523,0.139027,0.212302,0.299463,0.332942,0.400906,0.170888,0.0233924,-0.214225,-0.460417,0.0120701,-0.231468,-0.097705,-0.207175,0.186331,-0.217521,0.297967,-0.0121616,-0.346522,-0.357021,0.00856044,0.111347,0.239311,0.495788,0.300989,0.357875,0.00212104,-0.383053,0.217978,0.236137,0.412992,-0.307337,-0.181021,0.0711539,0.175619,-0.495666,-0.16628,-0.0856197,0.110889,0.45352,-0.250633,0.374569,-0.444029,-0.40466,0.211722,-0.255455,-0.0171667,-0.0398114,-0.0469222,-0.143208,0.285058,0.0747246,0.293329,0.350703,-0.294122,0.296319,-0.0720389,-0.0994446,0.153249,0.135853,-0.00642415,0.0693533,0.143818,0.0222327,0.196158,-0.0447249,0.0135655,0.438932,-0.275719,0.29989,0.0128025,0.406369,0.375484,0.0832392,-0.442717,0.0157628,-0.156026,0.361293,-0.26046,-0.481628,-0.384182,0.364284,-0.330561,-0.421354,0.196036,-0.157949,0.494598,0.023484,-0.30224,0.220176,-0.0529038,-0.469481,0.0413068,0.167806,-0.41525,0.106861,0.0364849,-0.445677,0.244957,0.288598,0.273797,0.330897,-0.193472,-0.311335,-0.327815,0.090228,-0.300317,-0.20397,-0.40817,0.020951,-0.157277,-0.327204,-0.247856,-0.0832392,0.406339,-0.459166,0.319147,-0.496948,-0.315821,0.0238197,0.303644,0.0496078,-0.189871,-0.0659963,-0.228233,-0.241508,-0.0232704,-0.323725,-0.313166,0.129841,-0.145833,-0.0695364,0.205679,0.0791498,-0.413724,-0.442106,-0.438749,-0.127827,0.0732292,0.431822,-0.433805,-0.15569,0.291955,0.471435,0.161336,0.227256,0.22808,-0.370296,0.439543,0.491089,-0.265465,0.192343,0.08034,0.246971,-0.284906,-0.0387432,-0.29574,0.0319071,-0.157979,0.0268715,0.460997,-0.286828,0.438841,0.134236,0.468688,-0.31872,-0.413358,0.20101,-0.308679,-0.378536,0.315271,0.359645,0.140522,0.057268,0.4841,-0.226493,-0.232688,-0.113483,0.190237,-0.0957518,-0.128315,0.266106,-0.387661,-0.181967,0.00813318,0.0458235,0.370602,-0.0966979,-0.338008,-0.161855,-0.0320597,0.355739,0.294519,-0.284753,-0.18685,0.0665761,0.0244606,-0.161245,0.0301065,-0.394864,-0.297662,-0.101459,0.344539,0.265862,0.00972015,-0.0329752,0.0782952,0.105701,-0.485656,-0.169332,-0.0261696,-0.368313,-0.284631,-0.214408,-0.132954,-0.157643,-0.25277,0.152333,-0.479675,0.0818049,0.328883,0.447447,-0.482604,-0.109424,0.285577,-0.351466,0.332942,0.422514,0.334529,-0.348231,0.479125,-0.00538652,0.173727,0.337947,-0.0972472,-0.223746,-0.498413,-0.317621,0.343989,0.412809,-0.343196,-0.299066,-0.306024,-0.409024,0.402219,-0.0262307,-0.0736869,0.147694,0.200705,0.239128,0.151296,0.472045,-0.380062,-0.435972,0.373562,0.232505,0.184164,-0.132038,-0.0899228,-0.222221,-0.487152,0.0131077,0.091174,-0.401212,-0.0101169,-0.487762,-0.366329,0.244621,0.0728019,0.0817438,-0.0172277,-0.135243,0.282403,-0.318323,-0.176138,0.36166,0.320948,0.0470138,0.230674,0.216971,-0.0500961,-0.296411,0.138356,-0.111805,-0.455718,-0.469481,-0.114063,-0.425535,0.360134,0.408902,-0.262535,-0.264336,-0.0649281,-0.48706,0.344234,0.135792,0.0331584,0.485504,-0.20101,-0.163045,0.288263,-0.178701,-0.290948,-0.256615,0.254265,-0.138447,0.144185,0.432096,0.192923,-0.0957213,0.156636,-0.399777,0.426939,0.0713065,-0.3034,0.119282,0.264336,0.473815,-0.133808,0.334681,-0.0862606,-0.385586,-0.413205,0.473449],[-0.00459304,0.339778,-0.185751,-0.0881222,-0.443846,-0.475158,0.111927,-0.182333,0.0602588,-0.46234,-0.288079,-0.471282,0.428312,0.473022,-0.347438,-0.031663,0.320826,-0.379452,-0.304926,0.337489,-0.331568,-0.300989,0.494995,-0.0462203,0.0345927,0.319697,0.00968963,-0.0617542,-0.0832698,0.163015,-0.300165,-0.354274,0.439451,-0.22158,0.381375,0.447203,0.215567,-0.320734,0.0941649,-0.40112,-0.161641,0.239921,0.08034,0.452544,0.109058,-0.08034,-0.333918,-0.0641346,-0.40286,0.382412,-0.0566881,-0.452605,-0.0642567,-0.0928831,-0.28457,-0.369137,0.139607,0.23983,-0.325526,0.0983459,-0.13918,-0.292047,-0.379696,0.0126804,-0.283929,-0.368557,0.167043,0.251823,0.173971,-0.450316,-0.469024,0.394498,-0.154195,0.165792,0.319239,-0.00688192,-0.325587,-0.147633,-0.494659,0.442839,0.0948973,-0.0817438,0.331874,0.419614,-0.366604,0.231071,-0.0993835,0.283166,-0.342769,-0.316004,-0.0149083,0.125752,0.0305338,0.300531,-0.188162,-0.0205542,-0.407926,-0.241844,-0.168111,-0.333216,0.31695,0.107868,-0.302332,-0.482574,0.417997,-0.0898923,0.171712,-0.12328,0.412107,-0.0940123,0.102496,-0.230613,-0.361019,0.0800043,-0.252495,-0.166372,-0.0458235,0.415708,0.279595,0.403439,-0.0190588,0.471038,-0.27633,-0.459655,0.232566,0.15157,-0.0483566,-0.0653249,0.0282754,-0.268883,-0.490081,0.271569,-0.258019,0.202445,0.460692,0.0225074,-0.256676,-0.315943,0.107959,-0.152455,-0.117908,0.373867,0.26867,0.430815,0.189596,-0.0519272,-0.258202,0.0997192,0.244255,0.209494,-0.112262,0.120045,0.247551,-0.130909,0.196371,0.408689,0.406552,0.428343,-0.10683,0.482238,0.370449,-0.172964,0.430509,-0.196829,0.347041,-0.19219,0.00901822,-0.0797906,-0.121052,-0.357112,0.0997803,0.162893,0.118397,-0.134602,-0.376156,0.48883,-0.310053,0.273003,-0.224387,0.195669,0.185415,0.224906,0.0116733,-0.106494,-0.207877,0.201743,0.448058,0.0199133,-0.0149998,0.158193,-0.0777154,-0.331904,0.338405,-0.191,0.363308,0.440245,0.271966,0.069628,-0.0676443,-0.471801,-0.166097,-0.311823,-0.450804,0.356563,0.462371,-0.318537,-0.205313,0.373287,-0.431639,-0.224326,0.32049,0.0576647,0.475555,0.0690176,0.257469,-0.242241,-0.255547,0.0864132,-0.129139,0.185781,-0.40524,-0.309717,-0.0592517,0.247917,-0.342586,0.185904,-0.228629,-0.135304,0.448271,0.0321512,-0.416593,-0.186422,-0.016953,-0.440153,0.0386517,-0.361751,0.350612,-0.00209052,-0.184225,0.0232398,0.433287,-0.304254,0.10921,-0.415891,0.397732,0.0769219,-0.17449,-0.0272073,-0.325892,-0.0032197,0.0648366,0.31753,-0.138325,-0.350642,-0.0462813,-0.322718,0.227653,0.489715,0.307245,-0.250908,0.347316,0.221885,0.0369732,0.378079,0.494812,-0.244835,0.155019,-0.00508133,-0.303125,-0.0727409,0.101459,-0.00917081,-0.1198,-0.331935,0.0238197,0.0858028,-0.0298929,0.0449385,0.395962,0.248192,-0.446623,0.257683,0.35641,0.0286721,0.361049,-0.121967,-0.273553,-0.260674,-0.240074,0.296472,-0.238365,-0.379849,-0.36111,0.10921,-0.0264443,-0.0894345,0.101917,-0.261864,0.187521,0.0661489,-0.296106,-0.241844,-0.227226,-0.137654,0.38638,0.372829,-0.118702,-0.261864,0.324366,0.0467391,-0.466247,0.160237,-0.0207068,-0.385739,-0.0283975,-0.203391,-0.319666,-0.48468,-0.0979492,-0.299463,0.182608,-0.260979,-0.280572,-0.110981,-0.165853,0.314814,0.0817438,0.391415,-0.0946532,-0.211173,0.367336,0.225578,0.257744,0.287622,0.0017243,0.09447,-0.324549,-0.0586718,-0.15569,-0.0551012,-0.329524,-0.251671,0.389004,0.158254,-0.115955,0.095294,-0.165304,-0.40054,0.129505,-0.0303812,-0.0842158,0.140675,0.437498,0.413877,-0.183767,0.436369,-0.48001,0.011948,-0.205374,-0.460906,-0.306726,0.151234,-0.0199744,0.300043,0.489685,0.469909,0.258415,0.184042,-0.230338,0.337611,0.0517441,-0.462951,-0.181295,0.48056,-0.369472,-0.271355,-0.188376,0.363308,-0.0704825,0.443144,-0.32403,-0.0918455,-0.409146,0.435881,0.0380718,0.399228,0.125965,0.273797,-0.42877,-0.287164,0.317896,0.448088,-0.0667592,0.303217,-0.00904874,0.226859,-0.0544298,-0.321833,0.141041,0.00392163,-0.492767,0.367367,0.266472,0.146382,-0.431608,0.237999,-0.127186,0.245933,0.0138096,0.322382,-0.216819,-0.273095,0.38638,0.303247,-0.293542,-0.141865,0.00511185,-0.162893,0.0199438,-0.465056,0.414823,0.19161,0.331355,-0.369259,0.00923185,-0.279992,-0.287225,-0.409055,0.335322,-0.47644,-0.133625,0.299127,0.0204321,-0.008652,-0.411374,0.215323,0.338801,-0.440703,-0.117084,0.0282754,0.0954466,0.284692,0.319452,0.012009,-0.474456,0.254479,-0.131306,0.123157,-0.274743,-0.0199744,0.205008,-0.205527,0.38348,0.0812861,-0.224265,-0.144887,-0.254662,0.201041,-0.407773,-0.214652,-0.180898,0.391324,0.383786,0.172506,0.177114,-0.0981933,0.440123,0.445067,-0.257988,-0.435911,0.235343,0.320704,0.3493,-0.443999,-0.092822,-0.273644,0.177328,-0.485809,-0.432249,-0.0924558,0.237114,-0.0107273,0.206595,-0.431181,0.071337,0.0104221,0.495025,0.330195,-0.321619,0.0628223,-0.446806,-0.153157,0.179952,-0.473113,0.448668,0.153554,-0.115589,-0.214652,0.399442,0.400479,0.0990478,0.14626,0.496216,-0.0683157,0.483581,-0.250664,-0.0872982,0.0546739,-0.140095,-0.0370952,0.167653,0.480865,-0.439024,-0.0371868,-0.00498978,0.453307,-0.471801,0.368923],[0.32049,0.311701,0.0549791,0.381191,-0.189199,-0.309412,0.251152,-0.0169836,-0.347133,-0.279504,-0.0793023,0.156484,-0.0999939,0.0783868,-0.00245674,-0.218833,-0.299127,0.00444044,-0.351863,-0.30047,-0.400632,0.0419477,0.155568,-0.308313,-0.388668,-0.359127,0.343013,-0.287194,-0.136128,-0.195059,0.096118,0.413236,-0.445616,-0.46292,0.0674917,0.140706,-0.408231,-0.280847,-0.13506,0.281304,0.141163,0.153035,0.184255,0.281762,0.0667592,-0.349849,-0.325343,0.474853,-0.16689,0.482574,0.0208899,0.359584,0.107776,0.163625,-0.310511,0.15331,-0.058092,0.0585498,0.311182,0.451506,0.25396,-0.383755,-0.122456,0.177114,0.330164,-0.192038,-0.0491806,0.157582,-0.149739,-0.223777,-0.189322,-0.278253,0.305231,0.0229041,0.058092,0.334895,0.278283,0.24749,-0.0508286,-0.363033,-0.323908,-0.0905332,0.245994,-0.20806,0.176962,0.0500046,-0.328394,0.0199744,0.290887,0.26104,0.466643,0.154927,0.10271,0.0278176,0.272179,-0.360805,0.307947,-0.408567,0.28927,0.285241,0.360042,-0.255425,-0.368587,-0.190146,0.428098,0.218558,0.194113,0.463042,0.0920896,0.38229,-0.218101,-0.377712,0.438566,-0.0182958,-0.248375,0.176595,-0.235801,0.0808283,-0.168905,-0.0814386,-0.424589,-0.498169,-0.203299,-0.449705,-0.238731,0.49411,-0.117512,0.456114,-0.205557,-0.230705,0.253807,-0.418577,-0.311365,0.322352,-0.309015,-0.0664235,-0.451872,0.308466,0.185018,0.311548,-0.476806,0.379086,-0.248558,0.210746,-0.123127,-0.297937,-0.296472,-0.499573,0.163411,0.388058,-0.339412,-0.298578,0.392178,-0.324335,-0.403897,-0.0926695,0.317774,0.284478,0.252709,0.0971252,0.220847,0.192373,0.345668,0.0263222,-0.466918,0.175893,-0.340327,-0.035081,-0.427061,0.0453352,-0.190725,0.431913,0.364742,-0.342677,-0.432981,-0.440916,0.00148015,0.0970336,0.203543,-0.123707,0.435209,-0.482055,0.453551,0.42935,-0.154683,0.426878,0.00166326,-0.109851,0.0636769,-0.0467391,0.0439009,-0.311914,0.337123,0.471801,0.0552538,-0.308283,0.316187,0.0550401,0.398007,-0.168172,0.0706961,-0.369747,0.362819,0.457396,-0.209616,0.173788,-0.0978881,-0.078692,-0.464599,-0.0352336,-0.422239,0.0631581,-0.248436,-0.228629,-0.0300455,0.0180212,-0.158834,-0.289087,-0.203421,0.473754,-0.26281,0.389798,0.156697,0.26223,0.415159,-0.14864,-0.114887,-0.116321,-0.431516,-0.494598,-0.482086,0.483489,0.273095,0.281701,0.0781121,0.392544,0.0831782,-0.394711,0.0261696,0.0290689,-0.0930052,-0.404324,0.365627,0.0279702,-0.144612,0.45822,-0.224357,-0.444823,-0.344722,0.266167,-0.485534,0.238823,-0.00468459,-0.468413,0.285241,-0.452269,-0.351192,0.398007,0.422941,0.127644,0.323969,-0.41522,0.087817,0.386929,-0.0434736,0.229148,-0.463469,-0.402829,0.329127,-0.325312,0.272729,-0.0974914,0.266381,0.247337,-0.37701,-0.476592,-0.490661,-0.332698,-0.0212256,0.307978,-0.219718,-0.132099,0.0159764,0.335231,0.0684072,-0.32757,-0.102588,0.150533,0.157613,0.436735,-0.447874,-0.252403,-0.00398267,-0.0992615,-0.466796,0.309046,0.14507,0.105548,0.333491,0.247978,-0.00514237,-0.280267,-0.308802,-0.193838,0.167226,-0.0739921,-0.290796,0.310175,0.44644,0.476653,0.106708,-0.173818,0.026841,-0.454222,-0.456267,0.226951,-0.194479,0.228202,-0.207266,0.386868,0.0661794,0.392758,0.187735,-0.373592,-0.28341,0.276666,-0.333125,0.306513,0.0879696,0.371731,0.0130467,-0.119282,-0.090289,0.148854,0.269433,0.267174,-0.0501267,-0.40347,-0.234062,-0.195456,0.0108493,0.471404,-0.0220801,-0.270959,-0.418912,-0.0264748,-0.34814,-0.252098,0.422086,-0.16155,0.269829,-0.408994,-0.12328,0.482879,-0.158406,-0.311731,0.431211,-0.494476,-0.234275,0.26397,0.4935,0.473022,-0.324213,0.153371,0.0327006,0.295343,-0.434141,0.443175,0.261834,-0.268761,-0.385891,-0.304041,0.403745,-0.142689,-0.0106967,0.334101,0.10564,0.296625,0.261925,0.0282754,-0.2257,-0.252556,-0.0685904,-0.133045,-0.181326,-0.476135,0.310419,-0.140431,-0.202292,-0.151662,-0.0499435,-0.138295,0.263543,-0.297723,0.329493,-0.392117,0.43289,-0.0248573,-0.176443,-0.0893429,-0.131123,0.406339,0.167318,0.289514,0.453124,-0.103351,-0.0553148,-0.275475,0.479461,-0.0925779,0.48526,-0.322962,0.33343,-0.265984,-0.280694,0.228843,-0.286859,0.0219275,0.276208,-0.140217,-0.124287,-0.307428,0.284051,0.304346,0.475799,0.488311,0.0568407,-0.307276,0.300073,0.285699,-0.249901,-0.331843,-0.324305,0.333827,-0.477569,0.32107,-0.058092,0.0380718,0.315699,-0.320002,0.470763,-0.355159,0.130451,0.397519,-0.465392,0.313227,-0.340938,-0.166128,0.401456,0.227165,-0.265862,-0.371761,-0.446226,0.101215,0.459502,-0.160451,-0.0671255,0.416776,0.494293,0.1386,0.107624,-0.117634,-0.0943175,-0.0735954,0.297388,0.426878,-0.00660726,0.000259407,0.431333,0.325495,0.327357,-0.0980102,-0.327662,0.130726,-0.263604,0.165334,0.412961,0.212333,0.443846,0.204764,0.446684,0.275231,0.0590075,-0.164205,-0.47879,-0.430204,-0.473113,-0.26751,0.425932,-0.340938,0.269158,-0.0306864,-0.272332,-0.00801111,-0.306543,0.17156,0.0537278,0.103534,-0.367244,-0.0231483,0.487274,-0.457671,-0.0206153,0.0702994,-0.228965,-0.158406,-0.243004,-0.0404828,0.301111,-0.0882443,-0.482208,-0.492981,0.245384,-0.374813,-0.362789,0.49002,-0.192587,-0.484985],[-0.101215,0.360286,-0.103565,-0.047319,0.295099,0.194266,-0.273003,0.431303,0.170217,-0.263024,-0.050676,-0.123524,-0.204398,-0.0997498,-0.399564,-0.121998,-0.225578,0.106037,-0.0422834,-0.281671,-0.282098,-0.0215308,-0.373898,0.407102,-0.258904,0.0941038,0.0876034,0.306818,0.339137,0.11861,0.0166173,-0.304651,-0.334529,0.111347,-0.0155797,0.0081637,-0.464934,-0.372372,-0.360042,-0.446715,0.269066,-0.319086,0.386776,0.436155,-0.432188,0.360927,-0.0917844,-0.0161596,-0.424741,-0.216575,-0.131275,0.284478,-0.381314,0.203024,0.261956,-0.071398,0.340052,0.102435,-0.361843,0.336818,-0.118763,-0.17571,0.440336,-0.365047,0.306024,-0.404935,0.0858028,0.39346,-0.467284,0.471862,0.444304,0.0295572,0.270409,0.363491,0.467498,0.142689,-0.198782,-0.239433,0.327906,-0.162191,-0.233421,0.471343,-0.214988,-0.130634,-0.179495,0.260338,-0.316126,-0.438292,-0.212699,-0.371761,0.299432,0.11916,-0.446898,-0.364376,0.3399,0.459014,-0.0843074,-0.277978,-0.353023,-0.159566,0.446867,0.176412,-0.336573,0.278466,0.0768914,0.0402387,0.205283,-0.482543,-0.202963,0.0017243,0.132527,0.158589,0.347377,0.306391,-0.280755,-0.222434,-0.0148778,-0.00572222,0.424955,0.19274,-0.145711,0.384579,0.371548,-0.356014,0.0395672,-0.470885,-0.106372,0.168783,0.0682852,-0.135151,-0.106525,0.00440992,-0.0600452,-0.256401,-0.212882,-0.350642,-0.423032,-0.0973388,-0.121082,0.483215,-0.46823,0.201346,-0.376217,0.270135,0.038255,-0.0716727,0.250206,0.0249184,0.292169,0.462432,0.260094,-0.246269,-0.290796,-0.163991,-0.307092,-0.343532,-0.0322123,0.448729,-0.461364,-0.428556,-0.341792,0.17272,-0.37112,-0.485046,-0.0587939,0.159352,0.238151,-0.00938444,0.360012,0.281304,-0.084521,-0.277184,-0.0991394,-0.210166,-0.124622,-0.301935,0.19982,0.236656,0.0267495,-0.334986,-0.256981,0.117084,0.328242,-0.223167,0.285272,0.39169,-0.197714,0.139821,0.0609302,-0.183889,-0.430906,0.406858,-0.499939,0.477844,0.141835,0.312098,0.246727,0.229026,-0.283166,0.383419,-0.0040437,0.437376,0.023545,0.22869,0.28161,-0.0549181,0.338649,0.246391,0.28753,-0.00447096,-0.222404,-0.308222,-0.429197,-0.136158,-0.109149,0.313807,-0.207511,-0.488861,0.111316,-0.102985,-0.47354,0.250877,-0.391751,-0.299921,0.0154576,0.132832,-0.025193,-0.267937,-0.361415,-0.0186926,-0.406491,-0.454527,0.424924,0.0456709,0.308191,-0.207541,0.263604,0.300165,0.0844295,-0.455046,-0.0316019,-0.228019,-0.0968505,0.402585,-0.198477,0.489441,-0.453887,-0.114185,0.375668,0.439726,-0.22277,-0.190512,-0.0949278,-0.39584,-0.0589465,-0.193503,0.330622,0.13506,0.343654,-0.34405,0.183279,0.372494,0.250237,-0.117237,-0.307489,0.325953,-0.406095,0.132405,-0.0300455,-0.315516,0.252159,0.249229,-0.227805,-0.242821,-0.169118,0.00306711,-0.0117954,0.374538,0.0519272,-0.467559,-0.445647,-0.193258,0.284417,0.0247658,0.0417646,0.379818,0.0744194,0.0512864,0.366115,0.248619,-0.0759758,-0.0641041,-0.291436,0.260552,0.272668,0.361141,0.100726,-0.0541246,-0.0914182,0.376339,0.146962,0.307794,0.213309,0.396298,0.296991,0.486572,-0.0898618,-0.330683,0.161519,0.44348,0.164937,-0.327967,0.00437941,-0.0475936,-0.128681,0.336299,0.495239,-0.473083,0.0314188,-0.480529,-0.115741,0.46762,0.0872677,0.272546,-0.360195,0.0486618,-0.195486,-0.493683,-0.466399,0.250053,-0.357479,0.0438398,0.114887,-0.42056,-0.336848,0.058153,-0.0314493,0.244011,-0.436186,-0.298761,0.197775,-0.412534,0.161489,0.474853,0.443144,-0.445219,-0.102649,-0.14037,0.141743,-0.0973998,-0.10979,-0.384915,0.48294,0.0208899,0.345637,-0.0894345,-0.263512,-0.459349,0.0379498,0.187735,-0.260063,-0.0794549,-0.315088,-0.204947,-0.297937,-0.414457,-0.278588,0.237541,-0.298853,-0.326228,-0.380184,-0.315363,0.256249,-0.366329,-0.431974,-0.372372,-0.416349,-0.225272,-0.405148,-0.106281,0.199149,-0.417844,-0.0393536,-0.460631,0.108783,-0.229087,-0.169607,-0.0571764,-0.294733,0.288385,0.450316,-0.0453658,-0.4935,-0.422208,0.174734,0.487182,-0.310297,0.0452132,-0.474761,-0.145497,-0.338069,0.00413526,0.244041,-0.0555895,0.200156,0.349605,0.29812,0.228996,0.0169836,0.433592,-0.190542,-0.419004,-0.207785,-0.247002,-0.313623,-0.290307,-0.0847041,-0.246818,-0.0324259,-0.325983,-0.317072,0.339351,0.466796,0.289209,0.292657,0.45877,-0.444182,0.160237,-0.439879,-0.206168,-0.486328,-0.446409,-0.0395062,0.246849,0.0914182,-0.255333,0.202353,0.341945,-0.0512558,-0.240684,-0.24453,0.180502,0.363765,-0.346492,-0.156728,0.387722,0.183828,0.333155,0.0697806,0.372433,0.274194,-0.491516,-0.488403,0.407804,-0.401578,0.0526902,0.458495,-0.100421,-0.229026,-0.233634,0.0859554,-0.0279397,0.153554,0.371242,0.189749,0.414548,-0.159017,-0.136219,0.285363,0.116718,-0.181173,-0.437742,-0.187399,-0.387722,-0.0495773,0.269005,-0.26986,-0.255852,-0.437559,-0.44113,-0.148427,-0.124104,-0.412656,-0.184408,0.307794,-0.285241,0.0844295,-0.333064,0.25692,0.465331,0.0989868,0.456206,0.00849941,0.474639,-0.351131,-0.142659,-0.351955,-0.376736,0.0738395,0.452574,0.403989,0.00450148,-0.18984,0.321986,-0.0143895,0.473937,-0.223258,-0.307459,-0.251488,0.204093,-0.443602,0.448027,0.128254,0.413236,0.259667,-0.174734,0.496155,-0.438353],[0.232353,0.13802,-0.149281,0.206778,-0.392727,0.195029,-0.020951,-0.340083,-0.135029,0.435423,0.128346,0.467437,-0.151845,-0.213492,0.0913266,0.289941,0.210715,-0.0927915,-0.175253,-0.20394,-0.188314,0.421232,0.0255287,-0.307306,0.129933,-0.194357,-0.264763,0.351314,0.445524,-0.314051,-0.151204,0.363643,0.155354,0.419889,0.268944,-0.408841,0.413877,0.224631,0.0395367,-0.236747,-0.323359,0.323389,0.0912351,0.0764336,-0.489563,-0.104083,-0.19512,-0.263298,0.448943,-0.434233,-0.366756,0.321253,0.0782037,0.495239,0.166189,-0.330592,-0.316095,0.272362,-0.193625,-0.431639,0.30932,-0.496033,0.0844905,-0.0389874,-0.271813,-0.22515,0.332453,-0.363308,0.378689,0.274163,0.157918,-0.0454268,-0.153584,0.389187,-0.289209,-0.231742,-0.0322428,-0.172353,0.258415,0.37463,-0.37582,-0.0386517,0.169576,-0.14568,0.127644,-0.310572,-0.411008,0.437407,-0.0648061,-0.326136,-0.0624866,0.0249184,0.0674001,-0.468902,-0.248589,0.132679,0.259545,-0.0485397,-0.106281,0.197745,-0.256035,-0.110096,-0.013657,-0.195944,0.00120548,-0.461577,0.0996277,-0.454375,-0.393338,0.468047,-0.0279397,0.328211,0.0938902,0.109546,0.34167,0.461882,-0.325129,0.439055,0.490173,0.39349,0.133442,0.0209815,0.0628223,-0.0766778,0.230094,0.49939,-0.468963,-0.490509,0.137532,0.192038,-0.42703,-0.257103,0.232475,-0.0149388,0.404508,-0.338191,0.180746,0.114032,-0.120685,0.379147,0.205039,0.0714286,0.364467,-0.0216224,-0.440428,-0.438475,-0.0439924,0.465484,-0.225608,-0.0143895,0.285302,0.461486,0.0382244,-0.446104,0.187063,-0.107318,-0.351192,-0.0541246,0.248711,-0.394223,-0.320765,0.0937681,-0.113453,-0.446226,-0.0703604,-0.132984,0.0333415,0.366176,0.310816,-0.15038,0.0208899,-0.0731071,-0.167623,-0.434751,0.00160222,0.147359,-0.0196081,-0.179952,0.141194,-0.313562,-0.0375835,0.437559,-0.122181,-0.478454,0.0139012,0.10332,0.328486,0.217032,0.0876034,-0.105152,0.0965148,-0.295221,-0.346309,0.383267,-0.286584,-0.34048,0.426664,-0.243065,-0.392514,-0.475066,0.317499,0.209494,0.201682,-0.391964,-0.147847,-0.139882,-0.492706,0.0364544,-0.345088,0.0277871,-0.450926,-0.0282144,0.201895,-0.166158,0.193106,-0.313196,-0.127766,0.121906,-0.150349,0.491791,0.474364,0.23925,-0.419401,0.361476,0.172414,0.0728935,0.2463,-0.357112,0.244865,0.0981933,0.21514,-0.142689,-0.24572,0.225639,0.246025,0.478027,-0.310785,0.173482,0.148701,-0.178396,-0.0789361,-0.0646535,0.135365,-0.0251015,-0.214896,0.38525,-0.0393231,0.44644,-0.489624,-0.0851924,-0.245903,-0.283044,0.177755,0.23397,0.460051,-0.120899,0.435148,0.465545,-0.229942,-0.0656606,0.0414899,0.224906,0.356899,-0.181845,-0.137104,0.171377,0.30755,-0.387356,-0.0488449,0.317682,-0.0382855,-0.273736,0.102252,-0.102161,0.311029,-0.453764,0.126545,-0.162496,0.136891,-0.341823,-0.106555,-0.399869,0.270287,-0.262902,-0.252251,0.283227,-0.121174,-0.446196,0.141102,0.0219886,-0.346461,-0.402188,-0.470672,-0.248436,-0.279748,0.257073,0.18453,0.245872,0.0940123,0.0174108,0.0947142,0.198538,0.379055,-0.474456,-0.490265,0.203482,0.430815,-0.312738,-0.022599,-0.119037,-0.227561,0.436522,0.0612049,-0.0901059,0.00526444,-0.107715,-0.190725,-0.205039,0.212119,0.131306,0.0789972,-0.0378277,0.235374,-0.317042,0.270653,-0.257897,0.245933,-0.267846,-0.255394,0.162069,0.261101,0.489837,0.129261,-0.309442,0.340205,-0.448729,-0.119221,-0.373592,-0.444548,-0.199088,0.0908994,0.462371,0.425077,-0.23516,-0.182882,-0.458068,0.238731,-0.0719474,-0.0900449,-0.153218,0.417783,0.35989,0.0515915,-0.275201,0.450499,0.218223,0.0818354,-0.236656,-0.329859,0.0550706,-0.268426,-0.164296,0.229881,-0.413755,-0.392361,0.495849,-0.480132,-0.0371868,-0.436064,0.259545,0.143452,0.0528428,-0.435972,0.406461,-0.499176,-0.353267,0.0922727,0.289209,-0.380825,0.423826,0.464354,-0.481231,0.446593,-0.265862,0.0164647,-0.270684,-0.349147,-0.108417,0.292108,0.0246437,-0.246025,-0.221732,-0.297754,-0.325465,-0.318812,-0.234428,-0.157674,0.251366,-0.2069,-0.175283,-0.160695,0.179708,-0.236839,0.326807,-0.133045,0.0265358,0.257591,-0.202536,-0.27279,0.28637,0.0605945,0.199942,0.384854,-0.331843,0.214133,0.422605,-0.131397,-0.380795,0.0329447,-0.280541,0.201773,-0.444304,0.370663,-0.304529,-0.449156,0.113697,-0.18807,0.348109,-0.0549181,-0.206015,-0.116291,0.29104,-0.19631,0.0157018,-0.140004,0.0636464,-0.262261,-0.055681,0.0587329,0.324549,-0.0266579,-0.0387738,0.407743,-0.14214,0.36523,-0.151723,0.0892514,-0.21337,0.0397504,0.459624,0.0401471,0.361415,0.453917,-0.420804,-0.246971,-0.22985,0.229637,-0.168874,-0.200003,0.266472,-0.433348,-0.193991,0.4017,-0.17098,-0.0665761,0.402982,0.0140843,0.227561,0.332575,0.0697501,0.230918,-0.0949278,-0.310358,0.314417,-0.415464,0.477844,0.247917,0.296564,0.340876,-0.0780816,-0.0178686,-0.317072,0.261986,0.0387432,-0.335658,-0.327815,-0.310694,-0.0273293,-0.457244,-0.376583,-0.0897702,-0.193716,-0.389615,0.0682852,0.096942,-0.39877,0.170644,-0.252678,-0.19921,0.468261,-0.491668,0.0756706,-0.100208,-0.0988647,-0.27459,-0.325373,-0.239463,0.422727,0.461638,0.41586,-0.0117954,-0.109729,0.169179,-0.192404,-0.249229,-0.390927,-0.406339,-0.449004],[-0.451842,0.225944,-0.466735,0.458281,0.149068,-0.251183,0.366878,-0.484649,-0.0685293,0.0767388,-0.112537,0.0856197,0.260155,-0.0552232,0.267541,-0.460845,-0.165944,-0.439909,-0.349849,0.0665456,0.456542,0.00334178,0.241539,-0.479308,-0.0912351,0.235313,-0.0443587,-0.163381,-0.425016,-0.453642,-0.101276,-0.134693,0.164266,-0.283197,0.0806146,0.231712,-0.392117,-0.00306711,0.0663015,-0.45291,0.109912,-0.384945,0.233268,0.0794244,0.315485,-0.307184,-0.331416,0.467895,0.250206,0.160848,0.21395,-0.37637,-0.335994,-0.256066,0.291406,0.0168615,0.482482,-0.0191504,-0.04738,-0.480316,0.00459304,0.419675,-0.38638,0.199149,0.443175,-0.313471,-0.160909,0.453307,-0.155782,0.034959,0.49646,0.258477,-0.0990478,0.401944,-0.170125,0.36935,-0.147877,-0.457091,-0.457121,0.0975219,0.180654,-0.0291299,-0.417325,-0.10744,0.252586,0.188009,-0.439207,0.223045,0.00215155,0.453246,-0.174215,0.326777,0.397214,-0.239006,0.366756,0.334956,0.325648,-0.472625,-0.186026,-0.064745,0.371242,-0.198172,0.185415,-0.194601,0.333522,-0.00593585,0.499908,-0.154958,-0.127338,0.293939,0.237632,0.0912046,-0.0156713,0.350978,0.247917,0.215964,-0.306177,0.197195,-0.0690786,-0.336207,0.343196,-0.233146,0.0775323,0.369442,0.111682,0.262108,-0.277429,-0.383114,0.320978,0.447996,-0.245201,0.489929,0.458068,0.375057,-0.00798059,0.0794855,0.0868099,-0.172658,0.375698,0.122242,0.138173,0.25045,0.478057,-0.300592,0.041612,-0.491424,0.174276,0.275842,-0.33874,0.0360576,0.421293,0.3493,0.1433,0.459288,0.128498,0.273217,-0.359188,-0.111164,-0.0305033,0.0404218,-0.407315,0.453856,0.208548,0.42288,0.333064,0.121082,-0.0368206,0.435911,-0.00517289,0.239677,-0.169942,0.176962,-0.0814081,0.0202795,-0.419217,-0.424589,0.200461,0.423215,-0.18453,0.249229,0.374599,0.305231,-0.345973,0.0645619,0.10448,0.466308,0.347285,-0.291559,-0.145253,-0.347041,0.432218,0.294855,-0.337825,-0.180074,0.164785,-0.436888,0.311243,-0.158986,0.311457,0.492676,-0.238365,0.125263,0.125416,0.0974609,0.29693,0.364254,-0.49292,0.189108,-0.0645009,0.445219,0.090289,-0.333003,0.0532701,-0.186239,0.247276,0.479522,-0.182424,0.450102,0.390225,0.401517,-0.110279,0.100421,0.380673,-0.408994,-0.28341,0.00263985,0.220511,-0.499084,-0.424406,-0.00312815,-0.132069,0.290124,-0.192648,-0.00315867,-0.390378,-0.365322,-0.198019,0.0637074,0.201682,-0.446348,0.450072,0.162923,0.435636,-0.0739311,-0.107898,-0.209433,-0.082049,0.442808,0.193472,-0.279626,-0.0286416,-0.123371,-0.384854,0.493652,-0.314386,0.344905,0.00541704,0.217002,-0.152486,-0.244255,-0.180654,-0.141835,0.332637,-0.365658,-0.152272,0.438108,-0.291925,-0.315455,0.167837,0.264397,0.108386,0.134938,0.00791955,-0.127308,-0.189657,0.0315104,-0.423307,0.391751,0.0628834,-0.311884,0.0216834,-0.0611438,-0.269921,0.175161,-0.0221107,-0.0515,0.479492,0.0906247,0.332118,0.112568,-0.30987,0.227836,0.139088,0.279962,-0.169301,-0.19274,0.236747,-0.186117,-0.0682241,-0.395505,0.254265,0.260521,0.371883,0.359066,0.27459,-0.293817,0.0912961,0.0467391,-0.062212,-0.079638,-0.117176,-0.102802,-0.0453352,0.0464949,0.146352,0.142689,0.0252235,-0.175863,-0.20394,-0.414792,0.377529,-0.332545,0.24514,-0.494263,-0.158376,-0.210837,-0.380306,-0.3417,-0.397336,-0.428892,-0.436827,-0.403348,-0.210868,0.204581,-0.281549,-0.491211,0.0898618,-0.262566,0.103046,0.497192,-0.168661,0.132893,-0.366573,0.202597,0.277856,-0.345759,0.261406,0.0241249,-0.330744,0.3399,-0.296899,0.173147,0.272332,-0.0217139,0.385647,0.367489,0.144398,-0.441435,-0.457945,0.304071,0.420011,-0.289453,0.434629,0.437773,0.261193,-0.151418,-0.470611,-0.138356,-0.195456,-0.052324,-0.0275735,-0.417356,-0.11391,-0.491943,-0.0953246,0.483642,-0.0416425,0.461211,-0.153218,-0.447356,0.255791,0.370815,-0.481903,-0.12917,0.0412763,-0.0914487,-0.095172,0.193503,0.0833308,0.114765,0.333277,-0.212363,-0.383816,0.0207678,0.477569,0.455992,0.345912,0.194205,-0.334437,-0.427061,-0.288476,-0.337886,-0.355342,-0.482513,0.355434,-0.416562,-0.432188,-0.184378,-0.14742,0.284417,-0.0536668,-0.0329752,0.193319,0.0266884,0.495178,-0.346522,-0.0233314,0.353175,-0.248466,-0.227989,0.392331,0.154897,-0.0116733,-0.301263,0.0695975,-0.00437941,-0.150227,0.413083,0.0554064,-0.330866,-0.401914,0.158132,-0.29107,-0.270989,-0.46704,-0.438383,0.295495,0.221671,-0.327631,-0.0558641,0.0304727,0.121754,-0.058153,0.486023,0.436064,-0.28927,-0.0710929,0.173147,0.365688,-0.234519,-0.0658437,0.473205,-0.168386,0.00407422,-0.0387738,0.119526,0.15978,-0.384548,0.155934,-0.201224,-0.0635548,0.193747,0.497131,0.483062,-0.060564,-0.482208,0.0796075,-0.405637,-0.0835139,0.230369,0.28692,-0.197439,0.0116428,0.240867,0.352199,0.0122532,-0.405362,0.454924,0.451079,-0.0784478,0.284722,-0.299219,-0.264275,0.118549,0.123341,-0.459929,0.204398,0.441771,-0.472045,-0.0116123,-0.288965,0.0971557,0.43585,-0.408628,-0.435087,0.0995361,-0.134358,-0.174032,0.0570238,-0.35815,-0.321955,0.0309,0.208151,-0.330042,-0.000717185,0.232627,0.196921,0.15804,-0.122761,-0.00413526,-0.318445,0.479888,0.44937,-0.400113,0.338221,0.482574,0.452147,0.248711],[-0.0672781,-0.239921,0.431486,-0.42645,0.0378277,0.262352,-0.316858,-0.269738,-0.184317,-0.0999329,0.299585,-0.194967,0.376888,-0.142994,-0.225364,-0.0166173,-0.14388,-0.13976,-0.214316,0.0288858,-0.0897397,-0.109058,0.350032,0.369991,-0.206473,-0.416013,-0.262352,0.226463,-0.363308,-0.428617,-0.46115,-0.314539,0.0377056,0.197531,-0.0699637,-0.318812,-0.107868,0.0312662,0.175802,-0.156667,-0.359645,-0.195181,-0.036729,-0.0817133,-0.202567,0.467009,-0.237663,0.496948,-0.262169,-0.365383,-0.00621052,0.366176,-0.00340281,-0.254784,-0.194296,-0.353664,0.234184,0.456664,0.248863,-0.30755,0.249535,0.175253,0.369778,0.492309,-0.442106,-0.0481429,-0.46469,-0.167379,0.488525,-0.466369,-0.459532,0.439421,-0.0468612,-0.0782342,-0.295221,-0.122761,0.172597,-0.482604,0.41113,0.255547,0.11391,-0.33047,0.358852,0.299127,-0.0576037,0.1498,-0.102588,0.432737,-0.128376,0.000167852,0.0825373,-0.339198,0.126942,-0.255242,-0.413602,0.287378,0.414731,-0.178671,-0.14568,0.0925779,-0.428526,-0.497559,-0.103839,0.162252,0.344752,0.217215,0.235374,-0.0282449,0.350856,-0.027665,-0.228294,0.0777154,-0.107074,0.415159,0.499176,0.231986,0.351039,-0.225333,0.421323,0.129902,-0.172536,-0.261711,0.441374,-0.457945,-0.274743,-0.0380108,0.359188,-0.156178,-0.24926,-0.428037,0.00566118,0.456725,-0.287194,-0.15743,0.278314,0.202567,0.317042,0.131001,0.0266884,-0.0726493,0.00694296,-0.458983,-0.35049,-0.0116123,0.237907,0.0155187,0.408475,-0.376705,-0.170858,-0.141865,0.112781,0.429899,0.445311,0.130268,-0.311213,0.289483,-0.375637,0.462432,-0.142201,0.411069,-0.410031,0.0955077,-0.0884274,-0.41232,-0.0929136,-0.0102084,0.303461,0.379757,-0.316309,-0.273125,0.384915,-0.121998,0.18569,0.284478,-0.231254,-0.450774,0.450316,0.223228,0.0528428,-0.0536973,-0.295404,0.191397,0.276086,0.103442,-0.0846126,0.354976,-0.363277,0.258995,-0.185354,-0.223411,-0.0734733,-0.154195,-0.0778069,-0.225852,0.480193,0.292169,0.417539,0.21807,-0.172384,-0.280969,0.452788,0.40701,-0.345271,-0.145344,0.498291,-0.353328,0.320093,0.211997,-0.336482,-0.437071,0.199118,-0.454375,-0.275231,0.301874,-0.200674,0.291986,-0.399167,-0.38757,0.0802789,0.31988,0.489288,-0.0832392,-0.295892,-0.285974,-0.137837,0.292779,-0.487945,-0.251549,0.29931,-0.0213782,0.12093,-0.348262,-0.406522,-0.375546,0.471221,0.128437,-0.237297,-0.0356609,-0.313776,-0.0263222,0.432188,0.177786,0.463042,0.159383,-0.126637,0.437468,0.024308,-0.315638,-0.119373,0.0871761,-0.269921,0.369045,-0.292047,-0.211814,0.116993,-0.119587,-0.0765557,0.137074,0.371761,0.142994,-0.000656148,-0.11272,0.187613,0.365413,0.469176,0.206503,0.0189673,0.248802,0.489807,-0.060625,0.0130467,-0.239189,0.172994,0.300439,-0.367397,0.267754,0.371853,0.299982,-0.296258,-0.340571,0.416196,-0.0393231,0.000228889,0.0522935,0.0578478,-0.196768,-0.0240333,-0.373867,-0.0806757,0.434324,-0.297815,0.400296,0.120075,0.372646,-0.175069,0.384518,-0.269036,-0.107318,0.274621,-0.355098,0.355068,0.345027,-0.209342,-0.0379192,-0.307062,-0.392483,0.121937,-0.174764,0.133778,0.407804,-0.11916,-0.413297,-0.295434,0.431211,0.203635,0.429472,-0.312067,0.0288247,0.27459,0.477172,0.0496384,-0.338832,0.0942869,-4.57778e-05,0.281335,-0.19512,-0.126331,-0.149861,-0.0300455,0.0268105,0.062273,-0.390133,-0.439177,-0.214164,-0.314539,-0.219993,0.346553,-0.341456,0.352321,-0.189352,0.157674,0.0456099,0.0208594,-0.168996,-0.300592,-0.245567,0.36166,0.302972,-0.0276345,0.290033,0.333735,0.247765,0.161153,0.113147,0.16216,-0.328028,-0.354976,0.383419,0.219321,-0.0481124,-0.0651418,0.447142,-0.368282,0.19512,-0.327937,-0.216514,0.417692,0.247673,0.134419,-0.329188,-0.42114,-0.377499,-0.262993,-0.139241,-0.158132,0.440397,-0.393887,0.217521,-0.152242,0.192099,0.0393536,0.337001,0.0743278,0.283624,-0.446135,0.096057,-0.427488,-0.0676748,-0.116413,0.398129,0.233421,-0.0548265,-0.183065,-0.319575,0.490844,-0.208426,-0.206534,-0.308435,0.102618,0.0139012,-0.382809,-0.490661,0.00978118,-0.31286,-0.429319,-0.0793329,-0.321345,0.0478072,0.325495,0.103351,-0.464782,0.267144,-0.384182,0.440001,0.224845,-0.32812,0.0757622,0.160573,0.161214,0.0153966,-0.319636,-0.330714,-0.0843989,-0.45114,-0.345912,-0.232627,0.493408,0.15978,0.0964232,-0.322016,0.0471969,0.112018,0.314783,-0.313868,0.274224,-0.424009,-0.0941954,0.389187,0.164632,-0.427702,0.332057,0.431394,0.251823,0.131794,0.474334,-0.419156,0.313257,-0.132038,0.430235,0.293542,-0.0992309,-0.204428,-0.364406,0.23806,-0.417508,-0.115406,-0.495148,-0.0480514,-0.337489,-0.260521,-0.024247,0.0124668,0.383267,0.137806,-0.19689,-0.145894,0.431211,-0.140492,-0.183645,0.0406964,-0.207205,-0.158467,0.28695,-0.460753,0.226279,-0.275536,0.159597,-0.252068,0.214164,0.472076,0.120258,0.418119,-0.193655,-0.41583,0.0599841,-0.256706,0.178671,0.0741142,0.42523,0.488006,0.233482,-0.0129551,-0.0545518,0.125385,-0.395901,-0.370174,0.15453,-0.233909,-0.191305,0.291101,0.401852,-0.184347,0.258904,-0.48825,-0.286798,-0.333827,0.487365,-0.361721,-0.220817,0.147664,-0.075457,0.487976,-0.137349,-0.390866,0.236351,0.235069,0.304865,-0.178671],[0.016007,0.133625,-0.258202,-0.255577,0.0972472,0.0236671,0.173574,0.336482,-0.466918,-0.232047,-0.0417035,-0.238548,0.242637,0.195029,0.30282,0.459838,0.011124,-0.197836,-0.0875118,-0.0104831,0.271508,0.447935,-0.443175,0.138112,-0.300439,-0.45703,-0.413999,0.208823,-0.234031,0.470336,0.461272,0.316065,-0.230399,0.188559,-0.157765,0.0661489,-0.450011,-0.293786,-0.0141453,-0.481964,-0.123035,0.115314,0.209281,-0.222282,0.0529954,-0.075518,0.324702,0.3034,0.195486,0.157613,0.0800348,-0.470855,0.279931,-0.0618152,0.109455,-0.172414,-0.466887,0.0910825,0.395993,-0.267357,0.323145,-0.192404,-0.00648518,0.487426,0.0481429,-0.255516,-0.30874,0.165883,0.310846,0.482025,-0.254875,0.486358,-0.0695669,0.178091,0.387875,0.317072,-0.0073397,0.0296792,-0.172201,0.440977,-0.498138,0.364345,-0.419797,0.316065,0.31811,-0.186697,0.096942,-0.202506,0.174581,0.321192,-0.0799432,0.258538,-0.142262,-0.255364,0.492157,0.193289,0.0948057,-0.460143,-0.122456,0.20159,0.169607,-0.420896,0.125568,0.267907,-0.436369,-0.180258,-0.0740532,-0.0927915,0.217063,-0.36993,-0.302148,0.237571,0.0869015,0.430265,-0.024247,0.445799,0.284417,-0.352657,0.485687,-0.247856,-0.338954,0.47058,-0.431455,-0.252403,-0.160115,0.15624,0.124256,0.133168,-0.354274,0.148915,-0.274987,0.453001,-0.389462,0.240684,0.478027,-0.182089,-0.388394,0.0458235,0.465392,0.0370037,-0.0475936,-0.48352,-0.46942,0.480377,0.11449,0.305536,0.0248268,-0.102954,-0.328578,0.0767693,0.421262,-0.0933409,0.027604,0.0881222,0.474456,-0.177328,-0.116382,0.4429,-0.384548,0.159352,0.172018,-0.331355,-0.291253,-0.3052,-0.0732292,-0.152394,0.403226,0.322718,-0.0448775,0.00474563,-0.423368,-0.408353,0.0801569,-0.320551,0.154836,0.105518,0.28103,-0.367794,0.269555,0.353053,-0.457152,-0.0600757,-0.48352,-0.0179296,-0.0667287,-0.156117,0.105396,0.289056,-0.449675,0.285211,-0.440733,-0.293237,0.478759,0.0723441,-0.491821,-0.375881,-0.350429,0.389096,0.0720389,-0.315577,-0.201682,-0.15453,-0.0327921,0.346461,0.253594,-0.320154,-0.167959,-0.444639,0.00520341,-0.447111,0.352718,-0.00910978,0.198386,0.090289,0.250877,0.280114,0.112903,-0.426176,0.0932798,0.337642,0.13036,-0.127796,-0.441191,-0.0997803,-0.276299,-0.447691,0.166372,-0.471038,-0.405972,-0.161458,0.0648671,0.0170751,-0.148152,-0.330897,-0.455229,-0.325831,0.182089,0.0303507,0.38345,-0.302667,0.418241,0.476165,-0.0653249,0.474425,-0.0179296,0.228874,-0.329646,0.280267,-0.254662,0.13805,0.174337,0.277154,0.273522,0.302545,0.0922727,0.416746,-0.313929,0.153981,0.27398,-0.0857723,-0.332606,-0.134816,0.359066,-0.342555,0.336146,0.067156,-0.191427,0.0325785,0.288293,0.360378,-0.0583972,-0.0892819,-0.495422,-0.183798,0.184164,-0.0419782,-0.149037,-0.0649586,0.413022,-0.32049,-0.419767,-0.389065,0.0107883,-0.0879696,-0.0455184,-0.337001,0.15392,-0.243065,0.158498,-0.440611,0.0846736,0.170248,-0.0889157,0.26925,0.0908994,-0.172445,0.303156,0.260674,-0.242637,-0.33578,0.432066,-0.0763726,0.0113071,0.23571,0.181722,0.114154,-0.455657,-0.301141,0.423185,-0.197714,-0.273553,-0.122364,0.300775,-0.201651,0.469237,0.136708,-0.256249,-0.0926389,0.410337,-0.094348,0.020951,-0.391659,-0.214347,-0.0912046,-0.451933,0.325678,-0.312464,-0.451476,0.0614795,-0.472228,0.300958,0.160451,-0.308985,0.472961,-0.110523,0.415586,0.11742,0.452116,-0.169607,0.00495926,0.382382,-0.391598,-0.382565,0.233024,0.144063,-0.170034,-0.108753,-0.0635853,0.458129,-0.374233,-0.488891,0.372036,-0.243065,-0.310327,0.133839,0.310785,0.358455,-0.321741,-0.433042,-0.439817,-0.369381,0.232871,0.140614,0.466521,0.189413,-0.243797,-0.268181,0.199088,0.419401,-0.0704215,0.134022,0.213157,0.0651418,0.489807,-0.229057,0.450224,-0.330409,0.0161901,0.00996429,-0.074633,0.394467,-0.222465,-0.0608081,-0.0938902,0.243492,0.0519883,-0.235191,-0.12154,-0.256615,-0.0372784,0.331019,0.497833,-0.260277,-0.180258,0.213645,-0.203635,-0.23983,-0.441099,-0.205893,0.260887,-0.216941,0.166952,0.01442,0.253746,0.0688345,0.0355998,0.268456,-0.00343333,0.160665,-0.0315104,-0.44995,0.0117954,0.270135,-0.347377,0.466094,-0.241447,-0.419309,-0.20159,-0.0841243,0.320826,-0.439055,0.183554,0.0728324,0.14272,0.480224,-0.0475631,-0.417966,-0.397397,0.280724,0.167592,0.391415,-0.356838,-0.0138096,-0.0371868,-0.270898,-0.487732,0.248436,0.120075,0.474548,-0.0309305,0.0633106,0.374996,-0.342158,-0.456542,-0.194815,0.390866,-0.28457,0.169301,-0.147938,-0.235191,-0.358608,0.0839412,-0.345668,-0.473357,0.119007,-0.449065,0.48001,-0.0893735,0.481262,0.356349,-0.126484,0.442656,0.334223,-0.159902,0.326472,0.33343,0.445616,-0.194388,0.0396588,-0.3858,-0.484832,-0.416288,0.116291,-0.0214698,0.118274,0.16213,0.459532,0.310755,0.0963927,-0.0768609,-0.330714,0.201132,-0.363277,0.382595,-0.448851,-0.0662099,-0.216269,-0.139729,-0.289087,0.260186,0.436674,0.0616321,-0.243706,0.463347,-0.480193,-0.273034,0.0222022,0.107624,0.271905,0.320917,-0.401059,-0.319971,-0.368892,0.491546,-0.44113,0.36465,-0.489105,-0.0203711,-0.0486923,0.384487,0.378445,-0.271599,0.410001,0.424833,0.284021,-0.42581,-0.0656301,0.161672],[-0.196463,0.158864,-0.105609,0.0908383,-0.0451216,-0.0732902,-0.268853,0.463744,-0.139485,-0.293146,0.351558,0.479949,-0.120045,-0.312983,-0.0601062,-0.43997,-0.392239,0.348079,0.0999329,0.209616,-0.182333,-0.10802,0.187338,-0.466796,0.219047,0.465087,-0.262047,-0.27102,0.378201,0.320948,0.4129,-0.0971252,-0.179403,-0.279382,-0.216575,0.333918,0.338588,-0.451476,-0.0978576,-0.251335,0.0530259,-0.153615,-0.00318918,0.350154,-0.0501572,-0.139576,-0.10979,-0.328272,-0.219138,-0.41702,-0.147298,0.175588,0.00611896,0.239097,-0.444731,-0.226188,-0.357875,-0.201834,-0.216788,0.196066,-0.22631,0.250114,0.0379803,-0.115497,-0.109149,-0.144673,-0.225913,-0.138417,-0.339015,-0.166158,0.347255,0.280084,-0.367611,0.240318,0.169057,0.323695,-0.377407,-0.18688,0.363826,0.100024,0.431272,0.238731,-0.470977,-0.431028,0.426145,0.445555,-0.294153,-0.363002,0.261559,-0.0559252,0.32223,-0.340632,-0.242729,-0.267418,-0.287439,0.11214,-0.263939,0.071337,0.130146,-0.0995666,0.131764,-0.0886715,0.139546,0.103076,-0.084521,-0.197958,0.184286,0.115162,-0.277673,-0.406949,-0.119007,-0.185568,0.299371,0.369686,0.355037,-0.18218,0.411496,0.362758,-0.00105289,-0.395444,0.0174108,-0.353084,0.0745415,0.278008,0.164266,-0.369289,0.158834,-0.448912,0.485809,0.151265,0.132069,0.189932,0.298456,0.443999,-0.309534,0.282067,0.208243,-0.279901,-0.486572,-0.0890378,-0.365993,0.240928,-0.436888,-0.39639,-0.340052,0.0493027,-0.270104,-0.109607,-0.0489975,-0.256767,0.188803,-0.148274,0.308374,-0.245811,0.435209,0.184927,-0.138386,-0.47058,0.453185,-0.44055,0.00846889,0.494598,-0.107807,0.388638,-0.270714,-0.0991394,-0.132557,0.213095,0.2257,-0.180044,0.13036,0.0418256,-0.218223,0.27987,-0.330561,0.330866,0.167714,-0.0433515,-0.388485,0.165242,0.156728,0.156026,0.205863,0.499298,0.144002,0.118336,0.100909,0.0217139,0.262047,0.424161,0.282464,-0.0624866,0.190207,0.17272,-0.19451,-0.306116,0.405484,-0.4111,0.345424,0.0423139,0.308649,-0.37936,-0.100482,0.174306,-0.155141,0.425504,0.383847,0.185537,-0.140767,-0.200186,0.260796,0.433561,-0.151967,0.250114,-0.100177,0.14803,0.0796686,-0.15215,-0.411008,-0.0593432,0.49057,-0.119007,0.051561,0.318628,0.0193335,0.001236,0.27044,0.482543,-0.374966,-0.0320597,-0.335475,0.224448,-0.28927,-0.480865,-0.415098,0.190573,-0.426695,0.194052,0.0121921,0.122547,-0.349025,0.376553,-0.118793,-0.456023,0.464049,0.105304,0.306421,-0.264153,-0.234947,-0.448058,-0.275567,0.00199896,-0.104511,0.39581,0.0789972,-0.204398,0.373867,0.433927,0.212729,-0.429411,0.496338,-0.445585,-0.24865,0.0482345,0.254784,0.413297,0.442991,0.216758,-0.479858,-0.121815,-0.375484,-0.124195,-0.127033,0.0890683,-0.400204,0.298975,0.150105,-0.396115,-0.445616,0.374752,-0.0444197,-0.319086,0.388791,0.327876,-0.0689871,-0.456816,0.35345,-0.420042,0.414274,-0.0789056,-0.222922,-0.438108,-0.32635,0.304437,-0.234855,-0.217948,-0.309381,0.472167,-0.0751823,-0.0277871,0.011185,0.423124,-0.489654,0.369564,0.337733,0.0301981,-0.302057,-0.395505,0.0813471,0.103504,0.224021,0.0842769,0.415281,0.166829,-0.110614,-0.215842,0.126514,0.117206,-0.327082,0.375332,0.0146641,-0.126881,0.497101,0.00813318,0.246574,0.359981,0.0409406,-0.0191198,-0.499115,-0.431608,0.0974609,-0.494293,0.17333,-0.284387,0.477844,0.2846,0.28341,0.0549181,-0.0693228,-0.434294,0.112384,-0.211692,0.00669881,-0.334712,-0.16155,-0.288995,0.086169,-0.0703909,-0.279901,0.0953551,0.13274,-0.286126,-0.0520798,-0.117695,-0.453826,0.0777459,0.262139,0.488678,0.161824,0.345088,-0.313837,0.304193,0.0460372,-0.153005,0.426847,-0.466704,0.194021,0.0285501,-0.443022,-0.303156,-0.251274,0.0897702,-0.139088,0.348994,0.310633,0.264977,0.370998,0.0460067,0.38934,0.347468,0.396695,-0.48175,0.323908,0.397092,-0.263634,-0.299677,-0.375576,-0.289117,0.384793,0.300775,-0.184713,-0.431822,-0.130085,0.25396,-0.358425,-0.454283,-0.386044,0.0334635,0.483734,-0.271599,-0.46643,0.224845,-0.499359,0.115772,-0.378475,-0.499908,-0.442167,-0.395871,-0.0222327,0.259056,-0.234092,0.286309,0.0440535,0.159383,-0.221641,-0.0238502,-0.162954,0.321986,0.114063,0.479797,0.218558,0.0883358,-0.201346,-0.223899,-0.0630055,0.0155492,-0.187002,0.0598315,-0.489532,-0.168783,0.271294,0.417905,-0.166189,-0.241752,-0.395322,0.171377,0.100909,0.472289,0.328883,-0.187002,0.11681,0.43408,-0.0165868,0.330348,0.164663,-0.242607,0.070513,-0.391171,-0.101917,-0.42172,-0.45819,-0.04738,0.267022,-0.388424,0.270409,0.429746,0.400143,-0.199362,-0.182058,0.154408,0.424589,-0.413449,0.382687,-0.152608,0.178243,0.212027,-0.0742363,-0.266167,0.429655,0.395383,-0.104755,-0.258415,0.0202795,0.227866,-0.285943,-0.294702,-0.227378,0.0257118,-0.136402,-0.218345,-0.146748,0.306574,-0.0486618,-0.111225,0.383236,0.182394,-0.0372478,0.141285,-0.0154576,-0.285028,0.152821,-0.12392,-0.265007,0.0015717,-0.434141,0.250481,0.213309,-0.0554369,-0.316187,-0.274194,-0.00206,-0.222617,0.465484,0.0302896,-0.242027,0.0817438,-0.33108,-0.130634,-0.152211,-0.183004,0.125416,0.478423,-0.120045,-0.498566,-0.125446,-0.0429243,0.234611,-0.272271],[-0.0497604,-0.481201,0.133045,0.0511948,-0.108905,0.365261,-0.41818,-0.118824,-0.211539,-0.317377,-0.404263,-0.187796,-0.461699,0.259239,-0.411222,0.201651,0.237907,-0.486358,-0.262322,-0.40466,-0.403958,-0.220115,0.303522,0.212882,0.280236,-0.177969,0.349055,0.153798,0.129078,0.435148,-0.385281,-0.317957,-0.00215155,-0.432035,0.113239,0.431272,0.0796991,-0.0653859,-0.0422224,0.33343,-0.443541,-0.0212256,-0.405454,0.462859,-0.307886,0.35754,-0.417997,0.338527,-0.295892,-0.0829035,-0.179281,-0.396878,0.490448,-0.390805,0.389431,0.4906,0.493164,0.308405,0.283471,-0.0376751,-0.428678,0.450835,0.0924863,-0.187887,-0.121296,0.0401166,0.362423,0.117695,0.389309,-0.454924,-0.191153,-0.212027,0.495819,0.278985,-0.305963,-0.387082,-0.282037,-0.312006,-0.253899,0.331568,0.27102,-0.27279,-0.0401471,0.167257,0.0660268,-0.23513,-0.306421,0.268517,-0.059801,0.414914,0.271142,0.338221,0.493591,-0.209433,-0.0530564,0.152791,-0.381558,-0.477966,-0.382504,-0.41232,0.0527818,0.0663015,-0.309259,0.271447,0.169424,-0.486145,-0.0953856,-0.133961,-0.401975,-0.43881,0.460173,0.0651723,0.348018,0.147786,-0.157796,-0.36639,-0.22103,-0.221183,0.309473,-0.140004,0.0992615,-0.285669,0.482788,0.468749,0.432768,0.333979,-0.243797,0.0410627,0.33166,0.310205,0.187521,-0.362239,-0.360775,-0.487701,0.236595,0.0823237,-0.446348,-0.288934,-0.423795,-0.232871,-0.146687,-0.315729,-0.305994,0.23925,0.304193,0.204978,-0.0193945,0.317866,-0.245537,-0.359493,0.283105,0.0976745,-0.383786,-0.440092,-0.0973388,-0.0136265,0.0910215,0.285485,-0.0630055,-0.468322,0.261345,-0.0236671,-0.380825,-0.411344,-0.162313,-0.231498,-0.0571764,0.186727,0.149556,0.300409,-0.0822932,-0.242821,0.2416,-0.471007,0.021012,0.265313,-0.0262612,0.119495,0.103107,0.299707,0.257256,0.230399,-0.185354,0.0451216,0.296686,-0.395688,0.480743,-0.0302591,0.296594,0.443693,-0.202383,-0.162313,0.239555,0.168996,-0.191946,0.313868,0.342433,-0.00743126,0.112903,0.216971,-0.193014,-0.435331,-0.352168,-0.00645466,-0.258293,-0.149831,-0.417508,-0.477905,0.0934019,-0.374172,0.231346,-0.179373,-0.063921,-0.181906,0.4447,-0.24337,-0.438749,0.443388,0.15334,0.233695,0.20101,-0.306146,0.347987,-0.076281,-0.237327,0.426267,-0.140248,-0.19277,-0.054033,-0.188406,-0.491607,0.489288,0.125782,-0.091998,-0.392819,-0.451811,-0.332362,-0.194845,-0.126576,-0.275048,0.464507,-0.411985,-0.184957,-0.0767388,-0.463561,-0.291009,0.359584,0.472228,0.143696,0.0705435,-0.320215,0.10683,0.10329,0.301721,0.144734,-0.259972,-0.16216,-0.145589,-0.0279397,-0.247642,-0.120167,0.499573,-0.461455,0.0283364,0.278069,-0.223441,0.0521104,0.428617,-0.207297,0.293451,0.35403,0.183462,0.486206,0.253319,0.22985,0.0760063,0.428098,-0.238426,0.400815,0.14684,0.0542161,-0.385617,0.263421,0.0769829,-0.058153,0.121693,0.275597,-0.12096,-0.326716,0.423978,0.240623,0.000534074,-0.15273,-0.358669,-0.418607,-0.0834529,0.281945,0.120197,0.0699332,0.358577,-0.0340739,-0.0326395,-0.410642,0.0267495,0.2987,-0.113392,0.233238,0.494873,0.147725,0.0298929,0.454802,0.0793329,0.265618,0.300623,0.109577,0.190207,0.17861,-0.0334025,-0.405576,0.473266,0.474609,-0.277673,0.447661,0.133229,-0.0872372,-0.159841,0.220267,-0.426237,-0.223411,-0.232505,0.0541856,0.131458,-0.413053,0.0592212,-0.0996582,-0.397732,-0.434965,0.270928,-0.29046,0.493805,0.419187,0.0193335,-0.241539,-0.193686,-0.104724,-0.464812,-0.10033,-0.232261,-0.248466,-0.420621,0.219626,0.444426,-0.385403,-0.133198,0.260338,-0.278527,0.405942,0.360652,0.00444044,0.0755486,0.131458,-0.206839,0.0884579,-0.476012,-0.433073,0.475005,0.26165,-0.288171,0.294366,0.49884,-0.138936,0.0937681,0.254357,-0.0840632,0.36993,0.457884,0.0101474,-0.303888,-0.396237,-0.0341044,-0.345485,-0.188864,-0.157002,0.39758,0.0591906,-0.319636,0.444792,-0.0489059,0.280786,0.132923,0.352199,0.128162,0.435179,-0.204642,0.396359,0.258049,0.194815,-0.313501,0.0185705,0.250145,0.424894,-0.433348,-0.342433,-0.348079,-0.395047,0.0391705,0.155354,-0.209281,0.409909,0.0312357,-0.0708792,-0.315821,0.0984985,0.39172,-0.211478,-0.442625,-0.0849483,-0.0158849,0.250603,-0.372494,0.346034,0.372585,-0.426725,0.0415509,-0.407071,-0.216727,0.266015,-0.0146031,0.0803705,0.0148778,0.207541,0.253288,-0.128529,-0.42349,-0.325434,-0.378353,-0.378658,0.180227,-0.0110019,-0.29751,-0.140797,-0.180563,0.34521,0.268883,0.481628,-0.475188,-0.0501267,-0.289087,-0.487182,-0.017655,-0.346553,0.480102,0.494446,0.0186926,0.340876,0.386868,-0.481567,0.223441,-0.425626,-0.191855,-0.347987,0.495331,0.00459304,-0.347652,0.444884,-0.196493,0.209861,-0.279778,0.279626,0.408872,0.139363,-0.200766,0.392117,-0.321284,-0.321833,0.191946,0.0815607,-0.0081637,-0.436216,0.303522,-0.367489,0.306787,0.0799738,0.263298,0.291192,-0.114338,0.280175,-0.428648,0.288842,-0.447844,-0.34991,-0.0913877,0.0451827,-0.435087,0.277581,-0.165456,-0.188467,-0.342982,0.409207,-0.373806,0.402982,0.125111,0.00465407,-0.0100864,0.416257,0.0136265,-0.227012,-0.378018,0.131336,-0.36639,0.046617,-0.188101,-0.2228,0.320032,0.0601062,-0.390561,-0.443663,0.154683],[0.434049,-0.300073,0.211173,0.0945006,0.152364,-0.386044,-0.354213,-0.10448,0.0900754,-0.0925169,0.153645,0.142109,0.382809,-0.34991,-0.114429,0.077929,0.362545,-0.247002,0.0557421,0.12093,0.42169,-0.00340281,0.145985,-0.208914,-0.381771,-0.369076,-0.371578,-0.190146,-0.264824,-0.410703,0.134266,-0.230369,-0.451476,-0.298028,0.335078,-0.0198218,0.421384,-0.0788751,-0.411802,0.406339,-0.0170751,0.159413,-0.182241,0.0237892,-0.0562304,-0.217704,-0.149739,0.17748,0.374447,0.219565,-0.375851,-0.0450911,-0.161092,-0.357845,0.336543,-0.119495,-0.328639,-0.247459,0.146413,-0.474792,0.457305,0.079516,-0.01442,-0.0831477,-0.263024,0.16686,0.200766,-0.220511,0.0124058,0.440764,-0.311792,-0.33285,0.494964,0.0979492,-0.341304,-0.109272,0.177816,-0.456603,-0.167745,0.495636,-0.485443,0.100208,0.194845,0.116016,0.190695,0.0728935,-0.450743,0.0742058,-0.364254,-0.187002,0.251244,0.423734,-0.321436,0.164937,0.494934,-0.228874,-0.277215,-0.161306,-0.283044,0.456786,0.297693,-0.330409,0.0101169,0.383724,0.185202,0.478698,0.356288,-0.175802,-0.269616,0.186636,-0.167165,-0.405087,-0.374905,0.15978,-0.0814386,-0.113514,-0.141926,-0.412412,0.083636,-0.150533,-0.371792,-0.453063,0.0673391,-0.182699,0.356197,0.267205,-0.395108,0.255211,0.375332,-0.151143,0.399533,0.11858,-0.341029,-0.00224311,0.311121,-0.0349895,0.0565355,-0.178304,0.192831,0.0830561,0.169027,-0.170583,0.23516,0.373196,-0.451262,-0.455748,0.288354,0.00703452,0.081988,0.22219,0.24752,-0.217338,-0.1339,-0.268273,-0.492431,0.23336,-0.0163121,0.05974,-0.300623,-0.414945,0.0120701,-0.15923,0.147542,0.160421,-0.0245521,0.154988,-0.15331,-0.167165,0.407102,-0.000167852,-0.334193,0.452177,-0.445402,-0.452483,-0.0767388,0.278344,0.101459,-0.447142,0.427213,0.19219,-0.377041,-0.332392,-0.166952,0.0437178,-0.319636,0.033311,-0.458831,0.458525,-0.251488,-0.454588,-0.150655,-0.232871,-0.221122,0.431547,-0.240745,0.173025,0.0381329,0.420988,-0.466124,0.47644,0.220023,0.429228,0.353664,-0.259178,0.425565,0.377468,0.411435,0.415311,-0.44763,0.0614185,-0.176138,0.221397,0.202109,-0.087878,0.10921,0.161885,0.0547655,-0.368954,-0.147938,-0.0363628,0.303644,0.0501877,-0.271752,-0.159902,-0.480193,0.121174,0.0385907,-0.0411847,-0.0793023,0.112781,-0.420072,0.370937,-0.123585,0.337733,-0.373348,-0.386868,0.402127,-0.494812,-0.091998,0.421659,0.11681,0.396969,0.010239,-0.396084,0.215506,-0.016129,0.130757,-0.350124,-0.461516,-0.499969,0.344996,0.280206,0.291101,0.106616,0.00877407,-0.407285,-0.304498,0.0315714,0.229301,0.0327311,-0.371426,0.14388,-0.211173,-0.349544,0.133717,0.443785,0.166616,-0.170278,-0.289941,0.0565966,-0.118702,0.0305643,-0.315485,-0.234275,-0.0940733,-0.335108,0.322016,-0.400998,-0.27401,0.0356304,-0.0953551,0.284539,-0.427824,-0.264794,0.248436,-0.228141,0.337825,0.474822,-0.0856807,0.492462,-0.430296,0.025895,-0.359157,0.0567492,0.469909,0.17449,-0.126514,-0.4635,-0.353908,0.143818,0.187399,-0.313379,-0.196677,-0.0907163,0.416776,-0.261528,-0.319544,0.487854,-0.0948668,-0.144093,-0.23339,-0.20159,-0.208213,0.203055,0.238823,-0.00965911,-0.152547,-0.259087,-0.33343,-0.105945,-0.417905,0.313807,-0.46176,0.292749,0.353664,0.368709,0.232566,-0.425535,0.295007,-0.134754,0.0253761,-0.443052,-0.289148,-0.201559,0.412992,0.333888,0.187185,-0.276025,-0.131275,-0.411466,-0.0392315,0.283074,-0.228324,0.0689566,0.0443892,-0.401456,0.115345,0.458708,0.04738,-0.238243,-0.0288858,-0.434873,-0.21334,-0.287286,-0.342219,0.374599,-0.360225,0.441862,-0.115955,0.466735,0.442412,-0.481323,0.236778,0.422422,0.397519,0.2275,0.140339,0.297937,-0.284783,0.0594653,-0.328974,0.307215,-0.138417,0.44879,0.290918,0.316401,-0.0408185,-0.0247963,0.472259,0.400723,0.18862,0.411374,0.45114,0.0784783,0.00456252,-0.000381481,0.248039,-0.276727,-0.494385,0.0197302,-0.343928,-0.172842,-0.0374615,0.383602,-0.352779,0.40405,-0.486358,0.277337,-0.343165,0.402829,0.444548,0.110126,0.121601,0.265862,-0.00224311,0.203116,-0.421903,0.264458,-0.0922727,0.203452,0.193075,0.0898312,0.43115,-0.427763,-0.0717948,0.438688,0.111957,0.446593,0.141743,0.142109,0.404904,0.222922,-0.00462355,0.210929,-0.411191,0.443602,0.260521,-0.250389,0.0930357,-0.174459,-0.433103,0.1292,-0.00904874,-0.430784,-0.229179,-0.332911,0.241661,0.237815,-0.102954,-0.444212,-0.305658,-0.216941,-0.202658,-0.389615,-0.0191198,0.0454573,0.0265358,0.335963,0.0610828,0.21868,-0.0723136,0.286492,-0.111835,-0.0349284,-0.376064,0.335475,0.0595569,0.458068,0.361049,0.210227,-0.467254,0.471862,0.44409,-0.426908,0.161824,-0.240349,-0.2669,0.0124973,-0.192282,-0.310663,-0.113666,-0.145161,-0.0370342,-0.499329,0.176443,-0.145924,-0.0430158,0.190664,-0.109577,0.192862,-0.485473,0.0979797,-0.471282,0.053209,0.188986,0.361019,-0.367519,-0.0730461,0.495941,-0.353938,-0.32519,0.0902585,0.00801111,-0.0534227,0.0990173,-0.420774,-0.0382855,0.0756096,0.390561,-0.274804,-0.167806,0.0281533,0.288568,0.393033,0.0372784,-0.328639,0.0525376,-0.435484,-0.111499,0.0837275,-0.290582,-0.458708,0.0393841,0.214316,-0.448454,-0.310633,-0.447905,-0.330195],[-0.460814,0.27102,0.193869,-0.29519,0.00294504,-0.257561,0.120502,0.040025,0.0324564,0.0859554,0.210349,-0.371944,-0.0942259,0.484039,-0.0382244,0.0885189,-0.293481,-0.171468,-0.157735,0.285913,-0.017655,0.207602,-0.0603504,0.149281,0.446226,0.127705,0.499237,-0.373135,-0.450224,-0.466643,-0.00944548,-0.322626,0.305689,-0.417173,0.0850093,0.146107,0.0552232,0.33639,0.117054,0.0899533,0.0224464,-0.472991,-0.212241,-0.112506,-0.196585,-0.183676,0.135243,0.353847,0.313715,0.167409,0.0946226,-0.306146,-0.37051,0.0448775,-0.339228,-0.396054,-0.191519,0.0429548,-0.205222,-0.0843379,0.317866,-0.350124,-0.346797,0.441954,-0.269768,-0.434111,0.126362,-0.00788904,0.179769,0.473296,0.0898923,0.234886,0.360866,0.320582,-0.285058,0.12273,-0.0773492,-0.271355,-0.269066,0.451964,-0.365535,-0.479675,-0.199973,0.368557,-0.399014,-0.00746178,0.493622,-0.446715,-0.0583361,-0.261986,-0.437834,-0.0667287,0.0539415,-0.39407,-0.458892,-0.16982,-0.348476,0.311914,0.0379803,0.26928,0.365017,0.463256,0.48645,0.331568,-0.0764641,-0.282403,0.336177,0.365871,-0.343104,-0.0250404,-0.0941954,-0.081225,-0.392331,-0.340449,0.342677,0.354579,0.260582,0.26751,-0.275109,-0.465636,0.310694,0.343593,0.422727,0.317438,0.440825,0.498016,-0.206168,0.391446,-0.411924,0.260949,-0.0489975,-0.480163,-0.413541,0.328944,-0.135426,0.29107,0.0485397,0.417264,0.194479,0.0133213,-0.160878,-0.372066,0.151112,-0.490936,-0.137837,0.317713,0.0278787,0.0648366,-0.132893,-0.483062,0.0453658,0.270959,0.452361,-0.2322,-0.296472,-0.443938,0.00944548,0.222892,0.445738,-0.203024,-0.462432,0.014481,-0.136586,-0.210196,-0.454711,0.215354,0.187094,-0.262688,-0.0956908,0.165822,-0.0759148,-0.355098,0.180258,-0.16744,0.306818,-0.023423,0.027665,0.22747,0.387509,0.103687,0.451872,-0.266717,-0.0113376,-0.333277,0.463286,0.432981,0.372585,0.103076,-0.0299234,0.211417,0.462279,0.222678,0.184347,0.446226,-0.377987,0.151265,-0.287408,0.340754,-0.336451,0.487793,-0.0957518,-0.461943,-0.366909,0.0125889,-0.000595111,0.0495163,0.192404,-0.0523545,-0.111652,0.142811,0.00978118,-0.47412,-0.226402,0.212668,0.22045,0.482238,-0.162282,0.213767,-0.390316,-0.0216224,-0.146321,-0.342219,0.476775,-0.3717,0.154073,-0.153951,0.387265,0.184408,0.136982,-0.33459,-0.210227,0.150197,0.306055,0.391903,0.0484787,-0.383358,0.332667,-0.493255,-0.449522,-0.152821,-0.0836665,-0.0290689,0.357234,0.486206,-0.19866,-0.308374,-0.234336,0.215567,0.114948,0.453063,-0.254845,0.210379,-0.456023,-0.375301,0.355251,-0.446074,-0.448546,0.282586,-0.366268,-0.368648,0.150838,-0.295434,0.442991,0.483245,-0.0384381,-0.118091,-0.289605,-0.0495773,-0.371792,0.446898,-0.419248,0.40878,-0.0240944,0.196341,0.0743584,-0.145344,-0.496643,0.417753,0.123157,0.173727,0.377682,-0.468047,0.00672933,-0.199454,0.182913,0.273614,-0.358638,0.196432,-0.44116,0.480407,0.444945,0.488098,0.17275,0.261559,0.450835,-0.372768,0.477294,-0.345149,0.342219,-0.398648,-0.192312,0.20043,-0.296014,-0.445128,0.396359,-0.432371,0.300501,-0.011063,0.237449,0.0521409,0.0918149,-0.110706,-0.496094,0.10918,-0.274438,0.31933,-0.474639,0.11919,0.478057,-0.120991,-0.0178991,-0.391964,0.302484,0.357875,0.215018,-0.307764,-0.493194,0.232719,-0.314692,-0.38995,0.225639,0.0974303,0.313898,-0.29226,0.306696,-0.443052,-0.221183,-0.458556,0.43527,-0.16747,0.108509,0.288934,-0.380276,-0.0571459,0.341304,0.429685,-0.470275,0.0974303,-0.173788,0.308802,-0.23513,0.171621,0.102588,-0.0124058,-0.118641,0.212241,0.0396588,0.25634,0.295892,-0.0705741,0.195486,0.455077,0.344172,0.00178533,0.354183,0.47,0.415708,-0.474578,-0.0150304,0.00636311,-0.37579,-0.395291,-0.280023,-0.306757,-0.256279,0.304651,0.329035,-0.0248268,-0.407468,-0.440489,-0.175619,-0.0648671,-0.356777,0.291803,-0.214713,0.415006,0.408444,0.197226,0.27749,-0.383145,0.325404,-0.167135,0.238914,0.262322,-0.403073,-0.107074,0.406339,-0.313257,-0.151112,-0.357143,-0.0354167,0.241447,-0.479186,-0.271264,-0.0730461,-0.0887631,0.260979,0.415677,0.0991089,-0.0310221,-0.0217444,-0.0330363,0.305841,0.284783,-0.212912,0.367672,-0.343837,-0.473174,0.0202185,-0.217063,0.127766,0.316706,0.146504,0.334925,0.440825,-0.48352,-0.121632,-0.130329,0.081164,0.102557,-0.285394,0.428343,-0.0585192,-0.366604,-0.400601,0.448454,-0.401456,-0.48236,0.15566,-0.0379498,0.292688,-0.488403,-0.0888546,-0.396207,-0.16924,0.0246742,-0.371548,-0.329554,0.229759,0.286462,0.284173,-0.273522,0.175832,-0.490967,-0.376797,0.218162,0.15804,0.205039,-0.275384,0.138966,-0.168264,-0.269616,-0.478851,-0.308374,0.304041,-0.0641346,0.412076,0.0149998,-0.431913,-0.19216,-0.0695975,-0.0551317,-0.234001,0.396878,0.456389,-0.0378277,0.403775,0.0359661,-0.297113,0.0501267,-0.0759148,-0.298639,-0.154012,-0.161153,0.0661794,-0.280145,0.0186315,-0.420743,0.30282,0.0438093,0.0383465,-0.155232,0.19396,0.340693,-0.368801,0.265252,0.311731,0.124653,-0.0637074,-0.427427,-0.289758,-0.216117,0.0939818,-0.480926,-0.361324,0.176351,0.12981,-0.359035,-0.441465,0.185263,0.306604,-0.335963,-0.310511,0.477447,0.131245,0.10448,-0.4241,-0.15389],[0.00593585,-0.416196,0.373623,-0.0872066,-0.282678,0.0330058,-0.119861,-0.240684,0.357021,-0.0668203,-0.127674,-0.448271,-0.19097,0.196829,0.493194,-0.119526,-0.0656301,0.150624,0.376125,-0.0319987,0.183157,0.466338,0.225394,0.492309,0.370449,0.234611,0.162618,0.00141911,0.406125,-0.262505,0.00538652,-0.424741,0.498077,-0.129139,0.154775,-0.435728,-0.147938,-0.0369121,0.345515,0.0998108,0.293939,-0.297266,0.160604,-0.324671,0.0109714,0.304224,0.372738,0.377987,-0.448454,-0.390469,0.443297,0.166463,0.262597,-0.295618,-0.40173,0.0513169,0.262658,-0.343532,0.000656148,-0.456267,0.153493,0.246391,-0.315241,0.26986,-0.0905026,-0.0488144,0.309809,-0.258507,-0.284753,0.331507,-0.458831,-0.397305,0.169149,-0.230338,-0.446928,-0.245262,-0.386441,-0.217917,-0.21395,-0.304621,-0.36874,0.234794,0.417875,-0.205618,0.184805,-0.189535,0.216636,-0.459868,0.484497,-0.251183,-0.0154271,0.0410932,-0.39404,0.234947,-0.343013,0.332484,0.398495,-0.298242,-0.127705,-0.330927,0.427091,0.493866,0.261773,0.204093,0.434416,-0.0123142,0.0859859,-0.465484,-0.0863216,-0.0192724,-0.445433,-0.405057,-0.0191809,0.374905,-0.160756,0.337794,-0.250908,0.36755,0.455626,-0.30166,0.113483,0.228813,-0.158101,0.0652638,0.100848,0.011948,-0.226005,-0.291589,0.116138,0.0782037,-0.160756,0.15215,0.120319,-0.13216,-0.0884884,-0.311853,0.107807,-0.0216834,-0.186758,0.493408,-0.0432905,0.259941,0.365139,0.108051,-0.423124,-0.173421,-0.173605,0.192801,-0.17333,-0.216971,0.352474,0.100238,-0.111469,-0.184011,0.493957,-0.446287,0.247429,0.352321,-0.465636,-0.327967,-0.157094,0.0248573,0.228599,0.398099,0.249199,-0.0204627,0.145466,0.377499,0.231132,-0.170644,0.0237892,0.484466,0.0501877,0.159902,0.434721,-0.0460677,0.27282,-0.144398,-0.226829,-0.0609607,-0.415189,-0.314905,0.0516831,0.150746,0.351405,0.0457625,0.198447,0.479614,-0.354061,-0.315607,0.0932798,-0.209067,-0.321802,0.239921,0.0753044,-0.431974,0.329615,-0.318201,-0.139637,-0.43994,-0.287103,-0.227256,-0.292627,0.131672,0.0115818,0.0835749,-0.487518,0.490478,-0.383267,0.0690786,-0.0216224,-0.129536,0.382321,-0.0134129,0.34048,0.0545213,0.0987732,-0.11214,0.316553,0.170125,0.463286,0.108936,-0.258538,0.258141,-0.0765557,0.016831,0.0592822,0.4588,-0.00267037,0.329218,-0.247551,-0.389859,0.157338,-0.435667,0.0793023,-0.156453,-0.247063,-0.159291,-0.0175939,-0.321039,-0.464965,0.259545,-0.216636,-0.161611,0.00761437,0.189047,0.0349284,-0.0665151,-0.0338908,-0.0610828,0.306116,-0.440855,0.239738,-0.292169,0.302484,-0.465636,-0.00721763,0.42468,-0.264763,-0.48825,-0.152364,0.371731,0.418485,0.139271,-0.371853,-0.400998,-0.213309,-0.321925,-0.0671865,-0.406919,-0.319788,0.458373,0.460479,0.236808,0.41464,0.286859,0.488159,0.223746,0.412137,0.301935,0.313746,0.139027,0.29989,0.48471,-0.323908,-0.353633,0.0930052,0.152882,0.0601367,-0.186422,-0.0196387,-0.053148,-0.216605,0.154347,0.0851924,-0.382138,-0.121479,-0.0773186,0.181143,-0.368587,-0.44937,0.442961,-0.204306,0.287011,-0.412015,0.230216,-0.341273,-0.159505,0.310053,0.138813,0.0994446,0.186209,-0.439299,0.334071,-0.133625,-0.0910825,-0.338099,-0.496185,0.295068,0.307825,0.0187536,-0.373318,0.0181433,-0.463317,-0.374294,-0.0242164,0.321863,-0.0273904,-0.237785,0.248863,-0.305902,0.340907,-0.11092,0.0819575,0.241447,-0.41995,-0.422056,0.499481,-0.182882,0.381069,-0.157002,-0.452574,-0.109241,-0.190054,-0.0500351,-0.333003,-0.269585,-0.237297,0.0553453,0.201376,-0.248741,-0.047441,0.486969,0.489807,0.223197,0.0255287,0.165975,0.268395,0.1068,-0.209525,0.461303,0.337642,-0.281487,-0.288812,0.0823237,0.116688,0.288629,0.203452,0.280145,0.297418,-0.434538,0.427427,-0.143452,0.36523,-0.4035,-0.0314188,-0.492401,0.11156,0.320948,-0.0186315,-0.4476,-0.0126499,-0.293909,0.219169,-0.173879,0.293085,0.246391,0.100879,0.266839,-0.494598,0.0774712,-0.354671,-0.129322,0.233177,0.453642,-0.224387,0.387387,0.275292,0.176412,-0.108875,-0.438932,-0.0647755,0.289544,0.280206,-0.228599,-0.259575,-0.24633,0.0859859,-0.153096,-0.174581,0.418851,-0.419217,-0.320124,0.121998,-0.422514,0.379452,-0.0199438,0.458831,0.378048,-0.0570849,-0.416196,-0.0894345,-0.096118,-0.0330058,-0.0922727,0.403714,0.00614948,0.466796,0.383755,0.0110324,-0.161763,0.132679,0.0786309,-0.160756,0.269768,0.304956,0.462951,-0.400143,0.160543,-0.167104,-0.343074,-0.35638,-0.00877407,-0.138264,0.465911,0.0415509,0.42526,-0.00663778,-0.356227,0.14922,0.227134,-0.0270852,0.136952,0.468108,-0.172689,0.207663,-0.137288,7.62963e-05,-0.419706,-0.458403,-0.23162,0.42819,-0.275414,-0.173757,-0.256493,-0.492248,-0.426389,-0.496246,-0.0312357,-0.48468,0.36874,0.376797,0.386563,0.441496,0.380978,0.253075,0.353786,-0.270806,-0.0566881,0.148122,-0.2687,0.179525,-0.277001,-0.455077,-0.302515,-0.380215,-0.424345,0.234458,-0.0290994,0.28515,0.058977,-0.035905,-0.323481,-0.215873,0.335627,0.0815607,-0.054033,0.356288,-0.0875118,-0.480193,-0.340968,0.404172,0.382382,-0.090228,-0.328455,-0.236473,-0.0982543,-0.124531,0.413968,-0.215629,-0.0301981,-0.416501,-0.0486618,-0.0463424,-0.146229,-0.238609,-0.0739311,0.450621],[0.457335,0.445158,-0.123798,-0.300043,0.229026,-0.367641,-0.367153,-0.446196,-0.204215,-0.444731,0.348201,0.366329,-0.0515305,0.397794,0.0474715,-0.210959,-0.283563,0.239769,0.493896,0.36813,0.392148,-0.179067,0.399899,0.157704,0.252556,0.312738,-0.499023,-0.436857,0.225333,-0.230857,0.489715,-0.322474,0.437712,0.16689,0.489105,-0.45465,0.098468,0.169149,0.123951,-0.317438,0.315241,0.341334,-0.361934,-0.0590686,-0.198019,-0.155843,-0.20571,0.258293,-0.464599,-0.107288,0.169118,-0.301202,-0.0809503,0.174398,-0.25576,0.155751,-0.148427,-0.442228,0.36935,-0.0533311,-0.299982,0.283135,0.443052,-0.30987,0.0317545,0.117389,-0.289026,0.37463,-0.0726493,-0.17684,0.217521,-0.431883,0.328272,-0.103809,-0.190939,0.247642,-0.405271,-0.49939,0.00132756,-0.000808741,0.495148,0.476318,0.0164647,-0.43762,-0.299341,0.0427717,-0.193564,0.0516831,0.234397,-0.199728,0.280297,0.236229,-0.243248,0.170339,0.00379955,0.354946,0.0655995,-0.165273,-0.461882,-0.421445,0.371822,-0.393826,-0.405026,0.0585192,0.0583972,0.278405,-0.294946,-0.380825,-0.13094,-0.151936,0.0661794,-0.423032,-0.0992309,-0.177419,-0.244621,0.121662,-0.396054,-0.335322,-0.0721915,0.31579,0.213004,0.44409,-0.356044,-0.448088,-0.448515,0.351588,0.373592,-0.415738,-0.207022,-0.00721763,-0.136891,-0.0791803,0.39816,0.132282,-0.000686666,-0.151051,-0.433439,0.222465,-0.00657674,0.0262917,-0.188253,0.0605335,-0.450682,0.423307,-0.425748,-0.479278,-0.203238,-0.311914,-0.401914,0.183035,0.199179,0.101764,0.268853,-0.386227,0.248009,-0.219596,-0.19863,-0.232719,-0.265038,-0.36639,0.0623341,0.441465,0.40231,-0.340022,-0.310144,-0.0907468,-0.389554,-0.0833918,0.392972,0.310327,-0.0674612,0.0426801,-0.480651,-0.402463,0.218345,-0.436613,0.40173,-0.358974,0.0456709,-0.114307,0.393674,0.247459,-0.267418,-0.205985,0.0272683,0.0414899,0.483764,0.372982,-0.086993,0.332301,-0.0161901,-0.480438,0.000442518,-0.13625,0.151662,-0.22393,0.150472,-0.00648518,-0.264306,-0.386288,0.208579,0.173025,-0.171071,0.295312,0.00218207,-0.152974,0.00483718,-0.458403,-0.26223,0.344783,0.0347148,-0.364681,-0.222739,-0.214621,-0.301935,-0.263054,-0.332362,-0.0824458,0.385708,-0.324946,-0.0923337,0.139241,0.17864,-0.446745,0.0561388,-0.347377,0.331233,0.185385,0.481353,-0.0208899,-0.0364544,-0.43881,0.424192,0.0159154,0.425993,-0.477813,0.187918,-0.086169,0.263268,0.151479,-0.11214,0.116932,0.304926,-0.403989,-0.444639,-0.232414,0.281121,0.481628,0.248924,-0.155171,0.236534,-0.444884,-0.175527,-0.225883,0.468047,0.499084,-0.116199,-0.133259,0.14745,0.101459,-0.20687,-0.147542,0.477538,0.445189,-0.120655,0.00563066,-0.0479598,-0.483795,-0.0041963,0.215506,-0.0568407,0.393002,0.0827509,0.0313883,-0.296075,-0.0601367,0.372951,0.00505081,-0.0550401,-0.488098,0.364376,-0.0908994,0.0215918,0.298181,0.215384,0.104816,-0.248009,0.244133,-0.269799,0.481841,-0.150746,-0.173025,0.353755,0.0785089,-0.141285,0.425474,-0.0500656,-0.0465255,-0.474242,0.33636,-0.39346,0.157064,0.0418256,-0.401914,0.290124,0.296838,-0.0422224,0.435759,0.0785699,0.186392,-0.35992,-0.00663778,-0.463713,0.365841,0.352168,0.286828,0.0715812,0.180898,-0.2734,-0.0675832,-0.2369,0.40051,0.265862,0.361263,-0.214835,0.462218,-0.416684,-0.474334,-0.138966,0.465423,-0.249474,-0.0398114,-0.331629,0.266137,-0.436491,-0.0298929,0.421903,0.347835,0.37582,-0.307428,0.233512,0.0859554,-0.0189978,0.197623,0.426634,-0.150472,-0.210654,0.259697,-0.484985,-0.40289,-0.244743,-0.319544,0.42233,0.280297,-0.323817,0.474883,0.468566,0.000778222,0.0813471,-0.184957,0.0117954,0.058977,-0.202048,-0.115101,0.00361644,-0.0501267,-0.0843684,-0.00941496,-0.2004,0.167867,0.273522,0.384548,0.0294046,-0.148457,-0.314722,-0.322718,0.24456,0.21746,-0.40228,-0.374996,-0.250603,-0.171957,-0.463897,-0.294946,0.470611,0.340632,-0.430418,0.255913,-0.328242,-0.222434,-0.32165,-0.247551,0.38641,-0.129749,0.290033,-0.0310221,0.383114,-0.427244,-0.118061,-0.486724,-0.294885,0.444853,0.469817,0.246666,-0.0497604,-0.40643,-0.202231,0.45291,-0.370296,-0.112476,-0.199088,-0.421537,-0.23336,-0.0890072,-0.151357,0.187948,0.194388,0.242332,-0.093524,-0.292993,0.0976745,-0.36404,0.177725,0.0643788,-0.318873,0.311182,-0.4588,-0.402463,0.318415,-0.411954,0.447874,-0.371059,0.0635853,-0.31991,0.163717,-0.263054,-0.163625,-0.143971,-0.0426801,-0.309626,0.277673,-0.2069,0.289941,0.121265,-0.297876,0.482665,0.188284,0.317896,-0.334773,0.153829,-0.276727,0.011887,0.144826,-0.206046,-0.240837,0.399655,-0.326838,-0.373012,0.339991,-0.0297708,0.172842,0.41174,-0.360195,-0.462706,0.188864,-0.429746,-0.400967,-0.084521,-0.356349,0.394589,0.250877,0.435606,0.443388,0.42056,0.320765,0.279748,-0.0122227,0.444182,0.347102,0.377987,-0.0449995,-0.430296,-0.0580309,-0.373318,-0.488281,0.464904,0.0402387,0.345271,0.141377,-0.0915098,-0.411924,0.150868,-0.150166,0.273217,-0.261071,0.151112,0.382138,-0.488189,0.0654775,0.0742058,0.294244,0.278344,0.363186,0.0342265,-0.0348979,0.153554,0.345546,0.124104,-0.199149,-0.169118,-0.296594,0.086932,0.380337,0.317255,-0.383023,0.153432,0.188711,0.472625],[0.410367,-0.0993835,-0.210898,0.0642567,-0.128407,0.120777,-0.117359,-0.244194,0.432279,-0.0597095,-0.122852,0.356868,0.00679037,0.193167,-0.0106662,0.333827,-0.335688,-0.423582,-0.275231,0.48883,0.33459,0.0263527,-0.247826,0.163503,0.412015,-0.341945,-0.0546739,0.285272,0.472472,0.273614,-0.470855,0.153493,0.0241249,0.418363,-0.34756,-0.371334,0.100513,-0.387234,0.41934,-0.25985,-0.0530869,0.339747,0.384976,-0.00703452,-0.204367,-0.389767,-0.12389,-0.316095,-0.229392,0.212241,0.115619,-0.46881,0.495788,-0.297815,-0.270043,0.119465,0.449309,-0.15923,-0.356532,0.0909604,0.282128,-0.367519,0.121693,-0.0402387,0.365261,0.484649,0.0728324,-0.332789,-0.188803,-0.329218,-0.348079,-0.272301,0.21395,0.462554,-0.0166478,0.120228,-0.398801,-0.401914,0.207785,0.177511,-0.461364,-0.0875729,0.197073,-0.454527,0.112598,-0.113666,0.257622,-0.408689,0.148488,0.435087,-0.330134,-0.309595,0.367031,0.0840632,0.478668,-0.249199,0.395016,-0.249779,-0.141194,0.119495,0.233451,-0.309442,-0.437162,-0.456175,0.0797906,0.45877,-0.299402,0.459624,0.0561083,0.17333,-0.0533311,-0.400021,-0.353816,0.455168,0.125446,-0.17275,0.309046,-0.0468307,-0.0479598,-0.491821,0.257195,0.0452132,0.436155,-0.354701,0.409879,0.490356,0.145772,0.407956,-0.364132,-0.257225,-0.149739,-0.104541,0.0175939,0.477996,0.237846,-0.00874355,-0.483581,0.144185,0.146382,0.392575,0.198355,-0.0659047,0.0296792,-0.204581,0.447905,0.227165,0.276696,-0.422605,-0.338496,-0.0905026,-0.334162,0.13805,-0.442839,0.0727714,-0.204581,0.49881,0.31991,0.356319,0.0567187,0.293054,-0.143269,0.187368,0.321436,0.0408795,-0.363063,-0.325495,0.350398,0.303339,-0.266442,-0.178518,0.00666829,0.120563,-0.00608844,-0.220328,0.118274,-0.363735,-0.493072,-0.142232,0.314478,0.0531785,-0.196707,0.167714,0.361538,0.0561693,-0.26397,0.0648976,-0.25161,0.338343,0.132374,-0.255181,-0.217978,0.472961,0.381558,0.144551,0.0574206,-0.0749382,0.499908,-0.124165,0.0971862,0.440062,-0.0167089,-0.171071,-0.0216529,0.389798,0.226463,-0.091876,-0.0856807,-0.259697,0.369747,-0.0778985,0.361293,-0.0132298,-0.0999023,-0.371639,0.481079,0.001236,-0.110157,0.498962,0.391934,-0.359035,0.259972,0.0188757,0.19509,-0.406186,0.29461,0.172109,-0.241905,0.259239,0.0592517,0.217643,0.381161,0.0324564,0.43582,-0.344142,0.0634632,-0.200308,0.251854,-0.176626,0.387631,0.0881222,0.215537,0.206778,-0.18511,-0.100452,0.134022,0.305017,0.114765,0.475036,-0.133992,0.0481124,0.176504,-0.404874,-0.0788751,-0.344264,-0.310236,-0.0950804,0.0326395,-0.0402997,0.28106,0.0635548,0.112262,0.373074,0.19277,0.188528,0.0743889,-0.490326,-0.13979,-0.148366,-0.259148,0.393826,0.272454,0.493927,0.297052,0.260857,-0.46115,0.263939,0.0334635,-0.34698,-0.33224,-0.327235,0.477783,-0.403165,0.172628,0.487243,0.429136,-0.0644093,0.269402,-0.12212,-0.169424,-0.213889,-0.210562,0.433195,-0.156117,-0.105396,0.0428938,-0.110858,0.213248,0.101581,-0.382534,-0.297876,0.424711,-0.348903,0.323481,-0.320154,0.19512,0.131458,-0.404752,-0.394711,0.139241,0.307428,-0.0453047,-0.291925,0.214286,0.356899,-0.200613,-0.0870235,-0.36462,-0.22338,0.483489,0.0294656,-0.320002,-0.421537,-0.0682852,-0.0322428,0.204978,-0.0565966,0.382321,0.344783,-0.180624,-0.107044,0.165242,0.439421,-0.169729,-0.22103,0.392361,0.328608,0.135029,-0.169332,-0.109943,0.011124,-0.302576,0.306635,-0.0138707,0.327509,0.165517,-0.383541,0.266655,0.00410474,0.0962706,0.235466,0.0236976,0.360347,-0.488464,-0.042497,0.355312,0.0965758,0.483795,0.0865963,-0.160085,0.316248,-0.146504,0.286584,0.159413,0.0950194,-0.123859,0.328944,-0.0305643,-0.306116,0.284356,-0.0626087,0.492462,-0.0174108,0.48526,-0.481323,0.298639,-0.142567,0.0195471,-0.2463,0.406827,-0.24691,0.396146,-0.348689,-0.0711539,-0.0431684,0.364406,0.284265,0.132435,-0.263909,0.208792,-0.100818,0.467009,0.258263,-0.364956,-0.216239,0.233268,0.0928831,0.148824,-0.465941,0.376339,0.0184484,0.214194,-0.279595,0.218955,0.190329,0.137165,0.243522,0.451933,-0.494537,-0.274834,0.37344,-0.241539,0.309961,-0.439695,0.029252,-0.0165868,-0.253929,-0.367122,-0.497101,-0.182913,0.135853,-0.434751,0.430204,-0.146535,0.099353,-0.259087,-0.167592,0.240349,-0.265069,0.434263,0.218863,0.444395,0.0107883,-0.114063,0.287866,0.367672,-0.291894,-0.450713,0.40463,-0.116962,0.149037,0.462798,-0.140919,0.425657,-0.411954,-0.133992,0.109851,0.38583,0.21633,-0.21099,0.191397,-0.416288,-0.008652,-0.190695,0.467284,-0.234062,0.108051,-0.368526,0.184744,-0.357234,-0.106494,0.0643178,0.307184,0.099414,0.096118,0.0908078,-0.0446333,0.485168,-0.310877,-0.169179,0.356075,0.146565,0.00849941,0.0442061,0.14333,0.456969,0.238456,0.128864,-0.304804,-0.0876339,-0.0388348,-0.338832,-0.475402,0.281915,-0.190329,0.0751823,0.0806146,0.458159,0.192312,-0.180898,-0.393307,-0.124592,-0.0250099,-0.0848567,-0.0302896,-0.166768,-0.339717,0.114765,0.406034,-0.34048,-0.0689261,0.495239,-0.210593,-0.171926,0.42822,-0.458953,-0.438414,0.347438,0.26513,0.225608,-0.328333,-0.320582,-0.208853,0.0660573,0.237663,-0.00480667,-0.0186621,0.227561,0.363491],[-0.158315,0.327723,0.168325,-0.489624,-0.4841,0.152516,-0.0632496,-0.158742,0.495911,-0.454283,-0.0742668,0.0250404,-0.467833,0.307459,0.494049,-0.0616321,0.00852992,-0.425535,-0.394131,0.30636,0.383938,0.357234,-0.495056,0.335108,-0.100146,0.116932,0.0251015,-0.387387,0.453795,-0.125538,0.488006,0.087817,0.0353252,-0.0731376,0.00566118,0.27047,-0.0563829,0.027604,-0.0337077,0.476287,-0.226859,0.146962,0.147176,0.146657,-0.19396,0.409665,0.0113376,0.0695669,-0.411924,0.139973,0.164846,-0.0343181,0.181753,0.246361,-0.271722,-0.25454,0.364101,-0.477172,0.430418,-0.311182,-0.324396,0.350581,-0.16744,0.11156,0.365169,0.0368816,-0.463347,0.133778,-0.0254067,-0.372738,-0.417386,-0.354213,0.340175,0.0876949,-0.292535,-0.122639,0.446043,-0.0403607,-0.233604,0.170797,0.367306,-0.353359,0.497925,-0.4494,0.199271,0.169301,0.492309,-0.22103,0.0511948,-0.137715,0.279077,-0.199301,-0.340052,-0.441771,0.29104,-0.116688,0.16567,0.126728,0.0554064,-0.00675985,0.452025,-0.430143,-0.0870235,0.33755,-0.378903,-0.151265,-0.355251,-0.0215003,0.255242,-0.0719779,-0.0146641,-0.347682,-0.260308,0.0830866,-0.191672,-0.0613575,-0.454955,0.435087,0.388119,0.306787,-0.496582,-0.455016,0.13039,-0.322871,0.0277261,-0.392544,0.190634,-0.428434,0.43234,0.237144,-0.0931272,-0.307398,0.0114902,0.278466,0.262688,-0.0739311,-0.0754265,0.454436,0.127766,-0.334651,0.416288,0.453551,-0.219687,-0.0913266,-0.174764,0.495117,-0.301477,0.154012,-0.0661794,-0.0718558,0.397794,0.453887,0.333827,-0.251946,-0.490112,-0.318903,0.224479,0.134114,-0.202658,0.136067,-0.191397,-0.393704,-0.0134129,0.295343,-0.179067,-0.192404,0.465728,-0.0899228,0.34344,0.282586,0.415189,0.102283,-0.275567,-0.270165,-0.266625,0.490539,0.429685,0.304468,-0.0197302,0.396603,-0.419553,-0.0619984,0.0839717,0.450285,-0.0580309,0.226432,-0.342372,-0.0122532,0.0332804,0.429807,0.220634,0.0767693,-0.356288,0.313105,0.418851,-0.139058,0.413419,-0.463134,0.248833,0.0844295,0.362697,-0.0891903,-0.429502,-0.107135,0.0397504,0.130787,0.227683,0.0806146,-0.499939,-0.348476,0.244896,-0.219657,-0.142933,-0.427061,-0.333827,-0.385617,0.183798,-0.0514389,-0.446959,-0.175314,-0.331538,-0.427213,0.0977355,0.480407,-0.251244,-0.252678,-0.129933,-0.328974,0.179556,-0.308588,-0.167653,0.170553,0.364864,0.282037,-0.136708,0.0512558,-0.290399,-0.0720084,0.367,0.224784,0.174215,0.38345,-0.305811,-0.243675,0.316034,0.238456,0.205283,-0.422239,0.127857,-0.293329,0.151662,-0.348048,0.424741,0.124042,-0.343532,0.412626,-0.0294046,0.0211035,0.0990783,0.138173,-0.0516831,0.167501,-0.333644,-0.421751,-0.063036,0.333125,-0.207724,-0.197165,-0.039964,0.423643,0.289422,0.497711,-0.0309,0.2004,-0.28576,0.0797601,0.401212,-0.140584,-0.148152,-0.192251,0.077105,0.105914,0.1068,-0.227287,-0.00306711,0.179006,-0.397732,-0.377956,-0.105213,-0.148549,-0.472564,-0.061449,-0.281671,-0.36343,-0.403195,-0.356685,0.395657,-0.185965,-0.325343,-0.00807215,0.0610523,-0.0318155,-0.00331126,-0.120045,-0.497894,-0.48233,0.364895,-0.0432295,-0.203207,-0.481506,0.397214,-0.468993,-0.24691,0.00746178,-0.115772,0.0764336,0.0436567,0.344295,0.128986,0.386441,-0.0205237,0.229209,-0.135609,-0.435789,-0.388577,-0.0180212,-0.35638,0.0907773,0.141896,-0.232383,0.315973,0.0703909,-0.359798,0.0320597,0.326746,0.219443,0.154134,-0.0549181,0.0511032,0.272698,0.122639,-0.298364,0.309778,-0.120106,0.387692,0.465392,0.131092,-0.0175024,0.13628,-0.394986,0.24807,-0.0827509,0.467162,0.425657,0.409146,-0.11504,-0.358486,-0.462554,-0.0877865,-0.0533616,-0.354183,-0.174795,0.260735,-0.444975,-0.151143,-0.103168,-0.483123,0.350185,-0.106494,-0.0567492,-0.0767693,-0.0269021,-0.223075,0.231956,-0.300623,-0.122974,-0.193228,-0.0962401,-0.0467696,-0.41232,0.295923,0.0249794,-0.47702,0.415494,-0.394101,0.369503,-0.433592,0.388333,-0.108966,-0.0713675,-0.184866,0.342524,-0.312983,-0.194998,-0.34991,0.445067,-0.0395672,-0.190207,0.00236518,-0.315912,-0.300195,0.25634,0.0743278,0.151448,-0.360927,-0.132069,-0.487304,-0.187979,0.227012,-0.374111,0.425901,0.147481,-0.296442,0.452116,0.475585,0.0694449,-0.301386,0.375698,-0.231559,0.394192,-0.0390484,0.355312,-0.206809,0.0126499,-0.426206,-0.339167,-0.274071,0.0155187,-0.168844,0.25573,0.0576037,-0.391324,-0.38403,0.366298,-0.489471,0.18218,-0.362362,0.0813776,0.0278481,0.0782647,0.132191,0.0588244,-0.436705,-0.440886,-0.334925,-0.49469,0.491729,0.320978,-0.400723,0.462432,-0.248985,-0.169301,-0.0508896,-0.354122,-0.0406659,-0.395871,-0.154256,-0.193594,0.370296,-0.28695,-0.138844,-0.312311,-0.380947,-0.224235,-0.132954,0.418729,0.452727,-0.0990783,-0.130024,0.100848,-0.0600757,-0.157796,0.376522,-0.14156,-0.340205,0.354122,-0.433317,-0.270348,-0.476501,0.220573,-0.119617,-0.492615,0.391507,0.0775323,0.200156,0.118,-0.417753,0.320185,0.391446,0.490936,0.086932,0.266228,0.345027,0.426847,0.387265,-0.434049,-0.320948,-0.0660573,-0.424131,-0.092822,0.0485397,0.373959,0.325312,0.381832,-0.229972,0.332942,0.333216,0.389523,0.153859,-0.140828,0.379238,0.487243,0.271264,-0.482543,0.48764,-0.495972,0.232871,-0.468108],[0.253014,0.149403,0.359279,0.468139,-0.172353,-0.282922,0.194845,0.120838,-0.126453,-0.449309,-0.398007,-0.123585,0.149129,0.225059,-0.243156,0.191519,0.410611,0.351833,0.193869,0.23574,-0.313715,-0.172292,-0.130146,0.456175,-0.471129,-0.12273,-0.0693228,0.374752,-0.0775628,0.466369,0.230979,0.367885,0.251823,0.287011,0.0763726,-0.101337,0.108417,0.443571,0.443663,-0.247642,0.314112,0.0352641,0.281732,-0.495636,-0.455687,0.00987274,0.222556,0.340266,0.389676,0.227409,0.317469,-0.262597,-0.27456,0.289178,-0.265252,0.0462203,-0.0831782,-0.357479,0.0669729,-0.461547,0.166219,-0.0361187,0.0632191,-0.21691,0.301294,-0.497101,0.112262,0.291864,-0.439634,-0.187887,0.0715201,-0.461974,0.00788904,-0.39407,-0.309717,-0.358577,-0.314814,0.081225,-0.0618458,-0.466155,-0.400998,-0.081164,0.440367,-0.328669,0.273919,-0.492279,-0.0719779,0.379116,-0.0831782,0.418302,0.22158,-0.46527,-0.468017,0.0210425,-0.0665151,-0.277123,0.422483,0.0237281,0.41644,-0.464934,0.119098,0.395352,0.406034,-0.0628834,0.11745,0.0489669,0.379879,-0.299127,-0.439787,-0.0444502,-0.0475631,0.331782,0.0446028,-0.131458,0.293542,0.130085,-0.23397,-0.414731,-0.107685,0.151448,0.238853,0.396023,-0.088702,-0.463317,-0.143666,0.286035,-0.385678,0.238914,-0.397458,0.257714,-0.465209,0.436918,0.499481,0.403928,0.0428327,-0.463347,0.471923,0.227378,-0.281243,-0.039903,-0.131397,-0.136341,-0.487213,0.0493332,0.0769524,0.432981,-0.148305,-0.441038,-0.243431,0.147969,-0.171041,0.450072,0.0262001,-0.30578,-0.374294,-0.276208,-0.219779,0.440703,0.193472,-0.0680105,-0.392605,0.298608,0.198874,-0.347926,-0.305383,-0.0266274,0.260643,-0.499176,0.101428,-0.497833,-0.234794,-0.0464644,-0.255333,0.481628,-0.496429,0.132496,0.210623,-0.153951,-0.0265358,-0.0259865,-0.237602,-0.120746,0.0954772,0.0481429,-0.365993,-0.487457,0.340663,0.420438,-0.332087,-0.0748466,0.393033,0.448851,-0.114063,-0.476745,-0.138264,-0.184225,-0.304865,-0.104602,0.376614,0.293146,-0.480743,-0.0205847,-0.243278,0.31048,0.195334,0.391202,-0.407193,0.447478,0.063097,-0.435057,0.282006,0.144185,0.0430158,-0.468596,0.229575,-0.12212,0.244499,-0.0990478,-0.0492721,0.419919,0.0963927,-0.384243,0.212638,-0.022599,-0.443693,0.0852535,-0.395383,-0.214896,0.440489,0.117237,-0.261284,0.0962706,0.258049,-0.414731,0.137989,0.469451,-0.480895,0.11095,0.402036,-0.133869,-0.307733,-0.105548,0.413938,0.414609,0.485137,-0.375332,-0.136006,0.303919,-0.184957,0.480865,0.222861,-0.131275,-0.111072,0.226463,-0.337703,0.226157,-0.287042,0.468078,-0.240593,0.0509507,-0.326075,-0.0146947,0.0608997,-0.198843,0.440611,0.35934,0.264916,0.223746,-0.0688345,0.433744,0.352351,0.193014,-0.23571,-0.134022,-0.127644,0.186666,-0.0504929,0.0471969,0.154012,-0.448607,0.30285,0.0115207,0.292047,-0.355892,-0.0700552,0.395199,0.0912046,0.461211,0.141133,-0.123707,-0.197378,-0.459563,0.366024,0.459685,0.0959044,0.305689,0.312677,-0.181021,0.454558,0.187063,0.312983,-0.0892209,-0.0466781,-0.17922,0.146321,-0.356716,-0.313013,0.460082,-0.434782,-0.0112766,-0.482849,0.466582,-0.360561,0.134693,0.200247,0.366482,0.0847346,0.163411,-0.207633,-0.168508,0.0346233,-0.370205,-0.201682,0.391232,0.28753,-0.385739,0.387387,-0.442595,0.247185,-0.482574,-0.0937986,-0.0274514,-0.44406,-0.0586413,-0.126728,-0.0990783,0.350093,0.177175,-0.125904,-0.203452,-0.42111,0.37817,0.0783258,-0.208487,-0.367061,0.396451,-0.39053,0.384487,0.497955,-0.0290384,0.259636,0.40582,-0.292596,0.0973998,-0.179342,-0.336879,-0.0327006,-0.284539,-0.0668203,0.489288,0.423734,0.370632,0.260155,0.409146,-0.214255,0.341578,-0.00636311,-0.0475021,0.24926,-0.136738,-0.0125584,0.304437,0.040788,-0.422727,-0.405789,-0.373043,0.320032,-0.384091,0.176107,-0.1086,0.145589,-0.0529344,0.474853,-0.243156,-0.107959,0.491485,0.198416,-0.0696585,-0.0692007,0.391934,0.0823847,0.0290078,-0.0544908,0.0323344,0.305292,-0.0900449,0.040727,0.44995,0.189962,-0.439909,-0.41818,0.257408,-0.18572,-0.26104,-0.380306,0.152638,0.0645924,-0.330775,-0.131214,0.275079,-0.205161,0.445738,0.128925,-0.0916318,-0.213492,-0.0296487,-0.103168,-0.409665,0.340022,0.174245,0.0160985,0.139363,-0.267418,-0.244499,-0.227287,0.0483871,-0.403104,0.366451,0.241325,-0.407315,0.392788,0.241539,-0.162893,-0.407681,0.20571,-0.397855,-0.188681,0.27575,-0.239586,-0.197287,-0.299127,-0.226615,-0.308954,0.233695,0.0040437,-0.332972,0.340114,-0.431455,-0.163686,0.464263,-0.486358,0.466399,0.151051,-0.0502182,-0.37756,-0.14919,-0.189169,-0.349788,0.283563,0.323939,0.119404,0.079577,0.00120548,0.246574,-0.276055,0.421781,-0.0920286,-0.43524,-0.426145,-0.0430158,0.122517,-0.483489,-0.403958,-0.288629,0.423978,-0.0623951,0.287439,0.23162,0.0880306,-0.158712,-0.213614,0.288903,-0.305292,0.371456,-0.0982238,-0.138325,-0.0865047,-0.39111,-0.285394,-0.09447,-0.472442,-0.3558,0.0137486,0.267327,0.313471,-0.119373,0.105396,0.20336,0.181875,0.42169,-0.0851924,-0.24163,0.432524,0.277154,-0.355953,-0.402127,-0.230827,-0.25927,0.117481,-0.483337,0.360347,0.446715,-0.0972777,0.20748,0.259239,-0.15511,-0.149373,0.14037],[0.243004,0.244682,-0.483367,-0.00233467,-0.07622,0.407773,-0.0578478,-0.275323,0.490844,0.256523,0.184591,-0.024369,0.467986,0.0397198,0.473174,-0.478729,-0.38757,-0.472289,-0.0912656,0.174795,-0.195883,-0.294946,-0.480102,0.329768,-0.112354,0.0602893,0.437468,-0.0933103,-0.192099,-0.369533,0.218528,0.120899,0.419645,0.234703,-0.367489,0.0734123,0.48587,-0.362392,-0.0728629,-0.426328,-0.427183,0.0639821,-0.495422,-0.346034,-0.475768,0.270135,0.492767,0.0899228,-0.148885,-0.0576342,-0.191916,0.239341,0.373196,0.200949,-0.496063,-0.302759,-0.0815302,-0.0805536,0.150288,-0.289972,-0.0690786,-0.352962,0.158315,0.112476,-0.146474,-0.283258,-0.361568,-0.19393,0.0627003,0.407804,-0.27163,0.455809,0.38818,-0.416135,-0.311792,0.301355,-0.078692,0.0163427,-0.142506,0.0861995,0.116382,-0.453368,0.139424,0.175619,-0.0794855,0.375301,0.348903,0.453185,-0.490905,-0.34579,0.00706503,-0.197195,0.223258,0.0739921,0.313898,0.342097,-0.257958,-0.383145,-0.485717,0.462859,0.250847,0.147694,-0.0357219,0.256706,-0.0903806,0.367519,0.280511,0.427061,0.222892,0.414701,-0.0858638,0.477355,-0.386929,0.0197913,-0.131306,0.435301,0.143391,0.0329447,-0.463164,-0.124287,-0.21807,0.44055,-0.124134,-0.42172,-0.452971,-0.200339,0.161885,-0.301691,-0.391049,-0.332514,-0.425047,-0.39349,-0.409421,0.205374,0.010239,0.0421003,-0.154683,0.176077,-0.270104,0.111621,0.0460982,0.265069,-0.216788,-0.319086,0.468627,-0.0600452,-0.112049,0.337428,-0.485687,-0.448882,-0.370876,-0.10921,-0.212638,0.319727,-0.349879,-0.300317,-0.383358,0.320795,-0.272546,0.395383,-0.496582,-0.366665,-0.162221,0.255821,-0.207877,-0.193197,0.108905,-0.192618,0.427976,-0.0521409,0.0493637,0.166952,0.238639,0.125141,0.0964232,-0.205283,0.427061,0.146107,-0.176015,-0.178732,-0.0439619,0.453795,-0.0938902,0.398404,0.200125,-0.0208899,-0.310266,-0.0355388,0.0449995,-0.211631,0.429716,0.159902,0.306665,-0.137898,-0.166158,0.379086,-0.30343,0.0421613,0.462096,-0.289789,-0.0578478,0.189444,-0.111835,-0.419309,0.485717,-0.0708182,0.323664,0.238121,-0.266839,0.0447554,0.40875,0.430448,0.33871,-0.00627155,0.224509,-0.381069,0.478088,-0.462188,-0.2069,0.369655,-0.22103,0.0261391,-0.188284,0.0150609,-0.258599,-0.085284,0.407407,0.284814,-0.00645466,-0.370968,0.349178,0.131733,0.214042,-0.132069,-0.162954,0.441404,-0.0790277,-0.337764,-0.368801,0.456877,-0.262322,0.454375,-0.141438,0.302759,-0.0860775,0.418973,-0.0445418,0.344935,-0.0702994,0.209342,0.0446944,-0.0906857,0.439146,-0.47705,0.0695059,-0.400052,0.0669118,0.00788904,0.441954,0.411985,-0.262871,-0.181783,0.393918,-0.244072,0.229972,-0.343654,-0.403195,0.0302591,-0.123432,0.464629,0.24221,-0.266198,0.0384686,0.21102,0.383084,-0.300806,0.220573,-0.254051,-0.306024,-0.0420392,-0.390316,0.346706,0.0365764,0.124134,0.416959,-0.413877,-0.337977,0.324274,-0.0660573,-0.0154576,-0.243889,-0.347011,0.480712,-0.40936,-0.35403,-0.332209,-0.216788,-0.178426,0.0983459,-0.377712,0.00785852,-0.015183,-0.462035,-0.0707266,0.324274,-0.0579699,-0.0527512,-0.425535,0.333522,0.238212,-0.426115,0.170553,-0.0737785,0.436552,-0.119221,0.416227,0.317286,0.29696,-0.0351115,-0.019425,-0.0906552,-0.136952,-0.0843989,-0.371883,-0.0395062,0.470122,0.154622,0.277306,-0.314966,0.347591,-0.296838,0.391598,0.198721,0.0621204,0.39584,-0.0822016,-0.126301,0.340815,-0.472503,0.0576037,0.0934019,0.0966979,0.0392315,-0.0768609,-0.021073,0.230644,0.480071,-0.473296,0.23809,0.477477,-0.0180517,0.408963,-0.462249,-0.0634327,0.252617,0.044023,0.18157,-0.0237281,0.0555895,-0.252861,0.00871303,0.39346,0.171773,-0.356838,-0.207022,0.238151,0.0300455,0.0986816,0.47177,-0.328394,0.0146947,-0.322901,0.137959,-0.199759,0.321223,-0.268548,-0.367214,0.315241,0.15096,-0.315699,-0.199881,0.0864437,-0.440672,-0.210471,-0.490509,-0.157002,0.160543,-0.127979,-0.137959,0.285241,-0.457244,-0.157338,0.0195776,-0.348872,0.111164,-0.0176855,-0.149159,0.117237,-0.426511,0.396725,0.395535,-0.330927,-0.344691,0.118091,-0.225394,0.413846,-0.350734,-0.0377667,-0.180715,0.0807978,-0.0834834,0.0244911,0.360164,0.311701,-0.297266,0.200705,0.183981,0.0337382,0.485107,-0.226554,0.194784,-0.44937,-0.224967,-0.309473,-0.301325,0.407804,-0.409482,-0.25222,0.298395,0.291864,-0.451537,-0.475555,0.0684072,-0.214011,-0.248375,-0.43524,0.129353,-0.395444,0.0142369,0.0714896,0.341945,0.0655995,0.117512,-0.122639,-0.429228,-0.117847,-0.224357,-0.15392,0.155904,0.382748,-0.0545518,-0.257866,0.0492721,0.336756,-0.0123142,0.242241,-0.00428785,0.477386,-0.120167,-0.288141,-0.168081,0.429411,0.225181,0.349696,0.151814,0.304529,-0.368587,-0.156392,-0.0447859,0.448363,-0.046617,-0.0271767,0.0481124,-0.131794,-0.306421,0.331111,0.216117,0.476592,0.0849178,-0.286554,-0.347438,-0.41937,0.22747,0.381863,0.116382,0.214377,0.166585,0.221702,-0.313746,0.278008,-0.114216,-0.0895566,0.145131,-0.404202,0.397519,0.176962,0.193991,-0.481994,-0.488495,-0.483489,-0.15096,0.31991,0.0627003,-0.0685598,-0.36404,-0.0328532,0.128376,-0.44882,-0.110431,0.192465,-0.148549,0.380581,0.437101,-0.292779,0.186148,-0.184164,0.334223,0.432127],[-0.118488,0.0482955,-0.472686,0.127918,-0.302332,-0.488464,-0.403287,0.0121311,-0.104999,-0.0435041,0.46878,0.210532,-0.266259,0.390713,0.28341,0.395383,-0.123218,0.0888546,0.166738,0.315912,-0.302148,-0.258629,0.339656,0.443968,0.0977966,0.165273,-0.0645924,0.363491,0.175863,-0.250969,-0.137288,-0.236961,0.166219,0.339686,-0.342036,0.159841,-0.480956,-0.175314,0.345393,-0.351588,-0.0764641,0.432676,0.0546739,-0.404996,-0.381558,-0.106952,-0.151509,0.290918,0.0454878,-0.0931578,0.336055,-0.327418,-0.083758,-0.204031,-0.113453,-0.349116,-0.1068,-0.204123,-0.167043,-0.0353557,0.365139,0.0116428,-0.268914,0.0738701,0.223991,-0.0464644,-0.0704825,0.393063,0.177328,0.283227,0.361812,0.333979,0.345088,-0.192434,0.0308695,-0.333613,0.437407,0.164815,0.480438,0.423521,-0.426695,-0.331324,-0.281793,-0.199637,-0.157888,0.237022,-0.365688,0.474578,-0.0323038,0.253594,-0.449522,0.229545,0.440092,0.0152135,-0.0348064,-0.113788,0.316492,0.254418,0.362575,0.243431,0.0519883,0.134846,0.0756096,-0.375515,0.337611,0.236412,-0.128651,0.253288,-0.215934,-0.438292,0.169546,0.319269,0.399136,0.271111,0.217826,-0.336451,0.37756,-0.412381,-0.497101,-0.386563,-0.460936,0.0468612,0.381802,-0.0241554,0.182424,0.193777,0.0364544,-0.0826899,0.00709555,0.438994,0.489624,0.322535,-0.0191504,0.412412,0.426328,0.293909,-0.0460372,0.0623341,0.207694,-0.295343,-0.0385601,0.469146,-0.273919,0.153279,0.423399,-0.439543,-0.499481,0.456603,-0.199088,0.0317545,-0.0493942,-0.467254,0.068865,0.345668,-0.171499,-0.459014,0.315851,-0.333369,-0.487548,-0.375729,-0.253502,-0.279687,0.481994,0.303919,-0.45352,-0.336756,0.424314,-0.36465,0.16924,-0.483184,-0.0615406,0.0553148,-0.0852535,-0.416837,0.100452,-0.201804,-0.185568,0.00312815,0.0464339,-0.268365,0.478942,-0.473785,0.346767,-0.00495926,-0.175649,0.301325,0.348109,-0.411069,0.339717,-0.338618,0.307978,0.271996,0.306665,0.346126,-0.355007,0.391263,-0.0220496,-0.0133213,-0.212638,-0.24749,0.293085,0.0681326,-0.0203711,-0.357173,0.173116,-0.212485,0.375637,-0.439634,-0.296106,0.255547,-0.4241,0.0286721,0.221244,-0.13094,0.40582,0.393582,-0.0805841,-0.28985,0.464538,0.00901822,-0.278619,-0.0950194,-0.111682,0.326746,0.157582,-0.256188,0.497955,0.411191,-0.388302,-0.184835,0.440458,-0.387631,0.37112,-0.278161,-0.308649,-0.243004,-0.233146,0.154927,0.213492,-0.466338,-0.0883663,0.345759,0.0187841,0.0579089,0.0102695,0.409146,0.0114292,-0.219962,-0.00999481,0.0305338,0.317713,0.477538,-0.388455,-0.0227821,-0.336543,0.351924,0.26339,-0.449553,0.212088,-0.05562,-0.0822932,0.0299539,-0.357234,0.452635,-0.237419,0.118824,-0.479553,0.334346,-0.0534837,-0.180349,-0.419279,0.448698,-0.496216,0.460784,0.462584,0.253166,0.0148167,-0.170888,0.413633,0.382382,-0.247368,0.159963,0.47586,0.0418256,0.180715,-0.49588,-0.47647,-0.313013,0.11446,-0.191977,0.273003,-0.219565,0.271874,0.288934,-0.322199,0.348048,-0.199545,-0.489502,-0.453429,-0.156606,-0.105609,-0.162038,-0.408414,0.464385,0.102069,-0.321101,0.352931,-0.0801874,-0.0686514,0.120746,-0.171255,-0.16039,0.427274,0.289605,-0.00450148,-0.131855,0.392697,-0.00526444,0.432859,0.108081,0.422178,-0.381039,0.474242,-0.322504,-0.487671,0.423887,0.0150914,0.385708,-0.0507065,0.336055,0.345271,0.420774,-0.0181127,-0.336451,0.386166,-0.0830866,-0.386898,0.413907,-0.313013,0.239555,0.428251,-0.183279,0.469726,0.0942564,0.359462,0.183676,-0.354061,0.278771,0.147633,0.173055,0.256737,0.455504,0.316462,-0.437559,0.110828,0.249321,0.240318,-0.273614,0.129658,-0.187246,-0.243126,0.323206,0.314966,-0.207541,-0.432035,-0.173605,0.134175,-0.448546,-0.275842,0.20336,-0.255364,0.167714,0.38699,0.26812,0.295953,-0.208853,-0.346339,0.162526,0.0381634,-0.0586413,0.464415,0.069689,0.472869,0.47409,0.09447,0.43997,-0.113483,0.273949,0.136341,0.185446,0.291559,0.346004,0.317957,-0.407559,-0.490204,-0.305109,-0.339259,0.418668,-0.451811,0.456908,-0.248222,-0.186727,0.197745,-0.345424,0.341212,-0.0519578,0.346065,-0.123371,-0.0136876,-0.273614,0.243889,0.273339,-0.405179,0.0754265,0.219657,0.00901822,-0.28573,-0.314325,0.319727,0.0607776,0.0814386,0.0526292,-0.224601,-0.046556,0.0187841,-0.027604,-0.193777,-0.301111,-0.007828,0.385067,0.452483,0.403562,0.277886,-0.294031,-0.384426,0.467803,0.0397809,-0.191336,-0.177114,0.218284,0.23693,0.0654164,-0.11153,0.463073,0.0432905,0.250572,0.27578,-0.210318,0.467376,-0.194845,0.114551,-0.337275,0.11803,-0.267846,0.327052,0.15804,-0.364071,-0.334407,0.449736,0.197745,-0.039201,0.0956908,0.485809,0.470061,0.351863,0.00437941,0.0879391,-0.157918,-0.447874,0.115497,0.331813,-0.29574,0.291101,0.388607,-0.446898,-0.14745,-0.289209,-0.472167,0.0709708,-0.203269,0.320795,-0.318323,0.0882748,-0.272698,0.343287,0.182363,0.209067,-0.221702,-0.277062,-0.281213,-0.268242,-0.117634,-0.102527,-0.0446638,-0.0764031,-0.382321,0.024308,0.473327,0.430448,0.340632,-0.147053,-0.310327,-0.455321,-0.466185,-0.374355,0.310205,0.205863,0.377377,0.457976,0.0697501,-0.415983,0.0279702,-0.46643,-0.353053,0.180105,-0.273492,0.348567,-0.204459],[-0.270348,-0.343043,-0.3511,-0.472228,0.195669,0.475555,0.40408,0.498657,-0.371822,-0.440611,0.0863216,-0.190695,0.00135807,-0.346797,0.0119785,0.484344,0.0272073,-0.388333,-0.237785,-0.443022,-0.020249,-0.493042,-0.448332,-0.468474,-0.121235,-0.0714591,-0.101825,-0.370876,0.232475,0.200064,0.0569628,-0.224845,-0.3923,-0.396847,-0.403714,0.158101,0.0581225,0.275658,-0.0537278,-0.0131077,-0.0178686,-0.44879,-0.495544,0.320887,-0.10506,-0.0973693,-0.19628,0.252037,0.488617,0.292291,-0.219504,-0.0825068,0.0134434,-0.0710318,-0.320734,-0.384854,0.429868,-0.39349,-0.0496384,0.0503403,-0.366817,-0.0264748,0.124134,0.11684,-0.190054,-0.182394,0.29226,0.251152,0.382168,-0.253685,-0.0633412,0.420957,-0.0112461,-0.440397,-0.367458,-0.0922727,0.350612,0.406125,-0.0225074,0.0314493,-0.139027,-0.120533,0.313471,0.00993378,-0.125019,-0.403226,0.00672933,-0.0909299,0.180349,0.435209,-0.44406,-0.266808,0.444792,-0.303674,0.215293,-0.19924,-0.0169836,-0.0290384,-0.410794,-0.46057,-0.453551,-0.144551,-0.127796,-0.423154,0.215598,-0.264641,-0.209464,-0.183767,0.429746,0.401669,0.438749,0.242027,0.0896786,0.185842,-0.403562,-0.232047,0.442198,0.268914,-0.138478,-0.168447,-0.200217,0.157491,0.222953,-0.410031,-0.232139,-0.383969,-0.102344,-0.368923,0.370083,-0.266167,0.366878,-0.290887,-0.466979,0.041612,-0.233024,-0.467895,0.410825,0.232322,-0.0449995,-0.227683,-0.304041,-0.0504929,-0.113605,0.473601,-0.338069,0.357631,0.255333,0.446501,0.179373,-0.354518,0.180929,0.245506,-0.0950499,0.176412,0.0482955,-0.45999,-0.207511,0.246055,0.428861,0.0182958,0.152425,0.085284,0.0511643,-0.0484787,0.26397,0.143056,0.020249,0.161489,-0.138417,-0.358303,0.498383,0.417203,0.188498,-0.393399,0.479492,-0.322993,0.408872,-0.0594958,0.417234,0.472106,-0.343257,0.228446,0.020249,0.00804163,-0.311151,0.357021,-0.0279702,0.00636311,0.099292,0.229728,0.492492,0.390652,0.268975,0.362117,0.458892,-0.366268,0.251854,0.00880459,-0.361415,0.210623,-0.482543,-0.470031,0.211295,0.245079,-0.169301,0.0938292,0.341945,0.0832087,-0.305933,0.45941,-0.0215613,-0.0297403,0.385922,0.011185,0.23104,0.336024,0.270775,0.160268,0.360012,-0.309503,0.0276955,-0.097766,-0.194479,0.457671,0.129872,0.38461,0.262627,-0.317133,-0.144459,0.40228,0.00358592,0.293481,-0.219626,0.00114444,-0.435453,-0.2828,-0.203818,-0.103076,0.0875423,-0.371944,0.106769,0.186514,0.084582,0.10802,-0.0748466,0.456877,-0.109333,0.0856197,0.0298929,0.388455,0.44467,-0.4841,-0.169485,0.0865658,0.354213,0.266869,-0.454375,0.367031,0.447874,0.417966,0.107593,-0.434507,0.37817,-0.15508,0.241447,0.337825,0.230857,-0.401303,-0.130268,-0.0822626,-0.372158,0.0759758,-0.421537,-0.263604,-0.149068,0.453337,-0.303034,0.270135,-0.0721,-0.12627,0.188192,0.435728,-0.135426,-0.283471,-0.35876,0.0299844,-0.0402997,-0.426939,-0.221091,0.419279,0.32226,0.11626,0.314936,0.193228,-0.251366,-0.382839,0.0398114,0.178488,-0.0468917,-0.375149,0.481933,-0.24572,0.0327921,0.46176,0.37582,-0.465453,0.0392621,0.223472,-0.417936,0.176748,0.0615711,0.237541,0.469146,-0.0824152,0.135395,-0.0147557,0.356624,-0.381436,-0.202658,0.420713,0.430357,-0.20632,0.402799,0.365139,-0.247154,0.256951,0.140065,0.384396,-0.0690481,0.451659,-0.0890072,-0.0472274,0.498779,0.349666,-0.279901,-0.126087,0.233482,-0.439665,0.225822,-0.129719,0.444823,0.452757,0.0800958,0.214621,-0.436918,-0.375362,-0.242912,-0.130818,-0.0514695,-0.44351,0.129963,0.107105,0.355647,0.266594,0.1657,0.255242,0.00367748,0.463744,-0.00315867,-0.397427,0.440641,-0.0555589,-0.474792,0.389981,-0.370235,0.039079,-0.441099,-0.150746,-0.078753,0.0912351,-0.0065157,-0.273461,-0.303552,0.29754,0.473052,0.241417,0.492615,-0.418668,0.205863,-0.410276,-0.389767,0.306482,-0.184713,-0.0645924,-0.131275,-0.259117,-0.0786615,-0.407254,-0.393796,-0.182943,-0.133229,0.25222,0.426847,-0.348445,0.351192,0.0589465,0.0640126,0.323084,-0.186239,0.466369,-0.293023,-0.245354,0.170278,-0.225608,-0.13216,-0.393857,-0.0525071,-0.0850398,0.0980407,0.192038,-0.27752,-0.0275124,0.0337077,-0.0232704,0.237114,0.383816,0.242607,-0.473907,-0.34286,0.218772,0.0271462,-0.322291,0.286798,0.114216,0.142964,-0.154012,0.0966369,0.372463,0.040788,0.156941,-0.109455,-0.0543992,0.178335,0.238548,-0.193655,-0.421201,0.47763,0.47589,-0.328822,0.0402997,0.204276,0.161397,-0.0833613,0.0149083,0.315455,0.478179,-0.317896,0.354946,0.161428,-0.276543,-0.0248268,0.282098,0.126881,-0.0220496,0.382199,-0.0953246,-0.367031,-0.0996277,0.277947,0.469543,-0.143239,0.474487,-0.0782342,-0.260796,0.430204,0.160909,-0.149373,-0.211325,-0.253899,0.446654,-0.35754,0.39227,0.0717032,0.394864,0.281823,0.300867,-0.323542,-0.147359,-0.284082,0.152852,0.107135,-0.323267,-0.339534,0.0290994,0.0385296,0.201346,0.361904,0.343257,0.490081,0.0113681,-0.093524,-0.270287,-0.389737,-0.477111,-0.338252,0.261773,-0.398495,-0.340693,-0.492767,-0.319239,0.324976,0.462706,0.173971,0.427183,-0.340968,-0.00364696,0.445372,-0.393277,0.0420698,0.0677358,-0.140461,-0.19808,-0.302759,-0.249626,0.335231,-0.264367,0.374386,0.0999634],[-0.288049,0.116047,0.0460982,-0.14922,0.211386,-0.213157,-0.430815,0.0473495,-0.284326,0.0569933,0.462035,0.320429,-0.302667,-0.430723,0.363369,-0.0572069,0.336146,-0.350032,0.12096,0.0442061,-0.0633412,0.341914,-0.337825,0.0555284,-0.471435,-0.179983,-0.00328074,