[[[-0.110187,0.125050,-0.427122,0.242821,0.270257,0.343440,0.356136,0.025254,0.184927,-0.161061,0.074877,0.481719,0.291955,0.145528,0.102374,0.067248,0.001877,0.203787,-0.400266,-0.150258,-0.042558,0.047075,0.082629,-0.064806,0.382138,-0.119739,-0.190146,0.426359,-0.170492,-0.042619,-0.224082,-0.429228,0.363887,0.164052,-0.412076,0.254753,-0.296014,-0.288324,0.008683,0.498871,0.360927,-0.151143,0.447142,0.111866,0.301141,-0.003128,0.177175,0.159383,0.166524,0.214988,-0.433714,0.402585,-0.417997,0.402371,0.095294,0.364559,-0.417539,0.142354,0.450102,0.179342,-0.310022,-0.404263,0.467254,-0.119251,-0.327235,0.348964,0.214103,0.286767,-0.482971,-0.376339,-0.014908,0.135701,-0.357234,-0.245994,0.495087,-0.368954,-0.104755,0.337611,0.051469,0.050310,0.342891,-0.033555,-0.014054,-0.425321,0.413175,-0.055406,0.127277,-0.004166,0.397610,-0.102100,-0.403806,0.455748,-0.142842,-0.316950,-0.295740,-0.124073,-0.040666,-0.498749,0.236839,0.232597,0.277978,-0.376431,-0.097247,0.333552,0.087420,-0.366268,0.230644,0.253380,-0.318049,-0.405332,-0.305780,0.083117,-0.248100,0.045335,0.347194,0.150533,0.347591,0.233573,-0.250969,0.367458,0.462554,0.491943,0.463286,-0.139698,-0.233146,0.161977,-0.090930,-0.460082,-0.477416,-0.026200,-0.152211,-0.232658,0.211661,0.286889,0.285363,-0.228690,-0.092029,0.098621,0.072039,-0.025834,-0.074847,0.226402,-0.019303,-0.118000,-0.229240,-0.429991,-0.455199,-0.304254,-0.061693,-0.139637,0.437468,0.298944,-0.431486,-0.199362,-0.327387,-0.221030,-0.488891,0.006333,0.410092,0.137623,-0.182058,-0.349452,-0.355190,0.347285,0.199210,0.220267,-0.437193,0.409238,0.473815,0.290521,-0.156270,-0.429960,-0.454955,-0.277795,-0.307611,0.352565,-0.067034,0.190176,-0.120167,-0.442717,0.394528,0.447295,-0.424467,-0.108875,-0.336879,0.231498,0.251885,0.379055,-0.161763,0.221335,0.441893,0.215201,0.456908,-0.053148,-0.367885,0.209983,-0.222037,0.061632,0.071368,0.488739,0.310602,-0.117512,-0.223533,-0.401120,0.118030,-0.397092,-0.483001,-0.318506,-0.071856,0.086718,0.059526,-0.136677,-0.418302,-0.352107,0.452666,-0.473907,-0.149953,-0.276818,-0.365169,-0.391079,0.152760,-0.156758,0.145375,-0.399991,0.207297,-0.190817,0.220115,0.374203,0.141530,0.480224,0.053392,-0.467498,0.100177,0.078936,-0.492828,0.399808,-0.123249,0.420499,0.048631,0.336879,-0.397732,-0.028184,0.197409,-0.476745,0.021622,0.147053,0.264306,-0.132801,0.389340,-0.254265,-0.338405,0.198447,-0.484588,-0.060228,-0.432371,0.400754,-0.006790,-0.284631,0.225364,-0.359981,0.139790,0.176412,-0.342402,0.344569,-0.319300,-0.384610,0.079119,0.093158,-0.289850,-0.241813,-0.212607,0.067919,-0.042467,0.088855,-0.186727,0.227805,-0.107776,-0.339259,0.112293,-0.140980,-0.302789,0.300378,-0.421476,-0.341487,-0.356685,-0.390225,-0.337947,0.007248,-0.105029,-0.325556,-0.129170,-0.411252,0.278802,-0.118061,-0.061113,0.010056,0.046587,-0.241234,-0.058336,-0.419492,0.163381,0.230552,0.139882,-0.094836,0.152425,0.212516,-0.166860,0.448882,0.027757,-0.063646,0.004685,-0.272668,0.346248,-0.080493,0.038194,0.281426,-0.090258,-0.016587,0.288263,0.090686,0.149129,0.226676,-0.214347,-0.417081,-0.279077,0.359767,-0.141530,-0.104511,0.348445,0.307154,-0.049394,-0.455229,0.437895,0.483276,0.418790,0.160390,-0.498444,-0.351344,-0.410733,0.439604,-0.081347,-0.247612,-0.144185,-0.020737,0.065142,-0.333094,0.099414,0.140614,0.344234,0.221976,0.212119,-0.396573,0.148518,0.443571,0.005264,-0.233665,0.284814,0.404019,0.283807,-0.351497,-0.106891,-0.410184,0.367916,0.450102,0.391293,0.193381,-0.156880,0.426603,0.475982,0.234519,-0.179769,0.234428,-0.288324,-0.081286,0.486236,0.403165,-0.261101,0.137532,0.227317,0.090808,-0.367458,-0.481841,0.105731,-0.220847,0.442228,-0.072039,-0.028733,0.064043,0.445250,-0.159871,-0.011490,0.198111,0.143788,0.467437,-0.138295,-0.458281,-0.462493,0.069109,-0.461913,-0.421964,-0.297204,0.338466,-0.329249,-0.350948,0.209861,0.276360,-0.377316,0.068529,0.408841,0.457610,0.293176,-0.231956,0.116749,0.095843,-0.452513,0.132740,-0.264458,-0.186178,-0.468444,0.182333,0.333399,-0.475127,-0.347468,-0.245506,-0.280175,0.331813,-0.493469,-0.153615,0.046770,-0.150014,-0.464721,-0.229728,-0.034471,-0.139882,-0.308130,0.280389,-0.127705,-0.302362,-0.101672,0.326258,0.272423,0.284570,-0.425382,-0.410428,-0.204856,0.210105,0.022019,0.460326,-0.109912,-0.233482,-0.059648,-0.391263,-0.263451,0.346126,-0.137928,-0.190909,0.396908,0.106067,-0.216880,0.171865,-0.254570,0.306757,-0.227653,0.440062,0.203848,0.230461,-0.159108,-0.493408,-0.185415,0.086169,-0.147603,-0.191580,-0.316584,-0.192831,-0.244469,-0.246178,0.322260,0.147389,-0.079852,-0.160695,-0.076342,-0.017472,-0.142048,-0.387906,0.098376,0.223106,0.109577,0.134663,0.106861,0.244530,-0.421659,0.107318,0.116169,0.241417,0.093341,0.305414,-0.486358,0.411588,0.481323,0.487152,-0.191610,0.376705,-0.069536,0.428373,0.151875,-0.254601,-0.074053,0.240562,0.008866,0.225242,-0.460997,-0.371700,0.010300,0.189627,0.351100,0.242454,-0.481323,0.106189],[-0.214896,-0.062151,-0.267205,-0.430387,0.023087,0.297937,0.487243,0.248466,0.365566,0.147237,-0.103107,0.382900,0.162618,0.281762,-0.464721,0.484375,0.380612,0.343989,0.350459,-0.417814,-0.189261,-0.177999,-0.207389,0.082018,0.467254,0.480377,-0.353145,-0.107349,0.331080,-0.246391,-0.022843,0.219352,0.095630,0.134236,0.087756,0.304010,0.070757,0.085833,-0.091327,-0.105792,-0.098926,-0.487060,-0.288873,-0.278314,0.255028,0.318842,-0.440672,-0.227897,0.141041,0.082293,0.404813,-0.373135,0.006638,0.385037,0.229575,-0.341273,0.277276,-0.179586,0.144551,0.361782,0.490570,0.215476,-0.151112,0.186331,0.039872,0.224937,-0.331385,-0.076861,0.081164,-0.051714,0.193075,-0.232658,0.077288,-0.326411,-0.067095,-0.369167,-0.252342,0.350734,0.424528,-0.176778,0.459716,0.473724,-0.102710,0.022080,-0.416227,0.222892,0.435820,-0.402737,-0.360561,-0.348476,-0.455260,-0.458892,-0.369137,0.304163,0.419095,0.282708,-0.271783,-0.202261,0.325678,0.168630,-0.049181,0.397000,0.002091,-0.109241,0.008683,0.115040,0.479705,-0.357295,-0.041734,0.370846,0.236534,0.285852,-0.170888,-0.265618,0.086474,0.306543,-0.122517,-0.208884,-0.288659,-0.154408,-0.377132,-0.343379,0.241356,-0.418882,0.324488,-0.249260,-0.197317,-0.411283,-0.441374,-0.296533,0.489685,-0.183920,0.240287,-0.118061,0.340663,-0.065966,0.383602,0.431394,0.342372,0.215293,-0.028367,0.498596,0.265740,0.212851,0.248405,0.143300,0.057054,0.211203,0.489715,-0.350246,0.028214,0.281243,-0.036088,0.270012,-0.248344,0.219718,0.238182,-0.069903,0.066912,0.154958,0.486633,-0.069628,0.104694,0.099689,-0.043199,0.171194,-0.265313,0.232322,0.250633,-0.064745,0.343684,0.188162,-0.424131,-0.242088,0.349513,0.141621,-0.375210,0.416532,0.358303,-0.039476,0.235771,-0.429991,0.369930,0.214072,0.494659,0.080737,-0.061144,0.315577,0.431486,-0.451720,-0.303858,-0.418882,-0.030534,0.088336,0.139332,0.485687,0.282067,-0.113849,0.095660,-0.102588,0.214377,-0.442717,-0.234123,-0.427915,-0.074602,-0.154073,-0.245994,-0.311701,0.407285,-0.307794,-0.010056,-0.295038,0.037492,0.200369,-0.049364,0.322474,-0.179128,-0.461943,0.086627,-0.171529,0.477081,0.299005,-0.140370,-0.390316,0.029893,0.359279,0.297967,0.111072,0.055162,-0.240471,0.475555,0.023423,0.242821,-0.356563,-0.178854,-0.019333,0.429624,-0.215720,-0.335932,-0.451567,-0.240867,-0.269585,-0.078051,-0.215384,0.124592,0.101520,0.337977,0.153584,-0.448698,0.066088,0.172781,0.075091,-0.324946,-0.468017,-0.242241,-0.110675,-0.028153,0.081317,-0.183859,-0.480926,-0.103504,0.180258,-0.042436,-0.389523,-0.414792,-0.304102,0.252953,0.433622,0.279229,0.250969,0.295740,0.323847,0.124989,0.447417,-0.344447,-0.054155,-0.492004,0.036760,0.258873,0.372555,0.299371,-0.441557,-0.367367,0.445067,-0.365291,0.489349,0.242119,-0.228111,0.104755,-0.020371,0.314295,0.193655,0.121723,0.490204,-0.126606,-0.082293,-0.275872,0.423765,-0.342891,0.393399,0.076220,0.250877,-0.136402,-0.303217,0.438383,0.224021,0.134297,0.206809,0.264458,-0.289270,-0.320399,-0.146901,-0.417814,-0.322901,-0.046556,-0.282037,0.313227,0.352870,-0.217429,0.272698,-0.311365,-0.390439,0.357601,0.030076,0.416776,0.082690,-0.008805,-0.105914,-0.241264,-0.430723,0.050645,-0.011826,0.168905,-0.267907,-0.030076,0.243278,-0.344203,-0.358150,-0.251518,-0.473235,-0.480010,0.188314,-0.157582,-0.406095,-0.374783,-0.107959,-0.145436,-0.357479,-0.140980,0.147694,-0.070330,-0.247429,-0.061144,0.430113,0.260765,-0.008133,0.220542,0.494720,-0.386685,0.468749,-0.335475,0.103198,0.273125,0.113666,-0.383175,0.305902,0.324091,0.470122,-0.439360,-0.188101,-0.337367,0.276910,0.494873,0.478698,-0.345302,0.122608,0.095752,0.451567,-0.158895,-0.046648,0.318262,-0.014664,-0.401395,-0.284326,-0.407102,0.478545,0.161794,-0.084857,0.274499,-0.248161,-0.087054,0.372402,0.499390,0.101917,0.345332,-0.042467,0.106769,0.161885,-0.393063,-0.415433,-0.218925,0.099689,0.030351,0.246483,0.071093,0.185598,-0.444823,0.372982,0.442198,0.260155,0.449492,0.291314,0.018357,0.133656,0.235954,0.072405,0.169576,0.448546,0.229881,-0.457610,-0.398679,0.036027,-0.405698,-0.258019,0.102374,0.298120,0.319239,-0.386135,-0.393307,-0.353969,0.030686,0.200217,-0.273492,-0.473144,0.036424,0.131092,0.412046,0.069079,-0.486145,-0.314905,-0.105670,-0.121326,0.247276,0.203543,-0.432066,0.016709,-0.180532,0.139424,-0.031053,-0.310114,-0.334559,-0.477691,-0.494995,-0.314631,-0.106891,0.120777,0.093890,0.080706,0.278130,0.082842,0.365932,0.260582,0.338771,0.336818,-0.412351,-0.228568,-0.103107,-0.467498,-0.037736,0.045396,0.031968,-0.194632,0.463164,-0.475890,-0.166616,0.143391,-0.143086,0.214805,-0.141804,-0.360408,0.072314,0.208792,-0.299829,0.409818,-0.429228,0.194296,-0.423887,0.458159,-0.124470,0.494873,0.336512,0.270989,-0.085070,-0.336116,-0.194266,0.420377,0.336390,0.167684,-0.140889,-0.041154,0.447661,0.187063,0.141926,-0.113697,-0.059130,0.069811,-0.162069,0.470519,0.056413,0.464568,0.392483,-0.297906,0.342189,-0.332514,-0.403012,-0.333979,-0.334986,0.213401],[0.109882,-0.369808,0.241966,-0.359920,-0.008988,0.065508,-0.329279,0.237632,0.283166,-0.274133,-0.294000,0.201621,-0.175649,-0.124805,-0.277215,0.407498,0.486847,-0.099017,0.045274,-0.077685,0.450743,-0.381191,-0.341273,-0.006272,-0.137684,0.422422,0.384640,-0.349879,-0.341578,-0.064531,-0.450468,-0.181539,-0.162069,0.321955,-0.320307,0.365932,-0.038041,-0.089343,0.252068,-0.028489,0.163747,0.290613,0.033219,0.234245,0.449614,-0.466735,0.037675,-0.076403,-0.428068,-0.301782,-0.363704,-0.220878,0.256188,0.277795,-0.153554,-0.235191,0.061937,-0.261986,0.335108,0.185018,-0.339290,-0.188894,0.165944,-0.432249,-0.189505,-0.303827,-0.177969,-0.277795,-0.191000,-0.175344,-0.464995,-0.124195,-0.293146,0.346187,0.452239,0.298028,0.061388,-0.008499,-0.327113,0.316523,-0.486969,0.468596,-0.315088,0.132282,-0.034776,0.048235,0.233024,0.339778,-0.351192,0.495331,0.149953,-0.441710,-0.147206,0.002091,0.181906,0.081164,-0.397977,0.279473,0.339045,-0.051500,0.063738,0.463042,-0.196951,0.350215,-0.036454,-0.010422,-0.077746,-0.234703,-0.207205,0.100635,0.326014,-0.256310,0.087695,0.129292,-0.310572,-0.263115,-0.437498,0.226249,0.180013,-0.116169,0.377163,-0.318171,0.116596,-0.005478,0.320856,0.499939,-0.126911,-0.218223,0.193258,0.379727,-0.442808,0.315516,0.163808,-0.237480,0.495941,0.325617,0.391110,0.098926,0.058855,0.039628,-0.316889,-0.007187,-0.149251,-0.106159,0.479766,0.378842,-0.195578,0.379330,-0.061113,0.389248,0.205222,0.093585,0.407315,0.066424,0.178579,0.403195,0.057329,-0.422758,-0.328608,-0.376064,-0.028886,0.085986,0.459197,0.125263,0.453276,-0.058794,0.209555,0.264153,-0.146992,0.333705,0.133717,-0.444151,-0.322108,0.081317,0.257164,-0.013077,0.279260,-0.303064,-0.159383,-0.122791,-0.108509,0.395871,-0.017228,0.196799,0.305933,0.199057,-0.064226,-0.255608,-0.039109,-0.211905,0.164937,0.093280,-0.271142,0.268700,-0.316157,-0.288995,0.182333,0.498291,-0.303919,0.159261,-0.380947,0.134541,0.074786,-0.220023,-0.371059,0.060778,-0.288568,-0.225822,0.482604,0.344630,0.265069,0.079424,0.123646,0.386044,0.342952,-0.047533,0.045915,0.411069,-0.355739,-0.336726,-0.163533,-0.032365,0.098102,0.206595,-0.334040,-0.420591,-0.473601,0.437254,-0.492523,0.214316,-0.135975,-0.464446,0.365322,-0.276635,0.466338,0.209372,0.294366,-0.093005,-0.463866,-0.461913,0.492370,0.364101,0.201102,-0.133900,0.245018,-0.219169,0.272332,-0.349116,0.006455,-0.185018,0.216483,-0.327204,0.395291,0.232292,0.371578,-0.488006,0.388089,0.451048,-0.061724,-0.300317,0.491546,0.151021,-0.221946,0.449034,0.174001,0.103351,-0.451201,0.372585,0.338435,-0.122944,0.210044,0.092364,0.117359,-0.421140,0.428220,0.148610,-0.228538,0.282739,-0.086261,0.113666,-0.027085,0.304682,0.220939,0.317164,0.254692,-0.020188,0.042161,0.088885,-0.092792,0.097644,-0.472900,-0.074602,0.103412,-0.348537,-0.340907,0.486755,-0.466369,0.058947,0.218986,-0.170614,0.331660,-0.490753,0.368130,-0.218039,-0.427335,-0.406369,0.382229,-0.130421,0.125080,-0.124683,-0.433775,-0.306543,0.136952,-0.444914,-0.117481,0.171743,-0.061541,-0.110858,0.323023,-0.452239,-0.358455,-0.485412,-0.443175,-0.427396,0.218375,0.339900,-0.115589,-0.232841,0.339045,0.155812,0.029771,0.170919,-0.249107,-0.376766,-0.198355,0.483123,0.479675,-0.205557,0.155171,0.002915,-0.365749,-0.176534,-0.314814,0.274438,0.096484,0.022629,0.082354,-0.156758,-0.123554,-0.079516,-0.416440,0.030564,0.415616,0.478545,-0.052416,0.130818,-0.382076,0.121845,-0.012619,-0.060045,-0.108783,-0.259148,0.190481,0.019456,-0.020798,0.319819,0.458129,-0.396725,-0.134083,0.348476,0.495361,-0.446318,-0.466399,-0.326624,-0.117878,0.271752,-0.144368,-0.055254,0.357784,-0.030320,0.404904,0.315302,0.349422,0.210318,0.460021,-0.452727,0.275811,0.120777,-0.010208,0.184072,-0.342280,0.185995,-0.102557,-0.057726,-0.433500,0.028550,0.305902,-0.018967,0.441343,0.081225,0.165242,0.204245,-0.192709,-0.441679,-0.035966,-0.064348,0.021622,-0.228782,0.378780,-0.015336,0.388638,0.489959,-0.187765,-0.231254,0.222251,0.112873,-0.472930,0.008255,-0.052446,-0.181478,0.126820,-0.025010,0.001419,0.038835,-0.412442,0.424772,-0.435789,0.389554,0.092059,0.219993,0.316706,-0.475890,0.092334,0.266930,0.253624,-0.181783,-0.118030,-0.076647,0.085223,0.289972,0.459746,-0.466552,0.257866,-0.336787,-0.034989,0.245903,0.125111,-0.020493,0.467193,-0.228935,0.300256,-0.335047,0.389431,0.234428,-0.278039,0.458770,0.348781,-0.218589,0.463988,0.108966,-0.306726,0.091021,-0.179861,0.242302,-0.482116,0.453246,-0.303827,0.314020,0.439756,-0.432249,-0.160756,0.043962,-0.085101,-0.280694,-0.063250,0.245506,0.377071,0.486236,0.115467,0.452818,-0.020157,-0.361476,-0.127705,0.253746,0.223869,0.381832,-0.031938,-0.266289,0.249962,-0.397122,0.315119,-0.062792,0.079333,0.273675,0.390713,-0.246727,-0.417478,-0.330409,0.206870,0.130848,0.458190,-0.441221,0.367977,0.030564,0.002396,0.018021,0.247765,0.019242,-0.049028,0.031907,-0.183401,-0.087085,0.174673,-0.468291,0.150288,0.375149,-0.490692,0.029771],[-0.123371,-0.497681,-0.494415,-0.481811,-0.077593,0.355861,-0.299219,0.479797,-0.047136,-0.150990,0.477783,0.350368,-0.175344,-0.480529,0.399594,0.411863,0.278344,-0.113514,0.186666,0.169668,0.298242,-0.004379,0.206473,-0.491974,-0.228813,0.067522,-0.346919,-0.222983,0.350673,-0.468841,-0.428007,0.342524,-0.068316,0.223319,0.387265,-0.369839,-0.356105,0.034867,0.086505,0.195059,-0.231986,-0.213706,-0.279290,-0.152394,0.482604,-0.387722,0.374569,0.367641,-0.152913,-0.362239,0.263543,-0.162526,-0.072619,0.226066,0.114673,0.125599,0.470306,-0.419462,0.486236,-0.448424,0.033128,-0.018906,0.183615,0.264336,-0.025651,0.436583,0.426817,0.364162,0.212271,0.034562,-0.073840,0.300439,0.157002,-0.230369,-0.477233,-0.424223,-0.276940,0.131275,-0.450621,0.288263,-0.172170,0.233024,-0.431730,-0.457549,0.282922,-0.236381,-0.357570,0.261315,0.484100,-0.457945,-0.203940,0.429289,-0.193472,-0.043077,-0.179098,0.298608,0.111316,0.072039,0.084460,-0.410520,0.269372,-0.320582,0.496399,0.216056,0.109363,0.080523,0.289453,-0.431639,-0.304254,-0.122486,-0.228996,-0.117023,0.342982,-0.444731,-0.298303,-0.267907,0.272332,0.135945,0.457091,0.163472,0.317682,-0.313227,-0.371273,-0.478332,-0.413816,-0.037126,0.221397,0.482665,0.480499,-0.034074,0.101672,0.331904,-0.011734,-0.299860,-0.144978,0.018357,-0.354213,-0.093280,-0.292566,0.015061,0.081530,0.058275,-0.332423,-0.482696,-0.454009,0.393887,-0.454131,0.010208,0.334315,0.276818,0.007004,-0.263421,-0.492584,-0.344539,0.311640,0.096637,-0.181387,-0.090686,-0.096088,-0.489868,0.251091,-0.139363,-0.498871,-0.226829,0.073351,0.233695,-0.158803,0.440031,-0.181692,0.342250,-0.255150,0.261803,0.092578,0.287103,-0.351466,0.212943,-0.378262,0.444395,0.264183,0.136738,0.438871,-0.473693,-0.477996,-0.458495,-0.378964,-0.004685,0.453398,-0.421812,0.481628,0.112934,0.168508,-0.269127,-0.376492,0.404904,-0.413175,0.251518,-0.239830,-0.176748,0.075274,-0.130055,-0.289819,0.387265,-0.349086,-0.189230,0.472289,-0.416318,-0.095416,-0.352199,-0.213675,0.308588,0.301111,0.027970,0.087207,-0.369167,0.013077,-0.204764,0.257317,0.159658,-0.056108,-0.453307,0.084216,0.296594,0.096454,0.151021,-0.170492,0.153584,-0.056047,0.261284,-0.184378,0.418363,-0.041154,0.353328,0.435942,-0.051683,-0.043840,0.320460,0.495331,0.374172,0.407590,0.156240,0.286981,0.494568,0.382534,-0.243583,0.311792,-0.257073,0.272423,0.371090,0.046434,-0.491882,-0.045701,-0.261315,-0.333338,-0.410581,-0.449736,0.432859,0.132008,-0.432127,0.438963,0.453124,-0.462249,0.374660,-0.325190,-0.408505,0.141255,-0.161855,0.472350,-0.394528,-0.032426,0.490783,-0.089282,-0.271386,0.402341,0.416562,-0.484497,-0.449187,-0.323664,0.421445,-0.126484,-0.201437,-0.350276,0.306604,-0.063005,0.047044,-0.199484,-0.473113,0.173849,-0.105029,-0.174856,0.015244,0.219565,-0.366146,-0.244041,0.454131,0.187246,-0.057756,0.003159,-0.224235,0.292474,-0.363155,0.226249,0.171987,-0.051531,0.011765,0.442137,0.395199,-0.011551,-0.203787,0.275842,-0.368587,0.171133,0.263512,-0.240165,-0.272851,-0.374386,-0.479247,-0.411405,0.050615,0.392178,-0.487701,0.234397,-0.230644,-0.285333,-0.233299,-0.169179,-0.175008,0.241539,0.419401,0.229972,0.386380,-0.209189,-0.458251,0.139698,0.062639,-0.163564,0.308588,-0.252495,-0.342738,0.370846,0.033891,-0.263512,-0.255730,0.301233,-0.392117,0.100665,-0.151814,0.035081,0.365230,-0.335139,-0.491546,0.411557,-0.084063,-0.283532,0.010147,-0.365444,-0.028977,-0.345851,0.061724,0.364254,-0.306879,0.061083,0.201498,-0.377071,-0.396359,0.107624,0.213767,-0.328394,-0.421690,-0.309259,0.335810,-0.486450,-0.038713,0.215812,-0.462462,0.181051,0.330103,0.427335,-0.345668,0.461516,-0.058061,0.194693,-0.345393,0.219535,0.393185,-0.340754,-0.176229,-0.029374,-0.477569,-0.350917,0.145009,-0.136708,0.089862,-0.232658,-0.341121,-0.274468,0.262230,0.060930,0.082568,0.332118,0.436460,-0.324610,0.470153,-0.451353,0.432218,0.402463,0.195120,-0.490936,-0.415433,-0.473846,0.036454,0.482330,-0.231193,-0.125477,-0.350520,-0.415067,-0.112354,0.482025,0.202719,-0.004379,-0.147145,-0.230064,0.461852,-0.172262,-0.407712,-0.349300,0.102527,0.316675,0.113392,0.461760,-0.467376,0.477416,0.154744,0.136311,0.005844,-0.110492,0.456633,-0.483612,0.307031,-0.234947,0.182180,0.214866,-0.208365,-0.043901,-0.480163,-0.067827,0.059709,0.057787,-0.000778,-0.364925,0.045610,0.263451,-0.449614,-0.497681,-0.194601,0.128010,-0.160695,0.044420,-0.217368,-0.104389,-0.090625,0.303522,-0.166250,-0.451872,-0.338893,-0.460479,-0.205344,0.230644,0.200858,0.308924,-0.130390,0.209983,-0.410123,0.342250,-0.376705,0.022782,0.025407,0.126698,-0.141804,-0.030625,-0.016037,-0.399747,0.157399,-0.390652,0.359432,-0.136891,0.375179,0.415677,0.126087,0.313013,-0.144276,0.242851,-0.441374,0.110858,-0.338130,-0.233757,-0.460173,0.382382,-0.405301,-0.452086,-0.012650,0.062456,0.285485,-0.113941,-0.068926,-0.211539,0.141041,0.103534,0.272057,-0.251640,0.424070,0.432279,-0.245720,-0.109577,0.249260,0.149800,0.180593,0.400357,-0.223167],[0.404050,-0.147786,0.384579,0.420194,0.125874,-0.060289,0.099353,0.134877,0.031388,0.193411,0.070269,0.098437,0.294916,-0.409299,0.363491,-0.383175,-0.014786,0.464904,-0.139302,-0.099322,0.402615,-0.381314,-0.457274,0.340297,-0.121265,0.049760,-0.061357,0.282464,0.070788,0.193381,0.022416,0.465880,0.280847,0.089038,0.338130,-0.229423,-0.167989,0.377255,-0.365352,0.438505,0.032487,-0.467589,-0.208090,0.420499,-0.241478,0.238701,0.318690,0.006973,0.188131,0.314173,0.204459,0.397946,-0.283868,0.090503,0.405911,0.368435,-0.417814,-0.346278,-0.250755,-0.313715,0.243156,-0.147176,-0.469909,0.437895,0.020402,0.481750,-0.408383,-0.081622,0.054277,-0.458190,0.162618,0.242759,0.096088,-0.009476,0.236442,0.333674,0.169485,-0.117389,-0.227592,0.442534,-0.368160,0.310175,-0.499390,-0.139851,-0.332057,0.047777,-0.388638,-0.026963,-0.254234,0.309046,0.110950,0.321528,0.067064,-0.479461,0.124317,-0.183767,-0.457152,-0.480224,-0.073412,-0.230949,0.326075,0.083117,-0.015793,-0.105426,0.431486,0.189993,-0.213126,-0.061205,0.475249,-0.070086,-0.247703,0.090655,0.064684,0.458007,-0.016160,-0.166524,-0.130360,-0.094165,0.163381,0.391629,-0.093188,-0.346431,0.359981,0.429594,0.068133,-0.130390,0.035813,0.158803,0.424680,-0.276025,0.030778,-0.490661,0.337123,0.182058,-0.193289,-0.477874,-0.095935,-0.215598,-0.267418,-0.382046,-0.220420,0.319330,-0.307855,-0.100085,-0.108844,-0.205985,-0.205008,0.145283,0.089038,-0.388821,0.472320,-0.356990,0.258934,0.356594,-0.261284,-0.466826,-0.071734,0.104389,-0.098468,-0.195334,-0.101520,-0.353725,0.498169,-0.392666,-0.066637,-0.449217,-0.256340,0.034898,0.035630,0.458617,0.269066,0.034501,0.342586,-0.479186,0.432066,-0.399991,0.172048,0.385922,-0.018815,-0.095752,0.250206,-0.358364,0.354762,-0.472747,-0.348079,0.118458,0.395901,0.436308,0.485626,-0.039567,-0.235313,-0.125782,-0.146779,-0.130024,-0.171010,-0.187735,0.117023,0.432737,0.314875,0.123463,0.004135,-0.071398,0.498169,0.132984,-0.419645,-0.464354,0.218375,-0.298090,-0.375576,0.332545,0.495788,-0.499756,0.433470,0.006241,0.033677,-0.374386,-0.408048,-0.329096,0.386441,0.224113,-0.265465,-0.295373,0.074786,0.269066,-0.165944,0.009568,0.429777,0.154653,0.046495,-0.397488,0.446318,0.259789,-0.356227,-0.058245,0.427946,0.139241,0.065569,-0.103748,-0.296350,0.497925,-0.378445,-0.235984,0.198386,-0.395566,-0.124653,0.245231,0.138203,0.300714,0.241386,-0.223106,-0.328516,0.263085,-0.174306,0.135090,-0.312525,-0.327937,0.042375,-0.289239,-0.386807,-0.053758,0.036546,0.366085,0.470275,-0.302942,0.445128,0.276605,-0.027329,-0.439634,-0.473113,-0.333644,-0.053240,0.061449,0.192984,-0.158315,-0.145100,0.169210,-0.031236,0.430143,-0.296258,-0.303735,0.418790,0.230583,0.118549,0.200949,0.065935,-0.418912,-0.135212,-0.452696,0.335871,-0.349391,-0.401700,-0.219932,-0.441954,-0.439451,0.125294,0.469695,-0.445219,-0.257042,-0.047075,0.184683,-0.150655,0.440947,0.412778,0.247276,0.024522,-0.241752,0.137440,0.428190,0.262719,0.163808,0.171957,-0.262627,-0.400998,-0.142628,-0.498810,-0.033403,-0.081561,-0.096728,0.274865,0.140217,0.228477,-0.462676,0.283441,-0.469573,0.238273,-0.445616,-0.443876,0.393338,-0.224174,0.181906,0.095508,0.081774,0.074206,0.346217,-0.026963,-0.308649,0.458220,-0.262474,-0.375637,-0.103717,0.462554,-0.419828,0.390713,0.130329,-0.086840,-0.485961,0.499481,-0.229698,0.002548,0.493500,-0.007797,0.477325,-0.109729,0.110462,0.380825,0.352809,-0.139393,0.247215,0.313837,0.064959,-0.432554,0.465758,0.033494,-0.397580,0.398984,0.039628,-0.094867,-0.189047,0.492309,0.034684,-0.199728,0.369625,0.429807,0.344661,-0.385861,0.362667,0.148610,0.088458,-0.300501,0.103473,0.093921,0.274834,0.497528,0.366543,0.147786,0.140706,0.147450,-0.316065,0.364772,0.069933,0.355678,-0.137288,0.045122,0.498077,0.306177,0.378811,0.177419,-0.290033,-0.107074,-0.195456,-0.218650,-0.063952,0.056078,-0.074419,0.182363,-0.346339,-0.497284,-0.296838,-0.251061,0.499878,-0.406308,-0.261162,0.124409,-0.298395,-0.322230,0.396939,0.483642,0.430113,-0.345820,0.241905,-0.153279,-0.015305,0.045152,-0.054003,-0.019395,0.213645,0.359096,0.324152,-0.080462,0.077136,0.026475,-0.348140,-0.363826,-0.240745,-0.311121,-0.077136,-0.105762,0.235038,0.123066,0.201956,-0.185965,-0.301386,-0.419217,-0.269677,0.182211,-0.240532,-0.173818,-0.061083,0.036699,-0.188101,-0.348659,0.025956,-0.441374,0.484954,0.152058,0.255547,-0.198172,-0.421476,-0.455931,-0.366909,0.291589,0.392392,-0.197897,0.113941,0.023820,-0.146748,-0.097949,0.001297,-0.104205,0.347804,-0.051927,-0.309778,0.099994,-0.333491,-0.034288,0.413205,-0.488372,-0.034745,-0.357814,0.144093,-0.397824,0.150594,-0.204581,0.316584,-0.091021,-0.404721,-0.147572,-0.486785,-0.406949,-0.409879,0.119160,-0.218528,0.116108,0.438200,0.122425,-0.267083,-0.432493,-0.401914,-0.194845,0.082080,-0.326411,-0.217765,-0.143147,-0.219413,0.019150,0.416440,-0.040422,0.403867,-0.486633,0.367031,0.231559,-0.054704,-0.368496,0.341914,-0.350917,-0.324427,0.462462,-0.128315],[0.222251,0.094775,0.276910,0.248711,-0.473693,0.371822,-0.471770,0.296289,-0.167653,-0.453124,0.405179,0.414182,0.367550,-0.129536,-0.140126,0.134877,-0.133137,-0.359920,-0.007462,-0.320124,-0.399991,-0.255699,-0.455901,0.106189,0.056658,0.232353,0.312891,-0.318598,-0.054064,-0.060015,0.401273,-0.231132,-0.333003,-0.296319,-0.301263,0.003189,-0.093982,0.193747,-0.492462,0.038743,-0.483032,-0.102344,-0.282891,-0.348903,0.341395,0.285485,0.433531,0.473785,0.124042,-0.312311,0.470336,0.150288,0.180624,-0.082446,-0.392850,0.184317,-0.026475,0.168569,0.021775,0.267632,0.251976,0.218772,-0.197562,0.368252,-0.086810,0.472777,-0.053331,0.359493,0.240135,-0.397275,-0.247703,0.471160,-0.327265,0.211905,0.007797,0.344417,-0.231559,-0.126087,-0.112842,-0.028611,-0.491577,-0.456938,-0.043535,0.300745,-0.394101,-0.097491,0.198019,-0.209616,-0.027482,-0.139607,0.458068,-0.310846,-0.000839,0.332270,0.224906,0.327693,-0.192282,0.111286,0.142994,0.200613,0.129475,-0.142476,0.170003,0.121113,-0.033067,-0.262108,-0.217643,0.228690,-0.305078,-0.252617,0.136128,0.131947,-0.242363,0.243583,-0.411130,-0.032609,-0.382687,-0.275231,0.489746,-0.344844,0.111499,0.384213,-0.357509,0.133839,-0.125721,0.470183,0.349513,-0.145558,-0.021226,-0.015336,0.441313,0.315912,0.456145,-0.249351,0.199362,-0.077563,-0.151997,0.380184,-0.422819,-0.055254,0.448210,0.173727,-0.373104,-0.134175,0.390439,0.482788,-0.463225,-0.107318,0.237602,-0.433714,0.186697,-0.084429,0.229575,0.472686,-0.372890,-0.304407,-0.154683,-0.021561,0.388424,-0.437925,-0.164235,0.114673,0.026414,0.400906,0.383450,0.312555,-0.189688,0.215232,-0.454344,-0.300439,-0.040117,0.039781,-0.363124,-0.423032,0.337336,0.489654,-0.293207,-0.389431,0.000626,-0.274712,-0.229392,-0.234855,-0.475555,0.114856,-0.052904,-0.485290,0.495148,0.374752,0.161611,0.359279,0.085101,0.470336,-0.430631,0.179281,0.114368,0.057390,0.356014,0.459471,-0.495880,-0.254173,0.070971,-0.086932,-0.470672,-0.032884,0.150899,-0.462523,-0.223594,-0.273675,-0.211875,-0.366970,0.212027,0.020188,-0.198386,-0.184286,0.269921,0.202414,-0.334315,-0.444487,0.361049,0.077715,0.353633,0.271111,-0.285852,0.005234,0.151540,-0.487335,-0.047533,-0.206565,0.099597,0.263909,0.313257,-0.333216,0.216117,-0.106006,-0.084338,0.086413,0.161367,-0.208213,-0.015580,-0.294977,0.496948,0.212546,0.434019,0.238517,0.197073,0.368709,-0.278863,-0.466002,-0.431761,0.296472,0.370632,-0.382748,0.233146,-0.471404,0.081500,-0.000900,0.335444,0.105426,-0.180654,0.023392,-0.378689,-0.045366,-0.198599,-0.462981,-0.445433,0.171896,-0.219749,-0.336512,0.120685,0.232780,-0.467132,-0.038835,0.477020,-0.332331,-0.039293,-0.252312,0.104694,0.230949,-0.292535,-0.128376,-0.381191,0.095233,-0.299127,-0.287622,-0.106800,0.102771,-0.475707,-0.309595,-0.344569,-0.395840,0.024766,0.067766,0.209525,-0.083361,0.063555,0.321558,0.441130,-0.067461,-0.184255,-0.129505,-0.237510,-0.090564,-0.475372,0.436369,0.153401,-0.026719,0.117603,-0.178549,-0.046617,0.365566,-0.410520,0.383450,-0.437193,-0.034257,-0.439970,-0.011643,-0.291986,0.120777,-0.089038,-0.276055,0.427305,0.311945,-0.090228,0.153371,0.433805,-0.308802,-0.274071,0.391751,0.011704,0.017960,-0.254021,-0.214225,0.101703,0.027146,-0.406369,0.478515,-0.267602,-0.239494,0.261345,-0.360317,0.453398,-0.108051,0.259117,-0.356105,-0.073199,-0.421842,0.187643,-0.023362,0.333155,-0.133930,-0.358852,0.150746,-0.252159,0.187948,-0.153279,0.413297,0.144917,-0.024155,-0.054003,-0.474853,0.183584,-0.073534,0.326106,0.394009,0.434477,-0.052568,-0.094745,-0.158254,0.201590,0.316675,-0.220145,0.288598,-0.403836,0.085772,0.139332,-0.366268,0.018693,0.258934,-0.145589,0.115009,-0.294671,-0.221641,-0.354213,0.428068,0.495361,-0.152364,0.239158,-0.113208,0.475036,-0.375698,0.412503,-0.094317,-0.344783,-0.187399,0.342524,-0.414029,0.338130,0.188192,0.155965,-0.313471,0.329737,-0.414640,0.092425,-0.239402,-0.345576,0.378903,0.184591,-0.260094,-0.072466,-0.009323,-0.137684,-0.252617,0.042650,0.453581,0.387020,0.419462,0.329188,-0.437193,-0.478118,-0.480560,-0.162587,-0.353389,0.345393,0.123341,-0.093616,0.487182,-0.387234,0.158864,-0.328669,0.423429,-0.426481,-0.420530,-0.333125,0.166494,-0.350612,-0.045610,0.182089,0.359432,-0.119587,-0.244346,-0.476257,0.412320,-0.455321,0.124104,-0.155721,-0.356105,-0.141774,0.394711,-0.310022,0.261406,0.161031,0.163106,-0.073351,0.209006,0.495880,0.174520,0.198050,0.417203,-0.014145,-0.183981,-0.425962,0.483489,-0.082965,0.493530,-0.455626,0.316126,-0.067522,-0.325129,0.014389,-0.228202,0.243675,-0.119556,0.458953,-0.180990,0.265984,0.401639,-0.109210,0.257836,-0.415922,0.029771,-0.200247,-0.472381,-0.346187,-0.424253,-0.281396,-0.366024,0.146443,0.461821,-0.427549,-0.274041,0.341792,0.167074,0.467345,0.354946,0.476775,-0.192282,0.074725,-0.053423,0.454650,-0.366726,0.267785,-0.483398,-0.177541,-0.280084,0.165944,0.162221,0.421964,-0.357356,0.243980,0.360042,-0.379482,0.407010,-0.338374,-0.398007,-0.471129,0.421751,0.470367,0.400357],[-0.205985,-0.146931,0.193014,-0.407987,-0.272149,0.053636,0.180624,0.074206,0.307581,0.151723,-0.373470,-0.239982,0.447020,0.339961,-0.349239,-0.303858,0.286126,-0.141133,0.049577,0.439604,-0.183767,0.246818,0.171468,-0.445311,0.014878,0.060045,0.381252,0.346004,0.271599,-0.279809,0.143086,-0.266076,0.386258,-0.355373,0.254143,-0.320856,-0.079455,0.316553,0.259606,0.062181,0.184713,0.450468,-0.419217,0.424161,-0.360286,-0.090167,0.387387,0.475311,-0.002792,-0.466918,-0.255028,-0.222831,-0.202383,-0.476470,0.069323,-0.495025,-0.251793,-0.439360,0.418332,-0.303766,-0.397855,0.287744,-0.346553,-0.107959,-0.140187,0.333186,0.001389,-0.422971,0.073473,-0.479003,0.047166,0.324702,0.036973,0.427183,-0.309534,0.053606,-0.358638,-0.062304,0.095874,0.301752,-0.322321,-0.034776,0.168661,-0.075823,0.368252,-0.020249,-0.412992,0.121052,-0.091998,-0.489624,-0.077563,0.201956,-0.203543,0.273797,-0.121021,-0.007370,0.242363,0.085864,0.183065,0.290857,0.421262,0.213157,0.154927,0.277062,-0.131428,0.319483,0.492920,0.286401,-0.211844,-0.335047,0.301874,-0.151357,-0.441801,-0.286889,-0.103046,0.401395,0.215903,-0.197836,0.414304,-0.416196,0.201529,0.037431,-0.240898,-0.483367,0.143849,0.060442,-0.076617,-0.025590,-0.032365,-0.148762,0.203696,-0.143056,0.104785,0.220359,0.350703,-0.134236,0.089923,0.146107,0.181753,-0.208304,0.322504,-0.385678,-0.312799,0.320276,0.275842,0.115894,0.162587,-0.239250,-0.065447,0.458831,0.397092,-0.394559,-0.257714,0.051195,0.450072,0.325159,-0.160176,0.311029,0.046709,0.307337,-0.124165,0.359035,0.124042,0.342952,0.171133,-0.348750,-0.441465,-0.431364,-0.482421,-0.292840,-0.393216,0.269982,0.393094,-0.410215,0.090075,0.452300,-0.126331,0.293909,-0.145558,-0.414426,0.024491,-0.301050,-0.462432,0.429350,0.050127,0.242363,0.173269,0.343562,-0.013779,-0.029893,-0.334803,-0.007401,0.213218,0.120167,-0.338832,-0.152272,-0.426267,-0.104236,-0.141194,0.394742,0.374569,-0.416074,0.274194,0.452879,0.054827,-0.323511,-0.495178,-0.488525,-0.198752,0.148793,-0.482330,0.490387,-0.107837,-0.446898,-0.005783,-0.169851,0.051012,0.082873,-0.237083,0.319178,-0.408933,0.263543,0.351405,-0.437254,-0.367611,0.426969,0.188406,-0.498596,0.172170,-0.374996,0.488037,-0.115741,0.289941,0.138966,0.346309,0.103320,0.268914,0.240928,0.082110,0.295984,-0.085742,0.363369,0.353786,0.120838,-0.149678,0.333064,0.081744,0.113788,0.077227,-0.174154,-0.290429,0.030534,-0.431272,-0.301599,-0.166005,0.081439,0.192221,0.352870,-0.264763,0.465423,-0.267693,-0.208609,-0.160939,0.108783,0.299158,-0.483978,-0.358364,0.015549,-0.097247,-0.069231,0.128834,0.135121,0.474670,0.401761,0.220328,0.153981,0.117969,-0.368221,0.271050,0.117420,-0.132679,-0.494232,0.159902,0.287500,-0.260277,0.063005,-0.001907,0.143696,0.357784,-0.247398,-0.012497,-0.067675,-0.073717,-0.371456,0.460967,-0.328883,-0.156178,-0.359798,-0.364834,0.015000,-0.269921,-0.324976,0.108081,-0.110492,0.150685,-0.490661,-0.368740,0.298120,-0.179647,0.323603,0.189352,0.209464,-0.433958,-0.061724,-0.083117,-0.068896,-0.169149,0.426939,-0.115131,-0.124348,0.000381,0.262200,0.287194,0.126026,0.332484,-0.348628,0.059038,-0.294763,-0.228141,0.217795,0.457945,-0.041673,0.430815,-0.316157,-0.360744,-0.049028,0.016770,-0.287286,-0.243217,0.292688,-0.011032,-0.436033,-0.379910,0.289544,-0.275567,-0.279687,0.439787,-0.166372,0.475219,0.141041,-0.308130,-0.065111,0.397641,0.298853,-0.367367,0.301630,0.435453,-0.343989,0.494873,-0.123493,0.337428,-0.263695,-0.102680,-0.266503,-0.408933,0.448759,0.498047,0.242637,-0.446379,-0.180227,0.423307,-0.091571,-0.438444,-0.210288,-0.497040,-0.211417,0.299799,0.230033,-0.155965,-0.101276,0.212058,-0.162648,-0.227134,-0.489959,0.233360,0.061052,-0.321650,-0.254479,-0.373898,-0.280114,-0.213706,0.381405,0.200919,0.464599,0.396908,0.259697,-0.296625,-0.257653,-0.383755,0.218802,-0.351741,0.419614,0.113422,-0.052599,0.382107,-0.281152,-0.066027,-0.331263,-0.344417,-0.373135,-0.098621,0.061144,0.486969,0.429289,-0.362178,0.321162,-0.402341,-0.471435,-0.264855,-0.224631,0.201621,0.201590,0.107379,-0.052324,0.428983,0.452666,0.056536,0.487365,0.166372,-0.381314,0.082049,-0.134907,-0.406156,-0.117481,-0.033860,0.242821,0.200858,0.350612,0.165242,0.423429,-0.438383,-0.148488,0.039811,0.286981,-0.348262,0.111347,-0.046922,-0.380642,-0.013108,0.462371,-0.229942,-0.260002,0.365261,-0.258995,-0.211570,-0.165578,0.494537,-0.468200,-0.367702,0.398160,0.284967,0.412961,0.139851,-0.301660,0.089862,0.360225,-0.223441,-0.340815,-0.325678,-0.034471,-0.394772,0.077319,0.193960,-0.374172,0.343562,-0.426511,-0.035539,0.359371,-0.458953,0.187185,0.303644,0.404660,0.406369,0.019578,0.226707,0.259362,0.316065,-0.168081,0.276666,0.314661,-0.463378,0.005051,0.270379,-0.258446,0.190237,-0.233329,0.241997,-0.214499,-0.003861,0.092303,0.365230,0.125355,-0.181326,0.186300,0.134816,0.453093,-0.446928,-0.050676,-0.410611,-0.069536,0.380581,0.338374,-0.143330,-0.321070,-0.076403,0.025468,-0.198172,-0.041063],[0.261681,0.060869,0.194906,-0.161946,0.352260,0.239982,-0.497803,-0.209891,-0.350581,-0.437773,-0.127491,-0.267479,0.469115,-0.257439,-0.326869,-0.473510,-0.162496,0.372738,-0.382382,0.065142,0.474242,-0.402860,-0.137043,-0.393399,-0.082202,0.361171,0.390011,0.257622,0.200278,0.012711,0.323481,-0.361507,-0.023515,-0.461303,0.347682,0.261467,-0.484863,0.217551,-0.126087,-0.347377,0.457183,-0.031205,0.116596,-0.250389,-0.252129,0.181631,-0.266900,-0.394131,-0.350612,0.302484,0.185171,-0.067309,0.239311,-0.035539,0.476440,-0.489563,0.301813,-0.061571,0.423765,0.000381,0.017869,-0.312250,0.117817,0.187704,0.360378,-0.191855,-0.270806,0.187948,-0.399564,0.132923,0.316858,-0.352870,-0.168233,-0.213858,-0.205649,0.467650,-0.081896,-0.036180,-0.289178,0.090289,-0.228385,-0.274895,0.002609,-0.135060,0.366848,0.008957,0.375668,-0.193625,0.157582,-0.033677,0.075762,0.272912,0.208213,0.013077,-0.306635,0.085955,-0.047136,-0.317530,-0.390347,-0.340724,-0.020798,0.225913,-0.472015,0.010208,0.352840,-0.406522,-0.342830,-0.164937,-0.483581,0.361904,0.052873,0.109912,-0.387295,0.390652,-0.226493,0.247856,0.137226,0.488495,0.006882,0.344234,0.327784,-0.129749,-0.176412,-0.458861,0.196188,-0.313501,-0.286035,0.042070,-0.390988,0.406369,-0.435942,-0.191672,0.323359,0.335261,0.227744,0.468444,0.383908,0.048540,0.350337,0.471496,-0.212363,0.022599,-0.399106,0.015976,-0.177725,0.244316,-0.031449,-0.214682,-0.015030,0.080218,0.279839,0.021256,-0.112934,0.187002,-0.407254,-0.033830,0.051683,-0.256279,-0.375820,0.206259,0.010025,-0.211753,-0.133259,-0.054247,-0.397305,-0.062181,-0.448729,-0.255333,-0.107410,0.275872,0.111316,-0.249840,-0.405087,-0.313623,0.305750,-0.046525,0.431639,0.416227,-0.343959,-0.496277,0.315394,0.147755,0.353999,-0.390835,-0.229759,0.362117,0.296533,0.058031,0.494690,0.274865,0.403775,-0.110675,0.473510,0.125294,-0.123646,0.245659,-0.454955,0.100269,-0.451323,-0.061205,-0.170736,-0.325800,-0.005936,-0.240776,-0.076098,-0.353603,-0.462218,0.061388,0.274010,-0.343349,-0.164785,-0.344783,-0.378109,0.460875,0.170003,-0.463988,-0.056597,-0.252617,0.129536,0.482971,-0.223655,-0.223807,-0.186331,0.058306,0.348384,-0.379238,0.232749,0.038377,0.409421,0.295495,0.051286,-0.193106,0.175710,-0.451537,0.333766,-0.256920,0.291406,-0.397794,0.448668,0.134816,0.213889,-0.377865,-0.213370,-0.351741,-0.070849,0.195517,0.449797,-0.114032,0.403836,-0.399075,-0.432432,0.063433,-0.320826,0.150349,0.396207,0.336543,0.014725,0.384396,-0.142903,-0.189566,-0.013962,0.402676,-0.328455,-0.238701,-0.055223,0.109882,-0.253105,0.102405,-0.254479,-0.340571,-0.028825,-0.374813,0.147023,-0.124653,0.072008,0.047563,-0.206931,-0.065966,-0.303522,0.399533,0.180074,0.087054,0.367763,-0.221763,-0.483062,-0.293847,0.474761,0.003494,-0.116077,0.432005,-0.048235,0.204672,-0.403500,-0.292840,-0.196677,-0.129322,0.180685,0.475829,0.131184,0.394009,-0.134358,0.330103,-0.180563,-0.359798,0.000443,-0.114673,-0.465606,-0.425962,0.300836,-0.335078,0.194601,0.473418,0.332026,0.276238,-0.431639,-0.237602,0.134571,0.158712,0.154134,-0.004990,0.398648,-0.314356,0.000443,0.020188,0.093616,-0.099353,-0.378323,-0.140187,-0.041093,-0.330042,-0.334468,0.331019,-0.237693,-0.467650,0.488891,-0.056261,-0.267602,0.027329,0.298059,0.104907,0.070788,-0.217002,0.009751,0.160573,-0.049333,0.145344,0.489044,0.307154,-0.091754,-0.370693,0.320276,-0.096881,0.032701,-0.026200,-0.232017,0.212271,-0.138661,0.081042,0.082873,0.109851,0.386074,-0.377712,-0.189810,-0.217124,0.077410,-0.409268,0.256096,-0.043992,0.332423,-0.417234,-0.231498,-0.326411,0.252617,0.089221,-0.011124,0.170278,0.158345,-0.422605,-0.269494,-0.139973,-0.254509,-0.354396,-0.359554,-0.023881,0.291314,0.031053,0.300562,-0.107471,-0.184988,-0.247551,-0.075518,-0.341914,-0.399869,0.168935,0.306604,-0.224815,-0.016007,0.235923,0.178884,-0.246635,-0.178854,-0.260521,-0.367489,0.469878,-0.472777,-0.209067,-0.239830,-0.131977,0.108631,0.361782,0.175008,0.024766,0.085009,0.141408,-0.436888,0.118549,-0.289270,0.498230,-0.074511,0.328761,0.401181,-0.174703,-0.334742,0.198233,-0.229667,0.052385,0.177450,0.489898,0.186453,-0.395169,0.096393,0.068529,0.250725,-0.408597,-0.141896,-0.160421,0.106830,-0.498413,-0.308222,0.210593,-0.030656,0.211936,0.034745,0.093768,0.296564,0.161275,-0.190390,-0.347560,-0.285089,0.390744,0.364834,0.163991,-0.076067,-0.293512,0.067614,-0.330103,-0.129994,-0.443022,0.209799,-0.116932,0.149312,0.449156,-0.115589,0.183065,0.147023,0.155446,0.489257,-0.269555,-0.180624,-0.006577,0.013627,0.231742,-0.475890,-0.041398,-0.235496,0.385495,-0.193533,-0.007889,-0.311487,-0.458098,-0.453978,0.164449,-0.054338,-0.393857,0.371639,0.056505,-0.108509,-0.282861,-0.250298,0.118976,0.123585,-0.266869,-0.347011,0.291711,-0.251335,0.054979,0.215323,-0.336085,-0.473083,-0.181326,0.279107,0.456786,0.049303,-0.011704,0.241752,0.109394,-0.395749,0.380459,0.107044,-0.250206,-0.109546,0.151753,0.147694,-0.168416,0.231010,-0.219565,0.085864,0.218192],[0.073229,0.197165,0.495361,0.041490,0.228996,-0.070055,0.061541,-0.382168,0.032548,0.163839,0.264397,0.117725,-0.321741,0.378658,0.400510,-0.341182,0.333613,0.195791,-0.257927,-0.172628,-0.468566,-0.357814,-0.168111,-0.375698,-0.119251,-0.444456,-0.336787,0.050951,-0.065203,0.104511,-0.255730,0.040086,0.022507,0.420133,-0.171194,0.389431,0.073595,0.244926,-0.405850,-0.147114,-0.030625,0.005722,0.047288,0.046495,0.450133,0.216697,-0.058763,0.325037,0.110187,-0.381497,-0.017869,0.285516,-0.487457,-0.039628,0.108570,0.053941,-0.046495,-0.169576,-0.375362,0.011551,-0.090991,0.441923,0.467589,0.116626,-0.305902,-0.220084,0.391507,0.478454,0.366237,0.016221,0.348354,0.339259,0.404233,-0.402280,-0.152547,0.120808,0.193625,0.192007,-0.425291,-0.308405,-0.149831,-0.042314,0.052995,-0.488952,0.412198,-0.139119,-0.375484,-0.193228,-0.066424,-0.247459,-0.462981,0.441527,-0.491668,-0.195639,0.414609,-0.374447,-0.242088,-0.105365,-0.105579,0.131336,-0.187155,-0.211570,-0.288934,0.166005,0.319758,0.241844,0.008835,-0.441404,-0.495239,-0.063952,0.164449,0.417966,-0.174734,-0.351924,-0.099811,-0.082659,0.240349,-0.436308,-0.030198,0.362606,-0.368252,0.139454,0.197501,0.199515,0.406858,0.419675,0.151967,0.116962,-0.186209,0.214743,0.236351,-0.097888,0.001572,0.047197,0.475524,0.203574,0.354854,0.271294,-0.218284,-0.140797,0.135731,0.272942,-0.019822,-0.055284,-0.036485,0.155812,0.375576,0.198904,0.163259,-0.179922,0.140828,-0.017685,-0.484924,-0.159902,0.309442,0.425382,0.434873,0.046800,-0.347438,-0.077868,0.117908,0.221915,0.222190,-0.374050,-0.323176,-0.190695,-0.158803,0.103534,-0.195303,0.050615,0.322626,-0.196860,-0.005051,0.450407,-0.302026,0.493896,-0.150929,-0.021867,0.237144,0.331629,-0.496521,-0.087512,-0.459929,-0.291803,-0.293146,-0.265465,0.482452,-0.459716,-0.421049,-0.023942,0.295618,0.153584,-0.417447,0.429075,-0.436949,0.419340,-0.260796,-0.377102,0.413785,0.298761,-0.379269,-0.024430,-0.305811,0.452147,0.147145,-0.475646,0.400113,0.068590,-0.277551,-0.356349,0.149220,-0.427458,-0.260247,-0.345393,-0.023515,0.363796,-0.013413,-0.265770,0.232383,0.246635,-0.018021,0.029038,-0.133564,-0.294885,-0.223655,0.380398,-0.123524,-0.320124,0.245628,-0.432676,0.205252,0.003311,0.410642,0.473144,-0.134480,0.149251,-0.186758,0.081988,-0.424955,0.453276,0.480377,-0.287835,-0.317621,0.460051,-0.492920,0.391476,-0.334925,-0.446287,-0.209922,-0.218253,-0.018601,-0.471953,-0.057024,-0.441588,-0.443297,0.251854,-0.075854,-0.348659,-0.313929,0.086657,0.409207,0.253166,-0.366207,0.212638,0.438261,0.001572,-0.288171,-0.481292,0.370449,0.241691,0.117634,0.213584,-0.324183,-0.225242,0.313440,-0.186361,-0.403287,-0.000778,0.227226,-0.335932,0.209403,-0.149037,0.057848,-0.350551,-0.082751,0.448363,-0.035630,0.249992,-0.092944,-0.151357,0.421842,-0.400204,-0.400723,-0.177755,-0.476073,-0.296716,-0.376186,0.050371,0.014573,0.466063,0.352229,-0.346889,0.328883,-0.303552,-0.481994,0.453734,0.425413,-0.265801,-0.043779,-0.114612,-0.309503,-0.137989,-0.007187,-0.052965,-0.303674,0.156941,-0.483612,0.114002,0.093524,-0.062853,0.262444,-0.389828,0.419889,0.460814,0.341609,-0.052324,0.106342,0.033189,-0.456297,0.140309,0.461547,0.178060,0.448241,0.497192,-0.083972,0.030076,-0.127522,0.402646,0.307611,-0.396207,-0.310724,-0.011307,0.488769,0.096088,-0.455138,0.106342,0.037736,-0.122059,-0.491760,-0.498016,0.354579,0.332118,0.183859,-0.394833,-0.077349,0.192343,0.317957,-0.166189,0.017960,-0.458647,0.430631,-0.176656,-0.353328,0.122730,-0.495575,0.486053,-0.007340,0.123859,0.260857,0.306330,0.155629,0.085772,0.055956,-0.220939,0.462065,0.095965,-0.073656,0.396481,0.129200,-0.078906,-0.183126,0.090075,-0.435820,0.234886,-0.478790,-0.465972,0.078845,-0.401608,0.366512,0.216239,0.302026,0.348231,0.173452,-0.317225,0.070299,0.049333,-0.476989,-0.136921,0.078509,-0.331507,-0.138813,-0.119190,0.071245,0.124683,0.472503,0.257775,-0.143269,0.372707,-0.145711,-0.083666,0.297418,-0.230094,0.288934,0.290429,0.098224,0.274499,0.336665,-0.293115,0.437284,-0.311029,0.206503,-0.467101,0.326411,-0.101276,0.010392,-0.371517,0.097949,-0.331172,-0.333613,0.099261,0.355678,-0.073046,-0.324671,0.091723,0.212973,0.173055,-0.483764,-0.268334,0.103717,0.172445,0.192618,-0.389126,-0.053606,-0.411863,-0.040239,-0.270745,-0.056963,-0.290796,-0.234275,0.298090,-0.205893,-0.069353,0.435667,0.311029,-0.389126,0.141804,0.132038,0.288903,0.306177,-0.320887,0.121479,0.104419,-0.255364,-0.000412,0.379116,0.293359,0.434690,-0.268822,0.062609,-0.241600,0.041826,0.256462,0.386135,0.271569,-0.493652,0.485626,-0.073840,-0.318110,0.045244,-0.024735,-0.109729,0.234519,-0.179769,0.049211,0.379849,-0.093036,-0.446776,0.077349,0.178243,0.169881,-0.129749,-0.430967,0.095813,0.077136,-0.345180,0.237205,0.402524,0.092822,0.192984,-0.310694,0.379788,-0.439421,0.389859,-0.098254,-0.477172,0.221763,-0.159749,0.133442,0.424680,-0.311365,0.033982,0.435209,-0.127369,0.279138,0.476836,0.411130,0.189657,0.118854],[0.388272,0.350398,-0.082842,0.102954,-0.349635,-0.095843,0.323298,0.418516,-0.107105,0.235984,0.268670,0.402219,-0.445555,0.196524,0.201987,0.206626,0.181783,-0.367702,-0.377132,-0.286004,0.484039,-0.151936,-0.178976,-0.055345,0.232780,-0.468596,0.226157,-0.368709,-0.335902,0.172048,0.275994,0.240593,-0.461425,-0.493896,0.207785,0.223258,-0.483886,0.017411,-0.319941,-0.225852,0.001144,0.026292,-0.369289,-0.117115,0.114978,0.397824,0.277520,-0.042772,-0.048723,0.400327,-0.332453,-0.200308,-0.228996,-0.254540,-0.318201,0.218955,0.293115,0.341487,-0.098987,0.057390,-0.262932,-0.209922,0.238975,-0.084277,-0.226249,0.159383,-0.250053,0.356441,0.040574,0.062792,-0.484161,-0.133442,0.377651,-0.423643,0.020066,0.361843,0.440489,0.024949,-0.086566,-0.486969,-0.153768,0.168874,-0.420377,-0.324305,-0.490722,-0.177816,0.405057,-0.295282,0.322474,0.433897,0.160390,0.434996,-0.159719,-0.336818,0.399686,0.109088,0.120319,0.480346,0.283227,-0.466063,0.379238,-0.176260,-0.269677,0.246757,-0.380764,0.345485,0.308985,0.472137,-0.118274,0.275445,-0.232810,0.151631,0.283898,-0.063707,-0.385769,-0.173330,0.495056,-0.060198,-0.344020,-0.343837,-0.191580,-0.403989,-0.107776,0.350276,0.465148,-0.433012,-0.318812,0.301386,0.386196,0.295404,-0.421720,-0.306421,-0.031114,0.239952,-0.245598,-0.128010,0.104205,0.449065,0.401028,-0.246971,0.070879,-0.496979,0.027543,-0.443175,0.462737,0.357143,0.057787,-0.356563,-0.194418,0.116108,-0.368801,-0.266350,0.019730,0.271508,0.015702,0.295709,0.384396,0.433409,-0.462157,0.379513,0.160421,0.087207,0.437223,-0.320734,-0.472503,0.407407,-0.449797,0.105853,-0.008103,-0.341121,0.231040,-0.349879,-0.078814,0.217765,0.414457,-0.181265,0.362484,-0.257836,0.227897,0.423185,-0.200400,-0.474822,0.058489,0.003830,0.006455,-0.439848,0.481292,-0.330073,-0.348079,0.350520,-0.044725,-0.363277,-0.186575,-0.005295,-0.306818,0.241325,0.054399,-0.421781,-0.388821,-0.281915,0.222983,0.402921,-0.234916,-0.484771,-0.372707,0.085833,0.179098,0.433683,-0.255852,0.058458,0.473418,0.369167,0.117023,0.497436,0.196829,-0.060411,-0.400113,0.218131,0.270623,-0.222098,-0.396969,-0.437315,0.450316,-0.227500,0.496826,-0.186911,0.210776,0.036210,-0.169912,0.160939,-0.038041,-0.115314,-0.480590,-0.234642,0.000473,-0.393612,-0.334986,-0.070208,0.103992,0.304224,-0.134816,-0.070727,0.174490,-0.408933,-0.321101,-0.480712,-0.163503,0.420133,0.412626,-0.342311,0.396695,-0.169210,-0.145863,0.470641,0.071001,-0.107440,0.143422,-0.006272,-0.114307,-0.373379,0.416318,-0.279809,0.158467,0.187979,0.384396,0.486755,-0.034227,0.087909,-0.208579,-0.271599,-0.497192,-0.260765,-0.096637,-0.365871,-0.257500,0.104816,-0.312281,0.233665,0.299097,-0.269219,-0.161580,-0.052446,-0.096332,-0.053941,0.302942,-0.368831,0.396725,-0.491180,0.467376,-0.355739,-0.355068,0.481658,-0.343898,-0.023026,0.287866,-0.383572,0.102283,-0.036241,-0.279229,0.030351,0.044816,-0.383328,0.220603,0.453826,0.109180,0.108875,-0.379940,-0.167592,-0.372951,0.439634,0.437376,-0.436766,0.052324,-0.187521,-0.133015,0.147389,0.128376,-0.242515,-0.461943,-0.460479,-0.035997,-0.471313,0.446806,-0.023515,-0.326258,-0.191580,-0.031480,-0.435118,-0.261223,0.249382,0.356594,0.410489,-0.255181,-0.114124,-0.366512,-0.430753,-0.346706,-0.054491,0.281060,-0.397702,0.261864,0.092456,-0.364681,0.015427,0.010666,-0.366390,0.393338,0.364650,-0.209342,-0.281060,0.136921,0.309137,-0.090045,0.067125,0.280724,0.392605,-0.125294,0.248070,0.350124,-0.165670,0.140828,0.052873,-0.004532,0.111438,0.492279,-0.016495,-0.350978,-0.386807,0.203055,0.392361,0.230613,0.149098,-0.361782,0.303796,-0.191702,-0.408567,0.450957,0.448332,-0.379330,0.434080,0.031266,-0.458861,0.366329,-0.451659,0.363094,0.336024,0.167501,-0.082232,-0.054186,0.485534,0.113575,-0.367977,-0.063433,-0.260338,-0.208975,-0.077563,0.169210,-0.486724,-0.294092,-0.480560,0.206839,0.353938,0.005112,0.113666,0.083575,0.341395,0.402829,0.201712,-0.107990,-0.049852,-0.281854,0.098071,-0.127125,0.406034,-0.069353,0.394162,0.162496,0.067980,0.159139,-0.354030,-0.144948,-0.133229,0.471068,-0.428495,-0.464568,0.331538,-0.071917,-0.460906,-0.060991,0.235282,-0.225913,-0.371914,-0.105548,0.391018,0.172170,0.043107,0.206534,-0.370693,0.396634,0.162893,-0.366115,0.489044,-0.113727,0.005325,-0.380551,-0.348323,0.065477,0.389767,-0.071459,-0.348079,0.338862,-0.422514,-0.148305,-0.106006,0.165944,-0.327418,0.128162,-0.493591,-0.377346,-0.436796,0.246208,0.065722,0.354823,-0.314508,0.276879,-0.279351,0.330683,0.390805,-0.103046,-0.252037,0.298761,0.197867,-0.242119,0.071001,0.356685,-0.289209,-0.143788,-0.227470,-0.462340,0.484588,0.062853,0.133106,-0.178854,-0.381222,0.466277,0.225700,0.472930,0.361263,-0.313440,-0.401456,0.122120,-0.497192,-0.183370,0.077136,0.480529,-0.155812,0.146321,0.216178,0.110736,-0.483642,0.326106,0.433897,0.149525,0.435789,0.126514,0.358455,0.392300,-0.324366,0.449614,0.419217,-0.354671,0.034410,-0.251701,0.212851,-0.248192,-0.417417,-0.489502,-0.323511],[0.469787,-0.036119,-0.401547,-0.295038,-0.227744,-0.342616,0.498260,-0.285058,-0.336909,0.076281,0.407102,0.173757,-0.314356,-0.053758,-0.420164,-0.479553,0.412046,0.383633,-0.330042,0.287347,0.267327,-0.452666,0.398556,0.217795,-0.198874,-0.051042,0.248894,0.307855,0.187918,0.077471,0.217399,-0.322047,0.236717,0.494568,0.152821,-0.318934,-0.307947,0.056841,-0.285882,0.153066,0.107227,0.421476,0.479217,0.212363,0.070818,0.491089,0.234977,-0.485687,0.068316,-0.045763,-0.019608,0.367275,-0.240562,-0.421659,-0.326258,-0.384396,-0.046983,0.410245,0.255089,-0.302545,0.060015,-0.458617,-0.024430,-0.218375,0.306818,-0.405820,-0.435392,0.391476,0.489044,-0.415525,0.265984,0.421110,-0.452055,0.317927,0.274529,-0.049608,-0.249779,-0.024522,-0.395444,-0.234825,-0.247520,0.044664,-0.079119,-0.011277,0.332026,0.252892,0.364162,-0.269280,0.064501,-0.341334,-0.098376,0.160207,-0.269646,-0.442167,0.234489,-0.091510,-0.268914,0.359798,-0.206900,0.208487,0.296258,0.091235,-0.148671,-0.323511,-0.237144,-0.317133,0.291406,0.142994,-0.291528,-0.304407,0.050218,0.438292,0.218741,-0.357570,-0.221274,-0.460326,0.071215,-0.437681,-0.254601,-0.013871,0.116291,0.002213,-0.485107,-0.033219,-0.363308,0.063524,0.433836,-0.010514,-0.033128,-0.330561,0.453734,-0.464324,0.153005,-0.290918,0.323969,-0.391995,-0.064196,0.214774,-0.315699,-0.423460,-0.163564,0.228843,0.089709,0.230186,-0.372585,-0.483642,0.497589,0.439329,-0.030595,-0.220542,0.249382,0.336268,0.495361,-0.470122,0.077654,0.419248,0.123066,0.276482,0.169515,0.486755,-0.122364,0.182669,-0.181753,-0.192129,0.004837,-0.148549,-0.306177,0.435636,-0.343196,0.393368,0.264092,0.068712,-0.068773,0.433866,0.397153,0.368679,-0.454802,0.216544,-0.322748,0.138081,-0.074664,0.458190,0.464263,0.266655,-0.005081,0.112140,0.228721,-0.149190,0.439665,-0.304010,0.193808,0.393674,-0.266839,0.340083,-0.185385,0.491119,-0.296411,0.212851,0.127277,-0.089496,-0.077715,0.479644,0.497772,0.468322,-0.303766,0.450499,-0.197134,-0.387265,-0.055010,0.074175,-0.426115,0.117634,-0.256066,0.433744,0.134358,-0.205863,-0.185537,0.400540,0.263298,-0.374020,-0.257012,0.102557,0.415098,0.234977,0.209525,0.363582,0.027085,0.082751,0.007309,-0.230857,-0.053270,0.315180,0.134816,-0.484191,-0.491424,-0.344508,-0.258934,-0.300073,0.293420,0.252709,0.205954,0.201865,0.099811,-0.109058,0.136341,-0.177450,0.160360,0.466887,-0.440367,-0.172079,0.132801,0.140522,0.095782,-0.442045,-0.101917,0.066515,0.388943,0.256401,-0.303888,0.111286,-0.419736,-0.222587,-0.369015,0.463317,0.103198,0.325465,0.076159,-0.458342,-0.418424,-0.115467,0.011582,0.110096,0.113453,0.493439,-0.176382,0.002213,-0.279992,0.022355,-0.400876,0.364162,0.242485,-0.391568,0.444914,-0.178549,0.467071,0.405210,-0.136280,0.475463,-0.240074,-0.197073,-0.281549,0.136616,-0.006912,-0.224021,-0.184927,-0.300104,0.042528,-0.486816,-0.363735,0.069384,-0.360073,-0.012009,0.256523,-0.462310,-0.140858,-0.376156,-0.029771,0.026841,0.018632,-0.287927,-0.336177,0.096637,0.281152,-0.262566,0.463530,0.126972,-0.267968,0.268578,-0.310755,-0.419797,0.217307,-0.431150,-0.352962,-0.250298,-0.277490,-0.415586,0.290246,-0.098834,-0.425871,0.465117,0.280938,0.212607,0.244469,0.275170,0.483489,0.419553,0.040971,0.049516,0.420682,-0.428495,0.462157,-0.148091,-0.276177,-0.193930,-0.499878,-0.008469,0.108783,-0.453368,-0.327754,0.053575,-0.091937,0.030473,0.062090,-0.098895,-0.308832,-0.427030,0.151631,0.303583,0.003952,0.474609,-0.274346,0.348354,-0.241600,-0.023606,-0.370235,0.292169,0.304102,0.170919,-0.336970,0.007889,-0.287713,0.274255,0.386715,-0.316614,0.304743,0.165670,0.130146,-0.071429,-0.042863,-0.398862,-0.024583,-0.053056,0.209891,0.007096,0.001541,-0.072161,-0.283746,0.259941,-0.430296,0.315516,0.060045,0.358913,-0.069109,0.111469,0.473327,0.397183,-0.063250,-0.133564,0.486145,-0.261650,0.135762,-0.482177,0.038774,-0.195853,0.034745,-0.270867,0.088458,0.379666,-0.191885,-0.112323,0.241264,-0.157430,0.235527,0.416776,0.440672,0.222251,0.149220,-0.441496,0.244072,0.495392,0.172384,0.283563,-0.281549,0.024033,0.029923,0.484191,0.486389,-0.457488,0.212546,0.106616,-0.046342,-0.400388,0.275811,0.379391,0.249901,-0.138325,-0.445067,-0.206870,-0.086871,0.183737,-0.422727,-0.010788,-0.149953,-0.145894,-0.047166,0.212271,-0.397427,-0.080615,0.024857,0.483764,0.452574,-0.004563,0.061388,0.152303,0.395505,0.471221,0.269097,-0.022568,-0.485321,-0.488647,0.410489,0.402585,-0.212943,-0.236259,0.306055,0.173788,-0.148213,0.178549,0.002274,-0.039415,-0.226859,-0.155324,-0.112873,0.134785,0.328700,0.250267,-0.466185,0.363979,-0.145924,-0.126881,-0.445524,0.175497,0.175954,-0.492676,0.244835,0.147572,-0.336390,0.232933,0.301019,-0.116474,-0.068499,0.433805,0.390225,0.425474,0.222892,-0.228965,-0.144368,0.263665,0.006821,-0.482360,0.337886,-0.402066,-0.180868,0.160604,-0.406674,0.007279,-0.121448,-0.323176,0.291253,0.183645,-0.490112,0.389370,0.070391,-0.113086,-0.095233,-0.190268,-0.363063,-0.223533],[0.372921,0.184500,0.275933,-0.233634,0.471221,-0.082415,0.127674,-0.346095,-0.306970,-0.039995,-0.207236,-0.466430,-0.326777,0.429197,0.352962,0.357967,0.460875,-0.042131,0.070757,0.357387,-0.189261,0.444090,0.264306,0.040941,0.305292,0.311121,-0.347530,-0.214316,-0.287652,0.058367,-0.172720,0.044572,0.486145,0.384671,0.009354,-0.294946,-0.183798,-0.335292,-0.257164,-0.370754,0.132496,0.060747,-0.313837,-0.093066,0.470733,0.049913,0.154500,-0.147206,-0.393948,-0.351039,-0.429380,0.279015,0.360317,0.117603,0.480224,0.074419,-0.010727,0.421415,0.287805,-0.378292,0.056352,0.235893,0.369625,0.083666,-0.301263,-0.227195,-0.280206,0.089679,-0.307306,0.209983,-0.214103,-0.145772,0.223472,0.005844,-0.349849,0.257958,-0.233238,-0.120045,0.212821,-0.077013,-0.011979,-0.258934,-0.466552,-0.186361,0.065020,0.343287,-0.013077,0.393796,0.341029,-0.047716,0.389859,-0.127918,-0.286035,-0.197501,-0.245689,-0.433622,-0.331690,-0.373470,-0.175497,-0.081561,0.355831,0.038011,0.052934,0.190420,-0.368801,0.049364,0.172292,0.374050,0.449370,-0.494507,0.019395,0.344203,-0.470153,-0.285119,-0.232841,-0.212333,-0.304376,0.058855,0.221152,-0.061296,-0.208579,-0.138936,0.336787,-0.347743,-0.411222,0.297601,-0.386563,-0.153493,-0.416501,-0.370327,-0.478057,-0.154073,0.091906,-0.460356,-0.378658,-0.344417,-0.447722,-0.148244,-0.478668,-0.301263,0.437651,0.419034,0.346919,0.048296,-0.314112,0.457427,-0.139210,-0.316187,0.054125,0.108356,-0.099078,-0.194815,0.302637,-0.488769,0.287988,-0.266045,-0.384365,0.166707,-0.139698,0.434111,0.164327,-0.127644,-0.208121,0.182943,0.218619,0.012070,-0.150166,0.423887,-0.285546,0.479675,-0.252617,0.331965,-0.317927,0.019150,0.249290,0.123402,0.441771,0.261834,0.184774,-0.359066,-0.026261,0.241997,0.025559,0.245384,0.368068,-0.327418,0.184194,-0.454833,-0.239402,-0.238426,-0.310480,-0.004624,-0.338069,-0.149129,0.395322,-0.103504,0.084796,-0.341456,0.378231,-0.174398,0.376827,0.405972,-0.318262,0.029740,0.164357,-0.389187,0.061785,-0.186087,0.314264,-0.172414,-0.109333,0.454253,0.319025,0.116291,-0.124500,-0.332270,0.012345,-0.478881,-0.252709,0.170156,0.020951,0.340358,-0.423093,0.352840,-0.141163,0.467864,-0.125599,-0.390133,0.070605,-0.411222,0.127674,0.347316,0.329554,-0.490173,-0.063097,0.204520,-0.102588,0.405271,0.400845,-0.479492,0.351527,0.260460,-0.088641,-0.424894,-0.014298,0.293939,0.012589,-0.363033,-0.208579,-0.360836,0.480499,0.349361,0.425291,0.067278,0.279534,0.485260,0.068804,0.032060,-0.447325,-0.397336,-0.412626,-0.181387,0.300623,-0.368221,-0.105762,0.076678,-0.093310,-0.075182,-0.074541,-0.480163,0.164144,-0.199973,0.132893,0.072314,-0.039048,0.111255,-0.099231,0.243980,0.279778,-0.125965,-0.207541,0.015213,-0.331843,0.479522,0.033372,0.012955,-0.164266,-0.472381,0.136708,0.258660,-0.465087,-0.189383,0.077807,0.270196,0.380673,0.478210,-0.076312,-0.201895,-0.233818,-0.084460,0.323908,-0.021714,-0.469390,0.365596,-0.231071,0.181478,-0.465209,-0.173452,0.022507,0.341639,-0.198630,0.256096,-0.366176,0.044053,0.376034,-0.386410,-0.063677,0.154164,-0.434904,-0.228751,0.438871,0.268975,-0.292962,-0.174215,0.015732,-0.228172,0.132679,-0.158223,-0.198111,-0.227927,0.471648,-0.442228,0.199454,-0.289514,-0.039445,0.086627,-0.098498,-0.087695,-0.090472,0.141163,0.340388,-0.131581,-0.017106,-0.183370,0.465209,-0.473327,0.450987,0.460845,0.256462,0.373959,0.068468,-0.336421,-0.117328,-0.409482,-0.263665,-0.103534,-0.093738,0.058184,-0.397153,-0.165822,0.444182,-0.497314,-0.239372,-0.111103,-0.309992,-0.447325,0.195364,-0.011277,-0.296258,-0.004410,0.142994,0.131520,-0.124836,0.012070,-0.488922,-0.254692,-0.032517,-0.329615,-0.478820,0.386715,0.147298,0.461638,0.227897,-0.191580,-0.093127,0.157247,0.071245,-0.072832,0.285821,-0.229881,0.118580,-0.276849,0.297052,-0.099628,0.151967,-0.397549,-0.035173,0.247276,0.257775,0.253838,-0.120045,-0.431761,0.074297,-0.469726,-0.321162,-0.133442,0.353969,0.388119,0.352870,0.088702,-0.003891,0.412961,-0.206351,0.112781,0.206717,-0.034227,0.481475,0.309198,-0.058458,0.478759,-0.278039,0.454772,0.288476,-0.067217,0.338252,0.281793,-0.054369,0.048387,0.224296,0.442961,0.451689,0.220023,-0.334284,0.173513,0.323817,-0.273614,-0.165304,0.432188,-0.239189,0.247185,0.364711,-0.198599,0.066393,0.217551,0.411649,-0.070818,0.449553,0.051897,0.107654,-0.207358,0.358211,-0.231834,-0.186361,-0.434568,0.002426,0.043443,0.076891,0.369808,0.223014,0.232719,-0.299890,-0.305383,0.362331,0.381710,-0.172079,-0.239158,0.293146,-0.235008,0.457244,-0.384671,0.262169,-0.018967,0.277703,0.234519,-0.296045,0.134693,0.248558,0.418943,-0.317866,0.139302,-0.182119,-0.239738,0.113453,-0.331233,0.190939,0.461821,0.431608,-0.208335,-0.446806,0.293573,-0.153401,-0.182180,-0.344783,0.463500,-0.143849,0.389492,-0.335383,-0.314051,0.165181,0.347499,-0.307855,0.228904,-0.330256,0.404324,-0.102283,0.220328,-0.337977,0.154927,-0.417081,-0.003739,-0.088366,0.456755,0.175924,-0.229148,-0.219230,-0.289911,-0.484771,0.409757],[0.070269,0.338771,-0.411496,0.460234,0.122333,0.383847,0.116962,0.080889,0.050310,0.005203,-0.289178,-0.096026,-0.168416,-0.283502,-0.008255,0.076617,0.488006,-0.438047,-0.002701,0.474975,-0.075091,-0.275384,-0.018204,0.426359,0.389218,0.276696,-0.210471,-0.285089,0.077929,0.479186,-0.418668,-0.473632,-0.071673,-0.463713,0.196249,0.488922,0.121082,0.211386,-0.071245,0.465514,0.327265,0.210257,0.003616,0.254967,0.231162,-0.261498,-0.470824,-0.142964,0.359279,0.138844,0.210288,0.458495,-0.252342,0.014664,-0.397671,-0.204123,0.477996,-0.253563,0.187613,0.051866,-0.385739,-0.193381,0.055010,-0.059465,-0.428831,-0.220115,0.464751,0.138966,0.445158,0.494537,0.078784,-0.279870,0.339747,0.171590,0.138844,-0.255333,0.216391,-0.002304,0.372707,-0.333522,0.301599,0.027970,-0.089709,-0.290551,-0.417600,-0.174612,-0.009079,-0.128986,0.420591,-0.257347,-0.257347,-0.291162,-0.182516,0.252739,-0.184683,-0.433042,0.360408,0.234794,0.148061,0.397946,0.381924,-0.378780,-0.346797,-0.163686,0.363399,0.312342,0.097186,-0.318964,0.113666,-0.235221,-0.039995,0.441771,-0.245354,0.160268,-0.445463,0.106128,0.044633,-0.439634,0.186850,-0.216117,0.070757,-0.045976,-0.361476,0.384365,-0.157949,-0.396176,-0.246849,-0.016892,-0.186239,-0.402463,0.406674,0.034623,-0.125019,0.010666,-0.355495,0.086688,-0.169912,-0.413205,0.265648,0.153127,-0.094287,0.341823,-0.364864,0.400906,0.314386,-0.002060,0.006638,0.307886,0.406034,-0.345607,0.135670,-0.052202,0.438536,-0.399503,0.465362,-0.441893,0.498810,-0.322413,-0.334376,0.047533,-0.394620,0.095935,-0.192831,-0.400937,-0.475799,0.113300,-0.048662,0.025254,0.327967,0.480651,0.437407,0.031327,0.231407,0.061998,-0.351680,0.043107,-0.266991,-0.465697,-0.463713,-0.244652,-0.405423,-0.426450,-0.310816,0.057299,-0.309900,0.433378,0.219413,0.491150,0.254723,0.322871,0.256157,-0.099811,-0.434385,0.489044,0.322504,0.422636,-0.414304,0.410794,0.378628,0.487213,-0.398587,0.010636,-0.188101,-0.032762,0.385922,0.289880,0.156056,0.148946,-0.081042,0.294153,-0.180410,-0.329463,0.194601,-0.184866,-0.394498,0.088275,0.148091,-0.264946,0.303339,0.225639,0.233177,0.419797,0.134297,-0.037828,-0.319025,0.067034,0.331813,-0.382260,-0.028214,0.416105,-0.362453,-0.411039,-0.448943,-0.275079,-0.005081,0.393735,0.320673,0.421201,0.221091,-0.219810,-0.063066,0.333277,-0.061235,0.056597,0.446440,-0.092303,-0.451079,0.297784,0.291162,0.319300,-0.474120,-0.414884,0.213645,-0.120289,-0.184072,-0.064074,0.094287,-0.348476,-0.379543,0.078295,0.251122,-0.326594,0.345546,-0.271752,0.233818,-0.297143,-0.001633,-0.475127,-0.356685,-0.117084,-0.187613,0.279870,0.007859,0.238853,0.382351,-0.302087,0.246910,0.411130,0.089953,0.224143,-0.245659,-0.468963,0.102252,0.174306,-0.368068,-0.354701,-0.276788,-0.194967,0.104663,-0.404691,0.380154,0.479339,-0.351527,-0.241844,0.026322,-0.415952,-0.137226,-0.445006,0.240471,0.356105,-0.382199,0.133351,-0.194784,0.272179,-0.491028,0.129322,0.045122,0.160207,0.148976,-0.083605,-0.294580,-0.313074,0.328913,0.246574,-0.346278,0.379208,-0.419889,-0.309565,0.184469,-0.165548,0.167379,-0.217612,0.208762,0.277093,0.045030,0.277062,0.109760,0.116565,-0.192679,0.423246,-0.454344,-0.336055,0.164266,-0.338069,-0.018906,-0.337306,-0.026292,-0.345668,0.228080,-0.209647,0.361843,0.045854,-0.221610,-0.213004,-0.037614,-0.126728,0.207877,0.367000,-0.193533,0.020219,0.434385,-0.429716,-0.105945,-0.371944,0.110431,-0.290826,-0.021897,-0.132008,-0.067919,-0.432798,-0.406858,-0.019395,0.144734,0.006333,-0.140889,-0.010514,0.027726,-0.361812,0.091754,-0.005203,-0.361476,-0.283441,-0.249016,0.453093,-0.401822,-0.093585,-0.241508,0.349910,0.198569,0.086230,-0.284478,-0.329005,-0.386288,-0.160054,0.052477,0.078845,0.495575,-0.205649,-0.358730,0.200217,-0.264306,0.458739,-0.097919,0.431516,-0.325434,-0.277673,-0.064959,-0.332026,-0.460906,-0.333338,-0.290948,-0.137165,0.390042,-0.151753,-0.161824,-0.177114,0.360317,-0.291498,-0.022721,0.146443,0.465880,0.266625,0.368068,-0.289514,-0.230308,-0.247948,-0.433317,-0.387478,0.180837,0.332728,-0.115558,-0.025895,-0.330683,-0.404935,-0.427732,-0.488525,0.178457,-0.067675,0.280969,0.280663,0.015519,0.497406,-0.172170,-0.498077,0.002304,-0.123920,-0.198630,-0.128681,0.166646,0.137867,0.034989,0.264122,0.256157,0.419126,0.481140,0.237480,-0.144368,-0.303522,-0.482910,0.238182,0.389126,-0.094470,0.213736,-0.078600,-0.212180,0.061418,-0.401883,0.487457,0.105762,-0.462096,0.442045,0.442015,-0.136616,0.160848,-0.393521,-0.313349,0.401395,0.272027,0.474822,0.345729,0.025163,0.420316,-0.495880,0.235374,0.221976,-0.163991,0.428068,0.382168,-0.255669,0.335871,-0.238395,0.067705,0.059069,-0.123096,-0.015305,-0.333613,0.039109,-0.131764,0.437010,0.368465,-0.257408,0.370113,-0.028428,0.013535,-0.046403,-0.379543,-0.396664,-0.130268,0.429044,0.165700,-0.257195,0.057878,0.250175,-0.069750,-0.389126,0.431150,-0.190817,0.382656,0.367214,0.315851,0.211692,0.452788,-0.017747,0.019852,0.376247,0.357906,0.384854,-0.485168],[-0.007218,-0.083483,0.198752,-0.039109,0.040757,-0.376522,0.144185,0.067980,0.461577,0.418058,-0.260125,-0.108509,-0.487487,-0.359920,0.130726,0.003311,-0.040941,0.050432,0.362758,-0.220725,-0.369045,-0.212943,-0.360225,0.254967,-0.019242,0.315363,-0.402615,-0.071581,-0.200095,-0.096179,0.000839,0.291559,-0.250114,-0.343501,-0.227073,0.371303,-0.136341,-0.366909,-0.241630,0.061724,-0.325709,0.088519,0.130634,-0.471465,0.126698,0.362423,-0.152425,0.466948,-0.071337,0.450804,0.062304,0.494324,0.498016,-0.209677,-0.104846,0.459014,0.161275,0.286615,0.473510,-0.053697,-0.239189,0.118122,-0.354854,-0.237144,0.326319,0.346706,0.271966,-0.318964,-0.033006,-0.134083,-0.490295,0.224174,-0.359249,-0.281518,-0.019333,-0.226005,-0.043382,0.314295,0.244835,-0.218101,-0.333583,-0.420225,0.476348,0.364681,0.002518,-0.429441,-0.248833,0.066210,-0.483001,-0.422178,-0.147511,0.066851,-0.420286,0.260338,-0.000198,-0.379208,0.190115,-0.166982,0.407987,0.003677,0.260186,-0.156392,0.083026,-0.249199,0.024277,-0.432005,-0.239982,0.467956,-0.267907,-0.443449,0.390164,-0.004624,0.281060,0.361507,0.082659,0.207053,-0.055467,-0.022294,-0.091754,0.225303,-0.148061,0.027207,0.470000,0.333277,0.377010,0.219382,-0.352016,0.365658,0.090533,0.117695,0.424375,-0.141011,0.433927,-0.255852,0.194327,-0.256462,-0.230552,0.053331,0.469848,-0.143269,-0.035905,-0.193777,0.382351,0.060686,0.162404,-0.123768,-0.109729,0.244285,-0.094592,-0.482238,0.098102,-0.008866,0.251305,-0.370907,-0.407254,0.195059,0.054277,-0.459532,0.204245,0.403867,0.058092,0.359127,0.095813,0.172994,-0.039933,0.401852,-0.409085,0.210349,0.102069,-0.253044,-0.357387,-0.407071,-0.055193,0.436613,0.351619,-0.162526,-0.018387,0.360561,0.439543,0.105609,0.247673,0.353175,0.083636,0.324976,0.081469,-0.465880,0.018998,-0.492126,0.294366,0.425016,0.314325,0.048173,0.404569,-0.127949,-0.271813,0.277978,0.091845,0.307092,0.051469,0.065569,-0.470794,0.377651,0.342128,-0.264611,-0.252220,0.477233,0.459288,0.091601,-0.308924,0.207327,-0.198141,-0.173666,0.115101,0.302484,-0.340938,0.094226,-0.009812,0.049242,0.077990,-0.466277,-0.438627,-0.269341,-0.344783,-0.482421,-0.277062,0.127400,0.158712,-0.087603,-0.136311,-0.393338,0.385708,0.129749,-0.160726,-0.169576,0.163289,-0.250816,0.227744,-0.386166,-0.102039,0.495178,-0.475555,-0.034440,-0.419889,-0.151814,0.432768,-0.159474,-0.350154,0.072558,-0.093554,-0.362514,-0.369655,-0.059160,0.100757,-0.028672,-0.064806,-0.062609,-0.112445,-0.247642,-0.244255,0.221122,0.091235,0.103534,0.434690,0.129688,0.101764,0.146535,0.232292,-0.494324,0.020646,0.188589,-0.108417,-0.373470,-0.003342,0.340632,-0.091662,0.019028,-0.093066,0.098498,-0.087359,-0.060106,0.040391,-0.081683,0.067919,-0.196371,-0.060991,0.317194,-0.106250,0.339045,0.053850,-0.469604,0.418973,-0.244865,0.371456,0.256890,0.070757,-0.301538,-0.332484,-0.476531,0.206687,0.282464,-0.456267,0.199667,-0.304743,-0.029618,-0.096240,0.194052,0.451811,-0.406980,0.025193,-0.136341,0.335414,0.282434,-0.116474,-0.332667,0.313807,-0.397183,-0.115925,-0.405393,0.301630,-0.339747,-0.341395,0.401212,-0.420774,0.471709,0.082446,0.182272,0.197470,0.375393,0.168691,0.315058,0.275140,-0.236656,-0.004471,0.301660,-0.404660,-0.082476,0.323206,-0.456297,0.406980,0.230583,0.056322,-0.420347,-0.162709,-0.407407,0.208518,-0.183554,-0.177694,0.225425,-0.474975,0.286370,-0.039171,-0.254906,0.419889,0.460753,0.198813,-0.265648,0.383724,-0.348628,-0.250359,-0.394040,-0.481475,0.031205,0.157613,0.038408,0.355770,-0.194662,-0.090503,-0.234916,-0.386380,-0.436369,-0.498291,-0.001694,0.050371,0.346370,0.368801,0.269066,0.069353,0.453764,-0.420927,-0.035417,0.232231,-0.468749,-0.295373,0.343776,0.336940,-0.038835,-0.229026,0.312922,0.215903,0.092181,-0.306635,-0.257927,-0.088366,0.338282,0.105396,-0.395962,0.385372,-0.322230,-0.013443,-0.283532,0.414914,-0.415799,-0.004959,0.369137,-0.161336,-0.080157,-0.088458,-0.383206,-0.198813,-0.176321,0.100940,-0.480224,0.157308,0.124531,0.397519,0.112781,-0.309778,0.310968,0.320521,0.383328,0.300928,-0.411100,0.025925,0.041734,-0.176138,0.058702,-0.099139,0.362789,-0.373409,-0.457762,0.206687,-0.118732,-0.351802,0.091906,-0.322779,0.222221,0.033708,-0.287561,0.478545,-0.153066,0.020554,0.326838,0.436003,-0.003220,0.233116,-0.482452,-0.064806,-0.385189,0.041612,0.074816,0.403256,-0.472106,0.141926,-0.117939,-0.224113,-0.330775,0.012284,0.171285,-0.142170,-0.376522,0.403012,-0.321741,-0.018784,0.275353,-0.484130,-0.270379,-0.130207,-0.157064,0.029313,-0.207175,0.113941,0.076952,-0.374905,-0.479919,0.163594,-0.092517,0.173757,-0.181967,0.244774,0.318964,0.234031,-0.026322,0.106342,-0.264824,0.023392,0.368374,0.003067,-0.304865,-0.484802,-0.188986,-0.178823,0.101245,-0.180776,0.021653,-0.247185,-0.179159,-0.498383,0.296442,0.425535,-0.077044,0.000565,-0.114216,-0.106830,0.330500,-0.206198,0.116626,0.394314,0.170125,0.474609,-0.210135,0.284387,-0.399625,0.391812,-0.115284,0.048235,0.399960,0.010971,0.100757],[0.096301,-0.347774,0.269189,0.167226,-0.082629,-0.238670,0.164449,-0.004624,0.346126,0.370296,-0.252403,-0.271508,-0.439817,-0.096301,0.372463,-0.077044,-0.462493,-0.013138,-0.014237,-0.230033,0.109149,0.412259,-0.146809,0.043626,-0.259362,-0.079577,-0.158589,0.378597,0.323176,-0.048418,-0.211478,0.284631,-0.244285,0.024186,-0.006760,-0.196646,-0.400510,-0.103504,0.354946,0.213981,-0.414243,0.168050,0.194754,-0.306055,0.258782,0.476348,0.290185,0.341212,-0.465819,-0.054277,0.153218,0.463775,0.455321,0.044572,0.084460,-0.456847,-0.072558,-0.493347,0.033494,-0.221732,-0.287805,0.473418,-0.202902,-0.385159,0.462767,-0.486877,-0.412992,0.168325,0.081439,-0.326746,0.497681,-0.055010,0.180715,0.222282,-0.094287,-0.231590,-0.070910,0.237205,0.332545,0.317133,0.062944,-0.306909,-0.199210,0.179922,0.345546,0.210685,0.216330,0.234642,-0.379391,-0.182211,-0.152150,0.331904,0.340327,-0.115864,0.193350,-0.000137,0.209494,-0.301508,0.361721,0.029649,0.407987,-0.438414,0.429716,-0.245994,-0.251427,0.102069,-0.189108,-0.465697,-0.158834,-0.091266,-0.016648,-0.297571,-0.108356,0.258904,-0.069811,0.364223,-0.083087,-0.401700,0.324274,-0.029618,-0.342799,-0.070330,-0.011795,0.061266,-0.033403,-0.234855,-0.338771,0.091571,-0.036149,-0.199942,-0.396298,-0.258354,-0.276452,-0.036882,0.070910,-0.378811,-0.209677,0.000198,0.187155,-0.228233,0.295770,0.247246,0.251640,-0.125568,-0.039232,-0.250847,0.007035,-0.431181,-0.236534,0.380581,-0.097644,-0.210410,-0.445280,0.124622,-0.118793,-0.473174,0.401914,0.166433,-0.273492,-0.083544,-0.057482,-0.042802,0.493439,0.067125,-0.471129,-0.094745,0.061052,-0.470550,0.445128,-0.149800,0.334742,-0.185629,-0.022538,-0.023270,0.130146,-0.133839,-0.380459,0.323969,0.269799,-0.102710,0.193625,-0.453215,-0.075793,0.490387,0.168966,0.085528,-0.271752,0.374355,-0.041063,0.399747,-0.296075,-0.219596,0.477783,0.423093,-0.478637,-0.215415,-0.261773,-0.104968,0.128864,-0.457457,-0.228233,-0.274468,0.283197,-0.176473,-0.347896,0.049608,0.011673,-0.250847,-0.096576,0.127064,-0.462951,0.143757,0.074816,-0.255272,-0.303247,0.402036,-0.238151,0.276543,0.387051,0.280786,-0.143269,0.058092,0.064379,-0.479400,0.308161,0.232170,-0.165761,-0.296106,0.172170,-0.279199,0.159413,0.255425,0.235435,0.481018,-0.281701,-0.008164,-0.008164,-0.300501,0.445341,0.126179,0.253990,0.083514,0.283776,0.133656,0.180685,-0.096728,-0.316919,0.385189,0.001572,-0.057054,0.371487,-0.045549,0.220511,0.015763,-0.259789,-0.494537,-0.421598,0.200064,0.235038,-0.333918,-0.442534,0.452208,0.193899,-0.205710,-0.292657,-0.247459,-0.017899,-0.456816,-0.425016,0.441343,0.136433,0.131275,-0.480804,-0.100391,-0.359066,-0.276269,0.191214,0.232688,-0.497406,-0.168355,-0.037370,0.111438,-0.148274,0.134785,0.081744,0.428282,-0.400540,-0.365383,-0.160421,-0.076250,0.182974,-0.456511,-0.472747,0.439970,0.429868,-0.183340,0.465209,-0.042558,0.072924,-0.267266,-0.113758,0.071245,-0.053453,0.429716,-0.046831,0.062914,0.396023,-0.198141,-0.307428,0.224357,-0.069048,-0.335475,0.125752,-0.410215,-0.345790,-0.407407,0.378201,-0.267602,0.497253,0.338984,0.048967,-0.218619,-0.206473,0.239708,-0.379208,0.316248,0.221061,-0.488800,0.192801,0.294122,-0.354762,-0.153188,0.316431,-0.333430,-0.106525,0.218039,0.216330,-0.157796,-0.007492,0.287317,0.177175,-0.348964,-0.099994,0.338252,0.377834,-0.225486,-0.052751,-0.205039,-0.342463,-0.157674,-0.498688,-0.208029,-0.106037,-0.164357,0.259362,-0.233116,-0.166433,-0.410398,-0.219169,0.346370,0.181082,-0.263176,0.428343,0.161946,0.383908,0.408078,-0.110034,0.407559,-0.414518,0.497650,0.008713,0.476684,0.338405,-0.350673,0.449492,0.085986,-0.141865,-0.380734,0.235374,-0.208304,0.099689,0.172079,-0.315729,0.304621,0.437071,0.166433,-0.222678,-0.489898,0.228172,-0.013627,0.489807,-0.400174,0.045091,-0.025498,0.116718,0.220573,-0.147755,0.023392,0.123371,0.047227,-0.087481,-0.018448,-0.447295,-0.314264,-0.296472,0.029862,-0.479339,0.312372,-0.375240,-0.314753,-0.169576,-0.044481,-0.223075,-0.412534,0.237236,-0.173513,-0.405057,-0.274895,0.394772,-0.394742,-0.384304,0.257683,0.014573,0.087481,0.161672,-0.410672,0.269402,0.099231,0.221854,-0.149007,-0.028062,0.085467,0.311518,0.446898,-0.439421,0.278649,-0.408902,-0.178365,0.422483,-0.146413,0.026872,0.104602,-0.413816,-0.024888,-0.126881,-0.212973,0.314661,0.144063,0.258507,0.089129,-0.370479,-0.251091,0.156667,0.172323,0.298791,0.228538,-0.476836,-0.146016,0.318232,-0.247765,-0.120319,-0.020035,0.418424,-0.175802,0.126423,0.111682,-0.371761,-0.282525,-0.135395,-0.315851,0.426572,0.144520,0.009995,0.290582,-0.487335,0.070452,-0.021622,0.250481,-0.272637,0.074847,0.224815,0.117054,0.155660,0.168844,0.417661,0.280389,-0.057726,0.473388,0.028367,0.322474,-0.148610,-0.334773,-0.381069,0.280633,0.101642,-0.403226,-0.392514,0.475249,-0.492096,-0.004318,-0.206198,0.058061,0.460997,-0.348811,0.425993,-0.062181,-0.223899,-0.007218,0.089007,0.238792,-0.057604,0.467833,0.197287,-0.051195,-0.196524,-0.375973,0.371578,-0.086901],[0.303705,0.482147,-0.170064,-0.386776,-0.144978,-0.360927,0.404660,0.316828,-0.232353,-0.088763,0.318018,0.108051,-0.362056,0.054765,0.165242,0.109912,-0.129078,0.032853,0.022141,-0.300989,0.024583,-0.392422,-0.205771,0.083087,0.203024,-0.214499,0.005570,-0.440428,0.404813,0.397610,0.183065,-0.012223,0.232475,-0.404324,0.492859,-0.495575,-0.130268,-0.454161,-0.215140,0.015366,-0.267418,0.100421,-0.298181,0.493347,-0.299860,-0.270287,0.008927,-0.386166,0.332301,0.494934,-0.199393,-0.239830,-0.020463,0.343013,-0.259758,-0.071093,0.191916,-0.494659,-0.010300,-0.433226,0.332698,0.281121,-0.015915,-0.129292,-0.196158,-0.013565,-0.291070,-0.418180,-0.211295,0.351192,-0.364620,-0.195059,-0.081439,0.143971,-0.030351,-0.115284,-0.230583,0.307215,0.373531,-0.130512,-0.404935,0.382778,-0.188467,-0.405423,0.202658,-0.489715,-0.318384,-0.084277,0.377071,-0.221030,-0.115192,0.124165,-0.239525,0.213767,-0.008835,0.074847,-0.406674,0.178060,0.157155,0.058550,0.222526,0.473296,-0.048418,-0.050523,-0.216147,-0.082781,-0.254204,-0.340632,-0.035783,-0.318018,-0.175314,0.429899,0.250389,0.173147,-0.125446,-0.006485,-0.429868,-0.269189,0.004288,0.135517,-0.267663,-0.065294,-0.044145,-0.313013,-0.427824,-0.206534,-0.339381,0.481292,0.207541,-0.399503,-0.202322,0.304041,0.313044,-0.263390,-0.489959,0.369106,-0.182058,0.201590,-0.064226,0.350826,-0.065813,0.155141,-0.290643,-0.495819,-0.079485,0.249199,0.090472,-0.095569,0.489471,0.032182,-0.124470,0.336573,0.262932,0.207175,-0.251061,-0.133106,0.183126,0.024369,0.230064,-0.372646,0.284448,-0.410092,-0.128010,-0.156148,-0.266686,0.371944,-0.131336,-0.359767,-0.458403,-0.315149,-0.273675,-0.351344,-0.139790,0.433897,0.155721,-0.042070,0.259026,-0.099872,-0.158650,0.431181,-0.100696,-0.151814,0.243797,-0.076525,0.005173,-0.262749,0.091449,0.431700,-0.460204,0.316858,-0.281793,-0.293329,0.493255,0.388791,-0.097217,0.359981,-0.312250,0.016160,0.366543,-0.004410,-0.493194,-0.038987,-0.414548,0.398923,0.454466,-0.368221,0.073168,0.312830,-0.049303,0.321589,-0.209433,-0.166341,0.269707,0.018937,-0.161153,-0.043016,0.026688,-0.427946,0.092059,0.305445,0.119984,0.487609,-0.074877,-0.430876,-0.465636,0.145772,-0.305994,-0.309565,-0.088092,-0.287469,0.124012,0.324061,0.296869,-0.469695,0.262505,-0.396268,-0.039628,0.268609,0.152425,-0.253166,-0.288354,-0.384701,-0.117359,-0.471801,-0.398160,-0.209220,0.171682,0.154195,0.426389,-0.335047,0.140645,-0.431547,-0.067248,-0.240532,0.432157,-0.279229,0.139485,-0.084216,0.330927,-0.170309,-0.327357,-0.089526,0.042741,0.170797,-0.473785,-0.200766,-0.212088,0.421598,0.152577,0.270348,-0.134663,0.094226,0.289209,-0.210623,0.343440,0.087329,0.428220,-0.183706,-0.465514,-0.111682,0.334346,-0.124439,-0.091662,0.457335,-0.481658,-0.238365,-0.398221,0.324000,0.071581,-0.339991,0.179891,-0.071673,-0.231925,0.465758,-0.194479,-0.262810,-0.159352,0.080523,0.473510,0.167165,0.336970,-0.030717,0.465148,-0.154592,0.461882,-0.241874,-0.320002,0.239738,-0.187490,0.154317,0.000778,0.188955,-0.088031,-0.030229,0.347560,0.364895,-0.051653,-0.470489,-0.422147,0.197378,0.124805,0.245903,-0.111347,0.293298,-0.472503,-0.359706,-0.123493,-0.119007,-0.082873,-0.406858,-0.087756,0.311457,0.350734,0.103992,-0.013749,0.147176,0.039506,0.342097,-0.319269,-0.129505,0.349727,0.269951,0.425321,-0.258171,0.351924,-0.380337,-0.308100,-0.159841,-0.174520,-0.495300,0.285424,-0.184255,0.124622,0.447142,0.386227,0.387661,-0.188467,0.102313,-0.498932,0.116047,0.463988,0.462432,-0.021531,0.481597,-0.437773,-0.180807,0.244316,-0.197531,-0.136860,0.268059,0.415159,0.020829,0.166066,0.034471,0.444060,-0.110920,-0.121998,0.403684,0.456359,-0.411496,0.283837,-0.464812,0.430753,0.310297,-0.072314,-0.056383,-0.117298,-0.169179,0.012040,-0.073717,-0.294214,-0.387478,0.220603,-0.280236,-0.172384,0.461028,-0.128803,-0.334071,-0.163717,0.270562,-0.194876,0.169118,0.234123,-0.111744,-0.081011,-0.274438,0.474242,-0.371090,-0.254631,-0.193686,0.436949,0.471496,-0.011368,-0.124958,-0.498627,0.468291,0.421964,0.321558,-0.130360,0.398465,0.052110,-0.407071,0.298578,0.196860,-0.042161,0.303003,-0.103504,0.189505,-0.291498,-0.398495,0.140309,-0.333125,-0.230979,-0.415464,-0.230338,-0.173452,-0.202750,0.026994,-0.285638,-0.384091,0.240440,0.218558,-0.288903,-0.493072,0.136464,0.184713,-0.233848,-0.266655,-0.473357,0.073382,0.119678,0.022416,0.386074,-0.010819,-0.131520,0.351741,0.477660,0.056017,-0.096881,-0.237053,0.036302,-0.010575,0.315851,-0.236839,-0.310389,-0.040086,-0.064806,0.345698,-0.479186,0.028886,0.144154,0.160878,-0.319208,-0.062517,-0.362484,-0.131092,0.455077,-0.469207,0.275109,0.205374,0.192190,-0.402249,-0.313196,-0.209189,-0.000473,0.408292,-0.214133,0.216025,-0.386746,-0.270867,-0.153218,0.433561,0.348018,-0.400571,0.303552,-0.012558,-0.467009,-0.352962,-0.074786,0.111988,0.340907,0.227561,-0.475433,0.230827,0.415342,0.166433,-0.143971,-0.112262,0.203543,0.386258,-0.140461,-0.359584,0.400235,0.199637,-0.093768,-0.051897,0.409360,-0.450346],[-0.415098,0.229240,-0.021134,0.007950,-0.390255,-0.331751,-0.392422,-0.174673,0.423887,0.296472,-0.096026,0.215629,-0.052110,0.039964,-0.474425,0.397916,0.449034,-0.175832,0.015061,0.287835,0.050005,0.172079,-0.369808,0.131977,0.450865,0.163747,0.090197,0.394375,-0.105152,-0.336421,-0.480926,0.050920,-0.090167,0.221305,0.367885,-0.051561,-0.143727,-0.447020,-0.403836,0.384365,-0.187033,0.008591,-0.104999,-0.436552,-0.167806,-0.068285,0.231864,0.087634,0.095080,0.318720,0.499268,0.135243,-0.001480,-0.317743,0.110431,-0.116565,-0.262780,0.330744,-0.434263,-0.125996,0.229026,-0.134816,-0.268487,-0.327113,0.133320,-0.318842,0.402036,0.190603,0.338191,-0.244469,0.223502,0.258507,-0.460540,-0.069201,0.377804,-0.297357,-0.355708,-0.170064,0.463347,-0.174184,-0.050157,0.444761,0.354671,-0.045885,0.128742,0.304621,0.321711,0.204062,-0.447447,-0.368770,0.190023,0.126850,-0.015702,0.386258,-0.176656,0.385647,0.171194,-0.382656,-0.290399,0.122456,0.369320,0.010025,-0.068072,0.170705,0.331019,0.049883,0.305261,-0.230461,-0.213584,-0.296838,-0.039506,-0.063280,-0.049516,0.020920,0.157369,0.155538,0.086535,-0.426939,-0.393582,-0.467132,-0.342250,0.118946,0.082842,0.083819,0.097797,0.420560,-0.388333,0.299768,-0.268151,-0.395688,0.007492,-0.344234,-0.120655,-0.021744,0.047899,0.213797,-0.330683,-0.289789,0.063829,-0.022202,-0.399686,0.273888,0.226615,0.156819,0.375454,0.068407,0.313746,-0.006790,0.043870,0.118366,0.234397,0.310572,-0.019272,0.259911,0.095965,0.439573,-0.264275,-0.280663,0.092914,-0.323756,0.282373,0.490936,-0.001022,-0.069597,-0.301447,0.419309,-0.455687,-0.280908,-0.189505,0.393612,0.458556,0.162465,-0.169546,-0.441130,0.461150,0.137776,-0.480193,-0.048326,-0.019730,0.247612,-0.090869,0.465239,-0.118458,-0.240928,0.105731,-0.448607,-0.012497,0.169881,0.220695,-0.434904,-0.330378,-0.442625,-0.054033,0.157308,0.293756,0.367550,-0.186453,-0.376583,-0.199698,-0.200888,-0.333064,-0.387112,0.200491,0.440153,0.377407,0.106311,0.269738,0.312433,0.335078,0.066485,0.219749,-0.019456,-0.252953,-0.330500,-0.369778,-0.118427,0.273247,-0.477966,0.421751,-0.468200,0.031358,-0.228477,0.150624,-0.233421,-0.497742,-0.485168,0.407681,-0.330500,0.367122,0.412168,-0.398709,0.347682,-0.192801,-0.087695,-0.092853,0.208487,0.298059,-0.004501,-0.335597,-0.105121,0.428861,-0.160115,0.001114,-0.465026,-0.221458,0.318384,-0.031053,0.462493,0.380001,-0.268395,-0.030747,0.063768,-0.197226,-0.316401,-0.248955,-0.091388,0.387020,-0.493866,-0.237205,-0.179983,-0.341639,0.138295,0.138966,0.039842,0.456175,-0.132710,0.102191,0.146443,-0.194449,-0.162984,0.063372,-0.119495,0.065050,-0.269951,0.199637,-0.464751,0.380886,-0.469756,-0.207511,0.067461,-0.021073,-0.228813,0.106830,-0.414731,0.326197,0.177541,0.092181,0.369503,-0.307764,0.105090,-0.312433,0.083941,0.142598,-0.314173,0.011124,0.331874,0.494934,0.084552,0.215567,0.214225,0.269280,-0.227256,0.291101,0.045915,0.163869,0.226585,-0.403195,-0.113147,0.087420,-0.045183,0.401883,0.043443,0.279351,0.263115,0.217521,0.197195,-0.450865,-0.339198,0.201621,0.316431,0.166280,0.316828,0.416623,0.007370,0.431425,0.470122,0.222007,0.461364,0.460845,0.201987,-0.416593,-0.346736,0.214896,0.475768,-0.421781,-0.051042,0.301752,-0.149861,-0.119617,-0.223502,-0.412107,-0.227073,-0.495666,-0.481414,0.146657,-0.139119,-0.409391,0.281579,-0.424650,0.072161,-0.486785,-0.302148,0.213614,0.177725,0.090716,0.417783,0.292596,0.437620,0.181997,0.447081,-0.452513,-0.111194,0.448210,-0.013688,0.324244,0.150410,-0.438170,-0.071245,-0.288720,0.152760,-0.355678,-0.327723,-0.271722,-0.303247,0.213462,0.402371,0.102618,0.249351,0.421751,-0.498260,-0.335139,-0.118488,-0.132893,0.243614,-0.104907,-0.244621,-0.242943,0.423765,-0.349788,0.066149,-0.292322,0.089038,-0.395260,-0.154561,-0.041429,0.017289,0.435484,-0.467742,0.285058,0.105670,0.281457,-0.282311,0.388913,0.323450,-0.489257,-0.030229,0.048997,0.385434,0.325220,0.144581,-0.187368,-0.197653,0.233940,0.090136,-0.490478,0.464629,-0.072283,0.148732,0.369015,0.415220,-0.415403,0.364772,0.022050,-0.031388,0.138722,-0.196402,0.169515,-0.168600,-0.457030,-0.111774,0.197378,0.381344,-0.442656,0.159474,-0.479400,-0.239525,0.093738,0.366543,-0.063036,-0.060350,-0.351375,0.293909,-0.228599,0.409146,-0.144948,0.230461,0.093158,-0.030717,-0.315210,0.487854,-0.213828,0.063280,0.332392,-0.126301,-0.245811,0.448332,0.311762,-0.473785,0.042161,-0.204856,-0.202597,0.016343,0.154500,0.438566,-0.259514,0.123798,0.352199,0.295190,-0.208029,0.193045,0.209647,0.318262,-0.436583,0.475860,0.212302,-0.170797,0.257012,0.366237,-0.323237,-0.117420,0.195883,-0.065874,-0.225608,0.320368,0.286309,-0.335475,-0.060442,-0.328059,-0.057543,-0.192526,0.443999,-0.443846,-0.494415,0.245994,0.418393,-0.258538,-0.311548,0.287683,0.102649,-0.479461,0.076373,0.286401,-0.394436,-0.444334,0.216269,-0.499756,-0.044084,-0.149068,0.324763,0.092395,-0.274499,0.007797,0.146748,-0.319788,0.005875,0.420103,-0.004532,0.340022],[-0.435453,-0.494324,0.472808,0.148610,0.043443,0.130726,0.437773,-0.342738,-0.464538,-0.084796,0.359432,-0.102802,0.310877,-0.425871,0.015000,0.269524,0.467559,0.410154,0.208182,-0.270928,-0.456175,0.099597,-0.464812,0.110675,-0.335292,-0.120594,-0.050035,0.058885,-0.122608,0.165212,0.034196,-0.157308,-0.167562,0.132527,0.378933,-0.163991,0.467223,0.292169,-0.016526,-0.054399,-0.152882,-0.409116,0.078448,-0.232658,-0.178335,0.068743,0.278558,-0.247520,-0.349178,-0.395718,0.471953,0.164815,0.258782,-0.220969,0.352107,0.109851,0.270592,0.392209,-0.001511,0.418119,0.488372,-0.342921,0.412351,-0.337489,-0.036851,-0.389676,0.413724,0.092395,0.318873,-0.234458,-0.193747,-0.235923,0.484344,-0.458068,0.215598,-0.349178,0.489685,0.499847,-0.492065,0.011795,0.483673,-0.085833,0.195120,-0.197623,-0.372158,-0.283166,-0.268181,0.406888,0.023881,0.339686,0.112201,0.474395,0.330409,0.488922,-0.329005,0.139668,0.225486,0.382748,0.496460,0.410123,0.371181,0.482788,0.360439,-0.000290,0.036180,0.250999,-0.427213,0.391690,0.032914,-0.036576,-0.334681,0.410947,0.125507,0.111560,0.312494,0.087451,-0.435636,0.423032,0.394375,0.091876,-0.095630,0.032548,-0.391293,-0.475188,-0.237815,-0.165212,-0.462065,0.340754,-0.330531,-0.450438,-0.422514,0.187918,-0.321955,-0.468047,-0.368404,-0.054338,-0.127003,-0.143025,-0.016678,-0.259911,0.450713,-0.288354,0.244133,-0.280328,-0.483001,-0.375637,-0.209861,0.371731,0.262902,-0.436216,-0.409116,-0.338862,-0.327021,0.437956,-0.163106,-0.227165,0.423582,0.025010,0.272240,-0.261315,0.126453,-0.133045,0.176778,-0.245262,-0.046251,-0.434843,-0.416318,0.035813,0.458800,0.445006,0.441160,-0.072100,-0.476073,-0.378933,0.011155,0.284082,0.172475,-0.223991,0.488922,0.290948,0.028886,-0.015885,0.307947,0.177572,0.316431,0.343684,0.369350,0.153279,0.169362,-0.334651,0.100909,-0.144978,0.415677,-0.251244,-0.247215,0.085681,0.486999,0.278039,-0.164510,0.124836,-0.388485,-0.132038,0.106769,0.392880,-0.053514,0.291528,0.013779,-0.249962,-0.193777,0.420499,-0.003586,0.211295,-0.357570,-0.089892,-0.441954,0.358608,-0.067614,0.159261,-0.489502,0.231681,-0.368404,-0.422971,0.298791,-0.021531,0.347499,-0.312555,-0.187826,0.046709,-0.110309,0.103259,-0.411924,0.197775,0.353603,-0.100085,-0.185385,0.123798,0.393582,0.421567,0.038041,-0.050035,-0.158376,0.049486,-0.018021,0.402524,0.328211,-0.034806,0.383816,-0.075945,0.061113,0.438444,0.255058,-0.482513,0.418821,-0.327967,0.471984,-0.400357,-0.485412,-0.265160,0.102161,-0.354091,0.387661,-0.386654,0.373989,-0.092853,-0.022782,-0.085864,-0.305200,-0.019791,-0.463683,0.247734,-0.375820,-0.487030,-0.358791,-0.174642,0.208548,-0.174245,0.452666,0.300012,-0.416746,-0.270379,0.385495,0.382595,0.248741,0.323511,-0.157277,0.265099,-0.073534,0.050859,0.170125,0.381375,0.401395,-0.202445,0.487976,-0.462920,0.256890,0.311914,-0.444151,-0.059832,-0.091266,-0.271966,0.327174,0.162923,-0.156209,0.474548,0.348781,-0.433287,0.470336,0.348506,-0.336573,0.221397,0.485839,0.037278,0.369655,-0.150594,0.168569,-0.131336,0.496399,-0.172842,0.499390,0.070635,0.348506,-0.226218,-0.480438,0.322260,-0.021043,-0.240562,-0.168233,-0.122974,-0.055681,-0.336207,-0.351009,0.039384,-0.000290,-0.283868,0.299615,0.276238,-0.110614,-0.251579,-0.407254,-0.255669,-0.110462,0.192526,-0.047929,-0.484771,0.258904,0.352840,-0.277245,0.278283,0.254051,-0.014603,-0.440916,-0.196280,-0.134571,-0.284967,0.297906,-0.053209,-0.069750,0.321711,0.224815,0.473937,-0.221458,0.427091,0.139515,0.492645,0.068865,-0.387265,0.125690,-0.234031,-0.030656,-0.498474,0.432524,-0.306726,0.341212,-0.167196,0.373836,0.237968,0.079913,0.063005,-0.349147,-0.416227,0.271233,-0.476775,0.005325,-0.198843,0.317804,-0.335627,-0.391415,0.304224,-0.307398,0.421384,0.093554,0.380154,0.475799,0.228263,-0.364620,-0.427671,0.330775,-0.285730,-0.012711,0.197928,0.076220,-0.386563,-0.122456,-0.218497,-0.490204,-0.082171,-0.325800,-0.313868,-0.359523,-0.193655,-0.276391,-0.277032,-0.015305,0.380459,0.268975,0.020249,0.083819,-0.262749,0.355251,-0.066210,-0.101825,0.412229,-0.373348,0.279565,0.234550,-0.278100,0.423002,-0.330561,-0.137165,0.038621,0.080981,0.232505,0.478759,-0.472259,-0.152974,-0.498627,0.168142,0.379482,0.307550,-0.253227,-0.470214,0.065538,-0.257042,-0.460234,0.112506,-0.347072,0.312159,-0.175527,0.322901,-0.294549,0.472686,0.281182,0.460265,-0.195761,-0.455901,0.262200,0.034501,0.218833,-0.180044,0.081072,0.023667,-0.240226,0.134510,-0.063677,0.227012,0.344325,0.291436,0.251671,0.370113,0.305933,0.259453,-0.286950,0.118183,-0.020554,-0.457762,-0.215506,-0.346156,-0.407132,-0.371700,-0.016373,-0.024339,-0.003098,-0.073046,-0.301935,-0.426634,0.263695,0.097186,-0.175558,-0.363338,-0.313959,0.175161,0.010514,0.453185,0.208121,0.406949,-0.217704,0.152303,-0.180776,0.192404,0.337245,0.450896,-0.058489,0.046739,0.284448,-0.442808,0.343287,-0.014084,0.113636,-0.110675,-0.391263,0.242088,-0.326258,-0.235893,-0.304163,-0.284631,0.442625,-0.286554,-0.386898],[-0.131092,-0.416715,-0.253166,-0.131275,-0.432554,0.072527,-0.129810,-0.311457,-0.350398,-0.132832,0.364834,-0.437101,-0.030686,0.026994,-0.313105,-0.282464,-0.433348,-0.220206,-0.391568,-0.030259,0.089862,0.380642,0.265252,-0.290613,0.477081,0.191397,-0.457244,-0.133473,-0.320917,-0.362484,-0.168783,-0.228874,-0.295618,0.197897,-0.319208,0.312037,-0.232231,0.084094,0.388852,0.300867,-0.176382,-0.234550,0.049760,0.447172,0.265313,-0.003891,0.098987,-0.148793,0.071673,-0.499969,-0.117389,0.420713,0.182241,-0.029160,0.283288,0.117420,0.382199,-0.458098,-0.065600,0.440214,0.478027,0.383938,0.053026,0.050707,0.045976,-0.414884,0.423673,-0.052293,-0.466491,-0.028520,-0.436888,0.096667,-0.003983,0.022141,-0.401181,-0.079455,0.248894,-0.462828,-0.109119,-0.441710,-0.282342,0.213309,-0.070330,0.297082,-0.234001,-0.215842,-0.459899,0.084521,-0.216208,-0.118641,-0.076312,-0.472533,-0.183767,0.272240,-0.430174,0.283288,0.015000,-0.368954,-0.432524,0.249657,-0.306879,0.499664,0.348354,0.459990,0.264641,-0.406430,0.393185,0.089801,-0.149983,0.110431,-0.068011,0.480682,-0.170888,0.196188,0.169851,-0.411679,0.122608,0.226188,0.069140,-0.239647,0.483001,0.056658,0.219932,0.250664,-0.423215,-0.096728,-0.170858,0.376278,0.139088,0.002853,0.360591,-0.277062,-0.018815,-0.285302,-0.143910,0.306116,0.133686,0.217277,0.470153,0.092822,-0.095172,0.457305,0.247917,-0.208548,0.136769,-0.493469,-0.320521,0.315271,0.439848,-0.016373,0.060076,-0.174123,-0.313013,-0.304041,0.188528,-0.236686,-0.450987,0.159139,0.434690,-0.231620,0.352046,0.149068,-0.292566,-0.095996,0.038591,-0.055986,0.354213,0.081561,-0.486450,0.412076,-0.476714,0.098834,0.155843,-0.399533,0.020554,0.194937,-0.222465,-0.016495,0.191305,-0.470183,-0.188345,0.024522,-0.141133,0.493255,0.009384,0.208731,-0.148762,0.250298,0.428434,0.203146,0.146474,0.429655,-0.006058,0.299402,0.168935,0.360439,0.412442,-0.203726,0.266747,-0.235862,-0.279138,0.477996,-0.097430,0.308252,0.251640,-0.156056,-0.411954,-0.073229,0.294702,0.247459,0.094195,0.315333,0.238365,-0.401883,-0.032273,-0.494201,0.469878,-0.214377,-0.113941,-0.072405,-0.183157,0.479888,-0.119221,-0.138752,-0.188864,0.464812,-0.037980,-0.308924,-0.443938,0.161367,0.174032,-0.137104,0.478576,0.496338,-0.386013,-0.047227,-0.252800,-0.227103,0.444823,-0.246239,-0.362392,-0.300073,0.433317,-0.213767,-0.373623,0.234977,0.045091,0.138295,0.494537,0.398556,-0.372829,0.042589,0.222373,-0.284845,-0.289880,0.095660,-0.043748,0.437590,-0.039964,-0.473846,-0.170827,0.210410,-0.187399,0.418088,-0.084246,0.329615,0.319971,0.295343,0.103717,0.253838,0.241447,-0.025987,0.162099,-0.476165,-0.089892,0.088305,-0.211509,-0.253197,-0.094378,0.196554,-0.084368,-0.199332,0.065142,-0.126209,0.059252,-0.083880,-0.136769,-0.303400,-0.011917,-0.208823,-0.307489,-0.473022,0.497559,0.395810,0.075365,0.001236,-0.432127,-0.378323,0.339076,-0.369869,-0.311426,0.434385,-0.215201,0.416898,-0.369930,-0.316675,-0.117786,0.398556,0.443693,0.226676,-0.479705,0.017777,-0.028336,-0.473540,-0.153401,-0.268944,-0.351955,0.371029,-0.274834,-0.240959,-0.128254,-0.119648,0.345241,0.386196,-0.266625,0.451201,0.011307,-0.284875,0.376583,-0.202414,-0.353877,0.282647,-0.224479,-0.256493,0.038102,0.442991,0.209738,-0.076312,0.363582,-0.074816,0.217215,0.048814,0.016343,0.470397,0.307459,-0.108448,0.274590,-0.044572,0.215598,-0.350551,-0.162862,-0.090777,-0.021439,-0.158925,-0.239738,-0.172353,-0.385037,0.391507,-0.174215,0.193838,-0.310297,0.063616,-0.127674,-0.390530,-0.455565,-0.108509,0.120655,-0.055895,0.475585,-0.228416,0.024339,-0.092242,-0.359462,-0.131245,-0.322840,-0.046007,-0.025987,-0.007096,0.308313,-0.080767,-0.105060,-0.397702,-0.103320,0.304621,0.086108,-0.409421,0.435881,-0.393490,0.127003,-0.487213,-0.119648,-0.397427,0.261467,0.407315,0.304956,-0.001358,0.081530,-0.130299,0.308130,0.343410,0.408322,-0.465178,0.190939,-0.383023,0.151479,-0.376705,-0.057512,0.399533,0.428587,-0.291375,-0.436796,0.026048,-0.274621,0.361599,-0.242454,-0.366115,0.378231,-0.172628,-0.473418,-0.490875,0.160298,0.392544,-0.307123,-0.362056,0.252251,-0.402554,-0.112384,-0.130726,0.379238,-0.049089,0.032395,-0.404843,0.394864,0.302606,-0.154012,0.354915,0.093921,-0.469604,0.408231,0.269189,-0.465300,-0.301782,0.311121,-0.289361,-0.347530,0.340693,0.429777,0.117054,0.445036,0.031175,-0.156758,0.353175,-0.488037,-0.110645,-0.062609,-0.472320,0.228690,0.184164,0.220206,-0.328150,0.336207,-0.310968,-0.118427,0.185049,0.228477,-0.054796,-0.371517,0.454741,-0.281823,0.089373,-0.173421,-0.443724,-0.437803,0.402341,0.479919,0.439116,-0.471953,0.234153,0.079546,-0.494690,0.282830,0.463012,-0.147145,-0.012558,-0.114551,0.143117,0.444243,0.030869,0.163717,0.498657,-0.441221,-0.111957,-0.242637,-0.080737,-0.399930,0.129841,0.108600,0.114246,-0.166463,0.280999,0.180776,0.080737,0.106037,-0.214408,0.187033,0.042833,-0.346156,-0.291223,0.110157,0.017777,0.029435,0.081194,0.294244,0.165029,-0.321284,0.292138,-0.109699,-0.425016],[0.437773,0.436430,-0.346522,-0.184286,0.030808,0.353969,-0.241905,0.088580,-0.022324,-0.359035,0.242637,0.412595,0.229453,-0.455657,-0.433805,0.311274,0.012955,0.491516,-0.377041,0.073443,0.048173,0.063066,-0.051286,-0.241813,-0.341670,0.288049,-0.039232,0.100360,0.178579,0.042405,-0.112659,0.347438,-0.430143,-0.167745,-0.457488,-0.440397,-0.355678,-0.256645,-0.396786,0.403897,-0.192099,-0.162465,-0.455565,-0.026719,-0.272942,-0.222007,-0.111133,-0.336787,-0.174490,-0.035875,-0.072863,-0.364620,0.017167,-0.042650,-0.434751,-0.099170,-0.418241,0.479400,-0.302210,-0.446440,-0.410581,-0.236106,0.063860,0.185690,-0.219993,-0.457121,-0.159261,0.015366,0.304041,0.449278,0.133595,-0.240867,0.231101,0.116504,0.015061,-0.220481,0.232139,-0.243065,-0.327052,-0.460936,0.341731,0.499725,-0.479003,-0.107349,0.206778,0.269860,-0.313013,0.437284,-0.462798,0.393643,-0.052995,-0.355007,-0.201712,0.131275,-0.350246,0.354183,-0.474792,0.467376,-0.149281,-0.155934,-0.385128,0.006516,0.350002,0.373226,-0.184194,0.431333,-0.185110,0.293573,-0.490051,-0.217978,0.066759,-0.184530,-0.456603,-0.410733,-0.192892,0.454009,0.012101,0.141835,-0.060442,-0.311823,0.408963,-0.329615,0.143696,-0.135365,0.038591,-0.271538,-0.142964,-0.123829,0.105731,-0.448058,0.321741,-0.352596,0.383847,-0.321711,-0.148427,-0.041826,-0.129963,-0.393094,0.350368,0.465697,0.253807,-0.017167,-0.471313,0.152638,-0.385098,0.370022,-0.253197,-0.013596,-0.231651,-0.412107,0.130604,-0.494171,-0.151875,0.483184,-0.105518,0.304407,-0.136586,0.159536,-0.166646,0.179617,0.375118,-0.426420,-0.340052,-0.254295,-0.216575,0.296594,-0.155568,-0.460082,0.133229,-0.276299,0.112018,0.154653,-0.156819,-0.488464,0.255181,0.425962,0.264946,-0.474487,0.416379,0.210074,0.478759,0.078326,0.497894,-0.220939,0.231346,-0.259514,-0.145100,0.366848,0.423185,-0.495300,-0.072161,-0.103259,0.050157,-0.415250,-0.029466,0.422239,0.007279,-0.369655,-0.469695,0.311457,-0.340754,-0.360561,-0.163564,-0.292657,-0.414518,0.349055,-0.247368,0.294488,0.404782,0.385617,0.450804,-0.096515,0.086505,-0.043352,0.461180,-0.015030,-0.345576,0.364498,0.256218,0.143727,-0.323817,0.437895,-0.278344,-0.274377,-0.038316,-0.432127,0.131794,-0.184317,-0.431730,-0.395962,-0.003616,-0.320551,0.473266,-0.207236,-0.458342,0.242485,-0.411954,-0.164388,-0.145192,0.167440,-0.348384,-0.165242,0.172750,-0.386807,0.078478,0.373196,-0.233451,0.206534,0.168447,-0.489105,0.077715,0.258141,-0.416227,-0.021531,0.262841,-0.246178,-0.499847,0.348903,-0.197501,0.152699,0.337825,0.469512,0.331111,-0.477203,0.478881,-0.065416,0.343410,0.046373,-0.122669,-0.119343,-0.065569,0.424985,-0.032060,-0.115253,0.228965,0.216666,-0.219901,0.247978,-0.343776,-0.364071,-0.337031,0.444700,-0.272790,-0.152242,-0.471587,0.019211,0.469634,0.287103,0.017502,-0.289117,0.177602,0.034837,0.497284,0.089038,-0.367977,-0.218039,0.293725,0.478759,0.447905,0.412595,0.067522,0.459166,-0.295282,-0.262505,-0.261650,-0.284936,-0.483520,0.409330,-0.135548,-0.476562,-0.302667,-0.449431,-0.116596,-0.344111,0.179159,0.125843,0.120746,-0.021714,0.337397,-0.410611,-0.028031,-0.470885,-0.118702,-0.160634,0.165029,0.357479,0.464873,0.009903,-0.491119,-0.097980,-0.325220,0.132374,0.034928,0.192434,-0.448393,0.197104,-0.063250,-0.345943,0.300226,-0.353450,0.215537,-0.202445,0.346126,-0.168416,0.436430,-0.425504,0.393735,0.461730,-0.497436,-0.319819,-0.357265,-0.419156,-0.146962,-0.414975,-0.180898,0.099689,-0.009262,-0.424253,0.176504,0.415830,-0.253288,-0.412534,0.124897,0.153218,0.186972,0.108112,-0.357601,-0.447966,-0.431791,-0.063646,0.126331,-0.460112,0.248650,0.074419,-0.159841,0.016282,-0.040086,-0.463347,-0.387631,0.381008,0.347011,0.355617,-0.056444,-0.162069,0.181509,-0.433592,0.177847,-0.494507,0.155354,0.451262,-0.104877,-0.134785,-0.339290,-0.175588,0.180288,-0.421079,0.462371,-0.360012,-0.074450,0.206870,-0.330866,-0.297174,-0.177816,-0.142811,-0.089709,-0.235588,0.198233,0.298334,0.123127,-0.215201,0.357845,-0.434385,-0.141621,-0.358516,-0.421079,-0.406766,-0.490661,0.067248,0.425504,-0.097217,0.371029,0.097461,-0.469848,-0.120167,-0.064287,-0.191580,-0.495697,-0.330531,0.331111,-0.371822,0.130757,0.222404,0.307215,0.000565,0.496460,-0.477508,-0.321711,-0.315760,0.220420,-0.472503,-0.373562,0.467620,0.434049,-0.146321,-0.227714,-0.418943,-0.330744,-0.264306,0.419797,-0.412229,0.311335,0.293725,-0.118885,0.034135,-0.227714,-0.362362,0.287805,-0.358730,0.041520,-0.158864,-0.205588,0.319056,-0.230949,0.315638,-0.418821,-0.217002,-0.461028,-0.383877,-0.438322,0.056780,0.488006,0.210013,0.201621,-0.359981,-0.073778,0.239555,0.355617,-0.376186,0.116108,-0.189474,-0.472625,-0.465514,-0.134144,-0.163259,0.460356,0.187307,0.093463,-0.027146,0.464293,0.331080,0.017747,-0.333583,0.384762,0.365108,0.132679,-0.140126,-0.378689,-0.090320,-0.379055,0.374722,0.100726,-0.488861,0.363521,-0.491913,-0.388455,0.263237,0.200797,-0.126087,0.406430,-0.374569,-0.397671,0.019089,0.477874,0.220145,0.400876,-0.153462,0.414609,-0.110767],[0.376003,0.243706,-0.207968,-0.059923,-0.125935,0.165853,-0.174734,0.295099,-0.115314,-0.411100,0.146535,-0.305261,0.191000,0.366939,0.082812,-0.009232,0.240410,-0.349574,0.204642,-0.094531,0.063646,0.254051,-0.152120,-0.407895,0.219108,-0.051775,-0.136311,-0.490661,-0.205924,-0.419034,-0.121509,-0.233268,-0.006272,0.435911,-0.155202,-0.403134,0.349147,-0.267357,0.164571,0.111042,0.075823,-0.323420,0.165639,-0.005997,-0.385922,-0.036851,0.213340,0.294824,-0.118183,0.143727,0.237968,-0.030747,0.271844,-0.240928,-0.040605,0.330744,-0.075579,-0.353298,-0.409574,0.065600,0.306574,0.327998,0.299829,-0.031053,-0.370937,-0.118091,0.216178,0.057665,0.132832,0.211417,0.254387,0.216514,-0.224631,0.108264,-0.454650,0.033616,0.349330,0.023331,-0.249290,-0.018052,-0.436613,-0.051927,0.043107,-0.397732,0.117908,0.313440,0.034410,-0.155141,0.305261,0.312860,0.431852,0.225120,0.167440,-0.444792,-0.295770,-0.049608,-0.258751,0.454100,-0.460875,-0.326685,0.422697,0.259606,0.372280,0.028733,-0.018418,0.139058,-0.229637,-0.390286,0.258263,0.212851,-0.050981,-0.460295,0.072558,-0.048570,0.206290,0.296075,0.377499,-0.159902,-0.446379,-0.057695,0.187979,-0.282647,0.325678,0.424711,0.316401,-0.306391,0.049059,0.089190,0.445769,0.055986,0.353084,0.075884,-0.427549,0.065905,0.202109,-0.253807,0.349025,0.055315,0.231498,-0.200247,0.358699,-0.271844,0.468719,0.236930,-0.147176,0.073046,0.219871,-0.176748,-0.017533,-0.206473,0.404080,0.212241,0.055315,-0.337733,0.115864,