[[[0.215384,0.281396,0.077258,0.191946,0.389279,-0.471923,0.354335,0.342311,-0.106098,0.445921,0.409268,0.441801,-0.265831,-0.285974,-0.377071,-0.407529,0.369930,0.154592,0.423978,0.323420,0.269311,-0.302454,-0.481140,-0.474822,0.229698,0.043107,0.030473,-0.339930,-0.127522,-0.197775,0.200461,0.278893,0.217856,0.397305,-0.187063,0.375332,-0.254112,-0.496460,-0.005051,-0.390072,-0.149495,0.313074,-0.450102,-0.065783,0.091845,0.401761,0.480834,-0.353633,0.153829,0.481719,-0.141102,0.409970,-0.086535,-0.180776,-0.305445,0.266808,-0.472991,-0.399960,-0.033982,0.175130,-0.059313,0.023392,0.462920,0.104419,-0.269219,0.309565,-0.399686,0.218162,-0.319178,0.074236,-0.140248,0.175741,0.000595,0.336238,0.013535,0.084735,-0.405515,0.297052,-0.211722,0.134693,0.284845,-0.183493,0.124470,0.444182,0.396298,0.379971,-0.312220,0.151448,-0.391751,0.166646,-0.211417,0.280969,0.117450,0.096759,0.365993,0.416257,-0.439817,0.138203,0.192526,-0.289117,0.472625,-0.345607,-0.044145,0.268456,-0.092212,0.074236,0.373623,0.422788,-0.096454,-0.334284,0.232170,-0.049699,0.334407,-0.305689,-0.135578,-0.255364,0.011979,-0.252831,-0.353725,-0.373470,0.302728,-0.495178,0.462340,0.335231,-0.074694,-0.258690,0.002701,0.185354,0.043168,-0.165975,0.123981,-0.499725,0.431089,-0.435392,-0.428495,0.273064,-0.208518,0.492187,-0.015122,0.134236,-0.288415,-0.320032,-0.157216,0.142232,-0.014878,0.056841,-0.496185,0.286248,0.085986,0.194601,-0.000961,-0.266503,-0.029008,-0.217124,-0.267388,0.351863,-0.284753,-0.417661,-0.252678,-0.461089,0.048112,0.137715,-0.289605,-0.110675,-0.102741,0.031693,0.276391,-0.269158,-0.095141,-0.038591,-0.016678,0.061113,-0.257469,0.418180,0.338374,-0.084185,0.131733,0.251946,0.248985,-0.299982,-0.025040,-0.097888,0.456206,-0.486572,-0.495025,-0.424802,0.126026,0.001022,-0.142384,0.151326,0.255425,-0.239586,-0.025285,0.100269,0.048662,-0.162770,0.243522,0.188711,-0.078784,0.339351,-0.221641,0.259514,0.286187,-0.298334,-0.248497,-0.135121,-0.219413,-0.367397,-0.321192,0.033799,0.087420,0.273431,0.066881,-0.044084,0.009262,-0.398587,0.327723,-0.137471,-0.049547,-0.390866,0.367275,-0.114032,0.463683,0.289544,-0.246117,0.179006,0.016984,-0.040513,0.377956,0.074938,-0.361843,-0.047716,-0.023576,-0.429685,-0.408078,0.210501,-0.475158,-0.089007,-0.253105,-0.189505,-0.256920,-0.437254,-0.212058,-0.050035,-0.219108,0.348476,-0.069109,0.429350,0.393612,0.031846,0.295007,0.158864,-0.453795,0.130329,-0.409879,0.031358,-0.152242,0.237419,0.274773,-0.472228,0.221702,-0.364071,-0.159505,-0.420316,-0.280999,0.483947,0.380337,0.398373,-0.119770,0.353633,0.095874,0.227103,-0.447600,0.405576,-0.099384,0.329554,-0.432524,-0.021592,-0.442015,-0.414731,0.188162,-0.123676,0.029984,0.289117,-0.272301,-0.400327,0.134114,-0.189413,0.249779,-0.454741,0.262658,0.470183,0.474853,-0.276482,0.222861,0.387814,-0.242698,-0.003342,-0.087664,-0.267693,-0.333522,-0.103839,-0.032579,0.401944,-0.134236,-0.464995,-0.243248,-0.331782,-0.091693,-0.349330,0.377071,-0.186300,-0.271691,-0.404569,-0.192923,0.295099,0.276269,0.055315,-0.123951,0.463256,0.484558,-0.221366,0.202628,0.370815,-0.030900,0.095782,-0.238975,-0.300867,0.373836,-0.488922,0.230247,0.335627,-0.236229,0.148213,-0.217277,-0.104328,-0.026536,0.330348,0.468871,-0.121570,0.316340,0.076495,-0.146809,0.015183,-0.437895,-0.205100,0.059130,0.266869,-0.412381,0.006424,-0.122211,-0.255272,-0.391995,0.019730,0.097827,0.470214,0.394070,0.417020,-0.287927,-0.007492,0.382260,-0.163900,0.157460,-0.012131,0.083453,-0.374386,0.244133,-0.042283,-0.303003,-0.423124,-0.069262,-0.471313,0.335749,-0.126759,-0.398740,0.246635,-0.231101,0.486724,0.000229,0.395993,0.088794,-0.196829,0.482299,-0.123890,0.207358,-0.242851,-0.267327,-0.334925,-0.410764,0.257714,-0.385617,-0.097186,-0.304041,0.186758,0.298791,0.124805,-0.431852,-0.249443,0.335322,-0.323054,0.389187,0.466338,-0.182516,0.156758,-0.458068,-0.435392,0.300226,-0.278832,-0.040666,0.089038,-0.374264,0.362545,0.238029,0.474609,0.313868,0.234550,0.400937,-0.114399,-0.327143,-0.491607,0.145680,0.094745,0.287530,0.221427,0.486023,0.184378,0.040147,-0.121387,0.191794,-0.148640,0.321162,0.245415,-0.065935,-0.403439,-0.160421,-0.294824,-0.458342,-0.419462,-0.089770,-0.191824,0.275170,0.426389,-0.287713,-0.052080,-0.475219,-0.249077,0.278008,0.353450,-0.161611,-0.293847,0.265313,0.209433,-0.314356,0.311151,-0.167714,-0.104205,-0.134968,-0.143422,-0.451170,-0.122791,-0.040574,0.162648,-0.252220,0.274682,-0.253105,-0.028245,0.471923,-0.350154,-0.027177,0.257256,-0.327235,0.033341,0.389554,-0.270592,-0.182272,-0.271386,-0.118702,0.319910,-0.438566,-0.077471,-0.299310,-0.073931,-0.361843,0.109882,-0.137226,0.196249,-0.369228,0.029679,0.203360,-0.362819,-0.226707,-0.354518,-0.092547,-0.174734,0.442595,0.451353,-0.225791,0.002274,0.495972,-0.128498,-0.495392,-0.162893,0.110553,0.078478,-0.493194,-0.364895,0.281182,-0.062761,-0.374691,-0.224509,0.245293,-0.212241,-0.300012,-0.341151,-0.299127,0.302759,0.361873,-0.054460],[-0.116901,-0.029008,0.366298,0.443327,0.204184,0.103565,-0.113605,-0.485778,-0.056810,0.493835,-0.495209,0.457518,0.220054,-0.162526,0.468871,0.027512,-0.218253,0.362606,0.186697,0.222983,0.462706,-0.425718,-0.382015,0.239738,-0.048662,0.079669,0.424345,0.144154,0.394711,-0.101062,-0.339076,-0.076464,-0.127674,0.169088,0.290246,-0.046709,0.270257,-0.353481,0.299371,0.352626,-0.413175,-0.085284,0.047533,-0.062090,0.201529,-0.296899,0.207358,-0.491119,0.137562,0.223655,-0.166372,-0.455229,-0.149800,-0.068682,0.253868,0.414335,-0.428343,-0.385617,0.148488,0.439848,-0.256218,0.221335,0.350398,-0.180837,-0.430143,0.330164,0.061602,-0.054918,0.217032,-0.333430,-0.076189,-0.371151,-0.299951,-0.422758,0.223685,0.299707,-0.021683,-0.135578,0.013840,-0.078906,0.296503,-0.111835,0.431639,-0.070605,0.301141,0.342189,-0.004166,0.467833,-0.036485,-0.389950,0.163625,-0.158864,-0.159566,0.107654,-0.071734,-0.152638,-0.295557,-0.482086,-0.260796,0.142598,0.074053,0.325037,-0.474425,0.295373,-0.324274,-0.447142,0.104572,-0.313349,0.369045,0.115650,-0.244255,-0.088153,-0.434507,-0.314570,0.242637,-0.159047,-0.326807,0.483886,0.062914,-0.006760,-0.402249,-0.096149,0.208213,0.382534,-0.168569,0.367672,0.215110,0.489471,0.161153,0.327387,-0.211844,-0.482940,-0.472930,-0.185507,-0.223197,-0.414243,0.062883,0.444426,-0.213431,0.127979,-0.151509,0.282220,0.206748,-0.140400,0.407681,0.476104,-0.065111,-0.475158,0.480285,0.064623,-0.419645,-0.135121,0.101642,-0.135823,0.427091,-0.120411,-0.480316,-0.157582,-0.062304,-0.416044,-0.018845,-0.115345,0.079821,-0.295495,-0.081774,0.358913,0.255852,0.015000,-0.433164,0.385922,0.117573,-0.339473,-0.452147,0.220786,0.046739,-0.373898,0.442412,-0.348079,-0.417173,0.007645,-0.107471,-0.176046,-0.420347,0.238212,0.258599,0.390683,0.371273,-0.070666,0.364467,0.138783,-0.270867,0.481780,0.362026,-0.152669,-0.108264,0.122150,0.245720,0.213370,0.447356,0.379147,0.049181,0.042650,0.351741,0.155354,0.254448,-0.180685,-0.138081,0.051286,0.445341,0.136097,-0.332820,0.097247,-0.263634,-0.467406,-0.001450,-0.450011,0.008286,-0.085772,-0.002029,-0.090136,0.481262,-0.043229,0.128712,-0.185049,-0.342524,0.404080,-0.092212,-0.031541,0.164113,-0.335780,-0.257866,-0.244407,-0.472259,-0.388913,0.149434,-0.294000,0.411863,-0.003006,0.144765,0.458312,0.348354,0.382900,0.074938,0.382748,0.494537,-0.007401,-0.318964,-0.481719,0.446745,0.397092,-0.329218,-0.019333,-0.358242,0.434751,-0.418058,0.496857,0.377560,0.274834,0.218009,0.223228,-0.015793,0.029160,0.437376,-0.496948,0.176595,-0.180868,-0.422697,-0.280419,0.119953,-0.295740,0.293878,-0.098834,0.239555,0.377956,0.099261,0.234458,0.305841,0.037187,0.377377,0.142384,-0.173940,0.332545,0.159505,0.082385,0.273980,-0.195761,0.440733,-0.278039,0.174825,0.052385,0.318812,-0.352657,-0.326960,-0.343013,-0.263604,0.261376,0.326075,-0.074267,0.108295,0.027421,0.134846,-0.077197,-0.385739,-0.284967,0.363399,-0.361934,0.439634,-0.195944,0.261925,-0.469176,-0.255974,-0.297296,-0.409757,-0.254662,-0.359951,-0.063066,0.462127,0.062578,-0.036973,-0.033769,-0.087146,0.494659,0.038316,-0.216880,-0.146077,-0.072100,-0.251152,0.365139,0.462676,-0.278802,-0.378475,0.241997,-0.131153,-0.334437,0.317072,-0.483581,0.120441,0.211417,0.201773,0.024400,-0.075060,0.369320,0.343745,-0.238884,0.197531,0.191366,-0.305200,0.047472,-0.053331,0.238334,0.313196,-0.013321,-0.470672,-0.060106,-0.091449,-0.045946,-0.193655,0.253227,0.490600,-0.223594,0.229301,-0.472961,0.402432,-0.242882,0.390652,-0.023240,-0.480285,0.203024,0.067614,-0.322718,-0.102374,-0.390439,0.291833,0.479675,-0.354488,0.160573,0.475311,-0.242271,0.312250,-0.301538,0.124378,0.391293,0.165304,-0.178365,0.172994,-0.108478,0.421476,0.264824,-0.463927,0.075610,-0.116260,0.219199,0.425016,0.196066,0.142598,-0.252098,0.425016,-0.068224,0.245933,-0.046251,-0.081957,0.146290,0.445433,0.054949,-0.169942,-0.179952,0.024613,0.025376,0.265252,0.062914,-0.112842,-0.044420,0.048173,-0.387478,-0.314447,-0.209311,0.135060,-0.274163,-0.227256,-0.398556,0.425352,-0.454222,-0.243339,0.044877,0.005081,0.112323,-0.060015,0.170583,0.353084,-0.362667,0.425626,0.228843,-0.458922,0.260247,0.169607,-0.362880,-0.040208,0.380093,-0.237480,-0.238975,-0.399167,0.256554,0.220542,-0.334284,0.427366,0.024400,-0.432371,0.494690,-0.136982,0.350276,0.490051,-0.368862,-0.067766,0.174917,-0.156026,0.299677,0.081133,0.191061,0.298730,-0.237266,0.212210,0.231376,-0.105060,-0.230277,-0.037553,0.192312,-0.199088,0.413999,-0.242546,0.180410,0.046983,0.054308,-0.328181,0.019517,-0.480285,0.457091,-0.372677,-0.219596,-0.002670,-0.184347,-0.039293,0.203513,-0.492889,-0.197562,-0.108631,0.420133,-0.213431,0.310938,-0.078997,-0.121204,0.129200,0.043138,-0.304041,-0.116932,0.396359,-0.400876,0.363948,-0.353267,0.476318,0.224631,-0.044267,0.273125,-0.028031,-0.126820,-0.175954,-0.436033,0.398190,-0.331019,-0.330134,0.065386,-0.329859,-0.083026,0.188070,0.255577,0.164113,0.345027,-0.136494,0.282006],[-0.312708,-0.051317,0.153371,-0.251915,0.311884,0.154256,-0.207144,-0.421506,0.021012,0.083728,0.263695,-0.261010,-0.310602,-0.056475,-0.258599,-0.462249,0.467009,-0.440214,-0.366604,-0.310297,-0.297632,0.232933,0.095416,0.187918,0.243217,0.461394,0.007675,0.207327,0.269921,0.065722,0.322840,0.332270,0.318690,-0.255425,-0.476257,-0.121723,-0.349788,-0.406827,0.192465,-0.003616,-0.379452,-0.383816,-0.403439,-0.461608,0.209983,0.273339,-0.300226,-0.349208,0.366237,-0.462523,-0.497650,0.378353,0.318903,-0.349239,0.117817,0.058672,-0.479827,-0.146840,0.492279,-0.210623,0.369350,0.371303,0.172750,-0.251671,0.376217,0.045213,0.030320,-0.351100,-0.079272,-0.324946,0.344813,0.111133,0.264275,-0.388028,0.156850,0.230308,-0.030869,0.124561,0.294061,0.123920,0.382656,-0.428220,-0.023148,-0.261681,-0.156178,-0.086169,0.411130,-0.303247,-0.244987,-0.407865,0.273095,0.469146,0.216788,0.309778,0.493072,-0.354335,0.312281,-0.256554,0.244499,-0.404630,-0.232810,-0.281518,-0.455962,0.290216,0.099780,-0.122059,0.369442,-0.423368,-0.068987,0.376919,-0.298883,-0.324000,-0.390713,-0.366329,0.393979,0.194235,0.305597,-0.331111,0.285180,0.422727,0.186483,0.063402,0.445097,0.211600,0.166982,0.066942,-0.023515,0.196371,-0.139485,-0.111682,0.269127,-0.340632,-0.385342,-0.301630,0.115650,-0.192770,-0.443938,0.377255,-0.405087,-0.254418,-0.158986,-0.463103,0.129322,-0.067614,0.420408,-0.149648,-0.377895,0.390805,0.233543,0.218894,0.081042,0.463347,-0.467345,-0.191885,-0.365505,0.388180,0.355922,0.484832,0.346858,0.478820,0.035844,-0.314844,-0.261773,0.188772,-0.330561,0.245811,0.416318,0.075060,0.343410,0.229301,-0.274865,0.311670,0.225700,0.274773,-0.181875,0.424528,0.471496,-0.494751,0.060991,0.379055,0.099536,-0.476959,0.170980,-0.048296,0.495972,-0.476165,-0.001175,-0.223594,-0.299188,0.061754,0.359310,0.477599,0.134419,0.495544,-0.182882,-0.062273,-0.080920,-0.351924,-0.166036,0.481323,0.453154,-0.290368,0.183218,0.255577,0.392972,-0.083148,0.038316,-0.409879,-0.300684,0.038102,-0.358516,-0.383724,-0.095172,0.196860,-0.041368,-0.072893,0.257866,0.064348,0.226737,-0.439848,-0.099811,-0.047777,-0.199820,0.083575,-0.266442,-0.162709,0.202261,0.066637,0.132374,-0.151143,-0.212210,-0.283105,0.158071,0.250267,-0.076556,-0.035783,0.431913,0.445921,0.091845,-0.226737,0.321986,0.044786,-0.174245,-0.033982,-0.398892,-0.487945,-0.121235,0.335108,0.231773,0.439604,-0.461821,0.329554,0.433775,-0.032945,0.487152,0.093890,-0.308039,0.384487,0.121509,0.142140,-0.140645,0.447996,0.282891,0.447752,0.012101,0.439268,0.431486,0.230888,0.212851,-0.499237,0.311975,0.224143,-0.161367,0.277551,-0.392788,-0.301996,-0.370876,0.396634,0.397488,0.027512,0.112232,-0.184103,-0.264367,0.080859,-0.437498,-0.426756,0.269097,0.211936,0.149556,-0.032548,0.333857,0.137135,0.431364,-0.298486,0.137043,0.478729,-0.149586,0.020981,-0.275903,0.255028,0.387478,0.376675,0.063219,0.099231,-0.159291,-0.355159,-0.489502,0.488342,0.210776,0.434782,0.012040,-0.237632,-0.124928,-0.484283,-0.051988,0.216727,0.328730,-0.105823,0.026078,0.047288,-0.472625,-0.427305,0.324366,0.430815,-0.039079,-0.478118,-0.472961,-0.478973,-0.210471,-0.103900,0.349483,-0.357723,0.388607,0.024979,-0.258660,0.461333,-0.042558,0.211325,-0.408444,0.419217,0.349208,-0.133015,0.251061,0.204001,-0.222648,0.017869,0.089373,-0.454100,-0.444212,-0.290704,-0.330439,0.115833,-0.472076,0.242759,0.330256,-0.191488,0.209983,0.477660,0.442503,0.192129,0.227134,0.121509,0.386929,0.404721,0.430357,0.095111,-0.226676,0.279382,-0.035630,0.197989,0.465880,-0.020829,-0.171163,-0.410001,-0.325709,-0.077044,0.357479,-0.042680,-0.386990,0.283593,-0.151448,0.454497,0.415799,-0.160298,0.134785,-0.422178,0.288598,0.461943,0.249107,-0.206351,0.458831,0.015641,-0.157857,-0.089679,0.447020,-0.039537,-0.491943,-0.274194,-0.382565,0.428648,-0.325129,-0.017991,0.166799,0.063005,0.215384,0.156789,-0.127125,0.396023,0.434965,0.125355,0.235679,0.051073,-0.407102,0.221702,0.417661,-0.452788,-0.387143,-0.267968,-0.111286,-0.011032,0.139119,0.351039,0.182730,0.421567,-0.405210,-0.368068,-0.328394,0.134053,0.398404,-0.037614,-0.236839,-0.309381,-0.005448,0.096820,0.429075,-0.028245,-0.144276,-0.223411,0.469085,0.006302,0.110645,0.469451,0.417997,-0.124104,-0.043840,-0.240776,-0.498749,0.473113,-0.491699,0.417386,-0.454161,0.393765,0.249382,-0.312891,0.252129,-0.254021,-0.273461,-0.188040,-0.266198,0.156117,-0.340846,0.339564,-0.268731,-0.246941,0.110126,0.232139,0.405210,0.412687,-0.121937,0.314875,0.116474,0.043046,-0.233390,0.093371,0.098682,0.191977,-0.113269,0.471709,0.429380,-0.241905,-0.351497,0.401700,0.206534,0.086688,-0.173543,-0.004471,0.467528,0.415311,-0.239921,0.132313,-0.162038,-0.336329,-0.370510,0.089984,0.073748,0.209952,0.489624,0.233909,-0.192618,0.499329,0.191824,0.293359,0.499908,-0.298151,0.066210,0.257195,-0.252312,-0.160634,0.114429,0.419828,0.269555,-0.441160,0.142109,-0.391049,0.348567,-0.115558,-0.012955,0.126087],[0.026566,0.499390,0.431120,-0.280358,-0.300043,0.429777,0.102588,0.373867,-0.438475,-0.117725,0.104328,-0.120991,-0.248619,0.487671,-0.109973,0.335383,0.084521,-0.046007,0.377102,0.366298,0.064379,0.164022,0.320704,0.120716,-0.499634,0.378994,0.119617,-0.337642,0.009903,-0.004166,-0.415098,0.381527,0.186300,0.029618,-0.297266,-0.354274,-0.285607,-0.038408,-0.077471,0.246117,0.214286,0.318659,0.001816,0.394772,0.094989,0.237510,-0.060900,0.370266,0.199088,-0.344172,0.025590,0.486908,-0.480377,0.286279,-0.452452,0.112964,-0.229362,0.030290,0.170156,-0.355983,0.092212,-0.012436,-0.465636,-0.162648,-0.328211,-0.282708,0.097858,0.414304,-0.437315,-0.024613,-0.248802,0.336238,0.481018,0.110492,0.241142,-0.339503,-0.137623,-0.305445,-0.068896,0.383084,-0.040117,-0.321253,-0.068499,0.173269,0.263970,-0.403897,0.129994,0.407712,0.026048,0.048418,0.153462,0.409268,0.166768,0.106006,-0.206931,0.297143,0.350520,0.210074,-0.076708,0.354701,-0.493194,-0.267479,0.446348,0.321253,0.123798,-0.149190,0.293176,-0.486572,-0.207938,-0.106800,0.012711,0.183676,0.187460,-0.188894,-0.020219,0.020341,-0.237541,-0.065477,-0.246269,0.197562,-0.061296,-0.333003,-0.381466,-0.120533,-0.324763,0.276269,-0.164144,-0.413724,-0.003861,0.370571,-0.357753,0.327540,0.215018,-0.318903,-0.478240,-0.090625,-0.361599,0.413907,-0.214866,0.321986,0.028825,-0.350856,-0.013077,-0.386929,-0.391385,0.122517,0.211722,0.154378,-0.113544,-0.062548,-0.239097,-0.293634,0.406095,0.400967,0.270775,0.188711,0.465545,0.204611,-0.206198,-0.438475,0.288598,-0.391964,-0.125935,-0.275384,-0.238304,-0.219810,0.083148,-0.159841,-0.314142,-0.044755,-0.499512,-0.014267,0.123676,-0.440733,-0.222465,-0.456359,-0.143605,-0.036271,-0.175161,0.232810,-0.086474,0.022141,0.149739,0.189291,-0.044450,0.046403,-0.028336,0.002243,-0.208213,0.378597,0.454314,0.110828,-0.185965,0.214896,0.394406,0.469115,-0.372402,-0.162404,0.150563,-0.115680,-0.339290,-0.088366,0.378933,-0.064379,-0.416166,0.001816,0.106311,-0.121052,-0.253380,-0.033097,0.172842,0.444395,-0.472503,0.387112,0.106525,-0.067278,-0.064776,-0.319239,-0.260887,-0.483459,0.314417,0.067034,0.260979,-0.347102,0.064959,0.030198,0.135090,0.015275,-0.300287,0.442503,0.013016,-0.156117,0.407010,0.001114,-0.483612,0.133869,0.123035,0.136158,0.138722,-0.446257,-0.104633,0.045305,-0.234214,-0.490936,-0.181478,0.012009,0.346858,0.254234,0.323145,-0.337367,-0.252861,0.459532,0.100024,0.319941,0.313593,-0.360561,0.440001,0.107898,0.184347,0.348781,0.271233,-0.034837,-0.126057,-0.447935,-0.325098,0.222892,0.165090,0.073778,0.139698,-0.097064,-0.161885,-0.465880,0.483947,0.393582,0.269921,-0.321925,0.282891,-0.342128,0.432981,-0.497253,0.322687,-0.368068,0.326136,0.090106,-0.378475,-0.031388,0.368343,-0.449065,0.244072,-0.216849,-0.213523,-0.013565,0.041581,-0.442717,-0.471465,-0.126576,0.120960,-0.142476,-0.266564,-0.455748,0.242058,0.273644,0.291528,0.253136,-0.236503,0.224021,-0.164205,-0.384335,0.144704,0.308618,-0.006973,-0.376370,-0.456969,0.262810,0.434660,0.130482,0.295160,-0.114063,-0.164785,0.394101,0.282067,0.070391,0.410794,-0.412809,0.023270,0.153706,0.013688,-0.362270,-0.219596,0.188406,0.315210,-0.194327,0.451659,0.471709,0.107532,-0.097552,-0.461150,-0.318995,0.256066,-0.401028,-0.032060,0.082141,0.107746,0.449217,0.044084,0.279595,0.465209,-0.125721,0.322932,-0.271966,0.423215,-0.384793,-0.321039,-0.347987,0.489532,0.458495,0.352779,0.029618,0.130451,0.302332,0.257530,-0.202536,0.007431,0.249077,0.326960,-0.067736,0.356746,-0.409818,0.185324,-0.434263,0.270165,0.089984,-0.079119,-0.211112,-0.093188,0.474609,0.244438,-0.038041,0.168264,-0.215629,-0.383938,-0.433317,-0.132649,0.158315,0.003739,-0.383969,-0.077074,-0.240196,-0.090320,0.179281,-0.389248,-0.098254,-0.146016,0.277032,0.402554,-0.359615,0.188589,-0.056291,0.424100,0.411313,-0.332057,0.232933,0.063860,-0.098804,0.175619,0.162526,-0.236961,-0.197348,0.085711,-0.244865,-0.481353,0.429716,0.040391,-0.169210,0.130757,0.101489,0.424619,-0.292169,0.473846,-0.300592,0.319330,0.468108,-0.418241,0.304407,0.214560,-0.057237,0.016556,0.320704,0.263359,0.348231,-0.149098,-0.007981,0.358150,-0.181478,0.479278,-0.283441,-0.189474,0.217948,0.107196,0.067339,-0.084185,-0.154744,0.147572,-0.076586,-0.403348,0.230613,0.332820,-0.380886,-0.484008,0.454070,-0.434233,-0.483184,0.113147,-0.448424,0.326930,-0.090045,0.390255,-0.108356,0.169668,-0.337703,-0.315760,0.178671,0.334651,0.489807,0.033433,0.239799,0.014603,0.291223,-0.189810,0.251244,0.300836,0.434019,0.488922,-0.440092,0.342280,0.401334,-0.012040,-0.242485,-0.250847,-0.293268,0.258660,0.162526,-0.362392,0.482788,-0.271111,0.366543,0.285974,-0.350673,-0.161641,0.001816,0.116352,0.068804,0.490661,0.385098,-0.270959,-0.406644,-0.122303,0.195242,-0.175558,0.411496,0.065538,-0.160176,-0.138264,-0.400876,-0.034593,-0.332087,0.046403,0.282586,0.470397,-0.315699,-0.188314,0.318781,0.039537,-0.077685,0.325678,-0.100726,-0.489410,0.130970],[-0.015336,0.422422,-0.460265,-0.084613,-0.025040,-0.371914,0.108203,0.044206,-0.477294,0.480987,0.164541,-0.280419,-0.104968,0.373684,-0.157643,0.464080,-0.209494,-0.088061,-0.280694,-0.140187,0.017655,-0.495148,-0.435148,0.108539,-0.059252,-0.348201,-0.396146,-0.133656,0.099567,-0.291528,0.344111,0.385678,-0.090625,0.412168,0.124928,0.494720,-0.153127,-0.051653,0.042558,0.446318,0.029038,-0.160329,0.408719,0.167074,-0.409299,0.437956,-0.228263,-0.061937,-0.232810,0.301447,0.045396,0.038621,0.088214,0.237938,0.234458,0.384060,-0.410489,0.295038,-0.141255,-0.311060,0.448180,0.479034,-0.213492,0.186972,-0.051897,0.483642,-0.199515,0.438566,0.181845,0.069872,0.295862,0.229362,0.010056,0.029313,0.072436,-0.414731,-0.214316,0.471038,-0.455077,0.464324,0.190634,0.335200,0.100299,0.200247,0.239616,0.029160,-0.338435,0.088916,0.350307,-0.115467,-0.019578,0.135456,-0.172933,0.131977,-0.161885,0.076861,-0.084277,0.354427,-0.189444,-0.288903,-0.053880,-0.299982,-0.245628,0.064501,-0.049547,-0.363674,-0.330103,0.427671,-0.317866,-0.473510,0.097156,-0.207663,-0.169485,-0.190970,-0.298608,-0.280267,-0.459258,0.062456,0.204642,0.171499,0.045488,-0.264092,0.318537,0.335170,0.313807,-0.173055,-0.163930,-0.025132,0.124073,0.287957,-0.462584,0.338679,0.467040,0.442198,0.066363,0.153829,-0.315088,0.191122,0.433988,-0.258965,0.253502,0.293664,0.305353,-0.220573,-0.387509,0.499237,-0.274255,-0.247246,-0.048326,-0.184683,0.442564,-0.391079,0.357692,0.426298,0.479064,-0.336848,0.228904,0.399777,0.116626,0.277123,0.363796,0.394986,-0.058947,0.344172,-0.370449,-0.066668,0.109943,0.112781,-0.382900,-0.267083,0.496673,0.379208,0.188437,-0.043687,-0.132008,-0.419950,0.322932,0.119007,-0.249321,-0.182821,0.168844,0.448149,0.144124,0.344874,-0.293970,-0.256584,0.313959,-0.448576,-0.073840,0.237327,-0.231162,-0.033677,-0.063158,0.019517,0.239494,0.323511,-0.104144,0.036973,-0.038102,0.213157,0.181783,0.207327,0.271355,0.352107,-0.293085,0.104602,0.264855,0.005051,-0.220603,-0.001663,-0.365139,-0.311213,0.420133,-0.472472,-0.140614,-0.020859,-0.458983,-0.209342,-0.360439,-0.411924,-0.108783,0.132893,-0.336940,-0.318659,0.176504,0.411802,-0.068072,0.028916,0.259362,0.022874,-0.189199,-0.363338,-0.183004,0.466155,-0.045946,-0.173940,-0.439787,-0.265191,-0.243126,-0.478607,-0.169118,0.307794,-0.481780,-0.107349,0.464507,0.026444,-0.080340,-0.232170,0.344356,-0.361965,0.028672,-0.482543,0.040269,0.285943,0.450987,-0.282617,0.447295,-0.271722,-0.201071,0.368892,0.244682,-0.420042,0.130726,0.206168,0.011704,0.267418,0.016221,0.123554,0.030808,-0.023148,0.386380,0.252495,0.357418,-0.165456,-0.178152,-0.279443,-0.407743,0.324030,0.437529,-0.376644,-0.371120,-0.003220,0.018571,0.240257,0.223289,0.302118,-0.434629,0.025864,0.144948,0.031785,-0.097705,0.408017,-0.092242,-0.248131,-0.492584,-0.076464,0.487671,0.275445,0.219291,-0.276666,-0.067644,0.457701,-0.023270,-0.022233,0.270440,0.094501,0.248192,0.213675,-0.375057,0.205649,-0.322504,0.114277,-0.061144,0.484283,0.006943,-0.215873,0.217765,-0.074236,0.220420,0.214438,-0.303552,0.291253,-0.415006,0.367336,-0.164266,0.065752,-0.274651,0.431730,-0.444578,0.060808,-0.399838,0.260460,-0.390133,-0.425748,0.132771,0.133106,-0.487487,-0.490234,-0.219199,-0.329005,-0.084674,-0.137043,0.351955,0.465453,-0.150288,-0.375820,-0.327265,0.449797,-0.265130,0.378109,0.411435,-0.453001,-0.439909,0.381924,0.471313,-0.376003,0.220542,0.403500,0.350185,0.283654,-0.101459,0.100269,-0.021561,-0.473876,-0.060442,0.220664,0.240410,-0.189535,0.057573,0.408719,-0.315333,-0.452147,0.347499,-0.106098,-0.419462,-0.442045,-0.031846,-0.153493,-0.023820,-0.480956,-0.083483,-0.319422,-0.084979,-0.056261,0.225364,0.085314,0.466765,-0.288537,0.491363,0.066149,-0.271203,-0.311396,0.139271,-0.223045,0.454924,0.467895,0.328913,0.424406,0.466948,-0.241844,-0.089282,0.025987,-0.494110,0.455870,0.336665,0.302606,-0.320917,-0.070788,-0.067919,0.487365,0.158712,-0.453276,0.435759,-0.221488,0.289087,-0.018937,0.213004,0.089160,-0.241905,0.319452,0.049516,-0.239036,-0.010575,-0.487976,-0.068804,0.380123,0.411679,0.189474,-0.283380,-0.380642,-0.239219,0.380795,0.108356,-0.497620,0.071886,0.162832,-0.170644,0.499451,-0.483367,-0.333888,0.410733,-0.210776,-0.256981,0.214743,0.496948,-0.031968,-0.127308,-0.108356,0.353999,0.191336,0.492279,-0.419370,0.116901,0.279321,0.452574,-0.470885,0.277673,0.296045,0.352870,-0.364895,-0.435545,-0.454894,-0.494629,-0.110065,0.303827,-0.477660,0.497589,-0.485015,-0.372799,0.316126,0.115497,-0.209586,0.032365,-0.451048,-0.355617,-0.195273,0.336940,0.141408,-0.297906,0.066088,0.431181,-0.320856,0.262322,-0.039476,-0.264641,-0.334651,0.023301,0.270775,-0.230949,0.438536,-0.221427,-0.310968,-0.262658,0.037919,-0.054155,-0.144795,-0.458495,-0.202475,-0.089526,-0.048357,0.119251,-0.050401,0.339473,0.386013,-0.478454,0.019364,0.122547,-0.407010,-0.367916,0.291833,0.096454,0.486908,-0.064653,0.132374,0.208518,-0.404874,0.239952,0.441862],[0.405393,-0.236839,0.027879,-0.001572,-0.043687,0.483215,0.173177,0.374966,0.204031,0.165059,0.182730,0.190573,0.194967,-0.033250,0.190481,-0.280206,-0.423215,0.031663,0.007035,0.308527,0.478515,0.226920,0.289911,-0.011216,0.290613,0.102832,-0.183187,-0.216758,0.377346,0.202200,0.144215,-0.144887,0.102191,-0.445799,0.431547,0.160146,0.243797,-0.368679,-0.287164,-0.243248,0.196585,0.351466,0.138081,0.430876,0.215842,-0.493103,0.277215,0.449797,0.009568,-0.140919,0.183248,-0.047075,-0.419187,-0.104480,-0.171499,0.481903,0.414182,-0.308405,-0.117847,0.005081,-0.237114,-0.021470,-0.241600,-0.043840,-0.202872,0.332331,-0.029954,-0.425413,-0.034837,0.408658,0.048509,0.270348,-0.476226,-0.064959,-0.432493,-0.321619,0.000320,0.158223,-0.448759,-0.441435,0.117512,-0.222587,0.048814,0.197745,0.212760,0.229057,0.155782,0.469787,-0.317682,-0.230094,0.264336,0.469695,0.482727,0.190329,-0.176840,0.062120,0.219382,-0.076495,0.388363,0.447264,-0.144917,-0.456633,0.246544,-0.177328,-0.431730,-0.183096,-0.482482,0.089831,-0.206656,0.457121,0.136189,-0.188101,-0.026414,0.439207,0.139058,0.403165,0.058458,-0.365932,0.129872,-0.066942,0.387387,-0.384548,0.112476,-0.285150,0.212790,-0.452666,0.327815,0.326899,-0.270470,-0.442442,-0.241966,0.303003,-0.251061,-0.495880,-0.093463,-0.108905,0.441465,-0.459868,0.459166,0.163869,-0.093432,0.384091,-0.364223,-0.075121,0.440153,-0.298853,0.133961,-0.220573,-0.262658,-0.497589,-0.174703,-0.101581,0.365780,-0.032334,0.458098,-0.325770,-0.263451,-0.401639,-0.176656,0.347468,-0.213157,0.106861,-0.287805,0.260155,-0.155721,-0.051622,-0.054949,-0.107135,0.141652,-0.098437,0.254784,0.340663,0.013321,-0.395627,0.304132,-0.150929,0.304590,0.451170,-0.380306,-0.182028,0.025071,-0.242821,-0.277215,0.173666,-0.222373,-0.402646,0.238914,-0.474761,-0.006302,0.224601,0.267113,-0.234062,-0.493225,0.474944,-0.209891,0.183309,0.494873,0.378536,0.407041,0.026414,0.323359,0.187521,0.169332,0.482879,0.319636,0.314600,-0.198355,0.461241,0.010453,-0.391537,0.088672,0.291559,-0.146504,-0.147237,-0.290765,0.347957,-0.005600,0.306513,0.298975,-0.014145,0.080218,0.388241,0.022568,-0.050188,-0.338954,-0.403439,0.437346,-0.091754,0.210654,-0.426634,-0.071184,0.271508,0.297388,-0.284356,0.499939,-0.050829,-0.063158,0.242485,0.194998,0.203452,-0.342372,0.123463,-0.060411,0.254051,0.310755,-0.225303,0.077929,-0.208396,0.154958,-0.071673,0.388485,0.055345,0.248253,-0.417417,-0.140492,-0.368282,-0.322352,0.437864,0.005661,-0.370388,-0.342036,-0.274651,0.006760,0.389126,0.030778,-0.165181,0.449980,0.379513,0.195334,-0.352962,-0.042955,0.443052,0.002213,-0.022111,0.477416,0.040727,-0.358760,0.039842,-0.471740,-0.343776,0.054491,0.327387,0.163930,0.014267,-0.093738,-0.167562,-0.046037,0.269616,-0.359157,-0.003861,0.463744,-0.176778,-0.340724,0.303217,-0.456572,-0.078509,0.146809,-0.074816,0.129048,-0.305078,-0.145039,0.318598,-0.033006,-0.207511,0.456603,0.184652,-0.086779,0.268029,0.245598,-0.303705,0.166036,0.437010,0.144429,0.399411,0.188101,0.424345,-0.381039,-0.306421,-0.111774,0.366634,0.291040,0.299921,-0.155782,0.246147,0.193381,-0.379391,-0.152272,0.192160,-0.074969,0.398099,-0.446989,0.097919,-0.261559,-0.421323,-0.489807,-0.354366,0.089312,-0.212088,0.364559,-0.166372,-0.319330,0.323450,-0.496887,0.161214,-0.467589,0.071368,-0.070055,0.128620,0.107318,0.253288,-0.349208,0.207175,0.025010,0.409085,0.349269,-0.063341,0.395260,-0.477416,-0.365322,0.305780,0.301294,-0.303827,-0.355953,0.072039,0.465056,0.280053,0.278344,0.177572,-0.374752,-0.136799,-0.144978,-0.083483,-0.340358,0.031816,0.457793,0.011002,-0.017624,0.301569,-0.235282,0.251366,0.248466,0.129872,-0.363521,-0.143025,-0.104266,0.414640,0.245170,0.214438,-0.443846,0.385372,0.284112,0.148396,-0.132466,0.293359,0.230491,0.382260,-0.283380,-0.193228,0.228202,0.045091,-0.389401,-0.161428,0.048662,0.234214,0.237541,0.025590,-0.317072,-0.302179,0.335322,-0.052141,-0.125446,0.283563,-0.456633,-0.359249,0.205832,-0.024339,-0.338618,-0.052049,-0.431913,0.234489,0.255974,-0.173605,-0.379788,-0.005692,0.292505,-0.424375,0.376217,-0.024766,-0.176168,-0.103107,-0.347407,0.466277,0.266839,0.188772,-0.192953,0.234977,0.297815,-0.014817,0.048814,-0.279595,-0.101306,-0.057665,0.102985,0.165822,-0.415342,0.280847,-0.490600,-0.153554,0.344722,0.089007,0.337855,0.049974,0.326258,0.393674,-0.400174,-0.035508,-0.204672,0.405057,0.139882,0.131581,0.403256,-0.158406,-0.014451,-0.380459,0.291253,-0.258965,0.039323,-0.426084,0.064196,-0.335719,0.092212,0.301111,0.164785,-0.302210,0.441069,-0.372463,-0.320704,0.161306,-0.109272,0.087664,0.106281,0.426878,0.222159,0.406400,0.119373,-0.244743,0.307642,0.416227,-0.144520,-0.443449,-0.045244,0.081622,-0.240257,-0.019639,-0.239982,-0.023179,-0.481933,0.242729,-0.246483,0.476928,0.109210,-0.404569,0.115833,-0.267907,-0.493133,0.344356,-0.221610,0.081347,0.063829,-0.177602,-0.021104,0.207175,0.108478,-0.275536,0.182272,-0.329798,-0.214072,-0.290613],[0.032365,-0.325587,-0.324030,0.133564,0.137135,0.208029,-0.380825,0.408261,-0.208731,0.437803,0.472350,-0.136067,0.451048,0.161580,-0.157643,0.178518,0.086901,-0.045457,0.043382,-0.095630,-0.261864,0.131092,0.335719,-0.190664,-0.087298,0.169912,-0.223960,0.085620,0.489166,-0.367122,-0.414670,-0.263207,0.277001,0.109760,0.440306,-0.104694,-0.108875,0.219047,0.332087,-0.031205,0.097369,0.197134,0.239738,0.191122,0.284570,0.106372,-0.000015,-0.254662,0.220237,0.193564,-0.012497,0.240684,-0.254601,0.430174,0.303980,-0.176321,-0.434629,-0.234611,0.407041,-0.294183,-0.207816,0.123310,0.243736,0.388333,0.395505,-0.324580,-0.442290,0.365200,0.217887,0.420011,-0.228477,-0.413602,-0.289300,-0.400937,0.385983,0.461882,0.047105,-0.015213,0.194571,-0.312311,-0.231925,-0.434080,0.400632,-0.323908,-0.381985,-0.333644,-0.138752,-0.130177,-0.273858,0.026109,0.474090,-0.277123,-0.210532,-0.123402,0.076373,-0.371639,0.414518,-0.458403,-0.232200,-0.425260,0.272942,0.474059,-0.436491,-0.187887,0.228294,0.102863,-0.216666,0.309290,0.089526,-0.005631,0.083575,0.283135,0.147694,0.070025,-0.462157,-0.418271,0.152181,-0.298730,-0.327204,0.201926,-0.117450,-0.260674,-0.134846,-0.277032,-0.027482,-0.331599,0.006363,-0.062334,0.141865,-0.465300,-0.158712,0.461760,0.493011,-0.318232,-0.113514,-0.396786,0.028214,-0.176046,0.335414,0.272637,0.043840,0.488891,-0.144307,0.215506,-0.442473,0.360317,-0.441679,0.348567,0.425199,-0.447295,-0.064806,0.480407,0.303400,0.348720,0.499451,0.198477,0.113971,0.430631,0.488128,0.203116,0.166646,0.137379,-0.419889,-0.408048,0.108203,-0.036058,0.021744,0.156514,-0.221702,0.482574,0.217154,0.302728,0.183462,-0.387112,0.157949,0.377621,-0.410733,-0.462889,-0.139546,0.143178,-0.223319,0.211844,0.057115,0.096057,-0.325587,0.095538,0.138417,0.266320,-0.301599,-0.410733,-0.043687,0.432646,0.175253,0.221427,0.395138,0.034410,-0.156026,0.107593,0.116230,-0.437529,-0.304712,-0.282586,0.382962,-0.290216,-0.298120,0.479308,0.371792,0.062700,0.257286,0.253899,-0.124073,-0.385037,-0.240349,0.208579,-0.191885,-0.115009,0.384854,0.122944,0.407987,-0.082171,0.205130,-0.342341,-0.438810,-0.046617,0.309931,-0.382748,0.136097,0.041673,0.084704,-0.261773,-0.256249,0.386837,0.304468,0.034074,-0.171194,-0.299463,0.197775,0.227775,0.495972,0.346889,0.137745,0.303980,-0.020585,-0.440825,0.116382,-0.288995,0.161153,-0.489624,-0.341853,0.244987,0.044115,-0.481628,0.329615,0.146382,-0.413205,0.167104,-0.499573,0.014878,-0.194540,-0.374996,-0.486755,-0.287530,-0.449889,-0.057726,-0.082476,-0.252831,-0.139363,-0.392758,-0.075701,0.348872,0.309015,0.281793,-0.262261,0.416135,0.234550,0.374050,-0.079669,-0.251305,0.277612,-0.261864,0.446776,-0.145589,0.118366,0.103412,-0.395749,-0.125996,-0.172720,-0.058794,0.394528,0.000290,-0.267388,0.046403,-0.406217,-0.077441,0.212333,0.447844,0.127552,0.327723,0.315546,0.168477,-0.084155,-0.010758,-0.379238,0.276055,-0.154347,0.475341,0.236381,-0.493561,0.026261,0.007431,0.350093,0.240349,-0.306116,-0.499664,0.233573,0.114490,-0.045854,0.315424,0.015244,0.049425,-0.078875,-0.242515,-0.221854,-0.026017,-0.057634,-0.152211,0.438597,0.028764,-0.191275,0.402890,-0.438017,-0.471068,-0.011887,-0.048082,0.272301,0.468383,-0.469024,-0.477142,0.111072,-0.154042,0.070147,-0.170797,-0.397519,-0.404630,-0.214499,-0.111896,-0.476348,0.399625,0.085559,-0.398343,0.285913,0.171651,0.290429,0.332301,0.333888,0.482299,0.473388,0.003220,-0.031571,-0.283471,0.116626,-0.243889,0.499634,0.239708,-0.261956,-0.303888,0.135914,0.354549,0.144642,-0.243736,-0.483917,0.330744,0.469237,0.212363,-0.120991,0.287835,-0.353298,-0.120746,-0.345973,0.212851,0.486053,-0.479858,0.248711,-0.105945,-0.006088,-0.499786,0.112110,0.052019,0.106891,0.215262,-0.427396,0.448943,0.488006,0.327143,-0.440672,0.258049,-0.456206,0.337306,0.115192,0.473846,0.318628,-0.470733,-0.359798,-0.355373,0.421995,-0.188559,-0.301172,-0.291406,-0.354762,0.491607,0.315119,0.214652,0.424406,-0.485504,-0.084368,-0.290887,-0.195761,0.193289,0.199606,-0.429929,0.061327,-0.033464,0.053087,0.069872,-0.359127,0.211844,-0.296716,-0.052538,-0.435240,-0.352779,0.144917,0.271813,-0.033677,0.351924,0.203391,-0.122272,-0.091845,-0.062792,0.146779,0.154836,0.139790,0.443632,-0.247215,0.471648,-0.049303,-0.315516,0.237175,0.015488,-0.224570,0.499573,-0.050462,0.329768,-0.292993,0.396054,0.243187,0.329676,-0.425504,-0.337550,0.424924,0.077746,-0.258324,0.053850,0.191153,0.100299,0.282311,-0.109607,0.456816,-0.158803,-0.311274,-0.443327,-0.017380,-0.170186,-0.229850,0.432493,-0.291986,0.456725,-0.103809,-0.213706,0.194998,0.118091,0.242668,-0.336604,0.089557,0.030473,0.195547,-0.026658,-0.148366,0.185415,-0.393521,-0.028977,-0.152699,-0.415708,-0.050676,0.102344,0.470916,-0.332942,0.318873,-0.295282,-0.162465,0.126057,0.025224,0.056383,0.208121,0.223807,-0.355403,-0.162557,0.496094,-0.062395,-0.289666,-0.447966,0.337733,0.176595,0.187033,-0.269494,0.408292,-0.148000,0.384365,-0.186483],[0.082476,0.466460,0.248589,-0.257836,0.315241,0.213218,-0.168783,0.050584,-0.355434,0.189932,-0.178701,-0.123554,0.108875,-0.018815,-0.134175,-0.424039,0.323420,-0.354366,0.259941,0.350185,-0.302271,0.047777,-0.423124,0.479736,0.116535,0.222526,0.198508,-0.141163,0.202445,0.429899,-0.222922,-0.265831,0.104633,0.054704,0.160390,0.055040,-0.002792,0.008805,-0.189199,0.341151,0.100757,-0.208914,0.249626,0.474303,-0.067553,-0.137806,-0.441710,0.320093,0.065996,0.489898,0.467345,-0.414121,0.182455,-0.163045,0.064470,-0.178518,-0.306543,-0.361873,-0.346858,-0.031449,-0.282067,-0.447569,-0.207236,0.365108,-0.306543,0.296319,0.051622,-0.433226,0.403867,0.265007,-0.495849,0.203207,-0.296258,0.367672,-0.496429,0.339381,-0.278008,-0.457488,-0.238975,-0.191153,-0.175466,-0.007065,0.262658,0.364498,0.118549,-0.199759,-0.098376,0.489288,-0.221335,0.069842,0.436491,-0.038682,-0.023118,-0.339869,-0.434111,0.124104,-0.303034,-0.102435,0.053331,0.267846,0.215171,0.032243,-0.469298,0.028581,0.486755,-0.053697,-0.246635,0.211112,-0.490997,0.177694,0.257469,-0.058092,0.073992,-0.248222,0.344447,-0.441710,0.139119,-0.364345,-0.251030,0.140553,-0.350215,-0.065111,0.332453,0.146992,0.186422,-0.294183,-0.343257,-0.068438,0.258934,-0.415220,-0.106159,-0.024674,0.289087,-0.058977,0.322047,0.319117,0.325159,-0.437040,-0.161122,0.270898,0.011582,-0.268273,0.087878,0.478607,-0.287500,-0.359157,-0.079485,-0.025224,0.370113,0.296319,-0.438353,-0.085009,0.388974,-0.081530,-0.173116,0.057543,-0.342433,0.002365,-0.029771,0.249046,-0.201346,-0.307764,-0.218009,-0.492615,-0.071184,-0.373074,-0.120563,-0.120106,-0.290368,-0.087909,0.174490,0.443632,-0.029313,0.375759,-0.267693,-0.144948,-0.313623,-0.236717,-0.188437,0.354610,-0.412748,0.028031,-0.382809,0.229698,0.187613,0.373806,-0.202048,0.461486,-0.490020,0.205802,0.218711,-0.494446,0.288781,-0.354091,0.314966,0.206015,-0.067156,-0.231468,-0.365902,0.155446,0.029893,0.213645,0.373409,-0.135823,-0.327509,0.332728,-0.185141,0.325251,0.388089,-0.475463,0.319452,0.284387,-0.046587,-0.083728,-0.367031,0.045671,-0.289239,0.046800,-0.251885,-0.249413,-0.181906,-0.291894,-0.427641,0.440703,-0.239280,-0.398740,0.450652,-0.029221,0.162191,-0.037187,0.045274,0.018082,-0.081011,-0.181539,-0.366848,0.190146,0.394589,0.019883,0.333766,-0.394528,0.302240,-0.279290,0.305689,0.429411,-0.277276,0.448607,0.155965,-0.228996,0.038102,0.429014,-0.406583,-0.151967,0.062609,0.317255,-0.142384,-0.174886,0.152272,-0.004898,-0.045763,0.232627,-0.425962,-0.412137,0.228477,0.371364,-0.083789,0.358699,0.307550,-0.389859,-0.179220,-0.364284,-0.056444,-0.017869,-0.180319,0.429228,-0.211844,-0.013871,-0.444426,-0.106220,-0.370235,-0.000534,0.168600,0.293054,0.146962,0.208121,0.130512,-0.377743,-0.442839,0.460906,0.307428,-0.454588,-0.353420,-0.046251,-0.467986,-0.196799,-0.044603,0.150105,0.467132,-0.252403,-0.093493,-0.155812,0.041154,0.220237,-0.044939,-0.227165,0.237571,0.008713,-0.059099,-0.317560,-0.481384,0.301904,0.154286,0.257530,-0.334651,-0.307062,0.145466,-0.183554,0.314997,-0.006485,-0.190115,0.181265,-0.023606,0.251549,-0.220176,-0.372524,-0.194113,-0.450560,-0.346004,0.320399,-0.076464,0.179769,0.096393,0.143544,-0.447905,0.353694,0.335322,0.326472,-0.240745,0.099048,0.094287,-0.222678,0.084765,-0.495758,0.485595,-0.473174,-0.166585,-0.036149,-0.101794,0.189871,0.315516,-0.417356,0.410978,-0.149312,-0.184286,0.393918,-0.237571,0.278588,-0.428404,-0.451476,0.408567,-0.120502,-0.456511,0.131062,-0.300378,0.290582,0.256157,-0.241020,-0.292413,0.023148,0.494385,-0.378597,-0.265221,0.061083,0.133168,0.113361,0.035997,-0.179617,-0.116138,-0.277734,-0.215842,0.376492,0.237815,0.322535,-0.188192,0.364956,0.388089,-0.465667,0.159108,0.462889,0.411527,0.303613,-0.040483,-0.143971,0.491333,0.358547,-0.304987,-0.400906,0.462188,-0.300562,0.351436,0.274255,0.458770,-0.221854,-0.494690,-0.144795,-0.050798,-0.476989,-0.125813,0.182363,-0.065813,-0.134114,0.360256,-0.044359,-0.406186,-0.072771,0.120106,-0.348933,0.162526,-0.484191,-0.309229,0.267541,-0.058214,0.099139,-0.296380,0.309778,-0.162465,-0.099475,0.217582,-0.085986,0.307337,0.279748,0.202628,-0.477599,-0.425443,0.052965,0.204947,0.012497,0.224540,-0.091662,-0.275048,-0.311853,0.008042,-0.426359,0.339595,0.037919,0.301782,-0.107868,0.099750,-0.332759,-0.485748,0.462676,0.234642,0.310999,-0.325831,0.000778,-0.306177,0.331813,-0.441008,0.076617,-0.441465,0.246574,-0.353328,0.385922,-0.146779,0.241539,0.167013,0.210685,-0.211081,-0.082965,0.057085,0.225547,-0.030564,0.444517,0.035386,0.305780,-0.408475,0.265160,-0.313898,0.493866,0.170888,0.403073,-0.275170,-0.219657,-0.175863,-0.257103,0.292718,-0.144551,-0.360591,0.044450,-0.461272,0.487640,0.165426,-0.400693,0.274133,-0.314875,-0.448485,-0.063311,0.480132,0.297510,0.368892,0.484069,-0.049028,0.212241,-0.355037,-0.410703,-0.147633,-0.196310,0.141804,-0.189505,0.477599,-0.209769,0.409970,-0.120838,-0.018052,0.020463,-0.350978,0.244163,0.377071,0.291345],[-0.398770,-0.433927,0.015641,-0.357997,0.315851,0.453581,-0.374050,0.202078,0.085559,-0.354640,-0.359218,0.212668,0.160085,-0.183401,0.387173,0.445158,0.291803,0.201437,0.090136,0.172201,0.378231,-0.186880,-0.379604,-0.450377,0.147664,0.379604,-0.443449,0.055162,0.026902,-0.459349,-0.282128,-0.485260,0.187002,0.336573,-0.176015,-0.251732,-0.268822,0.268517,0.438078,0.365627,0.431944,-0.287011,-0.150807,-0.255760,-0.324641,-0.029344,0.050432,-0.280175,-0.247642,-0.268761,0.469054,0.020890,0.204001,0.235984,-0.395291,-0.021165,0.291742,-0.156850,0.232414,-0.455199,-0.165395,-0.196646,0.325709,0.144215,0.017808,0.451994,0.299799,0.400510,0.346583,-0.278130,0.132496,0.259239,0.398556,0.136372,-0.187399,-0.455962,0.281610,0.136006,0.283319,0.475188,0.202750,-0.003220,-0.474395,0.182272,0.054613,-0.304468,0.144826,-0.257286,0.425901,-0.496277,-0.286340,-0.223594,-0.058153,-0.408872,0.086749,0.128468,0.340999,0.420408,0.341273,-0.328822,0.194449,0.214103,-0.498566,-0.243797,-0.325770,0.275109,-0.297845,0.348598,0.276452,0.441801,-0.260033,0.373470,-0.094134,0.459197,0.249748,0.306970,0.228172,-0.452422,0.423521,-0.457335,-0.055742,-0.050493,-0.187887,-0.435392,0.154622,-0.263726,-0.245781,0.457945,0.435087,-0.343867,-0.216880,-0.210929,-0.161458,0.304010,0.118427,0.386105,-0.079669,0.395108,-0.029740,0.050737,0.478912,0.423429,-0.310663,-0.266717,0.155904,0.485931,0.418912,0.201834,-0.445982,-0.445921,0.404935,-0.263573,0.278802,-0.025742,-0.379208,-0.119587,-0.189993,-0.202017,-0.137501,-0.220603,-0.390103,0.479766,-0.028886,0.139241,0.373836,-0.043382,0.338160,0.334681,-0.294916,-0.331568,0.350551,-0.300501,-0.008194,0.022568,-0.068651,-0.470428,0.278283,0.413877,-0.167776,-0.169973,0.163076,-0.116810,-0.165548,-0.266717,0.382778,0.203299,-0.486084,0.426756,-0.223563,0.459075,-0.272729,0.395810,0.206565,0.118030,0.474853,0.262871,0.426542,-0.456664,0.247398,0.238517,0.125690,0.173543,-0.142109,-0.470489,0.449217,-0.412900,-0.119343,0.393429,-0.370296,0.233238,0.076586,0.310999,-0.363704,0.109424,0.067980,0.017106,0.247368,0.168081,0.147053,-0.240196,0.453612,-0.267541,0.445524,0.266381,-0.402737,-0.295953,0.145161,-0.142506,0.154134,-0.158254,-0.088946,0.212302,-0.436094,-0.105029,-0.211509,-0.185476,0.016373,-0.128773,-0.475188,-0.387906,-0.401852,0.219993,0.143361,-0.079760,-0.292352,0.213492,-0.074541,0.100604,0.143330,0.306360,0.456938,0.046556,-0.227622,-0.245140,-0.104663,0.006577,0.185720,0.277123,0.114093,-0.223106,0.245323,0.035661,-0.120045,-0.205832,-0.069414,-0.276391,-0.280328,0.160207,0.339381,0.035295,-0.367367,0.129292,-0.397244,0.303247,0.305322,0.089770,-0.438841,-0.417722,-0.016068,0.287713,0.372646,-0.037858,-0.338405,0.307154,0.194937,0.389767,-0.263848,-0.111805,0.406644,-0.217246,-0.204978,0.031053,-0.079943,-0.284814,-0.316950,0.000412,0.043321,0.456603,-0.489898,0.211295,-0.202689,-0.354061,-0.245842,-0.455199,0.094012,0.381741,0.116382,0.407681,-0.317530,0.009110,0.284417,0.067339,0.268548,0.385678,0.260308,0.293817,-0.285333,-0.093097,0.408719,-0.160848,-0.273888,0.072832,-0.117481,-0.213736,-0.070391,-0.123341,-0.350551,0.298028,-0.248955,-0.202719,0.299738,-0.201834,-0.002060,-0.323908,0.220695,0.114765,-0.446440,0.260369,0.411740,-0.381710,0.088397,0.070696,0.478576,-0.115375,0.195578,-0.266594,0.033555,-0.084979,-0.143757,-0.017624,0.134877,0.443724,-0.358547,-0.094653,0.352412,0.365017,-0.443571,-0.077319,-0.382931,-0.189657,-0.066179,0.355312,-0.490417,-0.092669,0.281976,-0.159444,0.144795,-0.248466,0.494385,0.383541,0.307886,-0.377682,0.327052,0.240837,-0.000778,-0.025651,-0.450529,0.068163,-0.374355,0.235405,-0.324427,-0.301599,-0.082171,-0.057665,-0.318751,-0.055376,0.461730,0.246055,-0.385769,-0.274255,-0.386319,0.316889,-0.496918,-0.353511,-0.009934,-0.318323,0.470916,-0.082202,0.420225,0.023698,0.460601,0.169088,0.202506,0.476653,0.477783,-0.336604,0.060503,-0.055834,-0.242759,0.358882,-0.367885,0.475982,-0.240196,-0.456481,-0.458007,0.231773,0.405301,-0.238762,-0.251152,0.064409,0.448027,0.309870,0.175985,0.253471,0.453856,0.093036,0.281060,0.420286,-0.082476,0.106372,-0.277978,0.156117,0.027696,0.340266,-0.225455,0.394375,0.151143,0.379330,-0.342250,0.058000,0.277154,0.480804,0.424680,0.013901,0.227378,0.412534,-0.426939,-0.135060,0.404660,-0.168050,0.033372,-0.388668,-0.066057,0.487518,-0.310144,-0.287927,-0.397275,0.023209,0.091174,-0.421628,-0.494079,-0.331446,-0.493439,0.029893,-0.197623,-0.406186,-0.015763,-0.255119,0.489044,0.213065,-0.432402,0.235984,-0.401364,0.215445,0.326380,0.382626,-0.272088,-0.393582,0.357967,0.051164,0.301630,-0.460112,0.416105,-0.165670,-0.049059,0.222495,0.322657,0.441038,0.112140,-0.328272,-0.181356,-0.232383,-0.348659,-0.391507,0.011368,0.182394,0.422575,0.265923,0.073016,0.053819,0.164510,0.395291,0.347926,0.054552,0.242546,0.250542,-0.476043,0.271844,0.442351,-0.167501,0.024827,-0.344172,-0.250206,0.174306,0.279107,-0.162832,0.023515,-0.051286],[-0.155110,-0.033982,0.179403,0.290887,-0.244163,0.300317,0.336604,0.255181,-0.192801,-0.442564,-0.400967,-0.436430,-0.183706,0.381954,-0.437010,0.337794,-0.253624,-0.239219,0.180074,0.485504,-0.395322,0.082812,0.204306,0.483123,0.200735,0.434019,-0.069231,0.285730,-0.120106,0.035813,-0.493744,-0.480041,-0.015580,0.231986,-0.406644,-0.383511,0.457823,-0.069384,0.269189,0.038102,-0.245842,-0.092547,-0.258202,0.259911,0.430784,-0.123096,-0.240562,-0.342433,0.200400,-0.263329,-0.495697,-0.039811,0.151845,-0.107288,0.241539,0.423490,-0.136189,0.070269,-0.088916,0.380551,0.378719,-0.482330,0.141438,0.325282,-0.423307,0.008927,-0.133015,0.185415,-0.018418,-0.448729,-0.169881,-0.058580,-0.470611,0.204306,-0.250816,0.247185,0.331324,-0.083728,0.434049,0.208945,-0.038255,-0.215293,-0.370296,-0.021409,0.303247,-0.353267,-0.129719,0.317866,0.479308,0.405942,0.123310,-0.210593,-0.093890,0.001572,0.208914,-0.269127,-0.005020,0.426969,-0.140095,-0.331263,-0.463988,-0.297357,-0.366115,0.327693,0.295282,0.210929,-0.417661,-0.108112,-0.144673,0.298120,0.442503,-0.325343,0.231834,-0.449400,-0.130909,-0.147542,0.296472,-0.349239,0.422849,0.419462,-0.462310,0.219535,0.481780,0.019364,0.190939,-0.448790,-0.338679,-0.189749,0.268822,-0.352535,0.337977,-0.477813,-0.476775,0.456175,-0.442717,0.340663,-0.129627,-0.278527,0.108722,0.147053,0.309687,0.351802,0.046770,-0.481079,-0.131642,-0.288598,0.441374,0.174825,-0.397610,-0.258019,-0.362331,-0.237388,0.185720,0.320917,-0.193014,-0.141255,0.118122,-0.238426,0.069994,-0.400357,0.083972,-0.136891,-0.026719,0.469543,-0.386654,0.414670,-0.399075,-0.094562,-0.270440,-0.438597,0.227348,0.025559,0.157552,-0.062090,-0.084887,-0.012955,0.385220,-0.024674,0.471831,-0.180074,-0.151723,0.288812,0.160329,0.310755,0.226341,-0.448912,-0.174184,0.377194,-0.271050,-0.241111,-0.395871,0.190664,-0.217460,0.297723,0.344234,-0.464507,0.148366,-0.287835,0.426389,-0.271691,0.003922,-0.412564,-0.271569,-0.346278,0.018265,0.448302,0.121967,0.105670,-0.047441,0.081896,-0.008072,-0.056688,-0.182455,0.190848,0.039598,0.217765,0.118793,-0.217551,0.171255,-0.074572,0.360012,0.200613,-0.458647,-0.455138,0.362789,0.206412,-0.064562,0.012986,-0.067370,0.013993,0.287805,0.296838,0.480834,-0.312494,0.115223,0.217612,-0.332514,-0.193960,0.148030,-0.317408,0.396817,-0.198172,-0.060564,-0.018265,0.449889,-0.456664,-0.265038,0.304834,-0.021470,-0.081469,0.170827,0.135640,-0.052110,0.275475,-0.434507,-0.320643,0.479247,-0.080645,0.137776,-0.020615,0.124531,-0.483428,-0.154439,-0.120197,-0.396115,-0.219230,0.213797,0.489959,0.037095,0.465514,-0.119709,0.307031,0.200674,-0.062822,0.158376,-0.346767,-0.158742,0.315546,0.109272,-0.416318,-0.422666,-0.105884,-0.094470,0.112415,0.419767,-0.296564,-0.233329,-0.426206,0.442717,0.346278,0.248344,-0.206717,-0.363552,-0.052171,0.166341,-0.472777,-0.374233,-0.182302,-0.063524,-0.475341,0.215262,0.412290,-0.388058,0.349239,-0.497009,0.321162,0.398953,-0.042955,0.243858,-0.006272,-0.067736,-0.004990,0.343165,-0.324732,0.091754,0.476379,0.302789,-0.264275,-0.358821,-0.010788,0.220237,-0.202780,0.470550,0.094623,0.219352,-0.433317,-0.277001,0.070452,-0.155934,-0.220023,-0.411802,-0.343043,0.446318,0.163228,0.042467,-0.039109,0.099017,-0.181722,0.317652,0.173727,0.066118,-0.061663,0.379940,0.260765,0.360225,0.259362,0.199332,0.277337,0.419553,0.154836,0.091662,0.467833,0.435087,-0.221397,-0.086047,-0.195456,0.359676,0.163472,0.394772,0.121998,0.129688,-0.319483,0.380215,-0.496673,0.130940,-0.233604,0.277551,0.074847,0.440123,0.324335,0.477264,0.205679,-0.127247,-0.294794,0.034593,-0.115925,0.369015,-0.325098,0.392575,0.081042,-0.251274,0.274438,0.426878,0.333155,0.366848,-0.021470,-0.405545,0.125416,-0.299677,0.059740,0.466979,0.075701,0.398343,-0.436491,-0.338710,-0.038530,-0.174062,-0.198843,-0.171133,0.405210,-0.366054,-0.233757,0.346736,-0.126118,0.384732,0.381527,-0.115253,0.149403,-0.233757,-0.018235,-0.257958,-0.074175,0.425413,-0.060472,0.361965,-0.310144,-0.048753,-0.160451,0.434233,-0.459105,0.040391,0.108203,-0.368740,0.106555,0.374905,-0.495575,-0.239158,0.210318,0.244560,0.378140,-0.384457,0.447325,0.444487,0.102344,0.301325,0.324671,0.479186,-0.414335,0.325220,0.122394,-0.395108,0.270928,0.224570,0.131275,-0.259239,-0.473693,0.018265,0.424039,-0.219626,-0.164449,0.261559,-0.184103,0.335139,-0.307031,-0.014389,0.170919,0.440489,-0.369045,0.303125,-0.289941,0.256127,0.139149,-0.038835,0.477813,0.291803,0.322077,-0.377468,-0.377132,0.189596,0.467345,0.156972,-0.350032,-0.405759,-0.335231,-0.276849,0.298212,0.142415,-0.057695,-0.076678,0.202811,0.102527,0.471709,-0.188925,-0.003464,0.458251,-0.270745,0.034104,0.006272,-0.367580,0.347224,-0.107135,0.202200,-0.113758,0.257286,-0.403317,-0.220878,0.252373,0.446226,0.498138,0.455290,-0.294305,-0.292566,-0.412717,0.360347,0.099719,0.316858,0.027146,0.308710,0.234031,-0.373806,0.011032,0.474761,-0.177816,0.284356,-0.276299,0.410184,0.391324,-0.336329],[0.131489,-0.063250,-0.035386,0.272515,-0.290613,0.316889,0.436918,-0.340907,0.032456,0.058855,-0.473235,0.022050,-0.210135,0.373379,-0.481933,0.229728,-0.337123,0.143056,0.411954,-0.167898,0.326106,-0.224357,-0.452055,-0.378567,0.469573,-0.499786,-0.158895,-0.453490,-0.334498,-0.155416,0.473968,0.261437,-0.387509,-0.173910,0.449767,0.090747,-0.464385,-0.113910,-0.086413,-0.308405,-0.015610,0.100177,-0.353023,0.194601,-0.124073,-0.305139,-0.357265,0.104053,-0.251701,0.402249,0.166189,-0.260186,-0.205039,-0.316462,0.208792,-0.499084,0.198202,0.353633,-0.259117,-0.267113,-0.347591,-0.363613,-0.330897,0.479827,0.232810,0.183767,-0.094440,-0.097552,0.266106,0.088275,0.454222,-0.356319,0.359493,0.421506,-0.300836,-0.077807,0.243980,0.328639,0.356014,-0.363735,-0.411466,0.211478,-0.173208,0.258385,0.441160,0.030229,-0.358791,-0.197958,0.452971,0.255699,-0.386227,-0.357570,-0.457976,-0.496765,0.289483,0.471465,0.152791,0.379727,-0.471831,0.168905,-0.232719,-0.425901,0.356868,-0.128956,-0.175253,-0.275811,0.495636,0.017685,-0.294244,0.089312,0.463866,-0.341334,-0.063280,-0.438719,-0.327570,-0.176931,0.271722,0.044450,0.408902,0.083636,-0.192709,-0.264031,0.121204,-0.458953,-0.213248,-0.103320,-0.093432,-0.228263,0.250298,-0.267449,-0.388241,0.257439,0.186850,0.150472,0.450865,0.225455,0.344356,0.365993,-0.453185,0.199973,0.354335,-0.052110,0.303400,0.409818,0.327326,0.098376,-0.062487,-0.308649,-0.424985,0.111194,-0.393155,0.310816,-0.384060,-0.019730,-0.044237,-0.399167,0.120228,0.189749,-0.376858,0.322382,0.227378,0.217124,0.481780,0.441801,-0.046251,-0.219565,0.096789,-0.394314,-0.336451,0.360775,0.283197,0.094348,-0.436094,0.031571,-0.256981,-0.465606,0.075945,0.125721,0.189138,0.153218,-0.079394,-0.228263,-0.138722,-0.145131,0.014908,-0.169424,-0.158681,-0.099811,-0.442656,0.263756,0.073290,0.471221,0.459319,0.464568,0.494934,-0.098132,-0.346095,-0.416562,0.186544,-0.144337,0.309076,0.378719,-0.055773,0.232292,0.273583,-0.376217,0.130573,0.083514,0.362911,-0.397458,-0.426420,0.320582,0.159352,-0.276391,0.329646,0.493439,-0.078600,-0.214774,-0.467009,0.423673,0.394253,-0.078417,0.422239,-0.027573,-0.235343,-0.237846,0.039079,-0.276147,-0.348292,-0.164876,0.143208,-0.133747,-0.411344,-0.253777,-0.199332,0.051531,-0.430448,0.164266,-0.447447,-0.485595,-0.183645,0.144368,-0.430235,0.232810,0.423276,-0.179434,-0.299341,0.410306,0.033921,-0.001205,-0.182791,0.062181,0.208304,-0.318873,0.366543,-0.013596,-0.364772,0.053575,-0.466491,-0.099780,-0.153066,-0.032640,-0.078875,0.024461,-0.408475,0.446013,0.154561,-0.103900,-0.479644,0.248894,0.315516,-0.309381,0.345759,0.022843,-0.387478,-0.190817,0.125752,0.072619,0.194357,0.195608,-0.167806,0.281976,-0.488433,-0.387143,-0.141804,0.216422,0.133992,0.079791,-0.378903,-0.061357,0.428617,0.329615,-0.082202,-0.467040,0.005844,0.123463,0.188009,0.116901,0.339137,0.016221,0.341792,-0.370113,0.464721,-0.118091,0.308405,0.166005,0.167928,-0.019700,-0.038652,-0.354030,-0.438139,-0.154347,-0.422758,0.101886,0.464965,-0.220939,0.483795,0.357814,0.483612,0.225486,0.053514,-0.326533,0.206107,-0.183065,-0.300439,0.382260,0.414304,0.362728,0.029649,0.054125,-0.281152,-0.431639,-0.185659,0.215781,-0.475219,-0.235679,-0.073809,0.158071,-0.266778,0.425443,-0.094134,-0.136799,0.085711,-0.236961,-0.465972,-0.418210,-0.442534,0.170400,-0.493774,0.091784,-0.294366,-0.197348,0.045030,0.170400,0.378903,0.073412,0.308679,0.309931,-0.305506,0.347987,-0.450621,0.209098,-0.310511,-0.384671,-0.000229,0.071123,-0.448302,0.420133,0.202383,0.239525,-0.162954,-0.164876,0.216453,0.203085,-0.360836,-0.243370,-0.142262,-0.498779,-0.299463,0.302728,-0.372097,-0.438749,-0.378292,-0.403317,0.489502,-0.001938,0.491180,-0.283532,0.142811,0.408200,-0.074175,0.091174,-0.038682,0.189474,-0.321894,0.126087,0.241142,0.416990,0.132588,0.337825,-0.078661,0.307092,0.039171,-0.220023,0.431394,0.300531,0.388577,0.041490,-0.043962,0.296014,-0.163259,-0.401852,-0.167501,0.065294,-0.415494,-0.200766,0.061876,0.381283,0.118397,0.269799,-0.119068,-0.109821,-0.281121,0.010514,0.260796,0.259148,0.142872,-0.024155,0.162679,-0.369503,0.385861,0.412198,-0.351253,-0.086261,-0.069323,-0.263237,0.370266,-0.053117,0.388730,0.238945,-0.411679,0.058153,-0.060045,0.385128,0.384854,0.059160,0.478179,0.008225,0.218558,0.201163,-0.132740,0.163320,0.483276,0.125263,-0.119098,-0.069536,0.224418,0.338343,-0.426664,-0.053850,-0.330134,0.245140,-0.038835,-0.055712,-0.268456,0.005051,0.133869,0.088549,0.133900,0.089648,-0.012406,0.376614,0.325678,-0.464049,0.015336,-0.101794,-0.168874,0.154469,-0.282159,0.227775,-0.304285,-0.004959,0.375698,-0.266808,0.191244,0.034593,0.088824,0.081774,0.410062,0.003403,0.490265,-0.275292,-0.050432,-0.049425,0.039415,-0.358638,0.297906,0.237449,0.302332,0.124622,0.104389,-0.167470,0.123890,-0.111713,-0.018113,0.133992,0.099261,0.278253,-0.001267,-0.205527,0.250206,-0.131733,0.016099,-0.043413,0.312891,0.221885,-0.472442,0.113575],[0.101367,0.156819,0.487060,0.445585,0.317591,0.469756,-0.407224,0.332789,-0.383023,0.257256,0.341731,0.120869,0.040574,-0.054949,0.435606,0.267602,-0.385922,0.286798,-0.087024,0.259331,-0.427610,-0.003708,-0.123066,-0.447081,-0.253594,0.475860,-0.064409,0.379269,-0.221976,0.296228,0.386807,0.314051,0.032487,-0.414914,-0.321833,0.022599,-0.011155,-0.020341,-0.111255,0.084643,0.390896,0.300226,-0.240501,0.305536,-0.061815,0.130909,0.315088,0.419950,-0.199637,-0.248680,-0.410001,-0.405576,-0.265984,0.213706,-0.491516,-0.364925,0.085070,0.157521,0.438231,0.306543,0.456633,-0.417631,0.453185,-0.331599,0.324549,-0.403562,0.121967,-0.164174,0.381191,-0.490173,-0.147481,0.069689,-0.110920,-0.101245,0.325007,-0.396359,-0.174459,0.296533,0.043504,0.113361,0.099689,-0.332270,-0.461638,0.234703,-0.377255,0.322108,0.250298,0.036973,-0.486633,0.423734,-0.373257,-0.142354,0.218802,-0.247490,0.463317,0.404355,-0.166707,-0.126240,0.019791,-0.469024,0.395260,0.372066,-0.056780,-0.406217,0.443876,0.306055,-0.471282,-0.206229,-0.383084,-0.459807,0.349605,0.411618,-0.429136,0.109485,-0.212394,0.341517,0.004440,0.273888,0.495117,-0.169881,0.066790,0.418241,0.319819,-0.173238,-0.067980,0.454375,-0.275872,-0.148854,-0.179281,-0.118824,0.229362,-0.214927,0.250084,0.159322,-0.083056,0.494171,-0.206229,-0.443480,-0.482635,-0.314264,0.132893,0.119892,0.118427,-0.090381,-0.320948,-0.068651,0.023515,0.107471,-0.448820,0.302698,-0.207968,-0.382717,0.186880,0.066088,-0.007706,0.039323,0.369930,-0.383206,-0.301263,-0.130543,-0.169362,-0.136006,0.264580,0.306421,0.070879,-0.254112,0.400937,0.139180,0.083575,0.465850,0.093951,0.120594,0.100238,0.105182,0.391202,-0.266350,0.295526,-0.230705,-0.411924,-0.243522,-0.158620,-0.076586,-0.153584,-0.467467,-0.278375,0.073595,-0.224754,0.352077,0.212485,0.450133,0.006546,-0.148915,0.310572,-0.151112,0.295618,-0.165609,-0.110858,0.287317,0.178610,0.428495,-0.262963,-0.369076,0.027360,-0.029344,0.152058,-0.153157,0.365444,-0.458831,-0.302118,0.040605,0.479705,-0.456328,0.359676,-0.067766,-0.480193,0.241142,-0.074877,-0.071703,0.456114,-0.347163,0.045885,0.445708,0.423185,-0.280877,0.368221,-0.356349,0.148885,0.139882,-0.357387,0.220359,0.189657,-0.207022,0.093188,0.429991,-0.496002,0.139515,-0.172384,-0.022965,0.394925,-0.479125,0.306635,-0.056322,0.352809,-0.244591,0.496887,0.406491,-0.169973,-0.060381,0.457823,-0.101001,0.478393,-0.139058,0.362514,0.376308,-0.119495,-0.072008,0.014817,-0.162526,0.307062,0.024796,0.175344,0.331172,-0.469939,0.194906,0.133808,0.022355,0.224693,-0.438078,-0.427519,0.409024,-0.010392,0.392758,0.001968,0.458312,-0.481780,-0.290674,-0.449889,-0.295190,-0.048845,0.355800,0.386319,0.035752,-0.058031,-0.073290,-0.438932,0.295831,0.466674,0.463225,-0.456359,-0.199332,-0.090991,0.322413,0.237510,0.414518,-0.415067,0.127552,-0.244102,0.375515,0.307703,0.204001,-0.261528,0.337428,-0.184164,0.408017,0.490081,0.345454,-0.056963,-0.245720,-0.277184,0.467193,0.213553,-0.251366,0.183523,0.169881,-0.397061,-0.168081,-0.053453,-0.460479,0.426084,-0.158376,-0.345851,-0.474334,-0.250053,-0.102771,0.485626,-0.044542,0.363948,-0.384335,0.135517,0.131214,-0.162709,0.063066,-0.416349,0.238060,-0.303949,0.349147,-0.063097,0.147359,0.250481,0.270440,0.124561,-0.385372,0.103717,-0.091540,-0.271386,-0.086138,-0.126270,-0.410550,-0.269982,-0.276147,0.159322,0.111377,0.452086,0.422880,0.281304,-0.354976,0.482452,0.447569,-0.169454,0.215110,-0.145070,-0.127247,-0.446135,0.167623,0.272362,-0.132008,-0.390957,-0.470183,-0.348659,0.187551,-0.279901,-0.330897,-0.228813,0.252007,0.264489,0.156850,0.307001,-0.338466,-0.177145,0.285852,-0.451231,-0.253502,0.223319,0.404141,0.449339,-0.271142,-0.389309,0.492798,-0.464446,-0.266137,-0.427213,0.013077,-0.097339,-0.142170,-0.145741,-0.422452,-0.124958,0.265557,-0.310175,-0.204917,0.348476,-0.390011,0.287774,0.393002,-0.415128,0.155812,0.494995,0.346492,-0.389737,-0.412015,0.175222,-0.130421,-0.132862,-0.213584,0.331202,0.173452,-0.435881,0.098193,-0.497955,0.398770,-0.495636,0.374142,0.467864,-0.372066,-0.326502,0.152181,-0.208609,0.383908,0.368618,-0.249657,0.229667,-0.478881,0.149586,0.182852,-0.454588,-0.084063,0.393979,-0.201956,-0.249535,-0.138508,-0.263604,-0.350551,0.311914,-0.425748,0.174398,0.303827,0.352321,-0.281823,0.120991,-0.192557,0.375607,0.352443,0.186270,0.467376,-0.450835,0.209372,-0.031541,-0.397305,0.074480,-0.291070,-0.363948,-0.076800,-0.324000,-0.384610,-0.417692,-0.308832,-0.258629,-0.256951,-0.066942,0.322504,0.142598,-0.382931,0.189505,-0.416471,0.270287,0.495575,-0.213095,0.040147,0.312372,-0.340846,-0.149464,-0.085498,0.307672,0.374599,-0.484558,0.006851,0.261162,0.438322,-0.005203,-0.162465,0.069018,-0.293725,0.466765,-0.333827,-0.367306,-0.483398,-0.419523,-0.455779,-0.219779,0.410764,-0.156941,0.056536,-0.060900,0.059862,-0.120045,-0.090991,-0.256066,-0.197348,0.447142,0.018113,0.393185,-0.299371,-0.110187,0.258477,0.030961,-0.482818,-0.169485,-0.474914],[-0.473174,0.366054,0.266137,-0.203269,-0.439268,-0.443846,0.142659,-0.140309,0.194784,0.484191,-0.028275,0.222739,0.486633,-0.328974,-0.391202,-0.435942,0.167562,0.124470,-0.074114,0.082720,-0.304010,-0.196280,-0.458342,-0.067095,0.078295,-0.231193,0.459746,-0.065600,-0.136464,-0.112873,0.271386,-0.410947,0.218467,0.102008,0.079150,-0.064379,0.488372,-0.493805,-0.202872,0.273278,0.151112,0.039750,-0.015397,0.285913,-0.430448,-0.129566,-0.130787,-0.402127,0.449217,-0.354122,-0.284478,0.292749,0.407224,0.411679,0.196036,0.425962,-0.441099,0.476623,-0.080157,0.063128,-0.471892,0.006668,-0.223807,-0.125019,-0.212271,-0.371334,0.248527,-0.180105,-0.263573,-0.175161,0.355495,-0.054064,0.418058,0.399777,0.375179,-0.156941,0.289697,-0.199210,0.008896,-0.222922,-0.054888,-0.426634,0.140461,0.036363,0.199332,-0.267907,-0.152364,-0.477081,-0.288934,0.329279,-0.178304,0.118610,-0.343349,0.001846,-0.148671,-0.141865,0.040666,-0.221641,-0.472564,0.440031,-0.416410,-0.073565,-0.175222,0.106433,-0.440672,0.123066,-0.283135,0.423765,0.308405,-0.271966,0.480255,-0.005539,0.226829,0.442381,-0.310724,-0.367824,0.366482,0.132466,-0.355770,0.030717,-0.447295,0.101978,0.129444,0.458464,0.426206,-0.408322,-0.410215,-0.490509,0.314356,-0.210471,0.450316,0.442747,0.339625,0.131520,0.493408,0.139821,-0.330073,0.174734,0.364467,0.213736,0.318293,-0.175741,0.016892,0.299127,0.397092,0.194449,0.252617,0.055071,0.234123,-0.113544,0.014725,-0.087542,0.255882,-0.037034,-0.411649,0.096606,0.044939,0.401425,0.365871,-0.043718,0.477203,0.307031,0.332820,0.131031,0.345546,-0.333125,-0.069170,-0.412717,0.376095,-0.073870,0.453917,0.055101,0.043260,0.167867,-0.366268,-0.103626,0.089953,0.177602,-0.428831,-0.063921,0.158925,0.174001,-0.330653,0.287591,0.441893,0.486694,-0.274865,-0.296777,-0.247581,-0.037492,-0.164937,0.481933,-0.071123,0.381863,0.271844,0.464141,-0.026292,-0.334376,-0.012009,0.146413,-0.164785,-0.227165,-0.097552,0.446104,-0.148854,-0.256615,-0.373074,0.147816,0.470702,0.145894,-0.212271,-0.437407,-0.471191,0.081256,-0.400479,0.431639,-0.466155,-0.346187,-0.152425,-0.395260,-0.180624,-0.287286,0.206809,-0.473907,-0.399686,0.471252,0.145619,0.057512,-0.372341,0.167043,-0.203116,-0.329096,-0.263909,0.044694,0.408597,-0.458739,-0.309809,0.441801,-0.426115,-0.428800,0.235862,0.259789,-0.328944,-0.121754,-0.236930,-0.399319,0.078021,-0.223441,0.486145,-0.148610,0.044847,-0.216208,-0.452177,-0.003922,-0.118915,-0.315241,-0.046342,0.438780,-0.386502,0.182882,-0.257744,0.116657,-0.229087,0.170797,0.298700,0.185781,0.452055,0.151448,0.216178,0.060167,0.333216,-0.159322,-0.386776,0.085894,-0.228782,0.482879,0.312067,-0.369045,-0.341304,-0.089496,-0.215690,-0.127430,0.187277,-0.120655,0.271020,0.062792,0.175253,-0.289880,-0.017685,-0.445830,0.116260,-0.231742,-0.216453,0.366329,-0.395413,-0.187643,0.274194,-0.425596,0.293847,-0.256371,0.080615,-0.194418,-0.206992,0.451048,-0.421476,0.202200,-0.061602,-0.115558,-0.326563,-0.198477,-0.476684,-0.234092,0.135975,0.266900,0.046800,0.001175,0.319758,0.126942,-0.007614,0.308039,-0.193716,-0.067522,0.321314,0.461547,-0.205710,0.015641,-0.247398,0.347652,0.131520,0.019120,0.300073,-0.468169,0.395535,0.279260,0.248161,-0.152120,-0.070696,0.343593,-0.275842,0.414701,0.238487,0.404752,-0.478118,0.236076,-0.344050,-0.068712,0.333857,0.440214,-0.319544,0.277215,0.047533,0.015213,-0.104999,-0.448668,0.262963,-0.117573,-0.128132,-0.472564,-0.313440,0.339076,-0.029832,-0.123096,0.295801,0.400876,0.432035,-0.495361,-0.229698,0.076861,-0.316004,0.270135,-0.174215,0.106708,0.249840,-0.125965,0.307062,0.192251,0.180776,0.192465,-0.003555,0.254448,0.409696,-0.160482,0.313898,-0.252983,-0.064867,0.239738,0.224570,-0.441984,0.242119,-0.008591,0.273888,-0.469756,-0.134938,-0.197684,-0.094623,0.132527,0.499786,-0.221091,-0.281854,0.312098,-0.429594,0.350307,-0.179983,0.060350,-0.342036,-0.402036,-0.067309,-0.277459,-0.303980,0.343684,0.405026,-0.417234,0.340663,-0.435911,-0.209342,-0.244316,0.420103,-0.232597,0.146779,-0.083758,-0.128925,-0.288659,-0.290826,-0.101703,0.067400,0.291711,0.101184,-0.306146,-0.052385,0.305445,-0.268487,-0.116169,-0.152394,0.057024,-0.046098,0.031724,0.444578,-0.088214,-0.265923,-0.178976,-0.281426,0.084368,-0.288873,0.220420,0.337916,0.107440,-0.241569,0.449675,0.374599,-0.130879,-0.248497,0.041337,-0.243950,0.089129,0.468291,0.265648,0.359676,0.247642,-0.311670,-0.291864,0.155721,0.193808,-0.268395,0.278710,0.305872,0.269402,-0.407224,0.433164,-0.377438,-0.003616,0.327662,-0.360561,0.296503,-0.479736,-0.152333,-0.381252,0.297204,0.032304,-0.221091,-0.382076,0.354488,0.451079,-0.458098,-0.326228,-0.074358,0.145283,0.308252,-0.388943,0.055559,-0.021012,-0.009720,0.454985,-0.464599,0.459899,-0.079241,0.139515,0.266686,0.272881,0.377651,0.333308,0.236198,-0.020737,-0.388913,-0.016465,0.009110,0.163350,-0.471313,-0.114521,0.145497,-0.192343,-0.193197,0.308557,0.446928,0.177816,-0.197531,0.210318,0.439634,-0.001694],[0.069597,0.000076,0.200827,0.111805,-0.129933,-0.470641,0.025834,-0.217338,0.265313,-0.417142,-0.240898,0.067827,0.456969,0.360836,-0.115894,-0.236625,-0.203726,-0.032945,-0.068224,0.249657,-0.215537,-0.158925,-0.191244,-0.368587,0.071581,0.270348,-0.114551,-0.401181,-0.296136,0.389096,-0.375027,-0.334681,-0.067522,-0.430601,0.034471,-0.061174,-0.454497,-0.388546,-0.280023,0.082202,-0.388546,-0.361568,-0.174062,-0.380428,0.185263,0.103198,-0.359157,0.244713,0.008652,-0.187826,0.150044,0.287103,-0.264061,0.373440,0.317133,-0.006760,-0.283776,-0.025590,0.375057,-0.222098,-0.136250,-0.103656,-0.091632,0.102893,-0.352809,-0.328944,0.007553,-0.279290,-0.270440,0.286798,0.276971,-0.134541,0.289514,0.348720,-0.022416,-0.229484,-0.444456,0.077349,0.085711,-0.203482,-0.415281,-0.282464,-0.451140,-0.301080,-0.183737,0.292657,-0.479553,0.467376,0.432157,0.240013,-0.146168,-0.032121,0.055376,0.114948,-0.362239,0.462157,-0.182424,-0.256249,0.053880,0.159719,0.326838,0.091754,0.337672,0.459929,-0.432737,0.051408,0.124439,0.039384,0.261437,0.024094,-0.038926,0.441557,-0.273125,0.387539,0.265221,0.324213,-0.241874,0.062731,-0.487243,0.021805,-0.434721,0.279290,-0.064623,-0.421812,0.300501,0.229698,-0.491241,-0.093554,0.203574,-0.242576,-0.486480,0.231803,-0.101947,-0.406064,0.449187,0.474181,-0.131153,0.050645,-0.416929,-0.273736,-0.347224,-0.427763,-0.084338,0.483734,-0.226737,0.057695,-0.157704,-0.216697,-0.049547,-0.131916,0.294336,-0.094165,-0.382138,-0.164296,-0.360622,-0.200522,0.277093,0.456694,0.123157,-0.119678,-0.278558,0.213340,0.132893,0.365871,-0.339747,0.392300,0.064867,-0.201895,-0.225486,0.394314,0.076495,-0.087542,-0.264336,0.477416,-0.495636,-0.491760,0.218284,0.494934,0.229575,0.477874,0.438383,-0.245567,-0.228446,-0.350032,0.248314,0.183889,0.391995,-0.396329,0.319361,0.043229,-0.011002,0.109638,0.339595,0.143910,0.064501,0.354122,0.486785,0.116871,-0.455657,-0.397122,0.020920,-0.364040,-0.266228,0.460509,0.172475,0.002457,0.188406,0.381619,-0.287500,-0.002701,-0.217277,-0.409268,-0.076647,0.406980,-0.242698,0.065996,0.271325,0.129719,0.025346,-0.256005,0.417844,0.267876,-0.479461,-0.398556,-0.400845,0.112903,-0.132801,-0.229911,-0.092883,0.429105,0.153554,0.340907,-0.499207,-0.057390,0.090381,0.014176,0.281793,0.441649,0.335170,0.251518,0.062914,0.394162,0.263756,0.086016,-0.236991,0.489563,-0.029527,0.246910,-0.342128,0.010392,-0.221946,-0.245201,0.219199,0.440458,0.038438,-0.355861,-0.427244,0.215262,-0.493927,-0.031480,0.107074,0.021561,0.064531,0.286615,0.263298,-0.448088,0.087909,-0.001450,0.038438,0.120380,0.218375,-0.453154,0.232566,0.046068,-0.159139,-0.290948,-0.028703,0.210410,0.036363,-0.433042,-0.464873,-0.305719,0.294885,-0.048204,0.026444,-0.098010,-0.230552,-0.192770,-0.094165,0.077227,0.352535,0.085376,-0.071276,-0.381832,0.355708,-0.167562,-0.486328,-0.130268,-0.475646,-0.380093,0.073595,0.395352,0.017930,-0.022080,0.340876,-0.155049,-0.077227,-0.245537,0.363796,0.087512,0.319605,-0.260857,-0.344111,0.310602,-0.161611,0.159841,-0.160268,0.290582,-0.303461,0.013230,-0.470763,-0.126453,-0.208060,-0.202414,0.153768,0.196890,0.126179,0.051714,-0.033128,0.296045,0.134754,0.488952,0.268181,-0.452788,-0.066637,0.383847,-0.130634,0.411435,-0.238639,0.366604,0.335383,0.327052,0.403653,0.282128,0.032487,-0.007401,-0.127461,0.269616,-0.485839,0.334193,0.130634,-0.280633,0.276055,0.365352,0.135609,0.262658,0.411313,0.346065,-0.011063,0.450835,0.197775,0.146535,0.469298,0.048143,0.147786,0.222373,-0.268334,0.221000,-0.447691,0.107471,0.454253,-0.101764,0.050310,-0.169362,0.142628,0.095813,0.255028,0.162221,0.367885,0.224509,-0.032334,0.097186,0.236595,-0.080248,0.010941,0.480773,-0.155263,-0.077776,0.212149,0.182791,0.026566,-0.102313,-0.431303,-0.272668,0.161580,0.352626,0.125965,-0.216483,0.326991,0.301965,-0.400571,0.423826,0.147481,-0.155232,0.272576,-0.443541,0.123463,0.062792,0.200674,0.437803,-0.280938,0.090197,0.253258,-0.329340,-0.008835,-0.066088,0.037950,-0.366756,0.040696,-0.337642,0.148335,0.482665,0.067400,0.157155,0.034959,0.422605,0.309473,-0.338771,-0.416257,0.337397,-0.350856,0.086993,-0.119831,0.002335,0.165548,0.482818,0.422269,0.494140,0.416013,0.313837,-0.097095,-0.031022,-0.272790,-0.286401,-0.266076,0.176931,0.277520,0.362697,-0.233726,-0.381466,0.251091,0.150258,0.468169,-0.249260,-0.153951,0.275414,-0.291864,0.147481,0.122730,-0.055986,-0.441496,0.021958,-0.465575,0.317530,-0.379391,0.016099,0.239189,-0.129810,-0.424161,-0.335719,0.278527,-0.189596,-0.448546,0.436766,-0.400449,-0.277093,-0.186300,-0.230461,-0.115162,0.088153,-0.162008,-0.012864,0.250542,-0.165578,0.076159,-0.476562,0.003433,-0.420194,-0.143971,0.348628,0.395047,-0.280297,-0.256096,0.006333,-0.274773,0.016282,0.132466,0.169485,-0.494690,-0.153951,0.465972,0.118976,-0.194998,-0.237724,0.492218,0.053179,-0.050371,-0.472472,0.475829,-0.366665,-0.491241,0.273644,0.000351,-0.256523,-0.143330,-0.055406,-0.466918,0.368465],[-0.320978,-0.097308,0.003739,-0.440245,0.288446,0.489746,0.491058,-0.129780,0.336482,0.161397,-0.301965,-0.492798,0.030778,0.481536,0.137226,-0.004288,0.418790,0.227409,-0.438292,-0.202780,-0.040086,-0.255608,-0.015641,-0.248924,0.363765,0.169607,0.173482,0.338313,0.491729,0.056078,-0.115467,-0.451018,0.462951,0.428526,-0.378140,-0.365780,-0.268548,-0.197897,-0.292291,-0.475646,0.315424,0.195273,0.174886,0.194266,0.000992,-0.332331,-0.479583,-0.242851,0.310389,0.415494,-0.378262,-0.431669,0.066729,-0.046312,0.069933,0.119831,0.084277,-0.372036,-0.475036,0.007218,0.268090,-0.481689,-0.413419,-0.249840,0.102680,0.170034,0.243339,-0.252434,-0.088702,0.334162,-0.080706,0.148824,0.367489,0.153371,0.479461,-0.077776,0.414365,-0.274102,0.179037,-0.097949,0.248863,-0.128895,-0.114948,0.095294,-0.473663,0.094134,0.168600,0.029344,0.442320,-0.024918,0.289850,0.422239,-0.152852,0.449400,0.481933,-0.043962,0.050645,0.020035,0.439665,0.435240,0.471831,0.432218,0.420011,0.111042,-0.208914,-0.157369,-0.140309,0.453093,-0.239769,0.013810,-0.083148,0.149434,0.327235,-0.434751,-0.157125,-0.383480,0.231529,-0.187490,-0.409818,-0.199850,-0.273827,0.225059,-0.436888,-0.451567,-0.416349,0.035112,-0.082842,0.338710,0.040483,0.027635,0.313593,-0.361202,-0.161977,0.043382,-0.209037,-0.315363,0.015152,0.226157,-0.129994,-0.045030,-0.391140,-0.454680,-0.331996,0.124500,-0.080218,-0.374874,-0.021073,-0.223106,0.497864,0.411771,-0.324244,-0.340907,-0.494507,-0.290551,-0.029038,-0.242821,-0.386410,0.117512,-0.268456,-0.023484,0.087085,0.398160,0.499207,-0.293786,0.216239,-0.192007,-0.378262,0.049638,-0.248161,0.423337,0.402280,0.002426,0.486938,-0.009354,-0.328089,0.358760,-0.248192,0.334193,-0.307123,-0.372585,0.422330,-0.148915,-0.202353,-0.260826,-0.368954,0.125813,-0.329096,-0.173971,-0.145802,0.194845,-0.319788,-0.145863,0.486633,0.420072,0.161733,0.391629,-0.406034,0.013474,0.067431,0.292199,-0.013199,-0.290216,0.356777,-0.423856,-0.297815,-0.323847,0.199423,0.289941,-0.449370,0.132099,-0.084338,-0.374691,-0.116962,-0.253960,0.359432,0.079760,0.234977,0.327876,0.351650,-0.006485,0.003952,0.421690,-0.450499,-0.137593,-0.183584,-0.169576,-0.002243,-0.144581,-0.259911,-0.396664,0.291467,0.404691,-0.001450,-0.482574,0.256218,0.063066,0.343867,-0.415494,-0.447569,0.262078,-0.256218,-0.385220,0.109394,-0.365841,-0.460509,0.368343,-0.204154,-0.373653,-0.269463,0.325648,0.233146,-0.314325,-0.457427,-0.391202,0.157064,-0.201529,-0.064837,0.084094,0.235069,-0.335749,0.204581,0.177511,-0.255699,0.285852,0.339076,0.434385,0.017838,0.256432,0.282250,0.354671,0.064257,-0.474639,-0.239372,-0.465484,0.267510,-0.076250,-0.167653,-0.354122,-0.199942,0.230827,-0.187674,0.285363,0.066607,0.062914,-0.268883,0.223289,0.351802,0.365658,-0.017228,0.084490,-0.367367,-0.208945,0.318751,-0.007981,-0.092364,-0.259392,-0.156392,0.205039,0.181295,0.355678,0.168935,0.281793,0.099384,0.236351,0.381741,-0.200308,-0.085376,0.170034,-0.016495,0.162984,0.188253,-0.348842,0.456236,-0.470458,0.134510,0.473144,-0.388272,0.388363,0.013779,0.173605,0.380337,-0.181875,0.480804,-0.385098,0.195151,-0.040696,0.294427,0.480132,-0.371395,-0.270012,0.294641,-0.033464,0.436857,0.317255,0.053575,0.457762,-0.331141,0.475005,0.106708,0.455351,-0.003891,0.160085,0.170125,-0.448302,-0.080737,-0.384701,0.250633,-0.274895,0.007950,-0.116382,0.054399,-0.261803,-0.169729,0.427854,-0.398923,-0.078722,-0.272393,-0.352107,0.448851,0.121845,0.091754,0.066179,0.437223,0.100970,0.300073,0.068712,0.353816,0.158559,-0.034959,-0.218589,0.430876,0.268181,-0.345363,-0.466094,-0.415525,-0.496979,-0.260216,-0.057299,-0.240165,0.034013,0.465972,0.144826,-0.119984,0.481536,0.316218,0.212760,0.346248,-0.098193,-0.313929,0.282708,-0.053697,0.189444,-0.087970,0.426725,0.219657,0.177175,-0.246055,-0.199850,0.458373,0.214011,-0.105518,0.096149,0.005539,-0.496673,-0.475249,-0.162557,-0.495788,-0.018082,-0.262627,-0.462096,-0.461547,0.021165,-0.452635,0.264031,0.073351,-0.268029,0.103076,-0.371883,-0.399655,0.154347,0.242088,-0.255211,0.393521,0.112873,0.049638,0.180960,0.304621,0.019639,-0.424894,0.431700,-0.143300,0.405637,-0.011673,-0.047411,0.087268,0.461821,-0.046617,0.279931,0.069872,0.371426,0.012864,0.270165,-0.006088,-0.285913,0.271966,-0.010483,0.030717,-0.275842,-0.263024,0.285607,-0.221366,-0.316919,-0.082080,-0.428465,0.428465,0.228294,-0.253990,-0.145405,-0.197287,-0.140980,0.321436,-0.460234,0.069628,0.421140,0.499878,0.040483,0.036302,-0.149068,0.068712,-0.273156,0.428892,-0.039171,-0.051683,0.243156,0.064898,-0.453307,0.486358,-0.274194,0.324702,-0.401028,0.045335,-0.047075,-0.172292,-0.101550,-0.362484,-0.043443,-0.279778,-0.221885,-0.476135,0.129475,0.480804,0.332362,0.331996,0.357051,-0.350917,-0.145497,-0.055864,0.205771,0.385464,-0.215842,-0.219901,-0.300104,0.266076,-0.404233,0.207083,-0.283074,-0.086627,0.359096,0.232536,-0.466247,0.022965,0.403531,0.136769,-0.445830,0.225303,-0.382992,0.200919,-0.250359],[-0.088946,0.187216,-0.067919,-0.446440,0.450072,-0.272820,-0.227622,0.178396,0.206015,0.274499,0.450652,-0.228782,-0.218680,-0.221732,0.377071,0.297571,0.427976,-0.266289,0.107776,0.464721,0.397519,-0.234458,0.130360,0.224418,0.091144,0.401181,0.169759,-0.019578,0.061754,-0.271355,0.456969,-0.092486,-0.317957,-0.178854,-0.008225,0.287957,-0.240104,0.408597,0.331050,0.272027,-0.117847,-0.421781,-0.066485,-0.031693,-0.231590,-0.464873,-0.407407,0.270592,0.415555,-0.245933,-0.011826,0.327204,0.314631,0.453581,-0.111103,0.059160,0.011246,-0.490326,0.036180,-0.366604,-0.138234,-0.034562,0.240837,0.297601,0.052263,-0.207816,-0.275811,0.482025,0.019272,0.059069,0.234397,-0.424314,0.195669,0.167135,-0.030839,0.282586,0.077715,0.303919,-0.163045,-0.036210,-0.177267,-0.224754,0.086871,-0.127369,0.169240,0.370083,-0.161061,-0.311487,0.460417,0.414731,0.307581,0.255791,-0.486785,-0.327052,-0.080126,-0.066179,-0.110889,-0.251976,0.347957,0.465087,-0.477111,0.142781,0.340083,-0.233543,0.365566,-0.365810,0.028459,-0.448790,0.447783,0.118946,0.256920,0.186911,0.470183,-0.414487,0.288934,-0.304041,0.426481,0.369808,-0.333735,0.305231,-0.419980,0.349910,0.249077,0.450316,0.075579,0.236961,-0.031053,-0.358364,-0.033677,-0.382351,0.326106,0.097736,-0.060961,-0.094989,0.162038,-0.447478,-0.483001,-0.146290,-0.261376,0.142659,0.023331,-0.204062,0.295343,-0.218925,0.084643,0.254509,-0.364467,-0.076556,-0.042375,0.088733,-0.287103,0.133076,0.458770,-0.169881,-0.150044,0.351039,-0.221122,0.363735,-0.480895,0.277734,-0.036210,-0.388791,0.278069,-0.228111,0.342128,0.372463,-0.129566,-0.326563,-0.318384,-0.018815,-0.116871,-0.043504,0.355434,-0.068133,0.491638,-0.381436,0.299158,0.133045,0.324274,0.212546,0.040300,-0.055895,-0.022843,0.302393,-0.418851,-0.348476,0.210501,-0.376797,0.416593,-0.459197,0.357784,-0.269982,0.467711,0.220237,-0.020524,0.410581,0.212851,0.352901,0.291711,-0.100085,-0.202963,0.453398,0.401639,0.423673,0.401364,-0.095141,0.395779,-0.397061,-0.346950,-0.146840,-0.291162,-0.248070,0.358333,0.134419,0.113575,0.474059,0.338130,-0.108448,0.348476,0.463439,-0.350917,0.037034,-0.348628,-0.082293,-0.029496,0.217338,0.362239,0.468200,0.438231,0.435514,-0.091540,0.033982,-0.292688,-0.011643,0.472747,-0.493683,-0.475402,-0.125690,-0.404447,0.202261,-0.408078,0.328272,0.299310,0.261620,0.001816,-0.360622,0.432951,-0.408872,0.026749,-0.091235,0.437986,-0.400571,-0.456969,-0.097552,0.331202,-0.208762,-0.129139,-0.343471,-0.485565,-0.364742,0.311426,-0.009384,-0.140339,-0.091113,0.162679,-0.414701,0.100757,-0.302087,0.494995,-0.219047,0.062975,-0.217063,0.467528,-0.247124,-0.238151,-0.007187,0.467101,0.220023,-0.097705,0.127461,-0.149556,0.343104,-0.190634,-0.291711,-0.428648,0.157704,0.321925,0.332301,0.473724,-0.126972,-0.319514,0.313715,0.431242,0.169851,-0.059496,0.389126,-0.180410,-0.475188,-0.058000,0.023057,0.488525,0.346706,0.367580,-0.058092,-0.462096,-0.397183,-0.080950,-0.271996,-0.343287,0.418577,0.144948,0.463042,-0.081194,0.115711,-0.050829,0.310602,-0.386868,-0.152821,0.130268,-0.446196,-0.009751,0.483276,0.261040,-0.333430,0.205405,-0.093982,-0.397702,0.370418,0.240867,0.368618,0.478576,0.037675,0.087451,0.074694,0.249840,0.174551,-0.032579,-0.364772,-0.250359,-0.219108,-0.120411,-0.441557,0.440397,0.009323,0.247703,0.428953,-0.499817,0.028794,-0.046159,-0.067095,0.373135,-0.500000,-0.462127,0.384915,-0.187063,-0.431791,-0.156117,-0.086688,-0.047166,0.271264,-0.104572,-0.040269,0.431394,-0.171071,0.280328,0.249382,0.106494,-0.459380,-0.173391,-0.111591,0.388668,-0.003525,-0.149251,-0.255547,-0.275567,0.208914,-0.240745,-0.233512,0.261589,0.250786,0.285119,0.400479,0.227073,0.246300,0.140309,-0.243034,0.049364,0.129292,0.365566,-0.312952,-0.244041,-0.424467,-0.246574,-0.414884,-0.322382,0.015213,0.461913,-0.063585,-0.009507,0.131275,0.092273,-0.318079,0.127338,0.362484,-0.308435,-0.137410,-0.410855,-0.464354,0.281854,-0.106769,0.188589,0.376278,-0.295221,0.206229,0.255974,-0.100635,0.334895,0.059648,-0.160360,-0.008469,0.094897,-0.496155,0.431852,-0.252892,0.311762,0.162221,0.250786,-0.253838,0.433256,-0.017258,-0.388882,0.068743,-0.352565,-0.383389,0.413175,-0.048204,-0.070421,-0.419980,0.282830,0.494751,-0.449950,-0.144704,0.392850,0.320460,-0.282922,0.020890,0.497192,-0.402860,0.135487,0.034379,0.209098,0.328120,-0.237419,0.421598,0.056902,0.315302,-0.457305,-0.134114,0.340571,-0.297266,0.401608,-0.009964,0.333827,-0.493377,0.281457,-0.425443,-0.150044,0.037706,0.498688,0.345332,0.354884,-0.377499,0.204794,-0.019944,0.142109,-0.086230,0.232414,-0.436369,-0.355739,-0.491150,0.106861,-0.296136,0.340724,-0.156636,-0.494415,0.279382,0.363826,0.332087,-0.054491,-0.498566,0.292871,0.097095,-0.019486,0.447203,0.180319,-0.370235,-0.310144,-0.280908,0.197684,-0.021317,0.498108,0.388180,0.431394,0.486602,-0.206839,-0.123798,-0.139546,-0.017502,-0.432676,-0.065844,0.047166,-0.165090,0.290277,0.372127,-0.428526,-0.227103,-0.132862,-0.302484],[-0.119312,-0.479705,0.318171,-0.390133,-0.327418,0.189718,0.465423,-0.171407,-0.345820,0.474487,0.494812,0.372616,0.275964,0.396664,-0.280450,-0.335902,-0.314142,-0.231468,0.433622,0.128285,0.187124,0.444853,0.280572,-0.288110,-0.192984,0.240623,-0.375759,0.396207,-0.116474,-0.203299,0.077685,0.235130,0.075640,0.173666,-0.153462,-0.049883,-0.296075,0.455290,0.043138,-0.387143,-0.172781,0.143361,-0.372494,0.447264,-0.038041,-0.375546,0.131703,0.281457,-0.149556,0.490570,-0.176595,-0.317896,0.184133,-0.005966,0.465392,-0.106189,-0.311914,0.419095,0.326777,0.465484,0.473357,-0.350032,-0.397305,-0.453948,0.062700,-0.281732,-0.101642,0.128224,-0.002976,-0.390530,-0.066515,-0.476348,0.427427,0.110797,0.124287,-0.349666,-0.399564,-0.018815,0.198141,-0.187063,-0.358272,0.225059,0.498016,0.414762,-0.454955,-0.249657,0.132405,0.132649,-0.227653,0.193106,-0.372646,-0.413846,0.371731,0.188925,0.236747,0.032060,0.018876,-0.126820,-0.433378,0.115162,-0.245964,-0.109180,-0.329096,0.207663,-0.235405,-0.302667,0.273461,0.366970,0.286370,0.431944,0.273583,0.444395,-0.247642,0.144154,0.191031,0.375301,0.372677,-0.344600,-0.293329,0.182089,0.246025,-0.163625,-0.044969,-0.278558,-0.060747,-0.418241,-0.274926,-0.293054,0.152394,0.263573,0.225639,0.038133,0.248253,-0.055925,-0.428892,-0.032151,0.179830,0.129810,-0.355373,0.138295,-0.354061,0.347987,0.494018,-0.023392,-0.093829,0.326228,-0.082598,-0.230949,0.301019,0.393155,0.394528,0.080340,-0.116596,-0.471191,0.019913,-0.009262,0.067766,0.402982,-0.405606,0.240959,-0.297235,0.421018,-0.469146,0.180593,0.474487,-0.179739,-0.269036,-0.236534,0.045427,-0.458739,0.088610,-0.338130,-0.163350,-0.493011,-0.223350,0.031480,-0.141713,-0.244102,-0.026780,-0.042375,0.495361,-0.290399,0.183462,0.114704,-0.345180,0.356624,-0.186483,-0.330409,0.180380,-0.366787,0.152516,-0.039567,-0.059252,-0.216849,0.419156,-0.017777,0.498596,-0.023331,0.028703,0.209983,-0.235038,-0.028977,-0.262505,-0.208518,-0.452788,0.092761,-0.179983,-0.360042,0.395138,0.324061,-0.253502,0.458800,-0.347774,-0.226676,-0.157704,0.228813,0.118671,0.312220,-0.391507,0.189932,0.231407,-0.340480,0.488586,-0.151875,0.168355,-0.305933,0.108417,0.038957,-0.217307,0.276849,0.123707,-0.420866,-0.226768,0.364620,0.004593,-0.462920,-0.002365,-0.304621,0.103870,-0.345943,0.334315,-0.172231,-0.335902,-0.053362,-0.000534,-0.185110,-0.078906,0.022507,-0.360439,0.294275,-0.041124,0.139912,-0.293542,0.275079,0.472930,-0.457121,-0.281182,0.403989,0.097980,0.103046,0.320276,-0.009445,0.456633,-0.201102,-0.463713,-0.426176,-0.415494,0.065020,-0.060930,0.311213,-0.110889,-0.459227,-0.475341,0.469665,0.297693,0.251549,0.296045,-0.192770,-0.263390,-0.248100,-0.043352,0.107715,-0.300195,0.263878,-0.377621,-0.320704,-0.242851,0.339930,-0.043352,0.069353,0.168386,0.082873,-0.364101,-0.206229,0.249443,0.195639,-0.448485,0.356807,0.453093,-0.302301,-0.345973,0.342799,0.218039,0.423490,-0.153615,0.361751,0.257836,0.360012,-0.167776,0.129444,0.445036,0.329340,0.325434,0.463775,-0.052263,0.462493,-0.472716,0.477996,-0.225883,0.190634,0.277612,-0.247032,0.381344,0.043138,-0.214438,-0.231162,-0.494720,-0.216575,0.347407,0.377804,-0.132649,-0.425810,-0.043779,-0.400998,-0.085894,0.081622,0.210837,-0.482574,0.246879,0.414853,0.429624,-0.433042,-0.103534,0.323420,0.375912,-0.020219,0.100421,-0.207389,-0.499481,-0.317011,-0.262017,-0.297327,0.108661,0.423826,0.079913,0.204856,0.356380,0.404263,0.008621,-0.314600,0.483825,0.207327,0.365688,0.348781,0.190634,0.294946,-0.417905,-0.048936,-0.439421,-0.140278,0.248527,-0.284814,0.440977,0.311487,-0.219413,-0.040971,-0.316523,0.179556,-0.163228,0.467437,0.152669,-0.287347,-0.355922,0.140004,-0.091937,-0.042894,-0.111652,-0.054827,0.466765,-0.405210,0.198508,-0.287622,-0.448241,0.322260,-0.232414,-0.206595,0.233451,0.051897,-0.392056,0.123798,-0.130451,-0.283074,-0.472411,-0.283685,-0.249718,-0.039201,-0.446379,0.117206,-0.145100,0.492920,0.117023,0.313868,-0.374477,0.391354,0.374599,0.422727,0.165395,0.134388,-0.287866,-0.202475,-0.233634,-0.358516,-0.198386,0.073656,0.173605,0.105609,0.174001,-0.017411,0.492187,-0.102496,0.158956,0.348109,0.142872,0.323695,-0.369686,0.029862,-0.227103,-0.480865,0.453215,0.335383,-0.471953,0.256096,0.182608,0.484802,-0.407712,-0.050188,0.170675,0.127277,0.401334,-0.356685,-0.261895,0.451659,0.436125,0.251610,-0.433622,-0.365383,0.002884,-0.153279,-0.033067,0.293268,-0.094470,0.265587,0.183554,0.028581,0.416929,-0.179128,0.384060,0.423582,0.455351,0.396939,0.498077,-0.147542,0.372188,-0.288507,-0.443785,0.034867,0.257225,0.025010,-0.311853,0.486358,0.167867,0.078021,0.434263,-0.246544,0.188162,-0.461364,-0.471191,-0.082934,-0.275567,-0.258904,-0.190237,0.442595,-0.056536,-0.003800,0.411466,0.225974,-0.036851,0.255608,-0.102588,-0.178488,0.275353,0.410733,0.488250,0.382260,0.087664,0.227134,0.041856,0.344661,0.355983,-0.339869,-0.058214,0.388852,0.048296,-0.061388,-0.450194,-0.294824,-0.160970,0.022446],[0.098956,0.054308,-0.109363,-0.352992,-0.035905,-0.392819,0.335749,0.353725,-0.342647,0.268914,-0.418790,-0.439695,0.304102,0.241966,-0.216514,0.005081,-0.433103,0.406247,0.200034,-0.275292,0.408536,0.155354,0.304712,-0.166799,0.379940,-0.342891,-0.368343,0.115345,0.465239,0.443999,-0.371029,-0.409360,0.014481,-0.260216,0.303308,-0.295465,-0.204550,0.429258,-0.384182,0.302545,-0.304010,0.075854,-0.342647,0.043901,0.107837,-0.104511,0.144368,0.411130,-0.476562,0.090808,0.249260,-0.028794,0.408963,0.453459,-0.185629,0.045274,-0.339015,-0.359951,0.469909,0.442595,0.348354,-0.344478,-0.309473,0.415128,0.154195,-0.440489,-0.106555,0.489441,-0.334529,0.473266,-0.141926,0.331416,0.371456,0.341548,0.249931,0.300562,-0.374477,0.307489,-0.471252,-0.149861,0.070482,-0.064409,0.022965,0.429075,-0.442717,-0.420377,-0.480468,-0.244041,0.089770,-0.325892,-0.327693,0.124561,-0.174581,-0.143880,-0.054338,-0.112537,-0.335261,0.255364,0.481628,-0.209983,0.459136,0.334284,-0.435209,0.295068,0.369472,0.258599,0.030992,-0.436094,0.406308,0.080676,0.378323,0.247215,-0.317164,-0.233970,0.294824,0.027268,0.412259,-0.490417,-0.116810,0.069079,0.180105,0.467620,0.364132,0.035539,-0.476318,0.295770,-0.460906,-0.176687,0.349178,-0.127949,-0.205405,-0.324152,0.217704,0.138478,-0.071703,-0.170522,0.032151,0.050859,-0.421049,0.348903,0.155446,0.349147,-0.459105,0.308618,0.491638,0.438810,-0.255272,-0.024033,-0.438719,0.289911,0.185018,0.152791,0.102191,-0.240074,-0.423154,0.331050,0.226615,0.246879,0.021897,0.431364,-0.333338,0.078265,0.465514,0.497833,0.138661,-0.456694,0.226127,0.351924,0.357753,-0.026536,0.378445,0.451659,-0.265465,-0.221885,0.270714,0.064409,0.284234,0.434568,-0.041093,-0.233329,-0.219901,0.188925,0.372555,0.101062,-0.317591,0.321955,0.248283,0.447874,-0.126179,0.140370,0.351344,-0.187643,-0.267296,-0.154592,0.033586,-0.112079,-0.424253,-0.262444,0.142140,0.060839,0.000809,0.312830,-0.179739,-0.050493,0.161397,-0.435820,0.002945,0.155873,-0.495819,-0.105670,0.429777,0.172048,0.000534,-0.454131,-0.272973,-0.496948,0.403531,-0.044420,0.222343,0.103961,-0.438658,-0.061571,-0.109088,0.287622,-0.214743,0.108356,0.166463,-0.240440,0.039079,0.441191,-0.233604,-0.064013,0.272149,0.386563,0.201590,0.201163,-0.389920,0.435148,0.479827,0.260582,0.251396,-0.453276,-0.443999,0.246086,0.310785,0.346431,0.147420,-0.270867,0.404355,0.494110,0.249290,0.298639,-0.458678,0.134480,0.410428,-0.140645,-0.146321,-0.166860,-0.450194,0.307276,0.194815,-0.094653,-0.404752,-0.261650,0.138783,-0.456511,-0.274224,-0.153493,0.411008,-0.350063,0.498688,-0.332698,0.281976,-0.219260,-0.357418,0.323969,-0.044847,0.107349,-0.202109,-0.069109,0.480102,-0.197989,-0.014389,0.312433,0.222251,-0.246879,0.085894,-0.308283,0.420804,0.017075,0.107837,0.006912,-0.134480,-0.087420,-0.468719,0.010208,0.223991,0.163839,-0.056139,-0.193350,0.050615,-0.001083,0.163808,-0.011338,0.008255,-0.390774,-0.099384,0.022111,0.334376,-0.123218,-0.215781,0.041154,0.082171,-0.224906,-0.005905,-0.292962,0.168783,0.350337,0.499603,0.287957,-0.239128,-0.311274,-0.217246,-0.384457,0.029923,-0.223441,-0.116626,0.074969,-0.192648,-0.341090,-0.452544,0.284051,0.171773,0.264428,-0.239341,-0.381649,0.498840,0.076495,0.447600,0.238304,0.005234,0.234092,-0.381680,-0.225913,0.318262,0.340327,-0.256310,0.325587,0.101886,0.013230,-0.359981,-0.067583,0.270684,-0.092090,-0.354854,0.171529,-0.176962,0.342311,0.366573,0.037400,-0.175375,0.471374,-0.217032,-0.237754,-0.426420,-0.083209,-0.019089,-0.268487,0.478576,0.257897,0.307154,0.151448,-0.319117,0.289819,0.218436,-0.374966,-0.047746,0.455962,-0.390347,0.292260,-0.101276,0.360225,-0.098010,-0.309198,0.003159,-0.234306,-0.328150,-0.005600,-0.463897,-0.014023,0.102191,-0.216483,-0.132130,0.075030,0.037278,0.006241,0.263787,-0.277520,-0.077593,0.284387,0.328578,0.260155,0.409268,0.221763,0.230796,-0.314173,-0.091021,-0.129383,0.404324,0.111469,-0.126514,0.012558,-0.407224,-0.459075,0.086535,0.410062,-0.332484,0.384426,-0.254112,-0.314997,-0.383297,-0.384915,-0.382138,-0.019456,0.185385,-0.024918,0.045091,0.062120,0.196677,0.136006,0.089282,0.014542,0.086200,0.221183,-0.409940,0.190695,-0.319514,-0.404782,0.420743,-0.431333,-0.249138,0.327662,-0.277062,0.173330,0.373806,0.236351,0.400906,-0.281701,-0.370724,-0.082415,-0.343410,-0.389157,-0.331477,-0.331660,-0.152577,0.076922,-0.318354,-0.292108,0.447203,0.257286,-0.202689,-0.396146,0.392026,0.046190,0.331324,0.310205,-0.407987,0.080950,0.211966,-0.277642,-0.109394,-0.441649,-0.275414,0.156484,0.252037,-0.257469,-0.412381,-0.341426,0.458647,0.025040,-0.089831,-0.449980,0.099506,0.479034,0.451628,0.115772,0.130940,0.302454,-0.082446,-0.158925,-0.209250,0.200369,0.447111,0.103839,0.147176,-0.136891,-0.245048,-0.272393,0.063799,0.196493,0.163259,0.302820,-0.138142,0.459990,-0.285607,-0.318781,0.460936,-0.030534,-0.263512,-0.448973,-0.401517,-0.479156,0.188162,0.497864,-0.323603,0.190329,-0.117786,0.458495],[-0.331935,0.110065,-0.026475,-0.470885,-0.218741,-0.302820,0.144948,0.077715,0.362911,0.022050,-0.294855,-0.439665,0.122547,0.028794,0.103442,0.283929,-0.324854,-0.234550,0.016404,0.256188,0.384640,0.478912,0.188406,0.289514,0.177725,-0.202567,0.008347,-0.104633,-0.006241,0.032853,-0.270989,0.251488,-0.033982,0.132496,-0.264672,0.021958,0.171133,0.313349,-0.232505,0.312769,-0.197348,-0.091327,-0.494263,-0.457183,0.448149,0.459197,0.422330,-0.487518,0.386776,-0.420866,0.307733,0.450529,-0.200217,-0.370540,0.376583,0.320948,-0.251213,-0.271447,0.360073,0.170736,-0.129292,0.132282,0.491119,-0.200095,-0.230186,-0.485626,-0.212088,-0.464934,-0.177664,0.178610,-0.456969,0.387753,-0.111621,-0.266564,0.423582,0.378719,-0.490722,0.261376,0.088855,0.309565,0.404935,-0.213095,-0.350215,0.046648,-0.040941,0.234611,-0.464934,0.255760,-0.282739,0.289544,0.093524,-0.213736,-0.107257,-0.489013,-0.132008,-0.412992,0.283990,0.458617,0.155477,-0.148518,-0.442747,0.097034,-0.109210,-0.382595,-0.427641,0.287713,-0.171163,-0.154836,0.272942,-0.355098,-0.193014,0.255730,0.297357,-0.069658,0.493591,-0.290338,-0.033280,0.112110,-0.470702,0.408475,-0.194113,-0.272698,0.467223,-0.300623,0.254143,-0.484710,0.417814,-0.235069,-0.278649,-0.126118,-0.194388,-0.021409,-0.353694,0.309381,0.143208,0.207511,-0.286828,0.412595,0.228996,-0.156026,-0.117847,0.391079,-0.324793,-0.153401,0.391324,-0.310694,0.172323,-0.427641,0.385098,-0.271844,0.395718,-0.318934,0.325861,0.294641,-0.285119,-0.106708,-0.154653,-0.386746,0.337153,-0.116901,0.191458,-0.424985,0.113819,0.086749,-0.072985,-0.457396,-0.454253,-0.291406,0.036943,0.100787,-0.236045,-0.294275,0.099750,-0.279778,-0.430204,0.032151,-0.320246,-0.070757,0.214743,-0.075945,-0.403775,0.186605,0.072985,-0.492615,0.225700,-0.400632,-0.011063,-0.491150,0.493866,-0.092364,-0.427458,0.351924,-0.286889,-0.078326,-0.250816,0.418393,-0.078021,0.478698,0.302728,-0.242332,-0.117237,-0.275262,-0.014145,0.024430,0.393796,0.478362,0.202933,-0.074084,0.072161,0.264855,0.305658,-0.039689,0.263512,-0.252647,0.031083,-0.272485,0.235130,-0.297723,0.488556,-0.406766,0.308252,0.317530,-0.398221,-0.011948,0.086383,-0.402371,0.412198,0.122181,0.435209,-0.044298,0.149770,0.397946,0.371029,0.173391,0.477874,0.300348,-0.486511,-0.332392,-0.181967,0.047655,0.259117,-0.404782,0.161184,-0.217093,0.331477,-0.173269,0.271233,-0.412229,-0.134907,0.320460,-0.312159,0.099780,-0.321589,-0.071734,0.433897,0.014389,-0.107501,0.164388,-0.165487,0.253105,-0.448149,-0.031938,0.353694,0.078875,0.403317,-0.008133,-0.145528,-0.060076,0.489441,0.446471,0.189749,0.323389,-0.287439,0.033464,0.279962,0.399960,0.025956,-0.002792,0.325922,-0.259209,0.407926,-0.118427,0.340754,-0.111896,0.275536,-0.358577,-0.390866,0.060076,0.494110,-0.215751,-0.220908,-0.227714,-0.361568,-0.333613,-0.287439,-0.343837,-0.337489,0.381588,-0.238487,0.255943,-0.366695,0.129627,-0.376064,0.085376,-0.314295,-0.022874,0.186422,-0.274346,-0.145924,-0.012406,0.258873,-0.465819,-0.062975,0.251823,-0.391385,-0.275933,0.051958,-0.150197,0.199118,0.160543,0.034928,0.275872,0.040147,-0.452818,0.342677,0.357570,-0.444212,0.391812,-0.387295,0.200247,-0.124104,0.467376,-0.461821,0.188009,-0.042161,0.072192,0.213004,-0.427122,0.008316,-0.419340,-0.395901,-0.317164,-0.334956,-0.433378,0.307184,0.280358,-0.315912,0.279809,0.241356,0.102496,-0.193472,-0.242637,0.440062,0.114063,0.443114,0.248100,-0.406583,-0.495270,-0.256035,-0.046007,0.499329,-0.038285,-0.094073,-0.300531,0.078326,0.248833,-0.440214,0.428587,0.110034,-0.376247,-0.356044,-0.308222,0.345668,0.124287,-0.329371,-0.424131,0.154347,0.163808,-0.208945,0.133656,0.358638,0.104816,-0.434538,-0.301447,0.415769,0.429929,-0.155385,-0.134846,-0.399045,-0.272729,-0.331111,0.417203,0.348872,-0.163808,-0.408902,-0.016251,0.409268,0.095538,0.329524,-0.294458,-0.026200,-0.411039,0.157064,-0.308008,-0.414762,-0.490661,-0.066820,-0.449309,-0.104236,0.173421,0.184652,-0.229728,0.199881,-0.281671,0.141194,0.238182,0.449614,0.010849,0.132679,-0.325709,-0.143239,-0.199179,0.253716,0.262108,-0.030717,-0.349940,-0.297815,0.257927,-0.032304,-0.332209,-0.061724,-0.139576,0.182455,0.239494,0.387356,0.120685,0.487945,0.191824,-0.358669,0.174947,-0.270074,-0.309259,0.151204,-0.419492,-0.157491,-0.039140,-0.269768,0.036668,-0.189627,0.300409,0.226432,0.271416,0.133503,-0.342738,-0.047288,0.375729,-0.050371,-0.113941,0.041154,0.366024,0.471709,0.061632,-0.372951,0.256706,-0.104633,0.108112,0.269677,0.423399,-0.096698,-0.318262,-0.484893,-0.461303,-0.363430,0.117603,0.008377,-0.138478,-0.354793,0.006485,0.060381,0.160665,-0.451872,0.398465,0.076342,-0.403897,-0.194723,0.384732,-0.248466,0.051225,-0.339686,-0.316981,0.441252,0.058245,-0.079455,-0.470855,-0.389554,-0.335871,0.053301,0.406613,-0.229911,-0.048143,0.462462,-0.354640,-0.194296,0.138325,0.376736,0.421018,0.105029,-0.183401,0.247826,0.185568,0.390713,0.083056,0.494232,0.061083,-0.335932,0.330409,0.246818,0.227592],[0.079333,0.252953,-0.163839,-0.233024,-0.008866,-0.405301,0.478881,-0.327296,0.258782,0.378140,-0.253594,-0.114093,-0.035783,0.049059,-0.094836,0.295587,-0.123615,0.492553,0.224235,-0.178701,-0.444578,-0.428526,-0.015397,-0.488617,-0.316981,0.261101,-0.299310,0.002609,0.308435,0.035081,-0.413480,0.247246,0.292047,-0.339656,-0.203116,-0.085864,-0.272637,0.056017,0.475463,0.369778,-0.377102,0.373043,0.140461,-0.354305,-0.375271,-0.049120,0.439940,0.298517,0.061693,0.307550,-0.193136,-0.431455,0.093860,-0.181356,0.046434,-0.255943,0.245964,0.242607,0.385861,0.136128,0.106616,-0.252403,0.018387,-0.428434,0.475005,-0.403348,-0.327143,-0.190329,0.452605,0.147420,0.239860,-0.211234,-0.254967,0.322443,-0.014542,0.109272,0.004013,0.206320,0.384671,-0.340632,0.409391,-0.073504,-0.123432,-0.210562,0.354030,0.472930,0.170186,-0.058519,0.463500,-0.386196,-0.158589,0.140034,-0.251366,-0.436705,0.236290,0.250603,0.455260,-0.442778,0.228019,0.411893,0.392270,-0.006760,-0.350764,-0.451903,0.019974,0.292016,0.334407,0.367702,0.078814,0.134907,0.030625,-0.245506,0.040788,0.235343,-0.290338,-0.042161,0.164266,0.299158,0.311121,0.487671,0.433561,0.330988,0.448515,0.121052,0.164449,-0.057543,0.109668,-0.073870,-0.442839,-0.181326,-0.117542,-0.289789,0.490570,-0.001022,-0.262871,-0.202567,0.248711,0.128681,-0.103534,-0.456725,-0.396695,0.337489,-0.174703,0.491302,0.483459,-0.098651,-0.129810,-0.421171,0.259209,0.343562,-0.419156,0.297906,-0.339747,0.131703,0.244469,0.217093,0.190237,-0.373531,-0.335902,-0.228660,-0.488464,0.438871,-0.287347,-0.274529,-0.320124,-0.148610,-0.306848,0.217704,-0.361507,0.460631,0.037187,-0.210410,-0.246544,-0.303888,0.372494,0.308466,-0.328761,0.372982,0.490753,0.188864,0.279748,-0.066515,0.247185,-0.181265,0.054033,-0.465270,-0.077136,-0.402646,-0.431608,-0.361904,0.081561,0.490539,0.455321,0.256890,0.451292,-0.490387,-0.407041,-0.481536,-0.136708,0.021043,-0.197104,-0.302759,0.182272,0.291436,-0.161794,0.374172,0.432188,0.176015,-0.055712,-0.120014,0.132160,-0.062395,-0.391995,-0.322413,-0.265862,0.027909,-0.068468,-0.159871,-0.166372,0.462310,-0.052324,0.281243,-0.299921,0.319269,-0.068346,-0.106891,0.487243,0.145955,0.193014,0.249565,-0.250298,0.073504,-0.238304,0.029252,-0.202292,0.264885,0.180044,-0.183798,-0.079363,-0.404843,0.048845,0.433378,0.114002,-0.322382,0.192251,0.465789,-0.377865,0.434538,0.015641,0.129231,-0.319269,0.043596,-0.117054,0.141102,0.014115,0.024430,-0.109912,-0.250847,-0.134327,-0.251061,-0.041063,-0.424894,0.010910,0.281823,0.111560,0.428556,0.429716,-0.042741,-0.488464,-0.251976,-0.089618,-0.401639,0.137562,-0.174673,0.001877,-0.214621,-0.102802,0.469176,-0.352290,0.078814,0.435514,0.264550,0.032762,-0.395840,-0.164602,0.084155,-0.325770,-0.095904,-0.313715,0.007920,0.288018,0.464354,0.131092,0.306940,0.461547,-0.180197,-0.441160,-0.351680,-0.335231,-0.352901,0.022477,0.176748,-0.369839,-0.250633,-0.230766,-0.370632,-0.366970,0.340175,0.153737,0.140156,-0.296350,-0.467681,-0.273461,-0.110126,0.302118,0.438261,0.172475,0.258110,0.487426,-0.212363,0.082263,-0.366573,0.111957,0.469176,-0.047472,-0.462004,0.072558,-0.097980,-0.304132,0.222983,0.149617,-0.355739,0.441618,0.390683,-0.057634,0.143117,-0.090991,0.200247,0.090716,0.034562,0.133930,0.212394,-0.160939,-0.102161,-0.169637,0.430296,-0.218863,-0.128742,0.167867,0.091937,0.416715,0.035661,0.246147,0.371151,0.351375,-0.028367,0.048570,-0.357356,-0.070299,0.396878,0.154958,0.468230,0.187216,0.289789,-0.004257,-0.040574,-0.043901,0.405850,-0.071825,-0.326106,0.216910,-0.407529,-0.083819,-0.299249,0.259270,-0.190603,0.094958,0.092059,0.054613,0.259880,0.001480,0.295801,-0.418485,-0.460051,-0.247551,-0.252434,-0.323572,0.211295,0.357295,0.276330,0.440855,-0.296045,-0.398953,0.480926,-0.263207,-0.044023,-0.182089,-0.266228,0.072222,-0.304987,-0.395688,-0.032395,-0.490051,-0.230949,0.485107,-0.098590,0.325831,0.432279,0.274377,-0.137257,0.456236,-0.007950,-0.240501,-0.138813,0.257530,-0.276330,-0.418119,0.070666,0.413572,0.458861,0.096576,0.375820,-0.078753,-0.245781,0.491424,0.139302,0.413877,0.046434,-0.052568,-0.154134,-0.146443,-0.300653,0.121296,-0.220176,0.492950,0.350642,-0.268487,0.391781,-0.443480,0.463012,-0.470946,-0.488861,-0.085864,0.486969,0.434416,0.060778,-0.123432,-0.458892,0.121448,0.429472,-0.454558,0.016343,-0.169698,0.159169,0.008316,0.009873,-0.310419,0.102771,0.490112,-0.004074,0.324854,-0.291009,0.123676,-0.361202,-0.427519,-0.409696,-0.129048,-0.473022,0.452605,0.030412,-0.374508,0.129353,0.425687,-0.412687,0.028214,0.195059,-0.075182,0.448576,0.026780,-0.246330,0.164296,-0.305628,-0.289026,0.217002,0.402097,0.125599,0.454314,0.464232,0.465362,-0.188040,-0.106494,0.270562,-0.183035,0.017716,-0.222404,0.264641,0.444365,-0.339961,0.216727,0.030595,0.351711,-0.042711,0.363094,0.190420,-0.062914,0.422605,0.054552,-0.402005,0.035691,-0.140278,0.452605,-0.449126,-0.090106,-0.483001,0.205344,0.425352,-0.031602,0.055651],[-0.357997,0.494751,0.488891,0.208365,0.367611,0.166890,-0.252098,0.137928,-0.140706,-0.350642,0.031266,0.285028,-0.142018,0.038438,-0.406522,-0.244224,-0.063616,0.442503,0.129444,-0.094531,0.208792,0.478240,0.410733,0.054582,0.308161,0.142994,0.330226,-0.020066,0.037126,-0.407987,0.011124,0.212912,-0.400906,-0.140004,0.136647,0.264428,-0.184378,0.043901,0.156636,-0.316675,0.236503,0.157888,-0.472533,-0.144673,-0.451628,0.028672,-0.358547,-0.053575,0.188864,-0.272759,-0.398312,-0.091723,-0.428434,-0.130207,0.499237,-0.110340,-0.170949,-0.190481,0.348109,-0.357570,0.479339,0.241935,0.335017,-0.188833,-0.077349,0.049669,-0.460326,0.190359,0.174520,0.018509,-0.217795,0.048875,-0.258782,0.190481,-0.246635,0.363491,0.044450,-0.255455,0.084796,0.234153,0.300623,-0.016984,-0.485565,0.011856,0.261803,-0.265831,-0.195761,0.170980,-0.275842,0.451750,-0.433988,-0.011917,0.210227,-0.206656,-0.348476,0.172018,-0.268914,-0.041459,0.263695,0.307276,0.035264,-0.432432,0.444243,0.025773,0.249718,0.363063,0.094989,-0.098498,0.320063,-0.485626,0.188437,0.074206,0.155660,-0.192282,0.323939,0.373257,-0.113849,-0.498810,0.285974,0.267876,0.135365,0.128040,-0.239402,0.343074,-0.280724,0.027818,-0.173605,0.331721,-0.325922,-0.112415,-0.344447,0.234977,0.020188,0.074145,0.243522,-0.438414,0.169393,0.038285,-0.280511,0.217704,0.380306,-0.427122,0.498505,0.078234,0.169301,0.205496,0.267754,-0.228843,0.082568,0.496185,0.185842,-0.293970,-0.264306,-0.401822,0.489715,-0.122242,-0.472716,-0.366970,0.166005,0.477111,-0.067492,-0.455870,-0.156514,-0.161031,-0.217124,-0.172475,-0.437864,-0.239952,0.438994,-0.349940,-0.424558,-0.283410,