[[[-0.330531,0.163259,-0.222831,-0.226157,-0.398129,0.245048,0.450774,0.376614,-0.376095,0.346187,-0.328913,0.068316,-0.280969,-0.135792,-0.236900,-0.316126,-0.292627,-0.135182,0.452300,-0.220328,0.220969,0.048051,0.349910,-0.112293,0.066729,0.284631,0.469176,-0.408231,0.122517,-0.447356,-0.459655,0.207389,0.422880,0.305841,0.493133,0.346278,-0.409940,-0.195273,0.277123,0.146992,0.267479,0.441923,-0.367336,0.452818,-0.289026,-0.407163,0.042070,-0.281945,0.194845,0.023209,-0.056780,-0.075732,0.388241,0.384030,-0.093036,0.287286,0.358913,-0.173910,-0.081286,0.036729,0.359828,0.264885,-0.290674,0.048997,0.055406,0.326746,0.040788,-0.385220,0.343440,-0.491668,0.353298,0.123035,0.428831,-0.419950,-0.320093,-0.058306,0.305811,-0.235191,0.235191,0.277306,0.304346,-0.276452,-0.416410,0.294366,-0.142598,-0.121326,-0.205496,0.275445,0.145070,0.106403,0.489715,0.103748,-0.228080,0.329737,0.189596,-0.150624,0.133900,0.043077,-0.135273,-0.260155,-0.369259,0.299524,0.098437,0.297204,0.380612,0.192495,-0.232871,-0.078112,-0.407437,0.362758,-0.355525,-0.294397,0.253929,-0.438139,-0.164449,-0.246483,0.287896,-0.196188,0.447386,-0.202261,-0.161519,0.135517,0.402097,0.382962,-0.161489,-0.442015,-0.201254,0.405667,-0.483093,0.128895,-0.269433,0.288079,0.002091,-0.221915,-0.036973,-0.431883,-0.323176,-0.132618,0.379971,0.186666,0.441740,0.025620,-0.396786,0.253227,-0.457121,0.290307,-0.307489,-0.428495,0.120411,0.087359,0.331629,-0.294000,0.133808,0.079760,0.407071,-0.129353,-0.179403,0.416746,0.385678,0.421232,0.344417,0.414548,0.397336,0.232353,-0.211264,0.200156,0.428770,-0.259239,0.152699,0.349086,-0.464782,-0.064562,-0.495178,0.048540,0.475890,0.076647,-0.048296,-0.182699,-0.320887,0.424406,-0.423154,0.313562,-0.055467,-0.241691,0.006821,0.261589,-0.212912,-0.030534,-0.239586,0.029191,-0.169515,-0.494354,0.037523,-0.113422,0.155263,-0.048143,0.103290,0.478118,0.008530,-0.473693,-0.075396,-0.461791,-0.218986,-0.226035,0.214774,0.382962,-0.341823,0.238578,-0.457823,0.207602,-0.148701,0.394406,-0.339595,-0.277123,-0.185293,-0.381039,-0.285394,0.159780,0.355983,0.488189,0.481506,0.174978,0.044603,0.174856,0.298639,-0.312159,-0.174032,0.231986,-0.160543,0.180502,0.246544,-0.457854,0.390347,0.491729,0.196677,-0.285821,-0.214377,-0.363491,-0.422788,-0.291955,-0.342708,-0.317896,-0.203818,-0.029954,0.155507,0.212088,-0.498077,-0.141530,-0.204520,0.409360,0.458586,-0.358089,-0.411527,0.289819,-0.029435,-0.149068,0.111347,0.117420,-0.237846,0.264397,-0.327631,-0.467803,-0.281762,0.312067,0.228813,0.422697,0.392819,0.174306,0.212760,0.073138,-0.308863,0.360317,-0.078631,-0.381985,-0.367794,0.046159,-0.372219,0.334101,-0.402707,-0.046312,0.069079,-0.198447,-0.028794,0.052049,0.467467,0.465789,-0.417661,-0.137745,-0.259392,-0.369442,-0.152058,-0.353084,0.058275,0.414365,0.030351,0.265862,0.400235,-0.299493,-0.488739,-0.021226,0.272851,-0.386990,0.489563,-0.023148,0.239891,-0.451170,0.009049,-0.076312,0.424223,0.298212,-0.276910,0.287652,-0.363826,0.283898,0.301294,-0.253929,0.285577,0.451170,-0.114978,0.443449,-0.267449,-0.161092,0.498535,0.383816,0.234764,0.364284,-0.179250,-0.260216,0.146046,-0.149190,0.225150,0.358364,-0.476348,-0.167470,0.493103,0.245415,-0.200400,0.164205,0.107562,0.310022,-0.327082,-0.030168,-0.467101,0.149678,-0.121113,-0.039842,0.387539,0.157918,-0.008621,-0.349544,-0.085009,-0.264672,-0.085467,-0.489746,-0.339503,-0.114612,0.220573,-0.424436,-0.241325,-0.023728,-0.011032,-0.444487,-0.261223,-0.050035,0.304376,-0.035630,0.253868,-0.240043,0.068529,0.310083,-0.360073,0.318567,0.283380,-0.129261,-0.288446,-0.264733,0.460570,0.090320,-0.300073,0.127644,0.314570,0.124561,-0.260155,-0.214896,0.395260,-0.431303,-0.188376,-0.031632,-0.184194,-0.101917,-0.455473,0.124012,-0.267052,-0.347285,-0.212241,-0.203146,-0.264702,-0.102557,0.355068,0.020798,-0.204031,-0.011368,-0.150441,0.469176,-0.053789,0.178915,-0.024918,0.146352,0.325709,0.090655,0.239738,-0.098468,-0.233848,-0.409604,0.458525,-0.453917,-0.435453,0.094562,-0.039079,-0.144398,-0.398251,-0.162069,-0.089953,0.237877,0.463256,0.136799,-0.361049,0.348445,-0.281915,0.176901,0.411191,0.434385,0.012436,0.358394,-0.488891,-0.312189,0.133412,-0.271477,0.070818,0.390866,-0.299829,-0.466338,-0.460662,0.132252,-0.361629,0.421354,0.201071,-0.122059,0.093616,0.324366,-0.351314,0.176260,-0.059038,-0.442534,-0.381863,0.279107,-0.453795,0.158437,0.090472,0.460509,-0.064379,0.004196,0.068041,0.313440,0.029679,-0.266045,-0.069506,0.306818,0.098071,0.010147,-0.222709,0.383175,0.091082,0.148122,-0.337458,-0.121418,0.004715,-0.353114,0.128925,-0.453520,-0.065203,-0.349055,-0.053514,-0.034257,-0.022813,-0.124683,0.463012,0.115131,-0.370388,0.024491,0.471618,0.394925,-0.148061,0.236961,0.002548,-0.123035,0.440733,-0.413633,-0.055132,0.064684,-0.125355,0.170431,-0.095630,-0.056200,0.286767,-0.180990,0.204276,-0.394345,-0.280114,-0.047136,0.434690,0.223869,0.321802,-0.376553,0.457060,-0.334315,-0.364467,0.266320],[-0.268181,0.225700,0.095538,0.052690,-0.180044,-0.287561,0.389126,-0.076983,0.250267,0.119861,-0.457244,-0.077349,0.106189,0.278863,0.012375,0.293085,-0.200430,0.356746,-0.412351,0.290765,0.184805,0.419919,-0.318751,0.342250,0.488433,-0.230583,-0.052904,0.314447,0.124012,-0.377712,-0.138478,-0.103992,0.172475,-0.205191,0.298608,-0.003555,-0.189932,-0.456236,-0.369167,-0.431059,0.464782,0.222556,0.386593,-0.236534,-0.017655,-0.092456,-0.004776,-0.184255,-0.416440,-0.348109,-0.348506,-0.420530,-0.106433,-0.478027,-0.169607,0.106738,-0.175192,0.073870,0.483551,0.183920,-0.405179,0.425047,0.448363,0.228782,-0.340114,-0.421751,0.101703,0.455077,-0.154042,0.153768,-0.211447,-0.288903,0.458251,0.185598,0.057573,-0.101764,-0.349544,0.138966,0.234428,0.375973,-0.164937,-0.195730,0.364345,0.259148,0.415830,0.224631,0.054857,0.014512,-0.376125,0.312525,0.250572,0.262047,-0.261406,0.312494,0.470397,0.187613,0.474334,-0.234581,-0.460753,0.473266,-0.185415,0.131489,0.344905,0.151448,0.074694,-0.273003,-0.348384,0.289148,0.474059,0.132496,-0.498260,-0.091510,-0.000381,-0.272759,0.236137,0.049699,-0.158345,-0.492462,-0.334651,0.383236,0.182760,-0.155965,0.422239,0.276605,-0.378079,0.334742,0.027482,-0.277154,0.014451,0.410337,-0.300623,0.186026,0.052080,-0.181021,-0.499268,-0.225028,-0.307703,0.124073,-0.433866,-0.337947,-0.294916,0.292169,-0.243004,0.060900,0.424589,-0.104480,0.132313,-0.033219,-0.152181,0.494171,-0.141774,-0.157247,0.201407,0.061266,-0.443327,-0.301599,0.330103,-0.058245,0.054704,-0.032640,-0.310663,0.000504,-0.435026,0.090014,0.222129,0.115833,-0.170248,0.207450,-0.097766,-0.324458,0.258507,-0.127064,0.224601,0.230705,-0.408872,0.187399,0.423978,-0.036058,0.118000,0.264855,-0.296197,0.128773,-0.012558,0.434141,0.255852,0.115345,-0.367244,0.083270,0.351955,0.300012,-0.150502,-0.447264,0.289605,0.333674,-0.445708,-0.016343,0.472106,0.026475,-0.243187,-0.472625,0.404782,0.484069,-0.224540,-0.177236,-0.111530,-0.348018,0.228965,0.147023,0.191549,-0.075030,-0.165853,0.146931,0.481628,-0.023576,-0.458037,-0.443815,0.298303,0.465178,0.042375,-0.194601,0.348415,-0.224631,0.169759,-0.069170,0.404294,0.445799,0.240043,-0.311548,-0.412656,0.444761,-0.149495,0.279015,-0.182699,-0.052721,0.173971,-0.409116,-0.291253,-0.229850,0.278130,0.366756,-0.303644,0.121570,-0.498291,0.200186,-0.330256,-0.178488,0.418546,-0.231254,-0.100665,-0.350978,0.420530,0.209708,-0.465453,-0.027360,0.451292,0.044267,0.455565,0.320460,-0.078784,-0.442778,-0.240440,0.045640,0.335719,0.037797,-0.336482,-0.255821,-0.332881,-0.212058,0.103626,-0.419462,0.002518,0.304865,-0.186361,0.178060,0.497894,-0.457030,0.163015,0.229789,0.170156,-0.337123,-0.464293,0.486541,-0.441496,0.172475,-0.468261,0.277825,-0.213889,-0.133076,-0.228263,0.222617,0.053240,0.473998,-0.413358,0.285516,0.093524,0.410367,0.373409,-0.165029,-0.375698,-0.444243,-0.102435,-0.140217,0.322382,0.450835,0.324915,-0.000076,0.356105,-0.175008,0.262444,-0.451903,0.005997,-0.139088,-0.409421,0.078478,0.403867,0.101123,0.367611,-0.141926,-0.077441,0.403928,-0.412534,-0.301630,0.247612,-0.145985,0.072741,0.401852,-0.338710,0.034684,0.283044,0.461119,-0.428800,-0.432585,0.321253,0.165731,-0.185965,0.325434,-0.082141,-0.226066,-0.233909,0.227165,-0.324732,-0.095294,-0.208426,0.016373,0.353175,-0.193045,0.060259,-0.065630,0.475890,-0.338038,0.265130,-0.308405,0.043626,-0.424863,0.272179,-0.356166,-0.371792,0.413511,0.232627,-0.420042,-0.365047,0.145283,0.189657,0.027299,0.011704,-0.162526,-0.289789,0.480682,0.186514,-0.031907,-0.426237,0.461638,-0.484924,0.208945,0.048631,-0.185934,0.019059,0.335322,-0.212241,0.142232,-0.303247,0.419217,-0.125355,-0.202322,0.187338,-0.038469,0.051012,0.321284,0.069781,0.120502,-0.342616,-0.253349,-0.422239,-0.308557,0.317804,-0.329066,0.012070,-0.004593,-0.100177,0.499786,-0.368892,0.331721,-0.218680,-0.228233,0.301599,0.151509,-0.044877,-0.029893,-0.309961,-0.391903,0.002640,-0.274102,0.276513,-0.359249,0.468139,-0.179067,-0.028062,0.247490,-0.335566,-0.104663,-0.379727,0.104144,0.441679,0.266381,0.166463,0.184835,-0.049974,-0.234764,-0.228141,-0.458861,-0.072008,-0.002762,-0.341884,-0.104724,-0.452757,-0.067705,-0.039109,0.204337,0.345302,0.231803,0.374203,-0.148793,0.277398,0.217856,-0.132252,-0.381161,0.418882,-0.108417,0.257103,0.104114,0.349025,-0.093707,-0.091113,-0.273064,-0.252190,-0.097858,0.362178,-0.008133,0.236961,0.108295,0.146779,0.157521,-0.003800,-0.381161,-0.419645,-0.029435,0.186209,0.249107,-0.174825,-0.379391,-0.290429,0.377682,-0.014176,-0.428373,0.340754,-0.318201,-0.470702,0.427030,-0.243583,0.170949,-0.191366,0.483825,0.497589,0.425687,-0.029008,0.132771,0.394467,0.448119,0.032334,-0.239708,0.485534,0.029405,0.398770,0.308649,-0.037950,0.041612,-0.383267,0.150594,0.169149,-0.440703,-0.366970,0.434751,0.194754,0.217582,0.345485,-0.442259,0.077776,-0.287286,-0.273705,-0.080035,0.166585,-0.148366,0.298700,-0.379757,-0.340815,0.056322,0.248283,0.246635],[-0.052202,-0.450774,0.419034,0.158803,0.389187,0.196066,0.239921,0.339503,-0.026261,-0.107440,0.309656,0.123280,0.231346,-0.470794,0.462432,-0.396237,-0.407468,0.179983,-0.120838,-0.470336,0.436857,0.330042,-0.043443,-0.231559,0.464599,-0.151204,-0.130482,0.013199,0.286462,-0.111499,-0.287011,0.159566,0.123707,-0.372036,-0.499268,0.498535,-0.161916,-0.222739,-0.283563,0.237785,0.330531,-0.438017,0.398495,-0.383969,0.322748,0.002853,0.426817,-0.332087,0.188223,0.048387,0.249077,-0.329890,-0.262322,-0.157064,0.202414,-0.199026,0.366482,-0.089862,0.087573,0.043748,0.469024,-0.466094,0.150655,-0.134480,-0.472686,0.118183,0.129841,-0.297418,-0.220206,-0.194144,-0.477447,-0.215995,-0.124165,0.139332,-0.270379,0.323908,0.423582,0.042833,0.232536,-0.385586,-0.163991,-0.091327,0.460417,0.050340,0.382504,0.067919,-0.497528,-0.383633,-0.148549,0.427366,0.322626,-0.131092,-0.269402,-0.446501,-0.368191,-0.057237,0.311213,-0.014725,0.075610,-0.385067,-0.377865,0.056352,-0.108386,-0.043962,-0.399472,0.008621,-0.305414,-0.399106,0.404874,-0.322199,-0.455718,0.169668,0.276788,-0.467376,-0.047136,-0.129658,-0.141743,0.348872,-0.011826,-0.185507,0.369930,0.299188,0.128681,0.076800,-0.443144,-0.259545,0.026933,0.030229,-0.191458,0.479492,-0.162740,-0.012284,0.358577,-0.201498,0.264245,-0.318232,-0.029313,0.021714,-0.011979,-0.386715,0.017808,-0.095904,-0.376888,-0.199332,0.359371,-0.376308,-0.133625,-0.039506,-0.076006,-0.341304,-0.009293,-0.348567,0.403562,0.330531,0.340907,0.411863,-0.035386,0.294244,-0.012436,0.423124,0.383908,-0.242729,0.195395,-0.270623,-0.486328,-0.291711,-0.137684,-0.454527,0.483581,-0.063372,-0.414304,-0.316370,-0.455107,0.124287,-0.488769,-0.369289,-0.036088,-0.208548,-0.377987,0.307367,-0.130024,0.376553,-0.377346,0.039537,0.465331,0.232597,0.075793,-0.225364,-0.498047,-0.179434,-0.053423,0.072771,0.433012,-0.118549,0.211692,-0.095355,0.143452,-0.131947,-0.310907,-0.212363,-0.332240,0.417692,-0.255303,0.290643,-0.200156,0.147237,0.032182,0.439421,0.001785,-0.448241,-0.077746,0.053758,-0.482208,0.287835,-0.222129,-0.452574,0.099384,-0.377224,-0.268975,0.222098,0.248283,0.331385,0.118091,-0.413144,0.382839,-0.179037,0.229240,-0.265557,-0.165029,-0.233726,-0.471038,0.304987,0.083087,0.035447,0.003403,0.069323,0.127644,0.188009,-0.209403,-0.337550,0.415647,0.326807,-0.249321,0.498779,0.220176,-0.415799,0.131336,0.399960,-0.118763,0.024796,0.187826,0.076525,0.460326,-0.224387,0.325556,0.000168,0.067156,-0.098376,-0.132191,0.333399,0.025376,-0.360317,0.356227,0.137318,-0.324671,-0.102893,-0.215781,-0.214530,0.334529,-0.092547,0.393155,0.228416,-0.371731,-0.136555,-0.101886,-0.059801,-0.224387,-0.315241,0.310236,0.077624,0.236259,-0.298303,0.010208,-0.116260,-0.374691,-0.463897,0.230522,-0.133412,0.301904,-0.039018,-0.398068,-0.215171,-0.462554,0.019669,-0.079302,-0.029008,-0.329066,0.186178,-0.207327,0.023911,0.156117,-0.152364,0.310724,0.401822,-0.092029,-0.109485,0.421567,-0.053301,-0.145924,-0.328730,0.138203,-0.128162,0.097247,0.153310,0.254601,0.243370,-0.404019,0.491058,-0.281884,0.487152,-0.231559,-0.157460,0.316797,-0.047624,-0.073260,-0.308161,-0.162832,-0.228416,-0.417753,0.077258,-0.449034,-0.465667,0.028428,-0.259423,-0.059679,0.074053,-0.250908,0.170522,0.040819,0.103809,0.160176,-0.046251,0.088824,0.424894,-0.172842,-0.013779,0.119678,0.261742,-0.415281,-0.261162,0.295526,-0.096057,-0.263207,0.282861,-0.046281,0.185568,-0.257469,-0.143452,0.032273,-0.165975,0.295068,0.253990,0.028489,0.219321,0.199149,-0.182760,0.147023,-0.465453,-0.046251,0.313593,-0.206412,-0.059984,0.446043,0.478515,0.070849,-0.299432,-0.337123,-0.493927,0.432127,-0.150807,-0.173666,0.267876,0.149983,0.406613,-0.141011,-0.458464,-0.244804,-0.310846,-0.414274,0.030503,0.102863,-0.264336,-0.421751,0.455901,0.221580,0.384579,0.048082,-0.498169,-0.397855,0.033036,-0.305109,-0.104053,0.082080,-0.391385,-0.083758,0.405240,-0.018235,-0.214713,0.284478,0.029710,-0.350826,-0.025315,-0.302057,0.174520,0.068865,0.124104,0.112049,0.081439,-0.308405,-0.147542,0.256523,0.301874,0.141041,-0.044786,0.245567,0.491760,-0.046342,-0.190298,0.486602,0.310266,0.008072,-0.287713,-0.205893,-0.297021,-0.200003,-0.321711,0.115009,0.351314,0.219260,-0.264092,-0.228751,-0.430906,-0.015000,0.245872,-0.373470,0.427763,0.395260,0.277398,0.083117,0.391049,-0.452666,-0.427824,0.314661,0.241142,-0.314875,0.127705,-0.358058,-0.423307,-0.170492,-0.069536,0.457335,-0.335383,0.348476,-0.128590,-0.395840,-0.073656,-0.377560,0.373836,-0.382229,-0.159505,0.462340,-0.234428,-0.266198,-0.457549,0.434935,-0.073290,0.070391,-0.097186,-0.246635,0.243645,-0.109363,0.365139,-0.111896,0.401334,0.351253,0.325190,-0.445280,0.044359,-0.356380,0.332118,0.235160,-0.161092,-0.065844,-0.106708,-0.111805,-0.034318,0.009079,0.163961,0.005753,-0.423673,0.031266,0.302667,-0.328852,0.243645,0.313990,-0.225730,-0.224448,-0.062670,-0.481048,0.381222,0.048723,-0.443663,0.184286,0.304773,0.060808,-0.450957,-0.011429,-0.062975],[-0.308161,-0.056383,-0.296136,0.337794,0.283349,-0.077807,0.230888,0.173391,-0.393307,0.424161,0.419950,0.187399,-0.176840,-0.006638,0.074023,0.087207,-0.304224,0.184927,0.495209,-0.435240,-0.145802,0.493072,-0.449309,0.468139,-0.094836,0.144917,-0.082812,0.193625,-0.119098,-0.119770,0.366024,-0.045000,0.056597,-0.375942,0.370724,0.085864,-0.331751,0.457823,-0.181722,0.031480,-0.437712,-0.204093,0.104694,0.186239,0.307978,0.173299,0.397000,0.233177,-0.196158,-0.449126,0.342280,0.141682,-0.090075,-0.455382,0.005295,0.479583,0.136067,0.484710,0.315973,0.195975,-0.081408,-0.288965,-0.192373,-0.468932,-0.484100,0.011490,-0.072100,0.209189,0.054521,-0.391354,-0.297418,-0.428922,-0.243461,-0.397885,0.034898,-0.197714,-0.119465,0.271477,0.420286,-0.086962,0.406003,0.147572,0.358638,-0.373379,-0.006577,0.256981,0.245170,-0.167684,0.251213,0.447111,0.020798,-0.241478,-0.159902,0.197043,0.363796,-0.476531,0.446989,-0.178426,-0.296686,0.218711,0.159108,0.473632,-0.162832,0.182119,0.269768,-0.148183,0.433439,-0.383145,0.047044,0.019608,0.198752,0.211966,0.496612,0.241752,-0.006211,-0.078722,-0.350093,0.244591,-0.323145,-0.443114,0.409116,-0.193289,-0.042222,0.353236,0.479644,0.085559,0.042436,0.158040,0.422300,-0.413144,0.349635,0.406644,0.355342,0.182821,0.081652,-0.464324,0.338496,0.085314,-0.070574,-0.007523,-0.030229,0.180654,-0.306360,0.496429,0.226310,-0.368496,0.103442,-0.291589,0.080798,0.153188,-0.386898,-0.034928,-0.075610,-0.130543,0.459197,0.233268,0.327723,0.155141,-0.242058,-0.058184,0.170614,0.370998,-0.074389,-0.153493,-0.327265,-0.102435,0.201926,-0.415799,0.355617,0.374142,-0.441710,0.072985,0.467345,-0.451262,-0.227592,0.414121,-0.098041,-0.353755,-0.050462,0.452208,0.143696,-0.340205,0.272942,-0.350154,0.268090,0.472533,0.263512,0.433012,-0.468993,0.215629,0.330866,-0.336818,-0.423093,-0.231010,-0.103595,0.393063,-0.202902,-0.189413,-0.129933,-0.438688,-0.129872,0.321039,-0.238273,-0.216605,0.014634,-0.050645,0.208670,-0.105976,-0.013260,0.146565,0.200339,0.398007,0.352565,0.472686,-0.218497,0.485534,0.067309,-0.015732,-0.484497,-0.231834,-0.107440,0.108051,0.487976,0.391690,-0.317499,-0.092944,0.133320,-0.317774,0.070513,0.145711,-0.335505,-0.018082,-0.412595,0.060076,0.387600,-0.169973,-0.257286,0.239219,-0.317621,0.146321,0.100055,-0.475768,-0.069750,-0.427641,-0.122456,0.331324,0.170400,-0.372433,0.105518,0.304407,-0.233757,-0.164357,-0.128437,-0.295251,-0.137654,0.478179,-0.315119,0.442656,-0.086077,0.131306,0.491211,0.158071,0.069781,-0.357845,0.369015,0.256523,-0.309961,-0.299585,0.439024,0.306177,-0.220237,-0.337519,0.017441,-0.297571,-0.380001,-0.216758,-0.454955,0.006455,0.377346,-0.487182,0.322474,-0.136189,-0.026994,0.013657,-0.416501,-0.090686,-0.006699,-0.445341,-0.062181,-0.435514,-0.077929,-0.061266,-0.286279,0.134022,0.476867,-0.380612,0.232780,0.106922,0.329493,-0.336604,-0.452971,0.069506,-0.006821,0.215201,-0.329127,0.135456,0.156606,-0.380306,-0.162191,0.300134,0.246300,-0.140767,-0.185965,-0.375362,0.499268,0.461608,-0.199911,-0.343501,0.326380,-0.465423,-0.048692,-0.007401,0.247887,0.084307,0.048906,0.391202,0.182760,0.272301,0.352748,0.339076,0.372555,-0.231040,0.166707,0.479583,-0.278649,-0.141560,0.148488,-0.191092,-0.166799,0.452086,-0.105335,0.045579,-0.472503,-0.333888,-0.167501,0.080340,0.114856,0.120106,-0.050676,-0.087603,0.213401,-0.387539,0.391598,-0.021867,0.387661,0.328944,0.463775,0.278527,0.390927,0.240776,0.059252,0.211966,0.292138,-0.151570,0.054064,-0.481872,0.269250,-0.072588,-0.305414,0.239647,0.349300,0.432035,-0.489166,0.107288,-0.122517,0.213950,-0.213767,0.255516,-0.004257,-0.288842,0.115467,-0.325648,-0.087603,0.264122,0.081194,0.303583,0.244011,0.214896,-0.418424,0.176046,0.210929,0.445921,-0.161122,-0.484130,-0.032579,-0.485656,-0.378475,0.198111,-0.152058,0.038530,-0.290124,0.475768,-0.189444,0.492401,0.137684,0.381008,-0.141011,0.064531,0.239982,-0.293909,-0.275750,-0.262078,0.038896,-0.029130,-0.412320,0.246666,-0.001083,0.282708,0.125721,0.065691,-0.318110,0.495239,-0.341365,0.090167,0.334468,-0.427610,-0.316218,0.160573,-0.062334,-0.436369,-0.425047,0.089557,-0.248772,0.096606,-0.270989,0.347285,-0.117084,-0.206259,-0.059008,0.060839,-0.085376,-0.480743,0.288903,0.484832,0.116443,-0.138173,0.309839,-0.401608,0.279687,-0.239616,-0.252068,-0.013993,-0.299493,-0.321375,-0.343776,-0.342891,0.345058,0.234306,0.132893,-0.037950,-0.272668,-0.309778,0.473968,0.259423,-0.468230,0.212760,0.022843,0.492065,-0.489563,0.303796,0.498749,0.327204,-0.312555,0.313410,0.084460,0.017502,0.401059,0.438261,0.055651,-0.361080,0.214835,0.112964,0.232017,-0.138112,0.229484,0.200156,0.031999,-0.088275,-0.174062,-0.114429,0.412656,-0.124836,0.371670,-0.315455,0.474883,0.008316,-0.079089,0.466094,0.016526,0.203330,0.440428,-0.099414,-0.186300,0.269097,-0.408170,0.238151,-0.088061,0.182913,-0.398099,-0.177572,-0.291833,-0.030931,0.251854,0.247826,0.105457,0.360530,-0.482940,-0.435087],[-0.093005,0.048173,0.441557,0.027177,-0.362606,-0.092029,-0.315485,0.413877,0.077715,-0.055773,0.029649,0.440764,-0.461058,-0.250755,-0.395077,0.073687,-0.426756,-0.182485,-0.025559,-0.021378,-0.390805,0.084552,0.167989,0.056749,0.470916,-0.005539,-0.396329,0.302179,-0.069567,0.467864,0.309351,-0.237053,-0.050371,-0.198721,0.348750,-0.113117,-0.232383,0.029893,-0.140645,0.033372,0.490326,-0.216361,-0.392178,0.432493,0.338069,0.169637,0.468841,0.372677,0.207785,-0.289575,-0.265557,-0.101978,-0.294183,-0.129322,-0.340297,-0.203116,0.307764,0.202719,0.150563,0.162252,-0.198691,-0.357448,0.000992,0.306116,-0.331050,-0.012375,-0.415098,0.308466,-0.434172,0.087237,0.409482,-0.017930,-0.449950,-0.222709,0.436216,-0.465087,0.221000,0.090472,-0.424528,-0.289178,0.421903,-0.227226,0.261559,-0.310053,-0.336573,-0.361721,-0.486358,-0.469604,-0.075793,-0.207144,0.389676,0.431974,-0.015793,0.258293,0.238792,-0.396573,-0.052019,0.028092,-0.340907,0.014756,0.113330,0.086138,-0.433439,-0.185080,-0.157796,0.419584,0.281640,-0.302423,-0.410611,-0.443083,0.039415,-0.005264,-0.253899,0.122608,-0.162923,-0.382107,0.328242,0.061602,-0.300470,0.478332,-0.055223,-0.004227,0.414884,0.171407,0.170309,-0.062059,0.132405,0.185385,0.232170,-0.369533,-0.147755,0.338740,-0.281671,-0.321039,0.148610,0.235435,0.336909,-0.100818,0.254418,-0.363796,-0.072680,-0.092059,0.413449,0.026933,-0.119953,0.489471,-0.093585,0.165700,-0.379452,-0.231712,-0.343104,-0.110431,0.313929,-0.279748,-0.176107,-0.037675,0.446654,0.052446,0.286767,0.244499,0.441435,-0.016495,0.428953,-0.032975,-0.038469,-0.044206,0.126942,0.389462,0.060808,-0.189688,0.350642,-0.375668,-0.164418,0.455687,0.280816,-0.091113,-0.264977,-0.437437,0.351100,0.105029,0.185568,0.315058,0.119434,-0.290765,-0.313654,-0.250786,0.376186,0.153615,0.031602,-0.288354,0.394803,-0.321131,-0.184072,-0.032304,-0.268822,-0.438841,-0.120594,0.491791,0.478271,-0.026536,-0.151784,0.470397,0.381710,0.262993,0.427183,0.049211,-0.276421,-0.073992,-0.399442,0.355892,0.379421,0.061113,0.397549,-0.170919,-0.044511,-0.417936,0.377834,0.385647,0.412778,-0.027940,0.494842,0.456877,0.082751,-0.140156,0.491699,0.425169,0.482910,0.199545,0.486877,0.492248,-0.163503,0.335383,-0.094562,-0.489563,-0.295679,-0.267968,0.412229,-0.192038,-0.366420,-0.347285,0.003342,-0.460479,0.230796,-0.434568,-0.088000,-0.406156,-0.435240,-0.440916,0.485199,-0.411283,0.305963,-0.449248,-0.312922,-0.014420,-0.491913,-0.435026,0.385922,-0.145894,0.439207,-0.133229,0.080065,0.318751,0.367061,0.229331,0.220023,0.217917,-0.293542,0.117695,-0.217765,0.007584,0.433958,0.069750,0.251152,0.439970,0.176077,0.055773,-0.334284,0.049028,-0.121815,0.097613,-0.113330,-0.026017,0.459319,-0.071001,-0.259484,0.151570,0.359554,-0.021867,0.197104,0.409146,0.386441,0.453734,0.236351,0.489135,-0.233634,-0.184255,-0.439268,-0.463622,-0.192740,0.412412,-0.190115,0.079943,0.078967,-0.435942,0.433164,0.039781,-0.482818,-0.123890,-0.123249,-0.209403,0.357875,0.061083,0.241661,-0.186911,0.307672,0.052324,0.068407,-0.035173,-0.142964,-0.310602,0.404996,-0.098987,0.142262,-0.242485,-0.185629,-0.322596,0.262261,-0.338740,0.477691,0.065661,0.457213,-0.485199,0.049181,-0.386868,0.054277,-0.071123,0.419706,-0.022019,-0.412595,0.276696,0.044298,-0.429289,-0.002762,-0.280633,-0.009140,0.034104,0.317103,-0.227439,0.365383,-0.408414,-0.248161,-0.304895,0.270592,-0.203207,-0.444487,0.481506,-0.045915,-0.286035,-0.386258,-0.261193,0.302118,0.061907,0.137959,0.229881,0.335292,0.351650,0.376705,0.363643,-0.137654,-0.450346,-0.248741,0.413999,-0.051073,0.297876,0.320948,-0.251579,0.356197,0.221183,-0.015122,-0.152272,-0.392788,0.354457,0.326441,0.397855,-0.163930,0.219779,-0.493622,0.235313,0.076556,-0.414640,0.111164,0.427488,0.146626,0.437468,0.362453,0.268792,-0.215384,0.196005,-0.405667,0.474090,0.194052,-0.293725,0.404508,0.350795,-0.347652,0.036729,0.384915,0.230583,0.340815,-0.385189,-0.160390,-0.057787,0.051012,-0.267937,0.394498,-0.393551,-0.075030,-0.050554,-0.093799,-0.465178,-0.115772,0.434446,-0.424039,-0.487304,-0.095050,-0.239128,-0.325159,0.248955,-0.205039,0.203146,-0.213431,0.272149,-0.371151,0.055498,-0.025925,0.056047,0.497681,0.008255,-0.223716,-0.345698,-0.270867,0.111744,0.441099,-0.373531,0.235130,0.359523,0.301019,-0.463988,0.142048,0.421659,-0.302393,-0.197867,0.360744,-0.439817,0.361019,0.186178,0.252220,0.257073,-0.349361,-0.305963,0.045244,-0.413816,-0.436064,0.176046,0.162160,-0.138813,-0.081713,0.405026,0.109058,-0.410398,-0.386532,-0.085559,0.086871,0.264977,0.380398,0.377407,-0.020890,0.028001,-0.077776,-0.192129,-0.126789,-0.271599,-0.145528,0.365658,-0.229087,0.418058,0.350276,0.045701,-0.355373,-0.192892,-0.103473,0.034013,0.495666,-0.285485,0.068346,0.010239,-0.429472,0.043596,-0.273400,0.179220,0.392117,0.314325,-0.453887,0.311975,-0.239097,0.283685,0.279809,-0.422025,0.383816,-0.314905,-0.334437,0.449644,0.285791,-0.381985,0.381985,0.459960,-0.339015,-0.380520],[0.107532,-0.276910,0.445524,0.050401,-0.394955,0.387661,0.113819,-0.027177,0.005478,0.411893,0.179067,-0.080187,0.066332,-0.466460,-0.128010,-0.244835,-0.445860,-0.120563,0.033372,-0.207083,-0.482421,-0.168722,0.434538,0.469787,-0.104907,0.328181,0.495056,0.316401,0.225944,-0.141682,-0.067614,0.133900,-0.254021,0.296564,-0.125568,-0.218528,-0.350429,0.243950,0.465911,0.481780,-0.201315,0.025285,-0.499725,0.049883,-0.339564,0.001419,0.108631,-0.047227,-0.245476,0.351894,0.035783,-0.395444,0.391751,-0.015122,-0.463713,-0.195181,-0.015641,-0.269829,0.420225,-0.274590,-0.289300,0.471557,0.280816,0.352596,-0.186270,0.374905,0.435209,-0.209830,0.316309,-0.131520,-0.391079,0.330744,0.433134,-0.468871,-0.103809,-0.299921,0.461730,-0.455046,0.026383,0.382321,0.432920,-0.131092,0.468902,0.430784,0.302240,-0.210807,0.406705,-0.328059,-0.036210,0.002762,0.110614,-0.292077,-0.132374,-0.109455,-0.254936,-0.375851,-0.478301,0.136128,0.136708,-0.191794,-0.339930,0.346492,-0.462706,-0.213401,0.358180,-0.168996,-0.088092,0.484954,-0.123310,0.194723,-0.216239,-0.181539,-0.484741,-0.097522,0.166921,0.018876,0.257134,0.470031,-0.381802,-0.396420,0.485961,0.438170,-0.060472,0.394070,-0.443693,-0.213523,-0.438292,0.488891,0.499054,-0.057207,0.141346,-0.401486,-0.357845,0.044420,0.401669,-0.352535,0.429624,-0.392239,-0.251091,0.050157,0.218101,0.262444,-0.304590,-0.432890,0.333918,-0.294305,-0.379696,0.147420,0.170766,-0.465575,-0.100391,-0.336512,-0.390347,0.109851,-0.063494,-0.054888,-0.457335,0.111744,0.123615,0.018265,-0.218863,-0.061296,0.267724,-0.044725,0.129994,-0.390072,-0.491180,0.242668,-0.090594,0.325587,0.264824,0.072771,-0.295068,0.341151,0.232322,0.465484,-0.372646,0.313044,-0.024155,-0.373775,-0.136341,-0.229179,0.135884,0.446623,-0.199942,-0.127461,-0.212668,-0.446196,0.498810,0.099963,-0.020188,-0.184835,-0.190359,0.048906,-0.009354,-0.296106,-0.102802,-0.027970,0.322016,0.432768,0.465728,0.229728,-0.026444,0.261010,0.462432,0.305109,0.021653,-0.118091,-0.459624,-0.459838,0.036515,0.296380,0.062639,0.248711,0.368313,0.079180,-0.071581,0.362300,-0.165975,0.443999,0.003067,0.266045,-0.164357,0.013535,0.432463,-0.020310,0.441313,-0.298853,-0.376278,0.340938,0.460570,-0.390378,0.173055,0.346889,0.045305,0.354396,-0.477905,0.309839,-0.153127,-0.283929,-0.376003,-0.016007,0.261467,0.030168,0.400784,0.318934,-0.205618,0.218650,0.272393,-0.003677,0.074938,-0.129261,-0.459929,0.406125,-0.447325,0.278741,-0.096271,0.218619,0.406980,-0.165120,-0.104236,0.208029,-0.299890,-0.303613,-0.487884,0.484863,0.306482,0.123646,-0.178335,-0.207907,-0.352321,0.398923,-0.164480,0.022721,-0.233757,-0.268822,0.417356,-0.386410,-0.232109,0.053758,-0.484222,-0.026933,0.164541,0.120533,-0.499298,-0.402402,0.148762,-0.192770,-0.116169,0.034471,0.331294,0.024369,0.205771,0.346095,-0.027421,0.147359,0.369869,0.232810,0.239708,0.370815,0.205161,0.469970,-0.480010,-0.107471,-0.461577,-0.184255,0.322565,0.334223,-0.442106,0.046037,-0.201163,0.304498,-0.251305,0.272301,0.413663,-0.489135,0.182089,0.199118,-0.202109,0.326838,0.439482,0.477325,0.314112,0.219962,-0.047655,-0.190970,0.366085,-0.051866,0.039506,-0.038926,-0.016037,-0.070879,0.422788,0.342616,-0.283929,-0.309656,-0.497497,0.303735,0.358425,-0.194693,0.174306,-0.189230,-0.446562,0.222037,0.467467,-0.345027,-0.210715,0.390774,-0.212424,-0.149464,-0.169546,0.096576,0.043535,0.378445,0.111530,0.403439,0.440550,-0.067949,0.124958,-0.384426,0.220511,-0.178762,0.334376,-0.336940,0.131031,-0.309381,-0.355708,-0.182913,-0.096179,0.208640,-0.042009,0.141865,-0.475463,0.383724,-0.145741,-0.411130,-0.425382,-0.336634,-0.085192,0.140217,0.426817,0.473083,-0.266991,-0.093249,-0.424863,0.350429,0.135884,-0.412351,-0.118580,0.331660,-0.350124,0.197775,0.018601,-0.253777,-0.257653,0.468413,-0.107318,0.075732,-0.130604,-0.171407,0.324610,0.033616,-0.138203,0.372341,-0.227042,-0.478118,-0.319971,-0.281274,0.379116,-0.379025,0.069689,0.170705,0.115619,0.269066,0.148396,0.078875,0.319727,-0.213004,0.455840,-0.183157,0.392514,-0.094501,0.497772,0.274041,-0.054277,0.450133,0.315607,0.272149,0.176717,0.340999,0.112293,-0.187979,-0.246635,0.063097,0.466582,-0.443388,-0.009903,0.263665,0.165792,0.456603,-0.404080,-0.367519,0.189779,-0.075213,-0.223838,-0.277886,-0.124378,0.465728,-0.031114,-0.136738,-0.203848,0.166463,-0.002579,-0.167440,0.381710,-0.045000,-0.079913,0.428282,-0.182028,0.032548,0.358364,-0.389370,0.250237,0.385830,-0.415098,0.362758,-0.174764,-0.214255,0.152791,-0.071429,-0.397244,0.178640,0.346461,-0.416074,-0.132954,-0.123646,0.236808,-0.402799,-0.129902,0.451384,-0.379421,-0.464476,-0.462004,-0.256829,-0.373867,-0.426969,0.171102,-0.117481,0.266198,-0.042711,-0.330287,-0.260918,-0.280877,0.290185,0.316614,-0.300378,-0.379727,-0.220511,-0.352931,0.182028,0.144063,0.117481,0.438505,-0.207633,0.158284,0.142506,0.349818,-0.469451,0.232139,-0.059557,0.243339,-0.048936,-0.221061,-0.458678,-0.281304,-0.315088,0.114826,-0.131611],[-0.190939,0.384823,-0.275506,-0.052812,0.412564,0.446745,0.066424,-0.498871,0.434355,0.066729,-0.058489,0.297601,-0.100970,-0.246757,-0.287561,0.276696,-0.263482,-0.034776,-0.243278,-0.457366,0.423795,0.403043,0.079180,0.263176,0.411344,0.354366,0.399442,0.031907,0.160909,0.205893,-0.258690,-0.275018,-0.299219,0.402585,-0.319361,0.383084,0.104938,-0.364772,-0.092639,0.149800,-0.197897,-0.462218,0.258232,-0.201559,0.121601,-0.324122,-0.123188,-0.122608,-0.018967,0.107379,-0.343684,0.006302,0.123615,0.296655,-0.377895,0.353694,-0.190023,-0.336543,0.409940,-0.172597,0.371548,-0.451994,0.495788,0.009537,-0.468535,-0.126911,0.334498,0.366298,-0.100543,0.284814,0.062273,-0.235252,-0.453612,0.053240,-0.079669,-0.172384,0.065752,-0.486236,0.055162,0.156880,0.027146,0.331111,-0.147755,-0.042131,0.228965,0.366329,0.459136,0.095202,-0.343959,0.429228,-0.345912,0.111377,-0.451476,-0.303827,-0.283044,0.239586,0.488617,0.075671,0.458129,-0.058031,-0.089373,0.301996,0.061663,0.004440,-0.058214,0.039079,-0.100299,-0.280602,-0.021195,-0.225028,-0.026688,0.187643,-0.092700,-0.211051,0.136799,0.270592,0.369930,-0.028306,-0.238670,0.224265,-0.010208,-0.219260,-0.005539,-0.453917,-0.045152,0.111530,0.271386,0.065752,-0.129749,0.366024,0.234428,-0.188406,0.284234,0.499512,-0.282708,-0.316401,-0.205741,0.327601,-0.050462,0.464232,0.139393,-0.126179,-0.361629,0.198416,0.185232,0.039781,0.083422,0.474029,0.207907,0.378628,-0.018845,-0.366298,0.382748,0.253410,0.074877,0.450194,-0.115375,0.161519,0.306665,0.294916,-0.494263,-0.493927,-0.372463,0.332789,0.197256,-0.403653,0.122211,-0.226859,0.440947,0.157338,-0.395718,-0.291162,-0.142781,0.130848,0.338649,-0.425748,-0.044053,0.048662,0.046861,-0.246086,0.435545,-0.240806,-0.147755,0.372646,-0.062304,-0.211112,0.320368,-0.201468,-0.336695,0.119770,0.251793,-0.109760,-0.244316,-0.335871,0.382809,-0.480560,-0.142079,0.217765,-0.349361,0.400296,-0.249809,0.173055,0.179586,-0.243797,0.473479,-0.227165,-0.356319,-0.143605,-0.154378,0.186972,0.163106,-0.047594,-0.223350,0.191824,0.389462,-0.353664,0.288720,-0.264916,-0.062792,0.222221,-0.352351,0.166280,-0.183004,-0.028916,-0.488037,0.414609,0.026841,0.041795,-0.494232,-0.104755,-0.041856,-0.151540,0.121754,0.425779,-0.227622,-0.434477,0.360378,-0.067095,0.404416,-0.257653,0.011734,0.232261,0.349391,-0.432310,-0.013596,-0.338893,-0.111072,-0.183584,-0.398953,-0.153829,-0.087024,0.008621,0.225517,0.387234,-0.006302,-0.186911,0.197623,-0.261834,-0.132527,0.226218,0.411557,0.066576,-0.018509,-0.442656,0.486511,0.372799,0.260826,-0.247642,-0.078509,-0.349696,-0.247215,0.085894,0.143025,0.368404,0.304193,-0.245628,-0.148824,0.057939,-0.071917,0.400693,-0.428770,0.282495,0.016495,0.101306,-0.183859,-0.225028,0.054643,-0.151875,-0.232963,0.021867,-0.006119,0.055345,-0.122761,0.075701,-0.061357,0.122974,0.306574,-0.122394,0.304376,-0.411618,-0.408322,-0.129383,0.102252,-0.103015,0.459471,0.185446,-0.492767,0.323237,0.188620,0.179403,0.365596,0.073168,0.427061,-0.389279,-0.202261,0.100146,-0.130055,0.228294,-0.446257,-0.335627,-0.294244,0.058855,0.276391,0.168172,0.236137,0.172872,0.328913,0.297449,-0.424619,0.210013,0.343684,0.001572,-0.162984,0.445677,0.147328,0.341975,-0.287774,-0.320276,0.219596,-0.258721,-0.152455,-0.271111,0.341273,-0.335780,-0.072466,-0.196188,-0.411954,0.261223,-0.131397,-0.447966,0.326228,0.006180,0.030717,0.048601,0.366573,-0.140217,-0.147328,-0.485443,-0.067186,-0.010758,-0.182394,0.046007,-0.399350,-0.423856,0.154775,0.133473,-0.136189,-0.256737,0.183859,0.253868,0.483398,0.131825,-0.291864,0.316034,0.276330,0.160451,0.363002,0.240867,0.500000,0.496948,0.325098,0.457488,0.488556,-0.225822,0.289941,-0.403195,-0.302667,0.081652,0.122669,0.163594,-0.187918,0.263085,0.089160,0.467925,0.078478,-0.447386,0.073534,-0.401669,-0.491150,-0.420316,-0.312006,-0.283319,0.122150,0.274438,-0.318232,0.456664,-0.126911,-0.295373,-0.445097,-0.292749,0.427366,0.375851,-0.216453,-0.438047,0.438414,0.025285,-0.437254,-0.284509,0.482818,0.441404,0.473083,0.088885,0.309809,0.339900,-0.022813,-0.035752,-0.438414,-0.172292,0.153096,0.410886,-0.379238,0.486267,-0.430326,0.283288,-0.259362,-0.395169,-0.288965,-0.427091,0.115284,-0.404172,-0.143910,0.394681,0.045152,0.122822,-0.180502,0.389218,-0.145253,-0.027390,0.459868,-0.177175,-0.281701,0.202994,0.362148,0.165700,0.050188,-0.403165,-0.399930,0.429746,-0.384335,-0.045640,-0.015458,0.047807,0.019120,0.254204,-0.294916,-0.425047,-0.275201,0.215140,-0.230186,-0.006821,0.267754,0.289453,0.150624,-0.098987,-0.190268,-0.381039,0.039537,0.369167,-0.302210,-0.014451,0.122974,-0.256706,0.180471,0.286554,0.279443,0.175527,-0.061266,-0.432554,-0.392514,0.165456,-0.412381,0.141865,0.190207,-0.107715,-0.195273,-0.168996,-0.498291,-0.380642,0.241935,-0.146413,-0.136738,-0.047960,-0.123402,0.396969,-0.146290,0.230430,-0.041398,0.401669,0.081652,-0.162069,0.209006,-0.410306,0.225272,-0.292413,0.427152,0.268548,-0.254357,-0.193869],[0.112171,-0.435026,-0.092730,0.279839,0.255638,0.423612,0.233543,0.359706,0.320521,-0.101703,-0.149709,0.240440,-0.075274,0.027757,-0.409604,-0.230705,-0.313776,-0.088092,-0.206717,-0.489410,-0.335536,-0.384976,0.038072,-0.088946,0.467009,-0.028916,0.352687,-0.202567,0.381588,0.312799,-0.348476,0.188803,-0.435484,0.030869,-0.317164,-0.420866,-0.182577,0.369564,0.267174,0.347346,-0.017350,0.364772,0.107837,0.450133,0.489410,0.330897,-0.044633,-0.261650,-0.067125,0.146748,-0.302210,0.370418,0.163717,0.484771,-0.484008,-0.352351,0.450957,0.322962,-0.268151,0.318567,-0.046312,-0.143666,0.243309,-0.259514,-0.054064,-0.275780,0.248070,0.473144,-0.209555,0.214011,0.257530,0.361843,0.312708,0.263787,-0.286187,-0.189016,-0.393216,0.169820,0.492157,0.402615,-0.195944,0.405759,0.068712,-0.482910,-0.164022,0.458953,-0.363857,0.112323,-0.277703,0.090930,-0.052629,0.316706,0.415891,-0.072039,0.169179,-0.006455,-0.264489,-0.212363,-0.473052,-0.067980,0.417753,-0.351680,0.021592,-0.178610,-0.180898,-0.332606,-0.000076,-0.335322,0.300165,0.154408,-0.140156,-0.211875,-0.177877,-0.094256,-0.328364,0.102496,-0.212027,-0.193167,-0.003586,-0.227378,-0.341365,0.108051,-0.316950,-0.048448,0.376125,0.280908,-0.074938,-0.265007,0.124226,-0.139698,0.358303,-0.006729,0.458678,0.179678,0.481048,0.235984,0.337336,0.404782,0.177450,0.166463,0.082537,-0.227561,-0.373928,0.081622,-0.194327,0.440977,0.374081,-0.225791,0.326563,-0.142170,-0.141255,0.092730,0.117664,0.051317,0.157918,-0.183859,0.305383,-0.247765,0.249535,-0.000687,0.258843,-0.248070,-0.437346,0.445219,-0.201804,0.403012,0.100848,0.460387,-0.446867,-0.331538,-0.081530,-0.450072,-0.497070,-0.373318,0.232475,0.208182,0.229575,-0.163167,-0.050401,0.461272,-0.085131,0.472533,-0.108600,0.317927,-0.386746,-0.371059,0.497223,-0.215262,-0.169210,-0.289605,0.287317,-0.397824,-0.057726,0.303705,-0.133106,0.357448,0.477660,0.444487,-0.247581,0.130543,-0.191397,-0.317591,-0.198599,0.330042,0.266747,-0.148793,-0.473113,-0.125935,0.224876,-0.049974,0.078234,0.373867,0.172353,0.042711,0.168813,0.474883,0.315638,-0.419523,-0.267602,0.012864,-0.264183,0.055071,-0.410581,0.140492,-0.366207,0.387844,-0.095996,0.080737,-0.305506,-0.038347,-0.286676,-0.336299,0.101978,-0.298273,0.310816,0.302881,0.235466,0.111255,-0.236473,-0.433134,-0.421049,-0.331507,0.346156,0.003403,-0.125446,0.491546,0.171682,0.371395,0.051164,-0.323328,-0.198721,-0.062731,-0.039781,0.217154,0.113208,-0.007553,0.448882,-0.092090,0.213279,0.247246,-0.197470,0.143208,-0.332575,0.258415,0.087817,0.012772,-0.162404,-0.454131,0.427000,-0.396634,-0.397214,-0.444670,-0.264550,-0.088580,0.245720,0.122669,-0.046617,0.273309,-0.213004,-0.403378,0.302545,-0.280541,-0.452239,0.276025,-0.400113,0.158773,0.222129,0.317469,0.159261,-0.201224,0.240349,-0.229759,0.311762,-0.290918,-0.295251,-0.105701,0.076922,-0.066820,-0.321101,0.417661,0.015336,0.055345,0.111316,-0.110462,-0.205802,-0.370754,0.175680,-0.214438,0.497040,0.373653,0.307978,-0.479064,0.208640,-0.457823,-0.277825,0.028306,-0.092975,0.373379,-0.314051,0.056169,0.192892,0.026505,0.336940,-0.155690,-0.111621,-0.089404,0.321711,0.332423,0.036332,-0.188192,0.038041,-0.441923,0.330866,-0.273797,-0.238029,0.400784,-0.488708,-0.196341,0.440947,0.327296,-0.250206,0.309381,0.434049,0.295923,-0.435362,0.009293,-0.018998,0.474731,0.290094,-0.114429,-0.319239,-0.069445,-0.365993,-0.411649,-0.238853,-0.054674,0.355007,-0.469909,0.420866,0.114978,-0.410703,0.028825,0.024674,-0.111621,-0.139882,0.406278,0.433988,-0.298425,0.299097,0.447630,0.252709,0.364345,0.112384,0.128620,0.270959,-0.145558,-0.177999,0.016556,-0.113086,0.176962,0.313776,0.251335,-0.211234,0.443785,0.223136,-0.487060,-0.322687,-0.169668,-0.309717,-0.118580,0.311029,-0.434507,0.015458,-0.004440,-0.345332,-0.389126,0.245964,0.417020,0.412687,0.185812,0.226218,-0.394711,-0.271630,-0.205618,0.141652,0.410733,0.330653,-0.089373,0.088366,0.490967,-0.091021,-0.021897,-0.301019,-0.442228,-0.001419,-0.119770,0.356960,-0.139943,0.155934,-0.462340,0.029283,-0.190573,-0.292718,-0.211325,0.250511,0.154683,-0.149892,0.209220,0.287439,-0.388760,0.389767,0.028428,0.017472,0.352138,-0.108356,-0.203604,-0.449278,0.266259,-0.468688,-0.040178,0.127613,0.390774,0.422452,0.002365,0.323023,0.423337,-0.295129,0.305628,0.088427,-0.279229,0.173849,0.386929,-0.336726,-0.309565,-0.269005,-0.329463,-0.113483,-0.019944,0.439421,0.448332,-0.060167,0.373012,0.463073,0.185812,0.054003,-0.205191,-0.327540,-0.169424,0.209037,0.337062,0.197470,0.278649,0.359981,-0.294549,-0.291284,-0.344691,0.219230,-0.002396,-0.291253,-0.433164,0.126850,0.217399,-0.385922,-0.021104,0.039781,0.431883,-0.090228,-0.121723,0.171804,-0.023209,0.157155,0.374325,0.314783,-0.382443,0.136799,0.395444,0.373165,0.071276,-0.093036,-0.361629,0.142140,-0.203726,0.059801,-0.075060,-0.138203,0.455840,-0.044359,-0.376308,-0.422666,-0.038438,0.217460,0.292108,-0.162374,-0.496521,0.266015,0.195700,-0.237510,0.472442],[0.343745,-0.121357,0.490265,-0.355770,0.314570,-0.319941,-0.208548,0.321375,0.176168,-0.331507,0.350734,0.337672,0.242515,-0.468047,0.348201,0.255272,-0.262169,0.365810,-0.306177,0.257164,-0.124470,-0.256676,-0.472655,-0.155477,-0.109210,0.242546,-0.236106,-0.174917,0.200644,-0.408536,-0.217887,-0.125996,-0.153310,-0.035478,-0.338862,0.447783,-0.122242,0.459807,-0.127522,0.333369,-0.171987,0.289972,-0.166433,-0.386868,-0.053087,-0.283349,0.228477,0.327113,0.337733,0.260887,-0.497253,-0.386471,-0.339930,0.219382,0.438383,-0.390316,-0.446379,0.019547,0.214652,-0.106800,0.438322,0.442991,-0.137837,-0.254112,-0.151967,0.249809,-0.484771,0.021104,-0.046220,0.234275,0.369686,-0.104266,0.432310,0.243583,-0.248466,0.288415,0.336818,0.190603,0.203909,0.224723,0.126148,-0.407834,-0.002884,-0.068743,-0.492157,-0.336085,-0.030717,-0.060961,0.252495,-0.497162,0.103076,-0.021592,-0.365474,0.389523,-0.254997,-0.054308,-0.343257,-0.260002,-0.126240,-0.276116,-0.286248,-0.259972,0.323298,0.137623,-0.148488,0.191733,0.367550,-0.175405,0.278680,-0.395596,-0.427427,0.303888,0.286004,0.061174,0.322626,0.023057,0.230644,-0.108356,-0.074023,-0.335170,-0.259453,-0.317011,-0.292291,0.494995,-0.203574,-0.340205,-0.005600,0.032212,-0.153706,-0.035325,0.398038,-0.178060,-0.389920,-0.130024,0.304895,-0.405576,-0.270470,0.453032,-0.024216,-0.410855,-0.079852,-0.235038,0.163900,0.326563,-0.218589,0.025468,-0.343715,-0.392087,-0.078570,-0.126484,-0.354366,0.335292,0.306909,-0.043809,-0.282525,-0.260887,-0.041612,0.346065,-0.147053,0.404080,-0.209281,0.244621,0.339595,0.289605,0.419858,-0.466918,-0.153127,-0.051469,0.004410,-0.215049,0.006363,-0.070116,0.065600,0.431181,0.041307,-0.484436,0.402921,-0.361843,0.257561,-0.127400,-0.238273,-0.069842,0.301843,-0.096942,0.409085,0.086535,-0.405911,-0.427854,0.273919,0.346278,-0.160176,-0.003647,-0.191855,0.450011,0.028672,0.072405,0.224418,-0.448882,-0.174245,-0.071459,0.267388,-0.472350,-0.238365,-0.020615,0.174093,-0.274560,0.127552,-0.134510,-0.019547,-0.335810,-0.018265,0.058947,-0.170644,-0.261925,0.173696,0.416135,0.437132,0.441191,-0.208151,0.459288,0.374386,0.149983,-0.058306,-0.332545,0.317682,-0.006485,0.259941,-0.441221,-0.072039,-0.157125,0.071337,-0.155141,-0.487548,-0.049120,-0.405454,0.438627,0.125690,0.273492,0.102802,-0.402921,0.266503,0.004105,0.445952,-0.019761,-0.173147,0.352138,-0.159841,-0.093371,0.448912,0.096606,0.331538,-0.411740,-0.053484,-0.053179,-0.160512,-0.375362,-0.052538,0.240684,0.186911,-0.461913,0.412595,0.012162,0.022324,-0.368709,0.188223,-0.040849,0.041490,-0.051622,0.247856,0.019059,0.413694,-0.379238,-0.220115,0.351497,-0.180624,0.378933,-0.223075,-0.045885,0.005631,-0.488495,0.283532,-0.214591,0.265099,0.053117,-0.041643,0.082781,-0.254631,0.481475,0.106952,0.213218,-0.005600,-0.294183,-0.158376,-0.181082,-0.351344,-0.372066,-0.475707,0.113239,-0.329981,0.055864,0.149190,0.358455,0.037919,0.253136,-0.179342,0.056169,0.302484,-0.096332,-0.016465,-0.117786,-0.094348,-0.225974,-0.438658,-0.103473,-0.324183,-0.145924,-0.340846,0.060045,0.402737,0.257622,-0.013199,-0.410916,-0.101489,-0.336146,-0.340388,0.179464,0.451598,-0.418882,-0.468230,-0.369808,0.079089,0.214408,-0.280419,-0.100269,0.484558,0.217124,0.470092,0.124287,0.126942,0.109455,0.031877,-0.369198,0.307123,-0.356441,-0.315973,0.475188,-0.321772,-0.102374,-0.420560,-0.462981,0.086230,0.379208,-0.441038,-0.297449,0.146565,-0.079821,-0.407590,0.166250,0.463591,-0.356532,0.002853,0.383358,-0.101245,-0.216361,0.130207,-0.296380,-0.206137,-0.358150,-0.409268,0.218192,-0.444304,0.457427,-0.211600,-0.149464,-0.491913,0.475921,-0.165639,0.222739,0.418058,-0.003494,-0.469024,0.328516,-0.398221,-0.321528,-0.423429,-0.455962,0.017075,-0.110858,-0.352901,0.008103,0.248375,0.373836,-0.489013,-0.097797,-0.209555,0.029405,-0.166585,-0.337123,-0.462584,0.062792,-0.173574,-0.343532,-0.117054,0.314997,0.400876,0.348262,0.337947,0.033006,-0.023515,0.496857,0.072283,-0.130299,-0.393216,0.405362,0.286554,0.393948,-0.425932,-0.239677,-0.180105,-0.108722,0.112049,0.089984,-0.099078,-0.262810,0.410978,0.372585,0.446776,0.123890,-0.437132,-0.173391,-0.182028,0.421537,-0.397824,0.414029,0.434111,-0.044115,0.298151,0.087115,0.157216,0.483032,-0.144215,0.311457,-0.150838,0.142506,0.181143,-0.105213,0.008896,0.170400,-0.132832,-0.345637,-0.103900,0.153401,-0.443266,-0.046800,0.047411,0.104999,-0.161275,-0.363552,-0.408383,0.145375,0.333491,0.400143,0.269585,0.065966,0.124317,0.121876,-0.434141,-0.440001,0.190512,0.186514,-0.142201,0.400479,-0.001175,0.336726,-0.011765,0.346370,-0.090472,0.080279,0.168538,0.058885,-0.447295,0.185415,-0.382046,-0.191427,-0.167898,0.295221,-0.154622,0.254784,-0.288476,0.192221,-0.019913,0.078539,0.441404,-0.254997,0.057482,-0.249748,0.380367,0.067431,-0.333796,0.213553,0.069353,-0.077929,-0.137196,-0.233940,-0.286492,-0.100970,-0.239799,-0.080950,-0.271264,0.401486,-0.303644,-0.483398,-0.491058,-0.031083,0.389065,-0.103900,0.070147,-0.030229],[-0.197439,0.041337,0.156941,-0.334346,-0.244163,-0.310266,-0.288446,0.364589,0.183218,0.095050,-0.345576,0.397702,0.485321,0.025590,0.229087,-0.056017,-0.071764,-0.226402,-0.212119,-0.240654,0.305475,0.275536,0.070879,0.475860,-0.335414,0.056963,-0.004196,0.356319,-0.331202,0.273370,0.161245,-0.089831,0.374386,-0.497406,0.093799,0.276818,-0.294733,0.445891,-0.229331,-0.217032,0.406552,0.192709,0.448943,-0.420133,-0.242759,0.207236,0.332484,-0.232902,-0.175497,-0.309168,0.108509,-0.091327,-0.460173,0.478576,-0.116016,0.348109,0.378842,0.124317,-0.445952,0.228690,-0.074053,0.332484,0.133168,-0.375179,0.104846,0.390957,0.080279,-0.308863,0.356502,-0.237388,0.149831,0.235374,-0.454680,0.491302,-0.201163,-0.378780,-0.124409,-0.421812,-0.317774,0.407804,-0.401791,-0.014389,0.267296,-0.368709,-0.209433,0.423521,0.098285,0.135884,-0.010880,-0.424192,-0.256951,-0.140767,-0.042711,-0.077624,-0.047868,0.479949,0.369137,-0.187368,0.062304,0.331782,-0.309809,-0.052110,0.175436,-0.007401,0.037339,0.222709,-0.334040,-0.181997,-0.019669,-0.090930,-0.437162,-0.279412,0.073077,0.489074,0.468963,0.402066,-0.184103,-0.059801,-0.046587,-0.196188,-0.062487,-0.083178,0.032487,0.440367,-0.294244,-0.317774,0.215384,0.385861,-0.408200,0.241356,-0.267876,-0.283654,-0.430845,-0.431394,0.474120,-0.186911,-0.171438,-0.411557,-0.321497,0.433500,0.190329,0.063219,-0.111194,-0.044359,-0.005142,0.046159,0.221091,-0.296472,-0.246574,0.054796,0.468932,-0.242180,0.339595,-0.378628,0.077074,0.159871,0.002915,0.376583,-0.484497,-0.085894,-0.013596,0.322321,0.085437,-0.304224,0.028459,0.450835,-0.312311,-0.330134,-0.468871,0.365169,-0.414243,0.327723,-0.324671,0.058275,-0.306055,-0.252800,0.264702,-0.493713,0.422178,0.183523,-0.420682,0.232749,-0.391293,0.395627,0.020463,0.499390,-0.427885,-0.384182,-0.172811,0.280602,-0.186453,-0.432127,-0.352870,-0.322871,0.400540,0.440275,0.241539,-0.074664,-0.436216,0.220817,0.106372,-0.341334,-0.461638,0.298791,0.291101,-0.422880,0.179769,-0.258995,0.195334,0.181356,0.386959,0.147877,-0.374111,-0.272759,-0.136738,0.495727,-0.105609,0.057817,0.246483,-0.128132,0.237419,0.467803,0.139027,-0.491516,0.339930,0.258141,0.070208,0.021317,0.243706,0.135975,-0.078997,0.260063,0.421720,0.116657,-0.156819,-0.323939,0.299554,0.083850,0.203848,-0.385922,0.005753,-0.335780,-0.413694,0.433805,-0.368404,-0.427244,0.379330,-0.132038,-0.217978,0.085070,-0.014939,-0.476959,-0.301325,-0.207114,0.177725,-0.071429,-0.263176,0.298975,-0.356441,0.041704,0.476684,0.007767,0.234153,-0.386959,0.250786,-0.331935,-0.036607,0.320185,0.368954,-0.176199,0.280145,0.074664,-0.178762,-0.170766,-0.352504,0.409665,-0.258721,-0.415098,-0.040147,0.353420,0.410092,-0.349269,-0.170797,-0.304468,0.082324,-0.108112,0.271661,0.052019,0.416288,0.314539,-0.174062,-0.364528,-0.211692,0.247032,-0.365627,0.136555,0.273583,-0.476836,-0.481689,-0.377102,-0.426298,-0.176351,-0.421201,-0.137745,-0.326746,-0.168111,0.353969,-0.024857,-0.494049,0.360683,0.064104,-0.175619,0.411679,0.105609,-0.023637,0.046800,-0.334101,0.182028,0.419187,0.133961,-0.137196,0.100970,0.478912,0.467925,0.432829,0.341304,-0.090991,-0.281610,0.076281,0.173360,0.283654,-0.492615,0.394589,-0.108783,-0.073717,-0.252403,0.499603,0.108966,-0.354671,-0.438841,-0.117145,0.278161,-0.192465,0.184469,0.326075,0.081805,-0.219718,-0.234428,0.133290,-0.138234,0.274773,0.460753,0.467376,-0.264336,-0.379788,-0.264458,0.070544,-0.440641,-0.498352,0.277886,0.151265,0.391385,0.191244,0.427976,-0.281487,-0.384426,-0.194815,-0.467284,0.144154,0.378506,-0.382351,0.129872,0.235557,0.496857,-0.038133,0.368435,-0.401181,0.492615,-0.248955,-0.428159,-0.425443,-0.089129,0.149251,0.350002,-0.472961,-0.422697,0.424039,0.166189,-0.231864,-0.048692,-0.487823,-0.234672,-0.102741,0.231162,0.329218,0.370235,-0.161306,0.367183,0.354518,0.050890,0.357265,-0.360317,-0.476959,0.174673,0.333827,-0.042619,-0.044877,0.342372,-0.418241,-0.467376,-0.445128,-0.283197,0.486084,0.090320,0.009629,0.150655,0.245201,0.265740,0.220664,0.018815,-0.001480,0.348445,-0.303308,0.162557,-0.380825,0.027879,-0.058031,-0.149007,0.454680,0.297571,0.369350,0.166555,-0.204611,0.173147,-0.230003,-0.279809,0.353633,0.381710,-0.128529,0.103565,-0.467040,-0.322291,0.014267,-0.017075,-0.229637,-0.057634,0.479278,0.242790,-0.268548,-0.277886,0.496643,0.083728,-0.359157,0.363247,0.467528,0.482421,-0.471770,0.398068,0.430204,-0.081591,-0.327967,0.339625,0.301141,-0.224540,0.021256,-0.459471,-0.076800,0.322413,-0.122700,0.272942,0.451445,-0.319422,-0.383267,-0.315088,0.107990,-0.316034,-0.263665,-0.209555,-0.162374,0.037767,0.001724,0.148824,-0.105243,-0.317530,-0.019486,0.389554,-0.106708,-0.230918,-0.258171,0.239372,0.350703,0.151814,0.002853,0.207419,0.257561,-0.195334,-0.496124,-0.415036,-0.296411,0.068438,-0.106647,-0.084429,0.091723,0.133320,-0.096423,-0.407437,-0.028947,-0.335139,0.099048,-0.260643,0.020554,0.351711,0.021989,0.430265,0.338405,-0.455382,-0.354946,0.152791],[0.296045,-0.186270,-0.146870,0.158223,0.223350,0.448454,0.462340,0.000992,0.200186,-0.011338,0.470611,-0.033464,-0.298273,0.181997,0.118763,0.370846,0.343043,-0.005478,-0.424589,0.007309,0.345698,0.455138,0.172628,0.124592,-0.269860,-0.295801,0.383908,0.116901,0.368862,0.458953,-0.445494,-0.041185,-0.192801,0.175314,-0.460387,-0.084582,0.258415,-0.311090,-0.092914,-0.441130,-0.321863,-0.384548,-0.138997,-0.376766,0.325892,0.292413,-0.457976,-0.271996,-0.281487,-0.457488,-0.138997,-0.497620,0.382992,0.041459,-0.477874,0.141072,0.313837,-0.430387,0.391568,-0.077136,-0.457762,-0.069597,-0.131703,-0.276421,-0.277367,-0.184561,0.413083,0.054155,0.142933,0.398556,-0.108356,-0.344417,0.065081,-0.060747,-0.110981,0.181570,-0.198233,0.177694,-0.349574,0.000504,0.435942,-0.198782,-0.194479,-0.352321,-0.411283,-0.234977,-0.467833,-0.040849,0.142994,-0.252647,0.315760,0.418699,0.327754,-0.479400,-0.039415,-0.251488,0.070421,-0.480102,0.009507,0.275903,0.022721,0.390072,0.227775,0.105792,0.166860,-0.207694,0.307855,-0.367977,0.407956,0.252190,0.451048,0.417142,0.058885,0.329463,-0.017563,-0.027268,-0.375759,-0.108264,-0.344874,0.471740,-0.210807,-0.227165,-0.199728,-0.077044,0.019578,-0.402982,-0.020890,-0.159444,-0.320154,0.050676,0.293085,-0.061754,0.074694,0.382473,0.008469,-0.119556,0.320673,0.413144,-0.348170,-0.378689,0.454253,-0.163594,0.232200,0.362850,-0.317560,0.092334,-0.253533,-0.336634,0.182272,-0.406339,-0.375362,-0.272210,0.355220,-0.412320,0.270196,0.410520,-0.056902,0.433287,0.352779,-0.037217,-0.088458,-0.424039,0.009079,0.055162,-0.492859,0.001022,-0.391995,0.106769,0.394925,0.446501,0.236747,0.452452,0.281732,0.157186,-0.436583,0.378964,-0.067217,0.461150,0.233634,-0.438383,-0.013413,-0.050768,0.455626,-0.067278,0.475097,-0.460204,-0.068224,-0.487518,0.455077,0.209342,-0.208182,0.234611,-0.342647,-0.329768,-0.315821,0.296808,-0.440397,-0.222800,-0.318049,0.068194,-0.210776,-0.056597,0.159413,0.084613,0.262658,0.347591,0.295648,0.162923,-0.032640,0.213553,0.361141,0.165761,-0.207663,-0.056993,0.444182,0.448058,0.314081,0.383358,-0.227409,-0.483795,-0.056597,0.011399,0.287683,-0.068346,0.340419,0.314203,-0.373806,-0.010422,-0.497192,0.148762,0.167013,0.204428,0.434538,0.361202,0.298090,0.133320,-0.199332,0.446898,-0.439177,-0.431516,0.474944,-0.466704,-0.172536,-0.369686,0.385983,0.465880,0.167745,-0.208365,-0.431272,0.278741,-0.438566,0.365322,-0.172720,-0.168172,0.113086,0.485839,-0.084979,-0.105182,-0.075701,0.116138,-0.361263,0.459716,0.281213,0.111377,-0.206992,-0.436705,0.312159,-0.129749,0.330561,0.400662,-0.227592,-0.394253,-0.324549,0.010575,0.112384,-0.233879,-0.415006,0.314936,0.484924,-0.362484,0.466857,-0.207419,-0.151631,-0.340388,-0.442839,-0.430631,-0.178060,0.485260,-0.133259,0.205313,0.448820,0.315455,0.300653,-0.039750,-0.476165,-0.458739,-0.141987,-0.180380,-0.357753,0.223441,0.318384,0.060717,-0.375118,0.440947,0.320154,-0.358364,0.476897,0.040208,0.238426,0.193594,-0.464415,-0.183950,-0.232566,-0.102161,-0.035295,-0.344752,-0.385250,0.028977,0.249535,-0.325739,0.212516,0.445128,-0.148701,-0.117389,-0.146962,-0.193075,-0.324610,0.402585,0.154286,-0.193930,-0.489624,-0.222922,0.261437,0.185110,0.094165,0.396512,-0.308557,-0.170888,-0.036851,-0.424192,0.226249,-0.288568,-0.259026,0.313807,-0.239189,-0.026414,0.022935,0.264550,-0.487060,-0.078265,-0.487762,-0.046434,-0.499664,0.219993,-0.435301,-0.230918,-0.308313,0.062426,-0.202322,-0.240043,-0.262383,-0.395016,-0.080309,-0.228324,-0.311701,0.438139,0.437284,-0.048753,-0.396847,0.381863,0.394711,0.152577,0.459960,0.384365,-0.196616,0.273583,0.268487,-0.194723,-0.083117,0.056139,-0.204062,-0.134846,0.007828,0.380032,-0.190390,-0.458159,-0.196890,-0.417508,0.243583,-0.304224,0.233665,-0.165609,0.195303,-0.295129,-0.345424,0.103961,0.158803,0.390378,0.192557,-0.259819,0.400204,-0.485107,0.376308,0.206198,-0.117908,-0.365535,-0.293481,-0.005539,-0.356777,-0.415433,0.321650,0.254845,0.039201,0.382900,0.415220,0.166768,-0.249077,-0.171071,-0.438139,-0.413175,-0.033036,-0.417783,-0.392361,0.003037,-0.354366,0.000534,0.280755,0.326899,0.264000,-0.481414,0.179586,-0.445463,-0.041246,-0.150380,0.293878,-0.171255,0.466582,-0.209861,-0.284753,-0.068255,-0.230918,-0.090686,-0.306574,-0.258232,-0.150594,-0.095111,-0.305414,-0.316858,0.466155,-0.094317,-0.382412,-0.297815,0.351344,-0.496735,-0.174856,-0.200613,-0.261681,-0.207053,0.145100,-0.350337,-0.373836,0.205893,0.499207,0.341914,-0.313654,0.413633,0.314722,-0.231468,0.218528,0.085986,0.375729,-0.302972,0.061357,-0.216300,0.269890,0.054277,-0.135517,-0.232688,0.087451,0.454894,-0.371700,0.002853,-0.471862,-0.494964,-0.082537,0.146657,0.072893,-0.086901,-0.345698,-0.210593,0.375820,-0.062181,-0.101062,-0.258477,-0.466552,0.205954,-0.478332,-0.359310,0.387295,0.430082,0.174337,-0.337153,-0.484741,0.058153,0.466552,-0.381863,0.069720,0.386013,-0.246361,0.212607,0.116474,0.163778,0.441832,-0.242637,-0.367367,0.228019,0.217338,0.106342],[0.037645,0.398251,0.103442,-0.117695,-0.286950,-0.232902,0.321131,-0.054277,0.406735,-0.065264,0.370968,0.241295,-0.125813,0.401608,-0.432096,0.242637,-0.060839,0.462462,0.229240,-0.106952,-0.413266,0.217307,0.389431,-0.414396,-0.352016,-0.357784,0.212485,0.051469,-0.240013,-0.165792,-0.117389,-0.187429,-0.367306,0.335902,0.254845,0.355281,0.153371,-0.053301,0.046434,-0.319452,0.360500,-0.073260,-0.149251,0.387783,-0.182119,-0.000778,-0.245506,-0.052355,0.420408,0.058123,-0.160085,0.321162,0.162679,-0.012833,0.352748,-0.419919,-0.098071,0.496429,-0.182424,-0.313837,-0.353786,0.382626,-0.118061,0.084277,0.399228,0.119556,0.169607,0.266655,0.092975,0.185080,-0.074480,-0.036210,-0.360256,0.030137,-0.267357,0.118946,-0.365535,0.097308,0.082263,0.301477,-0.261620,-0.206198,0.079333,-0.283441,0.276086,-0.173818,0.063707,0.466369,0.076220,-0.197531,0.428465,0.219657,0.088092,-0.491760,0.417081,-0.054186,-0.195608,-0.237358,0.180013,-0.130451,0.022324,0.260765,-0.127277,0.302545,-0.026719,0.308679,0.075488,-0.491729,0.353511,-0.142750,0.317042,0.256493,0.286035,-0.258934,-0.017106,0.223106,-0.254448,-0.471496,0.389767,-0.107868,0.477721,-0.110279,0.307062,0.116047,-0.056780,-0.111835,-0.293023,-0.009781,0.319239,0.102283,0.024613,0.198447,0.088183,-0.016404,-0.291436,0.485076,0.246055,0.357295,0.344356,0.410550,-0.339259,0.471709,0.130940,0.046342,-0.387692,-0.497345,-0.007767,-0.234214,0.046037,-0.080401,0.104602,-0.213675,-0.430418,-0.381222,0.121540,-0.379360,-0.274438,0.230583,-0.123035,0.091784,-0.429167,-0.493164,-0.151845,0.069018,0.093524,0.194632,0.159902,-0.419004,0.499359,0.302240,0.410611,0.461699,-0.101764,0.164480,0.102344,0.185965,0.422636,0.212668,-0.044755,0.050951,0.308588,-0.143849,-0.111866,0.359218,-0.028794,0.381497,-0.053575,-0.239860,-0.394711,0.275018,-0.041520,0.405972,0.342708,-0.123951,0.201682,0.078173,0.497589,-0.233818,-0.140309,-0.058855,-0.069323,-0.199026,-0.448210,0.078967,0.064287,0.190725,-0.284112,0.471435,-0.421537,-0.463713,0.126087,-0.433897,0.320521,0.226127,0.326563,0.102161,0.458220,0.100909,0.262444,0.342341,0.408841,-0.207816,-0.110736,0.369564,-0.425474,-0.359218,0.042467,-0.395962,0.415830,-0.398160,0.347346,0.197623,-0.106189,0.042222,0.451842,0.460875,-0.186575,-0.163167,0.362453,-0.019852,0.097766,-0.329859,0.165181,-0.419919,-0.474548,-0.051347,-0.087695,-0.212058,-0.037553,0.231468,-0.043535,-0.043626,-0.381222,-0.415860,-0.486663,-0.299432,0.362300,-0.236808,-0.265984,-0.193869,-0.380062,-0.363613,0.068377,0.263695,-0.101245,-0.254082,0.200735,-0.412900,0.456481,0.420469,0.339106,0.070818,0.154500,0.341975,0.139149,0.142933,0.023301,-0.025773,0.044053,0.470489,-0.427885,-0.241325,0.321802,-0.027390,0.374142,0.484130,-0.419065,0.398343,-0.041887,-0.263298,0.046129,-0.374935,-0.462004,-0.164113,0.374569,0.334010,-0.388272,0.163381,0.294855,0.218711,-0.039567,0.290429,-0.150746,0.383267,0.079028,-0.189199,-0.479095,0.085925,-0.429929,0.284539,0.026719,0.485015,-0.468444,0.199423,0.057848,-0.457396,0.470061,0.356624,-0.251457,-0.256737,-0.229514,-0.414060,0.154836,-0.217246,0.254173,0.197684,-0.476012,-0.115650,-0.144673,0.076952,-0.363247,-0.102100,-0.051378,-0.173116,0.002518,-0.161336,0.357936,-0.133045,0.189596,0.021653,-0.421781,-0.107532,0.071520,0.447966,0.241447,-0.398221,0.270379,-0.400693,0.357906,0.097400,-0.421079,0.297235,0.364132,-0.133137,-0.357631,-0.217582,-0.491089,-0.249687,-0.319025,-0.328211,-0.391781,-0.199576,-0.464660,-0.051866,-0.299463,0.441252,-0.185263,-0.360622,-0.365993,-0.168081,0.430662,0.343867,0.116291,-0.157765,0.295862,0.257042,0.258629,-0.454863,0.471313,-0.143208,0.145344,-0.366573,-0.458953,-0.096850,0.459929,-0.333430,0.497314,-0.091540,-0.301019,-0.446379,-0.083911,-0.265282,0.005478,0.178793,-0.294336,0.474181,0.152028,-0.423948,0.208090,0.269127,-0.293634,-0.441496,-0.064348,0.227622,-0.090869,0.209311,-0.276605,0.091205,0.296258,0.140065,-0.421171,-0.189596,-0.403653,-0.076983,0.010178,-0.314631,-0.064867,-0.396481,0.114368,0.226554,-0.122608,-0.301386,0.206107,0.392697,0.338313,-0.411771,0.269066,0.362026,-0.104907,-0.294763,0.010880,0.492706,-0.469726,0.430753,-0.197439,-0.370754,0.337886,0.100360,0.284112,0.410642,0.223716,0.028367,-0.082537,-0.263237,0.131062,-0.044389,0.267815,0.049394,-0.176840,-0.172628,0.294641,-0.416410,-0.246696,0.307703,0.434080,0.246513,0.054277,-0.063768,-0.246879,0.278863,0.178060,0.333949,-0.042253,0.356319,0.217368,0.363918,-0.464507,0.286309,0.439879,-0.346706,-0.185842,-0.043138,0.066607,0.383236,0.217917,-0.306269,-0.174093,-0.248009,-0.498352,-0.318049,0.313746,0.018998,0.245354,-0.392209,-0.307764,-0.465667,0.389309,0.178274,-0.242912,-0.338527,0.091693,-0.326777,-0.094562,-0.001480,-0.310419,0.187338,0.035417,-0.195486,0.044877,-0.282495,-0.091296,0.037370,0.055986,-0.247490,0.006851,-0.091113,-0.382900,-0.479553,0.413541,0.364193,-0.194266,-0.448912,-0.247215,0.390591,-0.419950,-0.291436,-0.284082,-0.436613],[0.036729,-0.066485,-0.266015,-0.375179,-0.225150,-0.361995,0.266594,-0.246513,-0.405606,0.408536,-0.269616,-0.352687,0.223014,0.094226,0.452971,-0.341731,0.101581,0.382595,-0.158956,-0.341700,-0.162770,0.282830,-0.124622,0.180319,-0.093951,-0.357479,-0.314508,0.318537,0.076617,-0.497681,-0.389035,0.170095,0.210227,0.319666,-0.345027,0.098926,-0.405332,-0.407163,-0.262963,-0.397183,0.467437,-0.082995,-0.349452,0.065783,-0.115955,0.002548,0.131794,0.175954,-0.410764,-0.311823,-0.053514,0.290948,0.045701,0.479034,0.400113,-0.468200,0.277398,-0.358608,0.178457,-0.113239,-0.316218,0.385708,-0.075701,0.105518,0.480804,0.168172,0.456908,-0.333491,-0.074999,-0.356777,0.039995,-0.402799,-0.022477,0.297418,-0.394742,0.429411,-0.436827,0.296045,0.336818,0.070177,0.081988,-0.425718,-0.476714,-0.129292,0.328730,-0.296533,0.084124,-0.326930,0.476867,-0.435942,-0.324702,0.117054,0.283319,0.356471,-0.217978,-0.012101,0.170125,-0.018906,-0.296533,-0.113544,0.339290,0.318720,-0.163167,0.002548,-0.422910,0.442625,0.166097,0.273522,-0.095813,0.293298,0.362178,-0.291620,-0.272485,-0.152242,0.400876,0.159597,-0.349574,0.313929,0.104450,0.323023,-0.402524,0.381527,-0.486755,0.247948,0.409635,0.061388,0.493896,0.137867,-0.433439,0.143422,0.489685,-0.276177,0.192251,-0.194937,-0.179800,-0.009079,-0.000198,0.401639,0.435789,-0.460173,0.332179,-0.030839,-0.466704,0.364315,-0.045244,0.471801,-0.060228,0.325831,-0.243858,0.324213,-0.330714,0.106922,0.013504,0.220939,-0.439299,-0.075823,0.378353,-0.196554,0.401028,-0.217795,0.239677,0.196432,0.441740,-0.450011,-0.380123,-0.055681,-0.286065,-0.359279,0.260521,0.379818,0.048387,-0.423765,0.053392,-0.045274,0.206961,0.217826,0.473937,-0.434324,0.031846,-0.056169,0.172536,0.404538,0.018204,-0.443754,0.380459,0.365780,0.217307,0.196799,0.286462,-0.458129,-0.124317,0.053941,0.040269,-0.162374,-0.282922,0.142537,-0.460570,0.234825,0.273186,-0.063463,-0.344600,-0.261315,0.169179,0.136921,0.055406,-0.462645,-0.228965,0.355129,0.276513,0.405148,0.100208,-0.005661,0.207389,-0.118732,0.421903,0.108783,-0.364925,0.255730,0.413938,-0.476928,0.012070,-0.107837,0.321467,-0.007584,0.100482,-0.079211,0.004532,-0.314722,-0.350612,-0.168966,0.284326,-0.230705,-0.238182,-0.003830,0.494720,0.382199,0.107044,-0.339290,-0.355281,-0.231346,-0.364834,0.422025,0.099170,-0.135670,-0.050127,-0.262841,0.182394,0.108509,-0.004532,0.486724,-0.387204,-0.233451,0.214682,0.125996,0.173177,-0.456816,-0.166402,0.455931,-0.476073,-0.231712,0.429533,-0.456206,-0.435026,-0.063952,0.438444,-0.173757,0.252739,-0.121235,-0.241722,-0.075457,0.278497,0.357112,0.103870,0.204428,-0.485656,0.346980,0.270348,-0.388943,-0.367061,-0.194357,-0.039201,-0.189047,-0.192740,0.196982,0.334925,0.171407,-0.103107,-0.441984,-0.065813,-0.390774,0.026597,0.387997,0.140736,-0.159841,-0.035966,0.140217,-0.174856,0.059282,0.202322,-0.400449,0.340480,-0.414975,0.154012,-0.074633,-0.482177,0.496796,0.362606,-0.358211,-0.179617,-0.201834,0.138050,0.356716,0.311640,0.136921,-0.477966,0.490387,-0.405301,-0.387448,-0.010086,-0.204978,0.378140,-0.296716,-0.205039,-0.053148,-0.174703,-0.156636,0.361629,-0.008621,0.343074,-0.318171,-0.366268,-0.076312,-0.033860,-0.445494,-0.215812,0.184652,-0.006485,0.199759,0.192007,0.354457,0.032853,0.249901,0.093432,-0.175558,0.109760,-0.470733,-0.187033,-0.270959,-0.002762,-0.310022,-0.019181,-0.081500,0.422483,0.216849,-0.357265,0.253807,0.306726,0.333003,-0.330897,0.005417,-0.305383,-0.163259,0.368526,-0.363460,-0.470885,0.401578,-0.286767,-0.247612,-0.071398,0.370174,0.081927,0.496948,0.121906,-0.426115,-0.073840,0.177847,-0.301843,0.209006,0.267296,0.401517,0.326899,0.300378,0.429411,0.498962,-0.394467,-0.215110,-0.085070,-0.476135,0.189749,-0.255150,-0.170888,-0.395535,-0.136586,-0.176931,-0.240562,-0.070208,-0.295587,0.351070,-0.483398,0.152303,0.002029,0.221152,-0.357082,0.487457,0.082873,0.034104,0.094409,0.292138,-0.298914,-0.446776,0.003342,0.402554,0.149403,-0.003250,-0.073260,0.013230,-0.253075,0.198721,0.487732,0.378445,-0.139698,0.170949,-0.184500,0.116871,0.114399,0.096118,-0.309473,0.401364,-0.051622,0.284112,-0.198996,-0.185781,0.174062,0.122150,0.016892,0.150472,-0.307642,-0.449370,0.087756,-0.051164,0.024125,0.095508,-0.329218,0.033158,-0.188345,-0.011704,0.095141,-0.155629,-0.052538,0.405789,-0.231407,-0.154927,0.485717,0.359554,-0.366573,-0.222709,-0.006333,0.267479,-0.422910,0.055345,0.498505,-0.261956,0.204337,0.074419,-0.313898,-0.401273,-0.123127,-0.283319,-0.491760,-0.300043,0.426878,-0.164327,-0.146016,-0.474578,0.450621,0.000626,0.441893,0.140522,-0.411832,0.281732,-0.410794,-0.490112,-0.303705,0.357631,0.014389,-0.284753,0.319300,-0.273461,0.328639,0.104968,0.365658,0.302179,0.373623,-0.093524,0.395810,0.175283,0.060930,0.332881,0.427274,-0.176931,-0.130329,-0.285272,-0.336177,-0.453368,-0.341304,-0.310999,0.054857,0.418485,-0.050584,-0.024857,0.090686,-0.479247,0.335536,-0.228965,-0.210715,-0.243858,0.176077,0.298822],[-0.200919,0.402341,-0.168966,-0.466033,-0.041520,0.373775,-0.360714,0.075823,0.265526,0.102405,0.162618,0.403623,-0.487182,-0.103076,0.483886,0.381863,-0.417997,0.187551,-0.411588,-0.272973,-0.193503,0.024979,-0.329859,0.318690,-0.336634,0.130970,-0.394528,-0.096759,0.287011,0.481811,-0.172689,-0.403562,-0.413633,0.081439,-0.369106,0.091144,0.247215,0.080248,0.442564,-0.023881,0.400021,-0.104236,0.082385,0.072802,0.235466,0.491668,-0.447478,0.195425,0.348231,0.471038,0.382107,0.241722,0.090716,0.140492,0.059771,0.019517,-0.282403,0.201376,-0.414274,-0.283837,-0.397214,0.223777,-0.326014,0.416776,0.309961,-0.439695,-0.363796,-0.422636,-0.202506,-0.144429,0.478637,-0.140370,-0.460021,-0.192526,0.242790,0.232902,-0.153371,0.336726,0.122120,-0.249657,0.158101,-0.179098,0.384793,-0.095111,-0.396603,-0.450865,-0.365566,-0.028275,-0.402280,0.053850,0.440550,0.243309,-0.237632,0.475494,-0.131581,-0.437010,-0.051653,-0.383053,-0.058519,0.064257,-0.355312,-0.156392,-0.433897,-0.479492,-0.447111,0.485260,-0.049242,0.213279,-0.391690,-0.103748,0.050340,-0.276452,0.230552,-0.169790,0.067370,-0.446348,0.083056,0.285333,-0.459075,-0.014847,0.124317,0.476684,0.054949,0.079577,0.230766,0.091662,0.096362,0.227775,0.173696,0.485015,0.095721,0.154530,0.230522,-0.030625,0.179861,-0.215781,0.212363,-0.141957,-0.330622,-0.125477,0.188772,0.415586,-0.148946,-0.176626,-0.309137,0.373226,0.057085,-0.443571,-0.325526,0.164754,-0.417783,-0.099170,0.024155,-0.460570,0.470183,0.351253,-0.120655,-0.291711,-0.300104,-0.365047,-0.435667,-0.320673,-0.195730,-0.017747,0.402829,-0.060839,0.451018,-0.492523,0.198355,0.136036,0.018082,-0.391537,-0.337611,-0.078661,-0.305536,-0.210776,-0.429472,-0.394589,0.137379,-0.187094,-0.071276,-0.215720,0.217551,-0.408902,-0.069658,-0.406980,-0.116260,-0.284265,-0.014298,-0.257378,-0.322718,0.039720,-0.395047,-0.003891,-0.071306,0.212699,0.415799,0.240532,0.166860,-0.421842,0.097064,-0.189291,-0.227531,0.338252,-0.490081,0.221366,0.406980,0.391964,-0.192709,-0.036393,0.247917,-0.246025,-0.197012,-0.477844,-0.437651,-0.040452,0.382168,0.269463,-0.350581,0.361843,0.233695,0.393155,-0.316919,-0.271630,-0.313623,-0.487274,0.486877,0.042405,-0.070238,0.142262,-0.228965,-0.084460,0.400876,-0.345271,-0.135548,-0.481872,-0.381649,-0.095202,0.471282,0.433500,0.245170,0.165822,0.484710,0.341792,-0.339137,-0.462249,0.388394,-0.059069,-0.174856,0.482116,0.277215,0.009476,-0.286676,-0.360439,0.028092,0.018601,0.105731,-0.412198,-0.347224,0.199149,0.011460,-0.305567,0.363430,-0.332575,0.474487,0.164754,-0.014176,-0.331233,0.216025,0.181997,-0.227042,0.097308,-0.359432,-0.462493,-0.460601,0.136616,-0.007126,-0.389004,0.304926,-0.248466,-0.193381,0.016556,0.081103,-0.155019,0.059038,0.264428,-0.488586,0.463744,0.178732,-0.137654,0.192465,-0.040910,0.188376,0.012223,0.208335,-0.490936,-0.236564,-0.440794,-0.091082,-0.091998,0.488281,0.348567,0.464019,0.030045,0.090381,-0.352748,0.223502,-0.127186,-0.065081,-0.213797,0.415860,-0.412809,-0.440184,-0.320612,0.215690,0.399991,-0.466552,0.376217,-0.288446,-0.165029,0.415586,0.303339,-0.194418,0.139607,0.103137,0.352290,-0.424314,0.322474,0.342311,0.468780,0.132527,-0.291284,-0.312616,-0.099536,-0.499054,0.419217,-0.311487,-0.240806,-0.440886,-0.320460,-0.410947,0.053606,-0.435362,0.365902,0.314020,-0.150868,0.300287,-0.307184,0.130848,-0.228141,0.315027,-0.338801,0.003677,0.408811,-0.331080,-0.356746,0.412564,-0.341792,-0.130573,0.064440,0.473479,0.324244,-0.141621,-0.462798,-0.464782,0.302332,-0.376583,-0.424436,0.124561,0.305780,-0.355525,0.381008,0.213828,0.187429,-0.447020,-0.010666,0.404874,-0.486480,0.035325,-0.314356,0.309717,-0.454100,-0.488311,0.092700,-0.089618,0.288385,-0.378445,-0.160665,0.177999,-0.246086,0.047044,0.215751,-0.267083,0.108966,-0.294641,-0.279443,-0.172353,-0.149312,-0.158101,-0.092517,0.432585,-0.326136,0.054491,0.436460,-0.293146,0.183309,-0.219016,-0.263512,-0.364559,0.108478,0.280908,0.186056,0.112995,0.176046,-0.357845,0.216910,0.256493,0.297113,-0.155080,0.248619,0.227775,0.225028,0.412900,-0.141102,0.346858,0.340083,-0.315973,0.096881,-0.222434,-0.282373,0.231620,0.344813,-0.433226,0.135578,0.466796,-0.364681,0.318384,0.177267,-0.045793,-0.170339,0.283166,0.086871,0.471740,-0.436460,0.146138,-0.467437,0.345393,-0.222343,0.241600,0.122639,0.016251,-0.179769,0.168111,-0.297876,0.296289,-0.362392,-0.395077,0.140553,0.486358,0.295587,-0.285730,0.260247,-0.307794,0.258477,0.257653,-0.187613,0.053331,0.429044,0.064592,0.195578,0.212455,-0.136433,-0.488586,0.144642,-0.126362,0.224021,-0.209220,0.046892,0.479003,-0.128040,0.253685,0.041307,-0.464080,0.012192,-0.395199,-0.442839,-0.373806,-0.209311,0.232841,0.448576,-0.372494,-0.245659,0.456603,0.380642,0.179708,-0.421934,-0.031541,-0.375790,-0.074206,0.465941,0.256554,-0.085223,-0.439787,0.132038,0.286340,-0.467772,0.214591,-0.231925,0.223411,0.257469,0.212607,-0.096667,0.478698,0.362300,-0.274407,-0.436705,-0.143269,0.288842],[0.437162,0.164937,-0.396939,0.204917,-0.163808,-0.465362,-0.121570,0.380734,0.219932,0.323939,-0.331935,-0.395871,-0.420652,-0.263512,0.217277,-0.183554,-0.299463,0.084857,0.077471,0.397122,-0.155904,-0.109607,0.274743,-0.003189,0.370785,-0.368343,0.190359,-0.478912,-0.083850,-0.153981,0.380703,0.295434,0.019852,-0.133900,0.492950,-0.056688,-0.383419,-0.027757,-0.067431,0.008408,0.294580,0.242271,0.439329,-0.147755,-0.272423,-0.120319,0.227287,-0.141713,0.187551,0.301782,-0.154012,0.474181,-0.456969,-0.231468,0.418302,0.122883,-0.349422,-0.166036,0.411435,-0.485595,-0.455412,0.401028,-0.402310,0.389126,0.332759,-0.339045,0.360652,0.223869,0.202231,-0.300806,0.003250,-0.067797,0.443876,0.047929,0.214560,0.090350,-0.099933,-0.032365,0.350307,-0.280755,-0.257317,-0.261864,-0.315271,0.155019,-0.012680,-0.259117,0.288965,0.038285,-0.349818,-0.386807,-0.307215,-0.046159,-0.046190,0.256340,-0.014023,-0.247765,0.487854,-0.021867,-0.485046,0.083880,-0.269005,-0.448241,-0.168081,0.177694,-0.159047,0.471679,0.051653,0.394803,0.117603,0.188070,0.273156,-0.411039,0.046861,-0.398801,0.221885,-0.194845,0.330439,-0.403256,-0.231193,0.346828,-0.191702,-0.096820,0.482940,-0.256035,-0.319849,0.052873,-0.127094,-0.347438,-0.068377,-0.271996,0.474792,0.217032,0.372158,0.272362,0.441313,-0.073199,0.190115,-0.349605,-0.210288,0.498291,0.432188,-0.365047,-0.036180,-0.186575,0.312250,-0.495483,-0.133168,0.446287,-0.242821,0.031724,0.021195,-0.191488,0.094928,0.043992,0.011521,0.445555,0.291253,0.337733,-0.132862,-0.485809,-0.358089,0.227195,-0.459929,-0.026902,0.326075,-0.490356,0.135334,-0.482391,-0.273003,0.127400,0.049120,-0.210288,-0.072985,0.308588,-0.328425,-0.105213,0.282220,0.467833,-0.189718,-0.243675,0.483734,-0.352443,0.490692,0.339564,0.011277,-0.218039,0.289636,0.275658,0.385983,-0.435759,-0.141469,-0.082568,0.127766,0.198630,-0.207846,0.358272,-0.175527,-0.181448,0.499268,0.444578,0.218436,-0.147969,0.231498,0.314264,-0.283380,0.115436,-0.073046,0.491577,0.231468,-0.082842,0.024186,0.069628,-0.242759,-0.047624,-0.096912,0.012528,-0.410215,0.269738,0.109455,0.107532,-0.405576,0.092090,0.018296,-0.401120,0.429411,-0.228568,0.093616,0.034806,0.130329,-0.339717,0.399472,0.358242,-0.037523,0.180105,-0.480377,-0.226646,-0.053209,-0.131764,-0.458312,0.418393,-0.034135,-0.315180,0.261650,0.376583,-0.143574,0.360408,0.265557,0.056169,0.394253,0.066118,0.044481,0.470763,-0.421964,0.187124,-0.201193,0.451353,0.118397,0.481079,0.088214,0.321345,-0.462249,0.402310,-0.016312,0.065569,-0.211478,-0.126453,-0.122303,-0.475372,-0.205496,0.286035,-0.391171,-0.353755,-0.177389,0.009323,0.057115,0.323969,0.090991,0.192251,-0.133686,-0.144551,-0.480468,0.136158,0.449461,-0.448943,0.029435,0.021439,-0.066332,-0.476135,0.297510,0.269127,0.201010,0.192770,0.372250,0.318232,-0.319086,-0.470367,0.057176,0.100543,0.051073,-0.417966,0.468017,-0.005997,-0.497375,0.302332,-0.329890,-0.464599,-0.273705,0.214713,-0.197928,-0.325282,0.275048,-0.048326,-0.408048,-0.148762,0.460356,0.190603,-0.327570,-0.326563,0.437803,0.021836,-0.399228,0.483520,-0.361721,0.280145,-0.009507,-0.412015,0.201315,-0.130116,-0.339778,0.435606,-0.433714,-0.384274,0.206809,-0.476348,-0.121357,-0.329981,-0.091998,0.314142,0.366085,0.008072,0.361965,-0.059160,0.342494,0.042344,-0.231040,-0.011063,-0.005600,-0.112445,0.262200,0.127705,-0.392697,0.306787,0.193503,-0.454650,-0.461211,0.291925,-0.440733,-0.163198,0.286401,0.028184,0.220054,-0.174093,-0.335414,0.077746,-0.143147,-0.454588,-0.342586,-0.477813,-0.376186,-0.163961,0.333003,-0.113727,0.259758,0.042589,0.473907,-0.128620,0.012436,-0.134541,0.147298,0.270837,0.018235,-0.152730,0.370449,-0.402341,-0.457121,0.275201,-0.471679,0.457213,-0.010025,-0.219260,-0.300439,0.194266,0.083209,0.418058,-0.453490,-0.152425,0.128620,-0.498199,-0.073717,-0.058000,-0.236686,-0.013627,-0.121296,0.149495,0.096789,-0.333003,0.147450,0.351009,-0.349239,-0.015366,-0.109516,0.129627,0.004563,-0.284387,-0.263512,0.226829,-0.448576,0.327082,-0.157002,-0.007218,0.272698,0.279992,0.112842,0.361995,-0.064531,0.060411,0.225059,0.385769,-0.379177,0.220634,-0.363552,-0.147664,-0.012040,0.211386,0.210166,0.026322,0.180960,0.286279,-0.372616,0.038469,-0.215323,0.259636,0.238578,-0.042955,-0.264580,0.399228,-0.489685,0.072192,-0.407010,0.235038,-0.275750,0.424284,0.080493,-0.434751,0.084063,0.107807,0.297632,0.440733,-0.112995,0.381924,-0.485534,0.409116,-0.083880,0.118641,-0.048723,-0.199606,-0.290582,-0.379543,0.450987,0.334284,-0.137806,0.338343,0.450560,-0.168752,0.018906,-0.479095,0.157338,0.308466,-0.289300,0.327387,0.336787,0.241478,-0.305200,0.433592,-0.382260,0.273522,-0.047624,-0.335627,-0.278344,0.152974,0.000381,-0.317988,-0.478393,0.180807,-0.325312,0.262658,0.338099,-0.051042,0.039781,0.191977,0.376858,-0.348903,-0.418455,0.311365,-0.283959,-0.253319,0.340144,-0.254692,-0.251915,0.260033,0.137654,-0.157796,0.483215,0.495117,-0.441374,-0.141163,-0.379971,0.447996],[-0.405698,0.493561,0.240410,0.342372,0.288293,-0.114277,0.055437,-0.397122,0.462340,-0.135517,-0.241142,0.145833,0.157094,-0.040208,0.483062,0.296533,-0.325404,-0.320032,-0.040727,-0.407865,-0.289453,-0.483276,0.476806,0.372524,0.122822,-0.236076,0.050829,0.400906,-0.305567,0.354244,-0.461913,-0.357173,0.421751,0.119587,0.480560,-0.140309,0.359127,0.381466,-0.040910,0.172567,-0.448058,0.277795,0.238182,0.253410,0.088336,-0.267754,0.482757,0.299310,-0.198599,0.472564,0.328669,0.446104,-0.346828,0.003525,-0.412107,-0.222190,0.331568,-0.058092,-0.130177,-0.411954,0.091021,-0.381588,0.399594,0.049486,0.369076,0.353755,-0.184896,-0.052080,0.209281,0.314722,0.224052,-0.363094,0.021958,0.356532,0.301233,-0.130421,-0.285546,-0.242027,-0.291009,-0.336634,-0.278802,0.255089,-0.379330,-0.145650,-0.033921,0.280023,-0.371242,0.497375,0.287042,-0.188650,-0.180471,-0.232170,0.355434,-0.258080,0.294397,-0.477844,-0.379696,0.170309,-0.079882,0.172140,0.309656,-0.477386,-0.411252,0.030412,0.019120,-0.089465,-0.231468,-0.217277,-0.079546,-0.368099,-0.373074,0.243492,0.119892,0.220206,-0.492553,0.050584,0.198263,-0.051042,0.041063,0.456206,0.464110,0.197714,-0.326350,-0.130787,-0.049150,-0.414670,-0.109241,0.306207,-0.310602,0.277490,-0.079211,0.406613,0.287469,0.373623,0.198080,0.168661,0.346370,-0.219108,0.366939,0.062365,-0.252403,0.480316,0.107868,-0.324396,0.339473,-0.408200,-0.432646,-0.450346,0.055071,0.144429,-0.327357,0.360622,-0.006180,-0.042375,0.112110,0.102344,0.496643,-0.459441,0.263146,0.428251,-0.253502,0.414823,-0.151387,-0.193167,-0.073840,-0.232658,-0.397000,-0.351375,0.462951,-0.160146,-0.270531,0.059374,0.393429,-0.039384,0.429380,0.377010,0.378201,-0.374966,0.285058,0.147786,0.398068,-0.468352,-0.222282,-0.301843,-0.336421,-0.020920,-0.278954,-0.041276,-0.231590,-0.469390,-0.107776,-0.303919,-0.381985,0.353023,-0.358669,-0.190359,0.165426,0.134754,-0.239219,-0.151540,0.484313,-0.008927,0.395474,0.405789,0.211661,0.261559,0.275292,-0.453887,-0.109363,-0.393765,0.051347,-0.077746,0.245109,0.307245,0.016648,-0.262352,-0.082995,0.181234,-0.007035,0.211020,-0.301935,0.009934,-0.334986,-0.301080,-0.213370,-0.105884,0.142994,0.132984,0.101245,0.437956,0.034989,-0.072375,0.182241,0.169301,-0.189566,0.014969,-0.287683,0.103076,-0.264275,0.162740,0.187613,-0.146931,0.163381,0.231773,-0.229789,0.198904,0.456084,-0.470885,-0.146077,-0.485473,0.326502,-0.086779,0.373806,-0.035966,-0.125324,-0.192923,0.391232,-0.128620,0.103778,-0.223838,-0.014237,0.170370,0.195395,-0.173238,-0.015336,0.340632,0.326258,0.081500,-0.438353,-0.263573,0.307031,-0.012192,0.236137,-0.285638,-0.175466,-0.283776,0.303766,0.465728,-0.431120,-0.096118,0.230461,-0.039323,0.026566,0.400540,0.039903,-0.090228,0.220756,0.172170,0.226981,0.149281,0.180197,0.019669,0.227470,0.356655,0.417966,0.267815,-0.024155,-0.497681,0.200919,0.081164,-0.417783,-0.055895,-0.108264,-0.436399,-0.340541,-0.429716,0.144429,0.296747,0.332301,-0.102039,0.234306,0.474517,0.458922,-0.467406,0.304407,0.289361,0.097064,-0.104724,-0.191153,-0.273003,-0.254692,-0.376461,-0.064989,0.425321,0.391049,-0.447295,0.285028,-0.246117,-0.103748,-0.316981,-0.401273,-0.228904,-0.247276,0.039781,-0.201254,0.213584,-0.262780,-0.167806,0.138905,0.175741,0.498657,-0.182852,-0.262352,-0.365291,-0.392056,0.274529,0.277367,0.477477,0.102161,0.499878,0.151021,0.185781,0.053911,0.221274,-0.162801,-0.163961,0.197409,-0.154286,-0.214927,-0.430509,0.142628,-0.057512,-0.409696,0.189627,0.208213,-0.131550,-0.256890,0.042497,0.405148,-0.057268,-0.269890,-0.163198,-0.398129,0.076098,-0.229392,-0.440367,0.402402,0.261834,-0.030778,0.143788,-0.231681,-0.165822,0.165426,0.043809,-0.083361,-0.099414,0.262017,0.376217,-0.476196,-0.145924,0.312952,-0.219718,-0.232109,0.371822,0.152425,-0.343715,0.239891,-0.193655,-0.153829,-0.063707,0.255272,0.375790,-0.253594,0.044908,-0.402707,0.058794,0.431120,0.205527,0.223350,-0.398801,0.309839,-0.251488,-0.035051,-0.460021,0.176565,-0.422300,-0.246269,-0.348903,0.490967,0.451292,0.403684,-0.272546,-0.330409,0.233177,0.481384,0.093280,0.168111,-0.228050,0.295343,-0.239097,-0.364467,-0.437742,-0.464110,-0.363582,-0.077593,-0.153859,-0.403500,-0.319452,0.223258,0.309961,0.108173,0.430692,0.135426,0.033128,-0.282373,-0.209555,-0.084887,-0.154622,-0.358455,0.493530,-0.288263,-0.252007,0.026688,0.146748,0.062334,-0.443693,-0.351558,0.260491,0.426695,0.418699,-0.021744,0.170858,0.045030,0.368862,0.151570,0.261071,-0.101001,-0.432096,-0.132679,0.387906,0.057451,0.391690,-0.249565,-0.080676,0.188406,0.020310,0.208304,0.289911,-0.481964,-0.314142,0.312799,0.479827,0.018387,0.234458,-0.261193,0.324122,0.104663,0.159200,0.290918,0.058245,-0.376278,-0.240196,0.048692,0.006180,0.414731,-0.414182,-0.336909,-0.182638,0.223258,-0.181143,-0.166189,0.158620,0.250389,-0.249199,-0.499939,0.267693,0.117481,0.014023,-0.224937,0.273949,-0.471435,-0.280450,0.156362,-0.306726,0.411130,0.159871,0.042253,0.002945],[-0.018784,0.406858,-0.297418,0.361049,0.239921,0.422910,-0.231895,0.490997,0.224174,0.287500,-0.095874,0.348628,0.488891,0.076312,-0.498260,-0.475097,0.468627,0.363124,-0.292627,0.477538,-0.400510,-0.087664,-0.490631,-0.103809,0.348079,0.217429,0.248436,-0.203543,0.054765,-0.404569,0.457945,-0.376492,-0.252098,0.370083,0.440886,0.146657,-0.415159,0.173391,0.489105,0.426389,0.076067,-0.101947,0.151570,-0.365383,-0.250908,0.331355,0.457579,0.010208,0.407651,0.001938,-0.498657,-0.270226,-0.356868,0.270745,0.294336,-0.023423,-0.245720,0.197378,0.290979,-0.012864,-0.269097,0.213065,0.494964,0.358333,0.458922,0.131520,-0.448393,0.394925,-0.198355,-0.471099,-0.267144,-0.220267,-0.284936,0.024339,0.221000,0.347224,0.051927,0.491821,-0.402402,0.241661,0.211692,-0.264855,-0.056169,0.241691,0.292688,-0.342860,0.458159,-0.468322,-0.097736,0.453917,-0.002091,-0.297845,0.281335,-0.133930,0.451201,0.259362,-0.100238,0.017716,0.344691,0.426359,0.178671,-0.125538,-0.405637,-0.483825,0.495911,-0.147908,-0.194967,-0.341548,0.131001,-0.393307,0.024644,0.160939,0.305811,-0.462432,0.360256,0.286889,-0.022904,0.034684,0.361446,-0.270226,-0.462615,0.000931,-0.422452,-0.433256,0.080279,-0.318323,0.195059,-0.028642,0.386196,0.331690,0.161092,0.467803,0.285516,-0.248680,-0.300134,0.007004,-0.445494,0.223441,-0.372402,-0.353236,0.001205,-0.118610,0.372738,0.115925,-0.103717,0.040391,0.107257,0.045305,0.406552,-0.477264,-0.103992,0.145283,0.186331,-0.491394,0.269341,0.112415,-0.216697,-0.056658,0.126179,-0.454650,0.015122,0.032640,0.373196,-0.347774,-0.027055,-0.142994,0.206809,0.029862,-0.191824,-0.363430,0.443846,0.296716,-0.041307,-0.322596,-0.192892,-0.139210,-0.029313,-0.469146,-0.427183,-0.396878,-0.427488,0.397000,0.485015,-0.241111,0.156880,0.303400,0.344081,-0.223136,0.327143,0.090747,0.175466,0.438688,-0.335292,-0.263970,0.384548,0.019059,0.373135,0.045274,-0.196097,-0.231498,-0.044633,0.246117,0.040056,0.499207,-0.419126,-0.487365,0.024369,-0.444090,0.297815,-0.047349,0.176138,-0.047197,-0.252312,0.089282,0.082720,-0.042375,-0.461882,0.367885,0.103717,-0.095843,-0.070208,-0.280206,-0.194906,-0.485229,-0.005631,-0.286340,-0.370083,-0.486206,-0.100696,0.326136,-0.288842,-0.186911,0.475860,-0.137196,0.233909,0.051347,-0.273644,0.061113,0.252251,-0.232047,0.427702,-0.094409,0.367641,-0.006973,0.486084,0.187735,0.174795,-0.465362,0.200522,0.341060,-0.118488,-0.255516,0.090594,-0.417264,0.008499,0.043474,0.444823,-0.106555,-0.424589,-0.011765,0.246147,-0.134205,-0.320246,0.159932,-0.369472,-0.046281,-0.125690,-0.343532,-0.464965,0.153157,0.249809,0.469817,-0.308374,-0.354213,-0.371029,-0.471282,-0.377194,0.436766,-0.221976,-0.310572,-0.204398,-0.481994,0.042009,0.454375,-0.410031,-0.411985,0.310297,-0.299219,0.237938,-0.140370,-0.281640,0.200461,0.389431,-0.013169,-0.007797,0.211600,0.461730,-0.357875,-0.158650,-0.075732,0.428129,-0.224662,0.307337,0.040635,0.202231,0.085589,0.473174,0.271050,0.274377,-0.262993,0.440580,0.027726,-0.243736,-0.149770,-0.019059,0.096545,0.489807,-0.199667,-0.233604,-0.431028,0.376919,-0.147298,-0.412687,-0.185263,-0.413785,0.167989,0.462188,-0.223045,-0.207114,-0.292444,0.046403,0.370602,0.107898,0.070513,0.246330,0.265831,-0.146809,-0.206412,0.444365,-0.162557,-0.161519,0.145344,0.241752,-0.438597,0.296594,-0.054643,0.125294,-0.360012,0.132984,0.440641,-0.035997,0.136586,-0.353847,-0.230613,-0.257897,0.401700,0.374874,0.044267,0.434690,0.071093,0.228751,-0.414182,0.432127,0.417508,-0.441923,0.337733,0.419614,0.337031,0.319636,-0.005295,0.117969,-0.248405,-0.005905,-0.125141,-0.207877,-0.291192,0.411985,0.067278,-0.066668,-0.040025,0.143880,-0.113941,0.021470,0.298364,-0.388638,0.162648,-0.226279,0.438078,-0.425047,0.406949,-0.214103,-0.284692,0.155324,0.368984,-0.027665,0.393429,0.043565,0.032273,-0.288842,-0.147847,0.057848,-0.430052,0.100696,0.443480,-0.298608,0.295038,0.233573,0.294305,-0.120991,0.136219,-0.105457,-0.162008,0.427976,-0.329859,-0.411557,0.355373,-0.380551,0.241752,0.304590,0.306940,0.287347,0.203513,-0.076647,-0.262749,-0.260216,-0.194723,-0.327754,-0.467071,0.110462,-0.234245,-0.463683,-0.184652,0.305383,0.056719,0.030534,0.249199,0.201865,-0.068590,0.239219,-0.451384,0.255608,-0.271477,-0.470306,-0.038224,0.171987,0.482543,-0.154103,0.014847,-0.201407,-0.127888,-0.011826,0.297601,-0.105945,-0.462310,-0.214255,-0.429289,-0.069292,0.299310,-0.431852,-0.023026,-0.413877,0.306024,-0.158406,-0.363002,0.080981,-0.351375,-0.423429,0.411222,0.018174,0.465972,0.013321,0.108753,-0.119221,0.076922,0.390805,-0.074694,-0.155995,0.169179,-0.494049,0.390378,0.058214,-0.424497,-0.490692,-0.394375,0.058458,-0.330439,-0.156972,0.055803,0.457762,-0.088214,-0.272271,-0.227409,-0.420713,-0.422910,0.104785,0.133808,0.184774,0.195517,0.439390,0.078204,-0.045701,-0.263268,0.291589,0.017869,-0.125050,0.070299,0.061083,0.228843,0.193289,-0.267724,-0.187979,0.001633,0.088977,-0.470092,-0.415860,0.332850,-0.274865,0.015366],[0.170644,-0.396146,-0.071215,0.249870,-0.126820,0.479827,-0.340663,0.334925,-0.471404,0.198019,0.203482,0.350551,0.305139,0.095477,-0.261834,0.340785,-0.274529,0.139729,0.253807,0.155080,0.278893,0.250328,0.330287,-0.461241,-0.225272,0.362819,-0.430479,-0.040117,0.487304,0.119892,0.147603,0.078448,0.372463,0.345546,0.016678,0.264641,0.138386,-0.041185,-0.210715,0.072253,0.450591,0.483245,-0.165120,0.073016,0.053148,-0.191916,-0.379147,-0.041002,0.087268,0.357997,-0.171102,0.318506,0.388180,0.326899,0.277917,-0.007889,0.041948,0.132923,0.184896,0.415189,-0.016770,-0.250206,-0.205008,-0.147267,-0.084582,0.071978,-0.088092,-0.066546,0.334010,-0.031297,0.359828,0.388333,-0.064898,0.184286,-0.091662,0.401028,0.189718,-0.260125,-0.308252,0.475646,0.365230,-0.006211,-0.346797,0.228385,-0.224296,0.016007,0.046068,0.009171,-0.458251,0.433683,-0.477355,-0.240257,-0.358730,0.403256,-0.157369,0.014359,-0.467162,-0.133992,-0.268700,0.448973,0.132252,-0.256890,-0.080065,-0.114032,0.423887,0.226188,-0.101306,0.159993,0.488464,-0.180166,0.413938,-0.248741,0.227500,0.292535,0.240684,-0.407071,-0.433287,0.191977,0.261986,-0.041643,0.418973,0.080798,0.385861,-0.165242,0.188253,0.149739,0.331721,-0.310541,0.096118,0.363643,-0.183126,0.034989,0.111408,-0.203024,0.175008,-0.300867,-0.235252,0.315241,-0.062975,0.206595,-0.370663,0.258110,0.406796,0.177725,-0.251396,0.280847,-0.238548,0.151723,-0.207297,0.010239,-0.290918,-0.260643,0.224570,-0.328852,0.233695,-0.487548,0.257134,0.340175,0.459777,-0.464476,-0.117237,-0.017930,0.166982,-0.053331,-0.243858,-0.073626,-0.013443,0.493225,0.211936,-0.061022,-0.189261,0.428800,0.198599,-0.453826,0.445982,-0.321894,0.409299,-0.233451,0.041978,-0.324580,0.391415,-0.092395,0.327082,-0.216910,-0.084155,-0.417020,0.181661,-0.303583,0.387295,-0.393460,-0.419462,-0.258690,-0.423337,-0.080187,0.436094,0.470458,0.457335,0.208731,0.372494,0.464660,0.425779,0.366268,-0.036607,-0.254265,-0.311457,0.456755,0.463378,-0.293237,0.096423,0.338771,-0.435148,-0.033891,0.206839,-0.397916,0.211936,0.051683,-0.143635,-0.024308,0.001450,0.321497,0.024277,-0.137715,0.204062,0.026780,0.267907,0.156606,-0.064989,-0.076159,-0.487976,0.002701,-0.493225,0.341243,0.472930,-0.352962,0.494873,0.107929,0.497986,0.043779,-0.452940,0.249321,0.103290,0.367885,0.469115,-0.143025,-0.010788,0.093005,-0.384213,0.038560,-0.184103,-0.210105,0.121082,0.353725,-0.480163,0.301904,-0.003403,-0.356899,0.452788,0.453429,-0.369228,-0.344172,0.123707,-0.051866,-0.280175,0.382046,-0.173727,-0.387326,0.161214,0.497009,-0.068255,-0.357570,-0.058458,-0.177450,0.129322,0.005478,-0.450224,0.212607,0.395047,-0.339228,-0.052843,-0.231651,-0.029588,-0.252403,-0.375240,-0.209616,0.132130,0.401273,-0.219382,0.372829,0.033891,0.073260,0.236381,-0.224204,-0.042467,-0.146382,-0.182302,-0.459929,0.313532,0.317530,0.394803,0.209159,0.185507,-0.176077,0.229118,0.483367,-0.482360,-0.095874,0.135548,0.192099,-0.499847,0.452788,-0.465850,0.262902,0.286340,-0.297967,0.152699,-0.260125,-0.437284,-0.364528,0.410245,-0.243156,0.254662,-0.002762,0.014084,-0.128101,0.147267,-0.446409,-0.199179,-0.330378,-0.296075,-0.237632,0.352535,0.037187,-0.136555,-0.493011,0.419736,0.020249,0.096667,0.051256,-0.317682,-0.334529,-0.495758,-0.129170,-0.120350,-0.244469,0.236839,-0.481628,-0.159291,-0.157155,0.018448,0.177664,0.446379,0.488556,0.054949,0.063585,0.054155,0.112568,0.108325,0.324335,0.417447,0.361629,0.018296,-0.398648,-0.370235,0.400754,0.452483,-0.095813,0.126179,0.034928,0.166128,-0.044420,0.271874,0.067278,-0.446776,-0.336024,-0.429380,-0.200491,-0.230399,-0.121113,0.023209,0.081561,0.209555,0.085925,-0.332575,-0.184194,-0.382748,0.197348,-0.168600,0.323237,-0.385586,0.094775,0.130634,0.476684,-0.075152,0.079882,-0.259514,0.008042,0.077776,-0.110248,-0.024308,-0.104205,-0.129231,0.432859,-0.292840,0.238517,0.373928,-0.098254,-0.351588,-0.478942,-0.243980,0.419553,0.042192,-0.320154,-0.285607,-0.124836,-0.221244,-0.127277,-0.210501,0.104816,0.477020,0.360622,0.345485,0.075091,-0.440184,0.406613,0.498047,0.224479,-0.145161,-0.401395,-0.229148,-0.380795,-0.248283,-0.497467,-0.238365,0.079913,0.447386,0.051531,-0.400632,-0.064989,0.310480,-0.422330,0.473663,-0.442442,-0.103992,-0.107135,0.017655,0.341548,-0.358089,0.324549,-0.174184,0.273553,-0.221763,0.112659,-0.112354,-0.243217,0.480682,0.074541,0.218558,-0.156941,-0.200766,-0.056810,0.469481,-0.470641,0.393948,0.286096,-0.203970,0.275018,-0.391964,0.409909,-0.231101,0.395810,-0.089465,0.158040,-0.393674,0.491485,0.239158,0.007035,-0.489868,-0.437559,0.274712,0.367824,0.386654,-0.027665,0.178762,0.498535,-0.266594,-0.087481,-0.174978,-0.065203,-0.026597,-0.475280,0.056322,-0.156209,0.017624,0.338191,-0.001663,0.208548,0.337458,0.177511,-0.039109,0.248405,0.328059,0.197501,-0.041307,-0.017899,0.244133,0.201010,0.382443,0.339900,0.489013,-0.103504,-0.148762,-0.269707,-0.461425,0.251274,-0.221610,0.468688,0.281426,-0.403714],[-0.347804,0.238701,-0.360195,-0.234947,0.133656,0.165548,0.044939,-0.182943,-0.236656,0.155660,-0.271874,-0.066149,-0.466918,-0.371364,-0.465392,0.121174,0.301172,-0.116565,0.447111,0.292871,0.240410,0.157613,-0.016373,-0.298212,-0.328944,-0.245415,-0.058428,0.333277,0.004807,-0.163411,0.143300,0.293054,-0.294031,0.165120,0.339991,-0.279443,-0.322687,-0.430296,-0.069811,0.258599,-0.024857,0.426725,-0.351222,-0.388821,0.261376,-0.071276,-0.116932,0.220450,-0.102405,0.426786,-0.227989,-0.406217,0.088610,-0.374447,-0.255089,0.312983,-0.019608,-0.086261,-0.344172,0.255699,0.119831,-0.389859,0.169942,0.061785,0.181845,0.407193,-0.441954,0.374294,0.370479,-0.207083,-0.444365,-0.112384,0.399869,-0.267144,0.442656,-0.266625,0.461699,0.392605,-0.000107,0.235313,0.085223,0.183035,0.499268,-0.435301,0.295984,-0.091266,0.382839,0.327570,-0.020219,0.301508,-0.212119,-0.385678,-0.142079,-0.280541,-0.426023,-0.455962,-0.020066,0.293909,0.008164,-0.166128,0.140156,0.304132,-0.235618,0.425108,0.124622,0.062639,0.394131,-0.302850,0.193960,0.090838,-0.076586,0.300775,-0.291101,-0.132740,-0.266442,0.141469,0.305078,-0.070727,0.380947,-0.455321,-0.477966,-0.390500,-0.487304,0.133992,0.294580,0.188314,-0.465636,0.453001,0.210837,-0.256523,0.185659,-0.136769,-0.055376,0.478576,-0.319361,-0.251823,-0.232139,-0.189199,-0.431120,-0.444548,-0.450865,0.000229,-0.026780,-0.291925,0.144978,-0.399197,0.360897,-0.083972,-0.410245,-0.484497,-0.495819,-0.080370,-0.008805,-0.064379,-0.213340,0.195791,-0.463561,-0.053484,-0.488708,-0.341975,-0.483642,0.080401,0.367153,-0.117420,-0.226646,-0.402249,-0.290094,-0.109607,0.479278,-0.221580,-0.186117,0.017563,-0.350337,0.003830,-0.249870,-0.095264,0.300836,-0.088702,0.048509,0.136708,-0.344783,0.402097,-0.201285,-0.436003,0.302545,-0.215964,0.347255,-0.162954,-0.278527,-0.169668,0.246239,0.184774,0.069720,0.035386,-0.389523,-0.031724,-0.352870,-0.150563,-0.460997,0.041368,-0.060320,0.172750,-0.242729,0.448973,-0.350978,-0.109058,0.136250,0.494537,-0.384823,-0.267479,0.244896,-0.291925,0.037828,0.229881,-0.408109,-0.254418,-0.097430,0.065172,-0.286706,-0.248558,0.018876,-0.417844,-0.238151,0.215140,-0.424894,-0.254631,-0.245201,-0.146992,-0.382046,0.327601,0.135945,-0.452940,0.361324,-0.392697,-0.191519,-0.128681,-0.267968,0.357173,0.294885,0.237480,0.058061,0.404599,0.179739,0.190909,0.305170,-0.454039,0.492401,-0.111530,-0.230888,0.095599,0.184866,0.288781,-0.370968,-0.149281,0.362148,0.087207,0.268273,-0.246391,0.420469,-0.074297,-0.230949,0.032456,-0.250053,-0.090320,0.487548,0.101856,0.158193,-0.037370,0.114826,0.004257,-0.329402,0.049760,0.130665,-0.326197,-0.135914,-0.197745,0.056139,-0.196249,0.390042,-0.427061,0.411222,-0.401730,-0.156819,0.455199,-0.216300,0.190878,-0.367702,0.295404,-0.084063,0.009507,0.009079,0.231498,0.214927,-0.129444,-0.088427,-0.212302,-0.406980,0.082446,-0.221671,0.057176,0.044603,0.340327,-0.010727,0.003983,-0.134571,-0.307184,0.090167,0.415403,-0.079150,0.362850,0.456053,-0.464354,-0.130909,-0.297662,-0.449126,-0.087024,-0.254204,0.063860,0.438780,0.490326,-0.183767,-0.131184,-0.296533,0.471862,0.101337,-0.345393,0.432585,-0.004227,0.483703,0.381375,0.422056,0.145375,-0.199973,-0.220420,0.257988,0.328883,-0.173879,0.020463,0.431455,-0.440153,-0.439299,0.489135,0.142811,-0.330653,-0.285669,-0.056780,-0.048265,-0.019242,-0.190512,-0.162893,-0.070757,0.478912,-0.201468,0.093524,0.467803,0.004379,-0.394711,0.103656,0.405972,-0.495117,0.496704,0.237114,-0.376247,-0.125996,-0.309168,-0.357326,-0.235008,0.409421,0.107685,-0.378262,0.242668,0.421445,-0.331660,0.354701,0.183920,0.023148,0.049699,0.262535,0.470794,-0.366573,0.300226,-0.215720,-0.467284,0.224235,0.223441,-0.148244,0.047411,-0.156972,-0.064959,-0.157125,0.206015,0.442228,-0.499573,0.294458,-0.300806,-0.454009,0.058184,0.156423,0.079974,-0.213126,0.336360,-0.131916,-0.340205,-0.157796,-0.032395,0.037950,-0.405728,-0.197653,-0.490783,0.008164,0.314325,-0.497955,-0.425291,0.085314,-0.040635,-0.154286,-0.017258,-0.281945,-0.031114,-0.342036,0.330103,0.403806,0.488281,0.091174,-0.105426,-0.395596,-0.254784,0.120624,0.274316,0.453795,0.053667,0.158803,-0.330409,-0.462981,-0.399899,0.462035,0.222831,0.034715,0.168233,-0.167043,-0.175985,-0.148274,0.396329,0.488128,-0.290674,0.035905,0.145711,-0.132466,0.088855,0.143025,-0.309168,-0.177877,-0.113239,0.469359,0.436399,-0.242454,-0.472869,0.319361,0.239067,0.293603,0.081042,0.189261,-0.018418,0.167348,-0.318812,0.148305,-0.445402,-0.087664,-0.389554,0.197897,-0.096576,0.343837,-0.029588,-0.108783,0.294885,0.382168,0.336329,-0.006760,0.461852,0.245415,0.304559,0.463408,-0.219657,-0.457823,0.338893,-0.458373,0.136616,0.296106,-0.178030,0.219230,-0.360652,0.433348,-0.282006,-0.124439,-0.165578,-0.235893,-0.247032,0.362331,-0.422575,-0.010269,-0.481048,0.316095,0.220878,-0.233970,0.408109,-0.019303,0.271966,0.355098,-0.216697,0.320673,0.177419,-0.104419,0.291345,-0.293115,0.391598,-0.175893,-0.275414,-0.044206],[0.106769,0.456664,0.291131,-0.078722,0.408933,0.029069,-0.005417,0.023911,0.446776,0.280053,0.071856,-0.470214,0.030442,0.281579,-0.360500,-0.380154,-0.148183,0.130482,0.389950,-0.231803,0.334864,-0.483642,-0.129994,-0.012925,-0.015702,-0.199606,-0.130177,-0.214530,0.134907,-0.107257,0.415128,0.317255,0.132282,-0.164632,-0.355770,-0.125111,0.476440,0.495941,0.351253,0.385220,-0.040361,0.279260,0.476348,0.063311,0.329676,0.262810,0.324671,-0.119068,-0.490387,-0.337794,-0.205008,0.005600,-0.094287,0.032792,0.399319,-0.133381,-0.165975,0.114216,0.354823,0.004288,-0.402097,-0.276513,-0.470733,0.358699,0.246849,-0.396725,-0.478607,0.153951,-0.451750,-0.368465,-0.343257,0.034776,0.203421,0.298669,0.181509,-0.389218,-0.161184,-0.141591,0.434324,0.065813,-0.195853,0.059160,0.278100,-0.012711,0.308161,-0.138844,-0.427152,0.073138,-0.076434,0.046556,-0.029374,-0.128468,-0.007370,0.128193,-0.185842,0.210288,-0.035936,0.463622,0.420133,0.471862,0.192984,-0.019913,-0.471496,0.370296,0.234977,0.417631,0.199301,0.386441,0.165578,0.495392,-0.062578,-0.482452,-0.043657,-0.091449,0.327845,0.497711,0.438902,-0.438749,-0.038774,0.144948,-0.112079,-0.057695,-0.067583,-0.008103,-0.245140,0.049486,-0.308191,-0.144276,-0.416990,-0.230857,-0.467986,-0.496338,-0.364559,0.117054,0.490234,0.070757,0.267449,0.246757,-0.052080,0.385556,-0.426176,-0.368038,-0.290765,-0.139576,0.343379,0.328761,-0.161092,0.102496,-0.149129,-0.275811,0.041246,-0.098407,-0.481689,-0.322230,-0.138478,-0.248619,-0.023331,0.461272,0.490692,-0.440153,-0.441008,0.403928,0.455077,-0.294336,-0.243217,-0.350978,-0.028214,0.096362,-0.329798,-0.072100,0.251854,0.384762,-0.016251,-0.242332,-0.468719,-0.000107,0.498749,-0.030595,0.112415,0.148610,-0.246605,-0.027726,0.195944,0.443999,-0.237663,-0.339625,-0.214530,0.317286,0.406339,0.368618,0.445372,-0.131123,-0.496399,-0.216788,0.193350,0.315455,0.094348,0.214042,0.309442,-0.311457,-0.031114,0.134144,0.341823,-0.058092,-0.028245,0.393277,0.091296,0.122791,0.112079,0.011490,-0.144429,-0.235801,0.011887,-0.040971,-0.285363,0.154195,-0.276330,-0.171163,0.138173,-0.361995,0.448393,-0.192099,-0.303339,-0.389859,0.184683,-0.146443,0.157277,0.351772,-0.158284,0.481262,-0.254448,0.370052,-0.154622,0.069842,-0.145253,0.396176,-0.229484,0.090747,-0.016770,-0.302911,0.029374,-0.222831,0.354976,0.350764,-0.497833,0.226585,0.231681,0.038682,-0.420042,0.281549,0.063219,-0.029374,0.256249,-0.419553,-0.049181,-0.347987,0.087481,-0.264306,-0.287896,0.165700,-0.281579,-0.366207,-0.275018,-0.234916,-0.273064,0.026017,-0.218741,0.438536,-0.443175,-0.145070,-0.268670,0.100146,-0.430387,0.223930,0.201071,-0.435789,-0.253136,0.415372,0.162313,-0.041215,0.074114,-0.136219,-0.362056,-0.264946,0.137593,0.490631,0.323298,-0.071184,-0.034745,0.306269,0.404416,-0.170095,-0.356960,-0.313929,0.355220,-0.283654,-0.262047,0.226615,-0.005814,-0.191122,0.058824,-0.412259,-0.417814,0.102802,-0.213675,0.227927,0.242546,0.232719,-0.496643,0.437895,0.484375,0.026963,0.157277,-0.420530,0.111225,-0.092547,0.484436,-0.064013,0.295251,-0.208060,-0.070391,0.079913,0.098773,-0.346095,-0.409665,0.164510,0.224601,0.397366,0.218009,0.045610,0.275689,0.202109,-0.193289,-0.360469,0.306116,-0.003861,-0.198355,0.423917,-0.055620,0.211020,0.457488,0.486755,-0.130085,0.476867,0.378475,0.031388,-0.075365,0.412931,-0.228416,-0.257988,-0.359706,0.170400,0.443724,-0.082751,0.463469,-0.116993,0.074236,-0.222709,0.458434,-0.317652,-0.205802,-0.148579,-0.229514,0.433897,-0.396573,-0.148549,-0.370144,-0.150227,-0.343135,-0.061968,0.177999,0.135090,-0.048784,-0.214164,-0.102618,-0.176656,0.443052,0.353572,-0.073901,-0.042283,0.130177,-0.234642,0.038469,0.274407,0.126972,0.210105,-0.427122,-0.456145,0.264885,0.264000,0.088153,-0.273125,0.250023,-0.456267,0.029649,0.101093,-0.091754,0.095752,0.186514,0.014481,-0.450499,0.427885,0.220939,0.422178,-0.017136,-0.409696,0.051317,-0.137410,0.212546,0.211264,0.369778,0.029435,0.347560,-0.106006,0.075915,-0.404660,-0.245048,-0.118427,-0.092212,0.444304,-0.011307,0.395352,0.051561,-0.032304,-0.474822,-0.446532,0.010453,-0.418058,-0.163411,0.275994,-0.484710,0.122394,-0.166677,0.082080,-0.242943,0.270775,0.206992,0.186514,-0.277367,-0.327998,-0.295160,-0.198965,-0.083941,-0.103198,-0.132679,0.047075,0.245018,-0.093982,0.259575,0.386013,0.355159,0.173452,-0.271661,-0.026719,0.192587,0.122852,-0.284356,-0.157247,0.076403,0.035875,0.160268,0.327021,0.061907,0.086810,0.018326,-0.379391,-0.123585,-0.339442,-0.065630,-0.107929,0.208487,-0.389828,0.093982,-0.149342,-0.368404,-0.390103,-0.210654,0.175069,-0.055498,0.260338,-0.271020,-0.291009,0.208151,0.101672,-0.377285,-0.168844,0.261528,0.191549,0.073565,-0.094989,-0.002731,0.403500,0.307184,0.214896,0.178030,0.102283,-0.229270,0.294794,0.075396,0.352596,0.132069,0.055864,-0.287866,0.317042,-0.289727,-0.380825,-0.010697,0.000046,-0.130268,0.259636,0.479308,-0.006546,0.407559,0.367397,0.166250,0.380551,0.467040,-0.166585],[0.061510,0.363674,0.415525,-0.429441,0.406796,0.361599,-0.063097,0.121784,-0.355312,-0.086871,-0.113056,0.256584,-0.110950,0.423337,0.058031,0.343318,-0.286279,0.040330,-0.103107,-0.131672,-0.320246,-0.479217,0.313746,0.060594,-0.278100,-0.304102,0.409299,0.335200,-0.057024,-0.287347,-0.124165,-0.284692,0.473022,0.081866,-0.021714,-0.485870,-0.451109,0.063982,-0.478362,0.057482,0.471129,0.424223,-0.289087,-0.271233,-0.406522,0.087756,0.309931,0.117847,0.002640,-0.273064,0.005295,-0.445952,0.042894,-0.188803,0.381588,-0.194205,0.343379,0.150960,0.414060,0.226920,-0.496948,0.467315,-0.114612,0.131916,0.090564,0.017869,-0.367611,-0.319025,0.114277,-0.188925,0.028916,0.055620,-0.380154,0.438994,-0.388424,0.207083,-0.429441,0.061083,0.254204,-0.042192,-0.332637,-0.430815,-0.202811,-0.261834,0.264428,0.465758,-0.461455,-0.261406,0.036790,0.485839,0.492248,-0.240379,-0.443846,0.494842,-0.179647,-0.460112,0.431242,-0.307337,0.345607,-0.155690,0.168569,-0.344172,-0.450224,0.093066,0.410520,0.248772,-0.034745,-0.187185,-0.293664,-0.064623,0.364742,-0.308374,0.472900,-0.477630,-0.343410,-0.481506,0.300714,-0.134449,-0.108600,-0.211051,0.262383,-0.430113,0.285699,0.257805,0.378903,0.215476,-0.329798,0.220725,-0.099414,0.139668,0.267541,-0.194784,-0.441313,0.307550,0.206565,0.052843,0.443907,0.301050,-0.320673,0.073626,-0.332026,-0.041063,0.146626,0.053911,0.465300,-0.301904,0.498840,0.399289,-0.110767,0.047990,-0.421995,-0.207022,-0.238426,0.428800,-0.032426,0.452177,0.029099,