[[[0.070574,-0.053941,0.356685,-0.371364,-0.407681,0.287561,0.245384,0.334620,0.399136,0.048418,-0.446226,0.232078,0.451567,0.017991,0.180563,-0.002762,0.463805,0.325709,0.421537,0.190329,-0.088153,-0.426817,-0.117695,0.262627,0.137806,0.147084,-0.334620,-0.380032,0.283776,0.041185,0.028001,0.274468,0.462706,-0.029984,0.166860,0.114765,0.071306,0.054491,0.286309,0.327479,-0.347987,-0.138997,-0.394528,-0.000534,0.210135,0.075457,0.461760,0.433775,0.392056,-0.406858,0.165700,0.208914,0.431120,0.306177,-0.235649,-0.485748,0.267602,0.368954,0.369076,-0.208304,-0.251671,0.223869,0.203940,0.215171,0.312952,0.167806,0.031205,0.039415,0.072558,-0.259148,0.109882,0.349208,-0.312647,-0.281243,0.343806,0.240135,-0.050676,-0.010117,-0.224540,-0.037797,0.476104,0.098254,0.081683,0.057726,0.422514,-0.265923,0.227561,0.024430,-0.383999,-0.047472,-0.065172,-0.464568,0.022263,0.402371,0.121021,-0.253044,-0.053453,0.345546,-0.034562,-0.274926,-0.121448,-0.250725,-0.241630,-0.476867,0.385311,0.231376,0.189932,-0.059374,-0.040574,0.140492,0.234214,0.494995,0.228904,-0.447813,0.285943,-0.362575,0.434111,0.462706,-0.295282,-0.255486,-0.421201,-0.039384,0.424406,-0.084094,0.161397,-0.341121,-0.217612,0.110340,-0.107898,0.167531,0.226646,-0.349452,0.303095,-0.111469,0.055315,-0.371212,-0.342830,-0.085314,-0.153798,0.243797,0.061937,0.312647,-0.268212,-0.399380,0.194632,-0.427610,0.176138,0.004929,-0.454772,-0.496094,0.410062,0.282220,-0.417051,0.362178,0.180837,0.154042,-0.247032,0.482086,-0.027512,0.202017,-0.290613,0.204337,0.353145,0.450865,-0.308985,0.373775,-0.394650,0.101978,0.445677,0.190786,0.296350,0.448698,-0.390347,-0.302026,-0.056688,-0.495972,-0.051225,-0.317469,0.431303,0.373348,0.366573,0.275994,0.338862,-0.098590,0.086749,0.032426,-0.171621,-0.373012,-0.084643,-0.233421,0.256981,-0.425077,-0.010483,-0.067217,0.164480,-0.082812,-0.081317,-0.173696,-0.205466,0.034715,-0.275384,0.388089,-0.194845,0.010605,0.486633,-0.105548,0.325007,0.086322,0.097949,0.312555,0.011582,0.112049,0.039903,-0.396664,0.267754,-0.477752,-0.420377,-0.247093,0.272546,-0.131703,0.298212,-0.186483,-0.017228,0.438414,0.354793,-0.264092,-0.238456,-0.002853,0.393490,0.273705,-0.209891,0.175314,0.499176,-0.258812,-0.081133,-0.458861,0.108112,-0.093829,0.114460,-0.115192,0.280145,-0.201376,0.158467,-0.253349,0.238334,-0.283258,-0.245415,-0.278802,-0.417600,0.211356,-0.299890,-0.432432,0.082476,0.330134,0.278069,-0.342189,0.458739,-0.096942,-0.473571,-0.205588,0.054125,0.149831,-0.459471,-0.071703,-0.194357,0.390957,0.464843,-0.191855,0.420652,0.143544,0.330470,0.093127,0.164541,0.383206,0.394650,-0.040910,0.166219,0.253136,0.138539,-0.269097,-0.352931,0.001724,-0.420896,-0.429197,-0.019761,0.429960,0.052263,-0.245048,-0.013840,-0.370266,0.122425,-0.430967,0.370632,0.294794,-0.224479,0.354457,-0.288232,0.384518,-0.448332,-0.264336,-0.097980,0.423246,-0.226981,-0.438932,0.451598,0.214957,-0.475921,-0.412534,-0.440886,0.255730,-0.460143,0.440306,0.356868,-0.375729,-0.341212,-0.119800,0.234977,-0.367306,-0.003922,-0.092242,-0.346828,0.017777,0.494110,-0.262719,0.344203,-0.045152,0.006119,0.170827,0.316340,-0.324793,-0.430692,0.404050,-0.438719,-0.031877,0.023515,-0.205191,-0.127064,0.348811,-0.368038,-0.373806,-0.316065,0.173971,-0.139760,0.394528,0.326258,0.485565,-0.030320,-0.345851,-0.378689,-0.135517,-0.418638,-0.049486,0.207114,0.075213,-0.132710,-0.128346,-0.492737,-0.217338,-0.475494,-0.249260,-0.250481,0.122730,0.188894,0.049791,-0.061296,0.407376,0.444456,-0.043321,0.191549,-0.254082,0.084765,0.225913,0.338771,-0.136433,-0.217490,-0.205039,0.201041,-0.101764,-0.176473,0.207450,0.445219,0.457579,0.061357,0.373653,0.426481,-0.283624,-0.250908,-0.299097,-0.076373,-0.162954,0.404233,0.123676,0.172689,0.492889,0.362789,0.065813,0.105823,-0.223655,0.179617,-0.134724,0.201621,0.273766,-0.469848,-0.306574,-0.147114,-0.413511,-0.229179,0.499359,-0.341792,0.081378,-0.186636,0.010941,-0.456267,0.150410,0.470489,0.323939,0.121113,-0.238182,-0.072130,0.110034,0.188192,-0.416898,0.499969,-0.024522,-0.221580,0.457793,0.324641,0.001114,-0.334620,-0.483245,0.154073,-0.004532,-0.271416,-0.294000,-0.102832,0.492004,0.086932,0.011002,0.070482,0.021561,0.406034,0.160176,-0.186544,-0.308130,0.285363,0.087848,-0.375668,-0.395718,0.132099,-0.061663,0.473144,0.140309,0.427213,-0.107837,0.447722,-0.351833,-0.209342,-0.404202,-0.410672,-0.438963,-0.248527,0.476501,0.074114,0.478332,-0.370876,-0.277429,0.395932,0.240898,0.432798,0.211509,-0.291864,-0.468230,0.183981,0.166128,-0.020676,0.033708,-0.430296,-0.179098,0.119953,-0.326014,0.331690,-0.120991,-0.264245,-0.010758,0.298151,0.041795,-0.335292,0.140034,0.464538,0.391629,-0.046922,-0.392850,0.029344,-0.090320,0.427305,0.101215,-0.208792,-0.090350,-0.482086,-0.284204,-0.186544,-0.331294,0.491638,-0.143574,-0.237205,0.036973,-0.252251,-0.023911,-0.172262,0.306818,0.335414,-0.351527,-0.376492,0.123127,0.347804,0.010605,-0.010300,-0.284173],[0.343623,0.262200,-0.218375,0.085559,0.157338,-0.304468,0.476745,0.482421,0.307764,0.133992,-0.240318,0.035844,-0.151418,-0.316614,0.269646,0.010086,0.478179,-0.055467,-0.383267,-0.163289,-0.384976,0.021561,-0.090869,0.430204,0.299554,-0.057634,0.116230,0.222617,-0.285607,0.221854,0.004410,0.481719,-0.144307,-0.026200,0.426206,-0.431700,0.385586,0.477844,0.244285,0.289514,0.197806,-0.392087,-0.328669,0.003677,-0.272576,0.028123,0.307428,-0.366146,-0.464141,-0.437590,-0.344356,0.245537,0.202689,-0.355403,0.397671,0.344966,0.055101,0.254326,0.210166,-0.445250,-0.233146,0.245842,0.403836,-0.177602,0.357356,0.475738,0.165487,-0.181600,-0.377773,-0.364742,-0.314783,-0.320124,-0.472564,0.194693,-0.050462,-0.243400,-0.403348,0.364498,0.481628,-0.485443,-0.175253,0.480956,-0.189810,0.254662,0.147511,-0.278497,-0.051653,-0.198386,-0.000595,-0.443358,-0.337062,-0.179952,-0.009445,-0.155873,-0.183340,-0.086169,0.233818,-0.027726,-0.436522,0.164541,0.353908,-0.041856,-0.321253,0.266137,-0.290979,-0.092761,-0.194510,-0.088946,-0.143056,-0.259392,-0.102161,-0.414975,-0.203787,-0.404172,-0.356868,0.425932,0.014206,-0.191794,0.143544,0.303339,-0.127064,-0.122028,-0.361110,-0.224387,0.364193,0.330439,-0.448210,0.079424,-0.235313,-0.125202,-0.363918,-0.190848,0.223380,-0.232047,-0.489776,0.441984,-0.188803,-0.210227,0.356594,0.364803,0.065172,-0.264183,0.068133,-0.440580,-0.442076,-0.165822,-0.376553,-0.397732,-0.476318,-0.008164,-0.028275,0.134571,0.072436,0.278069,0.208609,0.459777,0.022782,-0.450285,0.324305,0.423978,-0.114277,-0.374050,0.305445,0.235862,0.029740,-0.082476,-0.128681,0.382534,-0.441252,-0.082293,-0.373440,0.296747,-0.065538,0.460784,-0.089343,-0.066912,-0.126209,0.154134,0.126392,-0.091937,-0.446776,-0.109180,-0.172292,0.360988,-0.349178,-0.151997,0.348842,0.192068,0.257591,-0.121754,0.255486,-0.166616,0.188986,-0.300378,0.399869,0.209586,-0.271722,-0.209159,-0.140065,0.044023,0.332850,0.397732,-0.454711,0.167104,0.334223,-0.442808,-0.250084,-0.017380,0.164022,-0.454741,0.433470,-0.251244,0.136219,-0.345180,-0.487518,-0.170522,0.317438,-0.289911,-0.057360,-0.426664,-0.483856,0.223441,-0.127033,-0.025010,-0.077258,-0.399106,-0.346034,-0.223563,0.430631,0.303247,-0.019791,0.164083,0.170797,0.367824,-0.050981,-0.282678,0.290033,0.198294,0.316614,-0.234092,-0.495056,0.028306,-0.267632,-0.188894,0.462371,-0.035264,0.233360,0.168264,0.437651,0.017930,-0.220664,0.485717,0.402219,0.024003,0.110584,0.297204,-0.008469,-0.133839,-0.291314,0.263848,0.404569,-0.098804,0.142537,0.261437,-0.233818,-0.002915,-0.419889,-0.029862,-0.016190,0.088366,-0.252342,0.122028,-0.370693,-0.344783,0.117145,0.063189,-0.122394,0.032731,-0.396207,-0.213248,0.033219,-0.043687,-0.445494,0.092456,-0.324244,0.249962,0.308405,0.029801,-0.043809,0.063097,0.111072,0.280419,0.074175,-0.437468,-0.336421,-0.363826,0.468963,0.486084,0.087329,0.229484,-0.246300,0.463042,-0.413694,-0.328669,-0.073992,-0.490692,-0.412015,-0.245781,-0.115833,-0.397824,-0.356349,-0.124409,-0.217856,-0.258721,-0.130055,-0.161824,0.253105,0.402524,0.212790,0.183767,0.033708,-0.209525,0.314570,-0.283959,0.019791,-0.203696,0.266259,0.369625,0.285119,0.066393,0.025498,0.080584,0.094104,0.089099,-0.217948,-0.184530,0.440214,-0.294916,0.051469,0.414762,0.140492,-0.052202,-0.221091,0.406735,0.018632,-0.379818,0.233695,0.448759,0.206717,-0.485900,-0.023698,-0.448729,0.097400,-0.321467,-0.321314,-0.258110,-0.022050,-0.357265,0.079669,0.324274,-0.122944,0.000992,-0.144124,0.389859,-0.344386,0.264672,-0.309442,-0.262688,-0.126728,0.388272,0.320276,-0.143483,0.461241,-0.124561,-0.158162,0.133351,-0.266808,-0.128437,0.060076,-0.068834,-0.234642,0.148518,0.157796,-0.294092,-0.323206,0.388607,0.469420,-0.189657,-0.158467,-0.326594,-0.360775,0.143941,-0.436613,-0.415922,-0.054094,0.305017,0.245170,-0.180898,0.073809,0.400937,-0.417081,-0.264183,0.113422,0.172567,-0.182638,-0.277703,0.071001,-0.410184,-0.427488,-0.194754,-0.330378,-0.426206,0.314051,0.400662,-0.277642,0.002365,-0.042314,-0.386746,-0.141224,-0.344966,-0.340449,-0.008927,-0.113361,0.253685,0.318964,0.141133,-0.430784,0.255058,-0.174184,0.113025,0.100024,-0.448332,-0.416929,-0.043901,0.056139,-0.262871,0.336116,0.356807,0.111133,0.091876,-0.160390,-0.237724,0.289209,-0.053728,0.394040,-0.103229,0.041307,-0.423399,-0.217856,0.076464,-0.074786,0.290887,-0.362636,0.229789,0.169759,-0.140217,-0.225120,0.028764,-0.094226,-0.049883,-0.483001,0.038224,0.343654,-0.283776,-0.456114,0.288507,-0.320093,0.205802,0.300897,0.178549,0.013260,-0.263573,0.493713,0.115009,0.051775,-0.100665,-0.297174,-0.205679,-0.107715,0.345912,-0.351588,-0.466704,-0.346736,0.013993,0.136525,-0.445219,0.242759,-0.050188,0.218497,-0.365047,0.041734,0.381741,-0.405637,0.017838,-0.214621,0.202414,-0.208213,0.003861,0.422514,-0.484771,0.151418,0.118458,0.234703,0.401669,0.150227,0.266991,-0.003281,-0.434873,0.094226,-0.217948,0.459075,0.008713,-0.288934,-0.229850,-0.066118,0.401822,-0.325129,-0.337336],[-0.115162,0.454039,0.391507,0.026566,-0.177480,0.489807,0.006180,-0.187765,0.099292,0.309412,0.404141,-0.372097,-0.116474,0.483612,-0.361293,-0.361080,-0.253075,0.080981,-0.347011,0.069597,0.356960,-0.421812,0.079943,0.331782,0.044816,-0.219108,-0.395383,-0.435850,0.312922,-0.073534,-0.218833,-0.193838,0.438078,0.499481,-0.288995,-0.412137,-0.173482,-0.208640,0.488891,0.217399,0.277306,-0.264306,-0.177450,-0.453642,-0.190054,0.049669,-0.267266,0.495758,0.213004,0.213889,-0.260887,0.122150,-0.030595,0.321009,0.439177,-0.493286,-0.284875,0.324946,-0.114338,0.247429,-0.112781,-0.278375,-0.330653,-0.163869,-0.282373,0.192801,0.112995,-0.298303,0.228904,0.243522,0.482757,0.200308,0.388028,0.365810,-0.376339,0.334376,0.074969,-0.241935,-0.074847,0.481201,0.021744,0.133198,0.022691,-0.087512,0.378323,-0.354854,0.142232,0.386532,0.061937,0.466491,0.493347,-0.406674,-0.454100,0.046953,-0.382504,-0.264916,0.243858,-0.414304,0.097797,0.022141,0.146077,-0.253105,-0.464110,0.366726,-0.135701,0.151143,0.203238,0.054674,-0.259606,-0.326502,0.271905,-0.322504,0.176351,0.079394,0.032273,0.104907,-0.159261,0.029435,0.002823,-0.219993,-0.091266,-0.014969,0.339015,0.117786,-0.008683,0.045244,0.447142,0.288415,-0.089557,0.246849,0.209616,0.166677,-0.024186,0.358364,-0.272301,-0.271477,-0.079760,-0.300623,-0.011795,-0.323756,0.149220,0.016923,0.360134,-0.426786,0.461241,-0.050798,0.327693,0.269982,-0.104999,0.108844,0.365963,-0.097736,-0.139790,0.316431,0.365352,0.242821,0.207144,0.015580,-0.488983,-0.312281,0.392514,0.401090,0.023850,-0.341060,0.397061,0.291009,-0.331294,-0.295953,-0.448759,0.274438,0.436888,0.074358,-0.074267,0.165487,0.308222,0.063128,0.442076,0.295587,0.499939,-0.115528,0.098193,-0.325373,0.107807,0.374630,0.302423,-0.447325,-0.453826,0.296869,0.458251,0.413266,-0.306787,-0.469024,0.146352,-0.070544,0.147206,-0.071062,0.369991,-0.085711,-0.499237,0.117664,-0.466094,-0.203513,0.038713,0.030503,-0.024552,-0.347316,-0.234184,0.448271,0.465789,0.327815,0.171407,0.331477,0.338740,-0.325678,-0.364132,0.224693,0.402524,0.442137,-0.113269,-0.485504,0.290765,-0.150136,0.409024,-0.177694,0.409513,0.369350,0.217673,0.312799,0.136067,-0.246208,-0.102954,0.200125,0.426145,-0.158071,0.314508,0.232414,0.485107,0.168203,-0.086108,0.435881,-0.339473,-0.088702,-0.004379,-0.099750,0.211081,0.211661,-0.111103,-0.113727,0.109058,0.389279,0.423276,0.036668,-0.467956,0.093249,-0.395108,-0.027909,0.200735,-0.085620,-0.095660,0.052934,0.218009,0.491485,0.061785,-0.411649,-0.433073,-0.356563,-0.183798,0.274071,-0.077258,-0.442045,0.464599,0.139515,-0.064226,-0.432188,-0.342616,-0.213584,-0.358913,-0.453368,0.336818,0.199484,0.151723,0.454894,0.223472,-0.089587,0.290857,0.067461,-0.241295,-0.202994,0.320154,0.414396,-0.092242,0.298059,0.419767,-0.034623,-0.269341,0.325617,0.076739,0.089953,0.127125,-0.344295,0.037645,-0.175802,-0.338740,0.078906,-0.017838,0.475372,-0.127155,0.091754,-0.426603,0.095569,-0.019181,0.410672,0.041551,0.356044,0.386227,0.089129,-0.043016,-0.147176,-0.120533,-0.480071,0.349025,0.375484,-0.040452,0.103107,-0.173452,0.169942,0.170492,-0.138661,-0.142872,-0.273431,-0.138264,-0.216117,-0.139698,0.125324,0.278649,0.180136,0.271630,0.468108,0.389218,-0.175680,0.233787,0.430937,0.353481,0.172384,0.070757,0.466033,0.041612,0.432463,0.201621,-0.314112,-0.492584,-0.229972,-0.350154,-0.039995,-0.177358,0.429258,-0.195212,0.255760,0.179342,0.051256,-0.408994,-0.245201,-0.334223,-0.028703,-0.297510,-0.223930,-0.377407,-0.224540,0.057360,0.036576,-0.014878,-0.101611,0.129322,0.281457,-0.481628,-0.456542,0.312830,-0.185629,0.351070,-0.293817,-0.022874,-0.040452,-0.285882,-0.417325,0.366543,-0.013413,0.291284,0.143941,0.002213,-0.470244,0.086596,0.157338,-0.257561,0.032243,0.216300,0.436979,0.157247,0.247368,-0.469726,-0.396603,0.373745,0.327479,0.470336,0.134571,0.048387,-0.467803,0.070635,-0.010971,-0.377529,0.086901,-0.492828,-0.417447,-0.482849,0.222800,0.102405,0.399594,0.424070,-0.069933,0.190878,0.020798,0.347804,0.455077,-0.247154,-0.152272,-0.443205,0.072832,0.221488,0.306116,0.098834,0.166402,0.370113,-0.191275,0.036485,0.143788,-0.314051,0.259667,0.060503,0.224418,0.136372,0.380428,-0.364284,-0.374416,-0.266167,-0.360164,0.336665,0.180990,-0.193808,0.068590,-0.471282,-0.078478,0.378109,-0.260186,0.051683,-0.348964,-0.430082,0.196982,0.060747,0.046739,0.420896,-0.389798,-0.317286,0.316645,0.041734,-0.057543,-0.357540,-0.055254,-0.495727,-0.093341,-0.483459,-0.444426,0.373074,-0.004807,-0.230216,0.428831,0.286157,0.362728,0.231681,-0.304346,0.490905,-0.156117,0.168111,-0.251640,-0.259087,-0.112812,-0.394620,-0.106647,0.460967,-0.314234,0.062090,-0.219626,-0.414792,0.287042,0.345729,-0.362270,-0.023911,-0.038133,-0.430082,-0.154164,-0.171133,-0.385067,0.048570,-0.120502,-0.030534,-0.482788,0.223167,0.151051,0.450560,0.142018,0.279656,-0.215293,0.352962,0.385861,-0.389004,-0.145863,0.198508,-0.044725,-0.218436,0.113880],[0.397641,0.431913,-0.425626,-0.433500,-0.178762,-0.194174,0.225730,0.135304,0.230522,-0.021744,-0.381252,-0.405454,-0.169942,-0.430082,-0.293878,-0.354457,0.036576,-0.024430,0.103107,-0.455443,0.274865,-0.160756,-0.377865,0.120167,-0.238884,-0.092578,0.338740,-0.298700,0.342830,-0.365780,0.400723,-0.186605,0.036027,-0.305353,0.113758,0.048021,0.041093,0.062365,0.332728,0.012803,-0.481841,-0.191916,-0.308496,-0.232597,-0.096240,0.275170,-0.298212,-0.347499,0.049577,-0.211997,0.252007,-0.082812,-0.035356,-0.449705,-0.461699,0.051592,0.442625,-0.111316,-0.041795,0.231010,0.354732,0.498535,-0.001694,-0.222739,-0.109821,-0.152120,-0.352443,0.044267,-0.474975,0.395779,0.367214,-0.366787,0.000809,-0.218589,0.148335,0.344722,0.094165,-0.359859,-0.311060,-0.227165,0.458831,0.202750,0.221091,-0.051561,0.320978,0.334040,0.019791,-0.062487,0.309503,0.167348,0.124989,-0.199454,0.202200,-0.009049,0.307245,-0.180044,-0.130757,-0.457549,-0.190725,0.400937,0.195212,0.367885,-0.106128,-0.447508,0.260765,0.401395,-0.270318,0.355068,-0.434477,0.421964,-0.353633,0.320246,-0.426847,-0.456816,0.289850,0.049791,0.359706,0.392758,-0.290613,0.099445,-0.352870,0.137226,-0.092395,0.454161,0.002640,0.009201,-0.115589,-0.479186,0.485168,0.492492,-0.293451,0.045061,-0.479461,-0.178365,-0.366359,-0.142232,0.286523,-0.047594,-0.167684,-0.141774,0.388485,-0.341121,-0.290918,0.139698,0.107685,-0.085833,0.394131,-0.336207,0.002976,0.210166,0.406217,0.390194,0.147206,-0.026688,0.030961,0.267205,-0.220267,-0.267785,0.442991,-0.009568,-0.343898,0.193350,0.103290,-0.065081,-0.123676,-0.118610,0.463805,0.167470,0.472900,-0.499847,-0.490814,-0.054674,-0.460265,-0.329463,0.168355,-0.392605,0.183706,0.201590,0.125904,0.264367,0.079150,-0.448912,0.065508,0.193747,-0.092395,-0.368038,-0.123859,0.346431,0.463469,-0.379788,-0.147725,-0.129353,-0.293420,-0.078356,0.419706,0.059984,-0.455962,-0.047380,0.417692,-0.368770,-0.379147,-0.108417,0.469543,-0.261376,-0.097583,0.057756,0.471648,-0.369137,0.328852,0.072741,-0.266533,0.356624,0.322840,0.461791,-0.201102,0.425443,0.432493,-0.149312,0.480529,-0.170278,-0.110096,0.414670,0.138020,0.334559,0.367336,-0.264733,-0.267876,0.441038,-0.288568,-0.277917,-0.314966,-0.070025,-0.062273,-0.245170,0.078814,0.391751,0.265831,-0.297418,0.222770,-0.351192,0.476928,-0.023942,0.121448,0.476959,0.374905,0.269555,-0.125782,-0.468261,-0.367794,0.148335,-0.462371,-0.113666,-0.198386,0.138234,0.482025,0.086505,-0.224754,0.473296,-0.226707,0.130055,0.472503,0.157796,-0.388180,0.275872,0.037004,0.499359,0.358791,0.089465,0.325465,-0.231620,0.181692,-0.368831,-0.031999,0.141346,-0.149464,0.192953,-0.217521,-0.416959,-0.284478,0.490539,-0.176504,-0.175100,0.397458,-0.283349,-0.152821,0.094897,0.222434,0.362087,0.473632,-0.243950,-0.067888,0.210288,-0.172567,-0.490967,-0.299768,0.412290,-0.061510,0.315790,-0.012589,0.047838,-0.316828,-0.300287,0.264702,0.079180,-0.451537,-0.420469,0.137867,0.103534,-0.001022,0.292199,-0.096850,-0.189230,-0.270806,-0.038316,0.065966,-0.447600,-0.418424,-0.130146,-0.146352,-0.071856,0.411863,-0.014786,0.253716,-0.203787,-0.317194,0.306360,-0.391293,-0.386105,0.068194,0.176107,0.298914,-0.485809,-0.152944,0.222434,-0.455748,0.025315,0.370876,0.082904,-0.143361,-0.161214,0.383938,-0.431913,0.173635,-0.467254,0.478484,0.421293,0.205588,-0.343501,0.466002,0.329615,0.026322,0.082781,-0.054338,0.343654,0.439573,0.033647,-0.148671,0.361476,0.151936,-0.313379,0.258385,-0.166585,0.283807,-0.232902,0.231376,0.343623,0.249229,0.033311,-0.005905,0.224876,-0.463561,0.060137,0.203269,-0.136830,0.419858,0.228019,-0.393307,-0.152547,0.134907,0.323176,-0.132191,-0.378231,-0.452727,-0.344630,-0.162984,-0.204611,-0.152730,0.099567,0.052019,-0.232566,0.300867,-0.032365,-0.252403,-0.177786,-0.411252,0.116382,0.156667,0.351558,-0.235496,0.198141,0.383175,0.360256,0.363063,0.460204,-0.370937,-0.088946,-0.309198,-0.000626,0.055589,-0.334742,-0.171224,-0.122181,0.060778,0.175375,0.379727,0.006455,0.254173,0.085864,0.490814,0.202200,-0.089923,-0.101520,0.182699,0.325343,0.180624,0.458129,-0.483215,-0.096942,-0.150258,-0.184164,-0.368557,0.145955,-0.090533,-0.375027,0.178549,-0.237205,-0.260277,-0.273370,0.191885,0.480804,0.172994,0.081011,-0.081713,-0.322871,0.224784,-0.299402,-0.357021,0.027909,-0.228477,-0.258324,0.040300,-0.418943,-0.042985,0.410154,0.080889,0.159352,-0.391568,-0.161916,0.027146,0.499512,-0.398495,-0.364864,0.064562,-0.043199,-0.203330,0.053087,0.478759,-0.451933,0.007675,0.006424,0.236534,0.290582,0.125233,0.441038,0.104266,-0.426725,0.418271,-0.258080,-0.148946,-0.184194,-0.053087,0.272057,0.257927,-0.433561,-0.107135,-0.493439,0.339259,-0.038041,-0.194632,0.419248,-0.190939,0.454650,0.044847,0.276940,0.322169,0.213340,0.204794,0.498779,-0.477813,0.104511,-0.206320,-0.264306,0.427458,-0.340266,-0.042375,-0.172781,0.185904,-0.064409,-0.474578,-0.208701,-0.269433,-0.327570,0.157216,-0.496429,0.366634,-0.341517,-0.122333,0.222465],[-0.237358,0.176626,-0.413938,0.128132,0.138356,0.149678,0.447630,0.495025,0.218253,-0.114704,-0.425474,0.333491,0.382900,0.337703,0.419492,0.069323,-0.267327,-0.491241,-0.432981,-0.322504,-0.344172,-0.205008,-0.355373,0.325251,0.002701,0.089251,0.142232,-0.462767,-0.284722,-0.482940,0.328059,0.073717,0.318140,-0.410672,-0.083789,-0.447447,0.176748,0.051805,-0.357448,0.347041,-0.070177,0.213431,0.404752,-0.210257,0.001602,0.034501,0.123432,0.215140,-0.399533,-0.244560,-0.020005,-0.129658,0.110340,0.348292,0.187857,0.227134,0.280480,-0.428648,-0.047166,-0.274957,0.120838,-0.090991,-0.220420,0.477691,-0.091479,0.177023,-0.220267,-0.027177,0.211661,0.075610,0.138386,0.298364,0.337550,0.293695,-0.457305,-0.397000,-0.209433,0.250938,-0.084582,-0.058947,-0.160543,-0.379788,0.144368,-0.410581,-0.148183,-0.177999,0.488342,-0.288507,0.017655,-0.254143,0.400113,0.041673,-0.209555,-0.442412,0.314692,0.070513,-0.386074,0.374691,-0.051866,0.074145,0.416257,-0.048143,-0.007065,0.425443,0.462188,-0.155202,0.231651,-0.072588,0.389950,0.496796,-0.239219,-0.488342,0.241142,-0.226157,-0.490051,0.305963,0.383053,-0.177511,-0.205771,-0.398068,-0.269768,0.030595,-0.444090,-0.245140,0.170675,0.373257,0.452116,-0.454222,-0.396420,-0.075274,0.444151,0.038469,0.494812,-0.182516,0.045335,0.460936,0.355708,0.429777,-0.116901,0.144429,0.052660,0.083056,-0.268212,0.049638,0.352351,0.030473,-0.327631,-0.087481,-0.390042,0.017411,-0.464385,-0.459777,0.006241,0.195700,0.284417,0.288720,0.239219,-0.327387,0.491882,0.253441,0.077898,0.475890,-0.428373,0.203879,-0.317103,0.215720,-0.084063,-0.206259,0.101398,0.225852,-0.401456,0.077715,-0.158162,0.463744,-0.201834,-0.134053,-0.064837,-0.047655,-0.401212,-0.052141,0.388516,0.043840,0.323389,-0.283624,0.437773,0.286859,0.056963,0.223594,-0.494812,0.178610,-0.484680,0.199484,0.268578,-0.416990,-0.084124,0.064776,-0.252556,0.096026,0.006363,0.469085,-0.186239,0.139485,-0.091510,0.385800,0.032182,0.064806,-0.068163,0.294824,0.236930,0.047563,0.015000,0.484497,-0.248924,0.054430,-0.050279,0.003708,-0.345119,-0.336329,0.044725,0.296045,0.008866,0.020341,0.385037,0.046312,0.438536,-0.292657,0.343318,0.271783,-0.013504,-0.185904,0.499512,0.188284,-0.361476,-0.016495,-0.375332,-0.116718,0.429563,-0.281426,-0.114002,0.326777,-0.463866,-0.269646,-0.071917,-0.248863,0.261467,-0.392026,-0.011856,-0.068255,0.319056,-0.407926,-0.299921,0.398862,0.321772,-0.266747,-0.255272,0.112537,-0.118030,0.216300,0.001633,-0.368191,0.229423,0.131947,0.359401,0.309107,-0.247276,0.476836,-0.159871,-0.458831,0.371151,-0.336482,0.195029,-0.391537,0.142689,0.321375,-0.373623,0.132832,0.014573,-0.330378,-0.206626,-0.313715,0.122822,0.244163,-0.243309,-0.418882,-0.453368,0.258965,0.019517,0.373012,-0.075640,0.383572,0.319849,0.107990,-0.163198,0.217704,0.331477,-0.154622,0.364589,0.244743,-0.070849,0.486694,-0.274651,-0.455535,0.174642,0.442961,0.397580,0.047380,-0.320490,0.170827,-0.363338,-0.389340,-0.498596,0.109363,-0.209891,-0.301721,0.229453,0.048204,0.317591,-0.054582,0.415677,0.458800,-0.077654,0.389065,0.008072,-0.180319,-0.299524,-0.354122,-0.057726,0.467345,-0.286401,-0.181295,-0.452818,0.003220,-0.108173,0.412473,-0.078295,-0.210593,-0.326869,0.041429,-0.061754,-0.437376,0.285241,0.208701,0.029496,-0.300714,0.076067,-0.060930,0.414487,0.161641,-0.200186,-0.453307,-0.079272,-0.342738,0.263909,0.318964,0.057848,0.042558,0.243583,0.397214,0.499756,-0.498688,0.070544,-0.363521,-0.368954,-0.469512,-0.198538,-0.275323,0.314478,0.263359,0.372982,0.342830,-0.465300,0.162038,-0.351070,-0.352474,0.076098,-0.389431,-0.232994,-0.142628,-0.110797,0.439238,-0.310083,0.223289,0.303522,-0.087939,0.368191,0.165731,-0.258202,0.208487,0.420408,-0.141377,0.092914,-0.069903,-0.262597,0.042100,0.398801,-0.335566,-0.083514,0.344752,0.012314,0.136464,-0.068163,-0.102893,-0.117786,-0.020981,-0.052232,-0.482696,0.120960,-0.345973,-0.319391,0.250328,-0.487793,-0.444945,0.215659,-0.458251,0.114063,-0.176992,-0.314356,-0.171987,-0.386044,-0.094440,-0.283441,-0.176656,-0.407804,0.392514,0.047441,0.285760,0.349605,0.157308,0.230216,-0.457640,0.455901,0.336756,-0.184164,-0.443907,-0.324702,0.179830,-0.067034,-0.185659,0.425077,0.296686,-0.334284,-0.178701,0.423490,0.339534,0.136097,0.475066,-0.316309,-0.353786,-0.302026,0.110767,-0.490509,-0.121754,0.148915,0.490844,-0.350795,0.183737,0.365169,-0.476073,0.264031,-0.082537,0.267388,-0.006363,-0.132832,0.448485,-0.477752,0.077898,-0.110126,0.087024,-0.112995,-0.058763,0.030656,-0.338160,-0.397519,0.179922,0.044053,-0.220908,-0.258568,0.402341,0.124928,0.294031,-0.081866,-0.274834,-0.455138,0.027116,0.265557,0.466826,-0.303217,0.255211,0.086322,-0.180563,0.203879,0.009659,0.083850,-0.219230,0.249321,-0.287988,-0.420347,0.126789,-0.217032,0.179311,-0.376431,-0.293237,-0.238762,-0.470977,0.402280,-0.157979,0.076403,0.016617,-0.146718,0.108966,0.331568,0.335078,-0.109699,0.288629,0.117756,0.409085,0.145833,-0.236778],[0.114338,-0.445647,-0.336329,-0.052355,0.045976,0.266778,0.392331,0.386746,0.024216,-0.452086,0.273278,-0.107074,0.091723,0.487701,0.326106,0.221519,0.334071,0.007706,0.229789,-0.495911,0.351222,-0.175588,-0.213401,-0.021317,-0.005844,0.189901,0.324885,-0.092853,0.237266,0.400327,-0.201712,0.401364,0.325800,0.478179,0.364528,-0.186972,0.230155,-0.065416,-0.276940,-0.154897,-0.061998,0.018052,-0.005783,0.039323,-0.384518,0.355556,0.420560,-0.202506,0.168966,0.392697,-0.328516,-0.407895,0.238151,-0.461180,0.033189,-0.477477,0.152425,0.423643,0.263787,-0.126759,-0.118976,0.170888,0.396481,-0.169698,-0.491058,0.096606,0.270867,0.012162,0.269097,0.115284,-0.009079,-0.196951,0.205191,-0.483978,0.433561,0.425382,-0.166494,0.108112,0.337581,0.338374,0.221244,-0.440977,0.160054,0.292596,0.251823,0.312769,-0.213767,0.480316,0.304193,-0.134205,0.326807,0.269311,-0.324244,-0.376797,0.174459,0.157735,0.343349,-0.258965,0.101764,-0.394314,0.093097,-0.138661,-0.318812,-0.099841,-0.449095,0.145863,-0.191336,-0.290765,0.144551,-0.484924,-0.388028,0.482360,-0.471618,0.498444,-0.475097,0.351924,-0.497345,-0.398099,-0.190909,-0.306177,-0.042100,-0.400052,0.304010,0.001938,-0.124134,-0.343074,-0.313227,0.233451,-0.081286,-0.314692,0.023301,0.281152,-0.362911,-0.153768,-0.108783,-0.271081,-0.171377,-0.401120,-0.143269,-0.453307,0.078021,0.205161,-0.414090,-0.118763,0.010239,0.095355,0.372341,-0.401608,0.287683,0.001633,0.361660,-0.265679,-0.117420,0.265374,0.254997,-0.489563,-0.343471,0.224387,-0.228202,0.069597,-0.222678,0.086566,-0.345973,-0.411283,0.005417,0.196219,0.492401,-0.074664,0.380337,0.099048,0.156026,0.452696,0.339259,0.312372,0.107288,0.241356,-0.202078,0.206473,0.382199,0.242302,0.226157,-0.096271,-0.481689,-0.371548,0.248405,-0.398465,0.211264,-0.049608,-0.198782,0.225181,-0.019456,0.263054,0.378414,-0.182974,-0.372951,-0.120685,0.395505,-0.431303,-0.237754,-0.093371,0.204367,-0.098560,0.191214,0.223258,-0.210196,-0.498047,0.430235,0.050218,-0.321253,-0.280267,0.140675,-0.224937,0.093768,0.231346,-0.240165,0.184042,-0.118244,0.379238,0.110553,-0.241539,0.249596,0.090228,0.270318,0.192038,-0.162587,-0.219626,0.481658,-0.215049,0.161092,0.152486,0.384701,-0.128712,-0.044786,0.292444,0.353145,-0.064165,0.447508,-0.029466,0.215171,-0.423368,0.096362,-0.445677,0.140248,-0.030595,-0.177633,0.438780,-0.026811,-0.009781,0.265313,0.400449,-0.203116,-0.347285,0.097644,-0.218284,0.004593,0.015946,-0.073931,-0.088641,-0.336665,0.218955,-0.187735,-0.332514,0.449736,-0.200949,-0.056291,-0.410337,-0.061083,-0.050890,0.486419,0.445860,-0.471282,-0.129322,0.150594,-0.339290,-0.220450,-0.120777,-0.499847,-0.488372,0.451567,0.417356,-0.462004,0.498444,0.020493,-0.367550,-0.402493,-0.206931,-0.046831,-0.324580,0.072405,0.176077,-0.476012,0.375942,0.015244,0.364956,0.453764,0.450926,0.136860,0.142018,0.151967,-0.097095,0.236900,0.186911,-0.156178,-0.236381,-0.402463,0.020554,0.363552,-0.160207,0.371487,-0.033219,-0.105609,-0.383023,0.494995,-0.462340,0.437864,-0.021867,0.157704,0.148946,0.292108,-0.107532,0.360591,-0.428220,0.321650,-0.268303,-0.407437,0.027329,0.299371,0.369106,0.158010,0.329615,0.101856,-0.281579,0.185476,-0.016007,0.039628,-0.131947,-0.150441,-0.353206,0.103381,0.467559,-0.163015,-0.147694,0.407468,-0.477935,-0.412351,0.413938,-0.388272,0.251579,0.342891,0.405179,-0.396420,0.170217,-0.468902,0.127125,0.220573,0.043321,-0.477050,-0.031663,0.295373,-0.122883,0.286645,-0.436216,-0.195547,-0.402005,-0.025040,0.158712,0.401517,-0.422300,-0.024735,-0.416349,0.116535,-0.339839,0.453551,-0.252434,-0.497345,-0.153310,-0.076312,0.054247,0.011124,0.295740,-0.125996,-0.351009,-0.123737,-0.206931,-0.019303,-0.098163,0.291375,0.349178,-0.058550,0.032975,0.156850,0.079669,0.458586,0.287255,0.181936,0.025346,0.404508,-0.436277,-0.378872,0.067675,-0.300470,-0.093463,0.426695,-0.403409,-0.065752,-0.236869,0.098254,0.086200,0.267052,0.416807,0.011246,0.234947,-0.371761,0.498810,-0.495209,-0.173269,-0.237632,-0.012955,-0.489227,-0.031205,0.139271,-0.402585,0.005142,-0.137226,0.265862,-0.026170,0.062609,-0.234733,0.429350,-0.416807,-0.203635,0.294275,0.403439,-0.277886,-0.036302,-0.262902,0.148579,-0.459136,-0.481353,-0.482818,0.037828,0.491180,-0.106372,0.474700,-0.360927,0.104205,0.290307,0.118122,-0.414701,-0.494995,-0.238029,-0.496979,-0.436033,-0.430815,0.367885,-0.106372,-0.043229,0.128651,0.181112,-0.136006,0.161122,0.132313,0.431425,-0.004990,0.124287,0.168416,-0.436186,-0.176901,0.122089,0.253868,0.494659,0.197562,0.312525,0.298059,-0.154012,-0.298273,0.096240,0.146199,0.440001,0.295404,-0.184988,-0.390652,-0.165853,-0.166036,-0.180715,0.387020,0.178854,-0.379238,0.435881,0.288079,0.178335,-0.351131,-0.132405,-0.342341,0.436644,-0.311335,-0.444243,0.414518,-0.030534,-0.122669,0.036729,-0.393551,0.163137,-0.033616,-0.176290,-0.110553,-0.037675,-0.115925,0.345576,-0.163167,-0.432615,-0.232017,0.473235,0.484893,0.422941,0.124928,-0.334773,0.020798],[-0.101856,0.247978,0.062639,0.272118,0.045030,-0.027146,0.137013,0.128712,-0.324641,0.047685,-0.339076,-0.170705,0.203696,0.230583,-0.165761,0.067370,0.444090,-0.039628,0.348659,0.242882,0.271050,-0.110645,-0.080401,-0.307672,-0.273400,0.237907,0.347621,0.130085,-0.179495,0.018082,-0.028214,-0.087878,-0.136006,-0.342036,-0.077410,-0.096423,-0.007065,0.057268,0.079363,0.230522,0.036363,-0.393857,0.139332,-0.301721,0.387417,0.198050,-0.295923,0.156758,0.032182,-0.232383,-0.209861,-0.405850,0.393124,0.386044,-0.330866,0.240806,0.143117,0.443297,0.444914,0.463683,-0.353511,-0.049669,0.272515,-0.266625,0.183340,0.491333,-0.373318,0.444609,-0.386868,-0.142628,-0.474975,-0.128803,-0.365841,-0.106464,0.112629,0.037584,0.294946,-0.410276,-0.485931,-0.212943,-0.086413,-0.053056,0.359676,-0.171102,0.062059,-0.349757,-0.108631,0.045091,-0.229301,0.079821,0.055284,-0.161977,-0.390011,-0.309259,0.486602,-0.199271,-0.194632,0.293481,-0.206595,0.490326,0.041581,0.265984,0.045579,-0.413816,0.112659,0.228446,-0.124958,0.214652,0.074023,0.212607,0.093554,-0.279748,0.052446,-0.144063,0.234214,-0.333888,0.370907,-0.347011,-0.076586,0.343684,0.143849,-0.205710,0.488617,-0.426328,-0.000656,-0.375698,-0.290918,0.079302,0.084857,0.250298,0.115375,0.212821,0.011887,0.332179,-0.256279,0.317133,-0.103168,-0.414304,-0.247978,-0.496918,0.153554,0.029710,-0.196921,0.124500,0.194052,-0.491455,-0.377926,-0.268975,-0.306085,-0.478545,-0.366329,-0.218619,-0.421873,-0.303491,0.085894,-0.469329,-0.254051,-0.214438,0.260460,-0.395077,0.113208,-0.084033,0.166952,0.009873,0.472350,0.274865,0.306879,0.364254,-0.184652,-0.158254,0.374935,0.183981,0.294305,-0.438475,-0.166189,-0.425718,-0.134938,-0.425047,-0.237297,-0.444884,-0.313410,-0.460906,0.421873,0.409268,0.170583,0.325068,0.219504,-0.057604,-0.384854,0.392270,0.215323,0.161580,-0.058672,-0.347804,0.151875,-0.092059,-0.081042,0.414884,-0.259697,-0.375393,-0.011277,-0.452025,0.307642,0.040330,0.336146,-0.119465,-0.288934,0.050371,0.373318,0.381588,-0.073077,-0.423856,0.285730,0.145619,0.218863,-0.315516,-0.200735,-0.283898,0.292993,-0.252190,-0.175466,-0.222098,0.345271,-0.073290,0.134053,-0.249870,0.407895,-0.243950,-0.270775,0.310755,-0.099445,0.115772,0.052812,0.383969,-0.206626,0.367672,-0.296655,-0.378231,0.286950,-0.060381,-0.192068,-0.088977,0.416684,0.138142,-0.290674,-0.063097,0.486816,0.470702,0.123707,0.334498,-0.258873,0.259270,0.425596,0.459288,0.175985,-0.174093,0.215659,0.308374,-0.097858,0.031968,-0.171560,-0.377010,-0.037919,0.451964,-0.064745,-0.295801,0.007950,-0.036332,-0.100665,-0.027696,-0.252220,0.035325,0.337062,-0.246178,-0.351466,0.009262,-0.147420,-0.133961,-0.264153,0.274255,0.080370,0.303949,0.490112,-0.487182,-0.254631,-0.487762,0.218162,0.381069,-0.350368,0.274743,0.498932,-0.148274,0.246208,-0.382351,-0.402158,-0.404447,-0.378994,0.488556,-0.444304,0.340632,-0.460356,0.241691,-0.143117,0.491638,-0.285638,0.461608,0.084399,-0.209922,-0.051744,0.155324,0.467437,0.297021,0.312708,-0.154469,-0.272393,0.478973,0.014206,-0.405057,0.130421,-0.321345,0.106830,0.493835,0.147816,-0.247887,-0.293298,-0.358577,-0.361354,0.152608,-0.135212,0.153066,-0.047258,0.243248,-0.246147,0.223746,-0.134877,0.119434,0.326441,-0.220542,-0.253533,-0.277764,0.099628,-0.251885,-0.123676,-0.475860,0.222983,0.480255,0.304987,-0.431883,0.486053,0.351894,0.170522,0.141621,0.421476,0.080004,-0.122913,-0.133503,0.160115,-0.217704,0.040971,0.486419,0.194357,0.312220,-0.389859,0.132344,-0.294183,-0.099414,0.064318,0.348262,-0.386044,-0.364559,0.100848,-0.342433,0.001328,-0.189322,-0.286248,-0.048021,0.072222,-0.324915,0.071032,0.483795,0.300806,-0.386715,0.097461,-0.257195,-0.075121,0.289392,0.168416,-0.000229,0.441588,-0.215293,-0.178365,-0.203604,0.261284,0.261101,-0.107593,0.164418,0.176138,0.180715,-0.020920,-0.145863,-0.201132,-0.386196,-0.355129,0.354122,-0.370846,-0.334468,0.262230,-0.016892,-0.097400,-0.446654,-0.094073,-0.164510,-0.120441,0.365810,0.201529,-0.138569,-0.270440,0.034288,-0.465270,-0.136860,-0.332484,-0.450774,-0.471221,-0.311670,0.498505,-0.048845,0.195273,0.402249,0.226493,0.128803,-0.334651,-0.280694,-0.115680,-0.045061,-0.092944,0.476165,0.240226,-0.208548,0.335414,0.426328,-0.462371,-0.105365,-0.278954,0.139149,-0.075213,-0.247795,0.304285,0.282861,-0.270653,-0.116626,-0.479736,0.074023,0.235740,0.132801,0.241783,0.174154,0.120075,-0.009934,-0.054216,-0.185232,0.199973,-0.034196,-0.289727,0.432402,-0.345271,-0.444365,0.447295,-0.405728,0.372799,-0.176565,0.278314,0.496765,-0.417905,0.134663,0.459014,-0.183157,0.420103,0.071581,-0.241508,0.198721,-0.400693,0.061449,-0.299585,0.156087,-0.174886,-0.251518,-0.428861,-0.327967,0.121387,-0.358303,-0.397885,0.277276,-0.279229,0.068896,0.232292,-0.111957,-0.324213,-0.031114,-0.143452,0.185263,-0.153493,-0.447264,-0.032884,-0.184255,0.421934,0.365505,0.093646,0.197012,-0.369686,-0.220725,0.448210,0.206961,-0.204306,0.449644,-0.318110,-0.460723,0.395901,-0.234245],[-0.439604,0.369320,0.060320,0.025315,-0.428770,-0.305506,-0.028459,-0.118976,0.387387,0.294427,0.403867,-0.242821,-0.367794,-0.237815,-0.073107,-0.190664,0.410855,0.224387,0.335444,-0.369869,-0.485778,0.101703,0.486847,-0.211325,0.311701,-0.443907,-0.414731,0.102618,-0.440245,0.189505,-0.289789,0.177786,0.408231,0.150899,0.120228,-0.378262,0.384426,0.307886,0.363460,0.258629,0.402860,0.313593,0.050127,0.005936,0.426756,0.445677,-0.393002,-0.217490,-0.164510,-0.236412,-0.258843,-0.045946,0.085040,0.263482,-0.127033,-0.466521,-0.185202,0.492279,0.465514,0.319514,-0.435270,-0.477966,-0.273095,-0.085223,0.345729,0.363674,-0.005783,-0.300836,0.344722,-0.023850,0.330317,0.164418,-0.453948,-0.471923,0.364681,-0.483795,-0.450072,0.067156,-0.090197,-0.049730,0.369289,0.254173,0.384304,-0.491607,0.486724,0.317682,-0.426572,-0.079180,-0.047929,-0.114216,-0.240410,0.341334,-0.197287,-0.149037,-0.247826,0.380917,-0.413053,-0.075732,-0.149922,0.346767,0.272301,0.035539,0.266259,0.092456,0.320002,0.235221,0.047044,0.385830,0.206473,0.254692,0.016526,0.200430,0.173513,0.380734,-0.222373,-0.162587,0.488159,-0.198996,0.301080,0.283441,-0.006394,0.076281,0.133564,-0.288659,0.232383,-0.104083,-0.243675,-0.470397,-0.077044,-0.227165,0.125233,-0.113208,0.071306,-0.165792,-0.076220,0.037400,0.498352,0.363948,-0.439573,0.475341,0.064562,0.253563,0.441099,0.241203,0.373409,0.017533,-0.451598,0.309503,0.234184,-0.470916,-0.141224,0.462401,-0.333796,0.133259,-0.371334,-0.444182,-0.274987,0.292901,0.081378,-0.415189,-0.067919,0.424284,-0.475005,0.453368,-0.410398,0.078478,0.433988,-0.144093,-0.239006,0.124409,-0.475829,0.176656,0.198660,0.090442,0.353664,-0.187887,0.000443,0.320124,0.480102,-0.175680,0.275842,0.098926,-0.294183,0.329951,-0.397031,0.407620,0.442473,-0.467772,-0.441771,0.459136,-0.274438,-0.198355,0.098987,-0.325282,-0.089038,-0.288324,0.081408,0.255882,-0.415799,0.435972,-0.305841,0.008133,-0.286065,0.412809,0.089465,-0.426878,-0.419370,-0.316095,-0.007614,-0.274743,-0.487701,-0.187185,-0.429685,-0.111408,-0.042344,-0.210257,0.343196,-0.468657,-0.071337,-0.170736,0.415891,-0.406919,0.343501,0.466460,-0.185507,-0.398465,0.300989,-0.141652,0.207053,-0.364803,-0.181906,-0.303308,-0.209708,-0.212241,0.061571,-0.361812,-0.376034,0.290826,-0.395291,-0.341395,0.193258,-0.049059,-0.258904,0.237114,0.481262,0.057604,0.386074,-0.223441,0.332392,0.417905,-0.402707,0.166890,0.388058,-0.325465,0.245933,-0.103137,0.375759,-0.436613,-0.130940,-0.378903,0.033189,0.266533,0.235496,-0.411405,0.448058,-0.482696,-0.344752,-0.161611,0.095355,-0.386196,-0.435240,-0.430540,0.353267,-0.003525,0.418607,-0.409391,-0.221641,-0.453429,0.418973,0.256493,-0.077593,0.261773,0.114612,-0.203665,-0.028947,0.464476,0.399930,0.441771,-0.013871,0.200217,-0.054430,0.259026,0.032731,-0.018876,-0.407529,0.093341,-0.027665,-0.468047,-0.260674,-0.469787,0.203146,-0.306269,0.256005,0.280969,0.128895,0.142323,-0.046739,-0.102008,-0.362362,0.077471,0.140614,0.226798,0.371303,-0.461241,0.303156,-0.499908,0.067492,-0.494903,0.428739,0.481292,-0.244774,0.433073,0.017075,-0.437651,0.084857,0.391598,0.301416,0.223869,-0.425626,0.448149,-0.285546,-0.238182,0.052965,0.463439,0.129810,-0.311182,0.082934,-0.049699,-0.090197,-0.284845,-0.358577,0.153401,0.291498,-0.283929,-0.156667,0.006058,0.141621,-0.408139,-0.013779,0.119922,-0.388058,0.426786,-0.301080,0.464415,-0.273614,-0.147359,0.474944,-0.108356,0.430937,0.024369,0.371578,0.163594,0.137532,0.112506,0.156850,-0.362972,0.293878,-0.279870,-0.315668,0.263390,0.009140,0.129261,-0.221793,0.058855,0.268334,-0.215873,0.409146,-0.298090,-0.234947,-0.083361,0.442320,0.413694,-0.114673,-0.279107,-0.260643,-0.222190,-0.127400,-0.017319,-0.105396,-0.343593,-0.294183,-0.429746,0.387661,-0.142750,-0.278344,-0.307092,0.432981,-0.290094,-0.487945,0.333064,0.308374,0.205893,0.128529,-0.241295,0.442808,-0.140522,0.124073,-0.477966,0.045457,-0.054064,0.464721,-0.149373,-0.442930,0.272332,-0.159078,-0.162465,-0.295129,0.138264,0.411008,0.336482,0.441832,-0.357875,-0.492767,-0.031755,-0.447539,-0.010666,0.336268,0.144826,0.205832,-0.041337,0.204642,-0.482849,0.236534,0.183309,0.301355,-0.246818,0.436186,0.402219,-0.432005,0.052110,-0.364650,0.338954,-0.311884,0.301294,-0.141835,0.363155,-0.272973,0.281793,0.330103,-0.408170,0.453185,-0.170675,-0.379330,-0.413602,-0.127461,0.356319,-0.297723,0.301294,0.006912,-0.358638,0.206107,0.441191,0.447935,0.293176,-0.343471,-0.117634,-0.282678,-0.206442,-0.034379,0.315210,-0.034440,-0.472106,-0.031846,-0.236991,0.039018,-0.292688,0.279382,0.134571,0.448180,-0.410001,0.255913,0.465972,0.266961,-0.092242,0.341609,0.007981,0.495300,-0.096454,-0.420530,-0.184194,-0.084460,-0.113086,-0.429258,-0.003494,-0.025376,-0.286950,-0.337611,0.271172,-0.277581,0.092029,-0.355342,0.007920,0.338496,0.134266,-0.260582,0.381497,0.277429,0.038743,0.160787,-0.183615,-0.434843,0.329920,0.029374,0.369259,0.276421,-0.450438,-0.078753,0.206961],[0.086138,0.357326,0.034898,0.306391,0.117054,-0.157002,0.245048,0.173666,-0.139882,0.254357,-0.401090,-0.181173,0.391964,0.493133,-0.329035,0.364772,0.087207,-0.449065,-0.361080,0.319605,-0.203238,0.248772,0.419584,0.295038,0.100269,0.103961,0.191610,0.061876,0.263817,0.082507,0.264611,-0.431120,0.308802,0.017045,-0.050310,-0.044481,0.098590,-0.027665,-0.411618,0.090197,-0.151143,0.338923,0.396176,-0.335017,-0.031968,-0.063036,0.276330,0.378597,-0.365932,-0.089221,0.261223,0.238060,0.013840,-0.304132,-0.263695,-0.488952,-0.468719,-0.160817,0.104175,0.359890,0.090716,-0.045488,0.043474,-0.311823,-0.338649,-0.406491,0.020676,0.231895,0.129627,0.314447,0.209464,0.425626,-0.175008,-0.271203,0.474670,0.075579,-0.373867,-0.191519,-0.422849,0.370510,0.053423,0.233268,0.255364,0.261559,0.253716,0.060961,0.340175,-0.257195,0.284326,-0.499023,-0.440672,0.063311,-0.398160,0.072680,0.187368,0.401883,0.162435,-0.070360,0.197562,0.036271,0.039537,-0.368740,0.072283,-0.462401,-0.034471,0.143056,-0.072588,0.021561,-0.296533,0.346248,0.107868,-0.012833,-0.344935,-0.161092,-0.090289,-0.224937,-0.388699,0.309137,-0.414182,0.176046,0.051958,0.261467,0.290765,0.221183,-0.100024,0.378689,0.121326,-0.315241,0.137440,0.299066,-0.090686,0.331782,0.188925,0.091082,-0.077746,0.440123,0.478790,0.206870,0.128712,-0.369869,0.068438,0.194967,0.184133,-0.468413,-0.219932,-0.045427,-0.206107,0.319910,-0.287103,-0.188345,-0.390713,-0.347163,-0.441893,0.198996,0.313318,0.038835,-0.380856,0.220389,0.051653,0.168050,-0.056963,-0.118305,-0.133900,0.237815,0.469604,0.268303,0.286035,-0.196738,-0.395871,0.451750,-0.265923,0.184774,0.120655,0.405698,-0.097095,-0.036973,-0.199240,-0.286767,-0.241325,-0.406461,-0.284082,0.346248,0.327815,-0.328547,-0.442076,0.298151,-0.076861,-0.122181,-0.075365,0.351985,-0.034104,0.138997,-0.032792,-0.236259,0.059435,0.030015,0.304682,0.143635,0.471435,-0.046495,-0.387539,0.315424,-0.319758,0.125141,-0.208975,0.435728,0.142354,-0.103107,0.120716,0.154286,-0.063799,0.449797,0.309137,0.096606,0.439848,0.386471,-0.162252,0.449858,-0.302332,0.256035,-0.487030,-0.066179,-0.367153,-0.458770,-0.370907,-0.062365,-0.238060,0.140278,-0.351527,0.104083,-0.432493,-0.126545,-0.194296,0.141926,0.185263,0.047166,-0.458251,0.148549,-0.438170,-0.395016,0.174703,0.223258,-0.260277,-0.101398,-0.287530,-0.347102,0.425169,-0.391385,0.215201,0.451231,0.495514,-0.152547,-0.388058,-0.467437,-0.397427,-0.025346,0.379208,0.302087,-0.472350,0.156697,-0.013352,-0.057176,0.444761,0.202109,-0.482910,0.181478,-0.251610,-0.296930,0.366268,-0.186056,-0.397885,0.015244,0.428800,-0.228111,-0.136097,0.106250,-0.322840,0.011460,-0.455321,-0.194998,-0.460814,0.005570,0.456542,0.482482,-0.019395,0.121143,0.206381,-0.304682,-0.300867,-0.338008,0.191763,-0.176321,0.335994,-0.140675,-0.245323,0.234550,0.111194,-0.409452,0.150136,0.001328,-0.210868,0.107990,0.485107,-0.288110,0.380337,-0.441679,0.284539,0.395260,0.485717,-0.425169,-0.159291,0.098895,-0.310175,-0.277429,0.001938,0.147633,-0.090777,0.078692,-0.443205,-0.384426,0.101917,-0.271477,-0.129353,0.041917,0.244621,0.459349,-0.069811,-0.077776,-0.016282,0.431974,0.452300,0.006607,-0.133656,0.112903,0.213919,-0.064562,-0.442137,0.246849,0.258690,0.244377,-0.048235,0.151936,0.136738,0.269799,-0.421537,0.118122,-0.165944,-0.014237,0.219321,0.190603,-0.452391,0.304071,0.131703,0.119160,-0.037889,-0.131794,-0.208121,-0.245262,0.185354,-0.127186,-0.438353,-0.325373,-0.002182,-0.060137,0.185049,0.317225,-0.427000,-0.417417,-0.478759,0.408017,0.324671,0.288629,0.420377,-0.042222,0.037431,-0.246483,0.147786,-0.385769,-0.063402,0.295953,0.263695,-0.351497,-0.146107,-0.014359,0.363918,0.357540,0.145070,-0.484313,-0.411649,0.163869,-0.484436,0.350215,0.303308,0.193838,0.411069,0.178274,-0.136402,-0.384304,0.128071,0.206320,-0.138539,-0.481414,0.302118,0.319269,-0.232322,-0.386288,-0.071154,-0.357875,0.371609,-0.460631,-0.425596,-0.466552,-0.073656,0.050371,-0.068041,-0.458647,0.405240,-0.126392,0.379727,0.353847,-0.224113,-0.488952,-0.302545,0.274621,-0.301904,-0.228935,-0.402524,0.255333,-0.448332,0.309442,0.226005,0.015885,0.200919,-0.038316,0.291833,0.283807,0.401242,0.147389,-0.021836,-0.316095,0.255119,0.128132,0.293664,0.309931,-0.377407,0.400296,0.019333,-0.491424,-0.106342,0.003555,-0.092486,-0.091815,0.027635,0.027116,0.288903,0.222404,0.266869,0.094073,-0.256157,-0.139332,0.430235,0.105640,-0.005020,-0.123280,0.193106,0.026566,-0.324122,0.285974,0.259728,-0.007431,0.133930,0.283410,-0.165395,-0.478637,-0.078326,0.393155,0.298975,0.108661,0.134785,0.080981,0.498321,-0.010208,0.251183,-0.139302,-0.452177,0.348964,-0.371090,0.426267,-0.438475,-0.243187,0.318232,-0.159719,0.211386,0.117878,0.344447,0.310602,-0.477172,-0.091174,0.117634,-0.414212,-0.186911,-0.010636,0.125813,-0.498657,0.177786,-0.233787,-0.432829,-0.292810,0.433256,-0.007828,0.078417,0.108325,-0.080309,-0.018998,0.214652,0.049455,0.072192,-0.480224],[0.017594,0.088458,-0.401334,0.172658,0.418058,0.138539,-0.134144,-0.034959,0.495483,-0.093738,-0.289758,-0.438353,-0.400449,0.062578,0.384152,0.464873,0.054857,0.383511,-0.183981,-0.379971,0.332423,0.034471,0.273705,0.431516,0.096759,-0.110553,0.032151,-0.116840,0.468871,-0.132527,-0.010880,-0.182455,-0.185934,-0.307001,0.008835,0.029221,0.087329,-0.013627,0.275689,0.328730,0.265557,0.090594,0.438932,0.233757,-0.100238,-0.459319,-0.170553,0.443297,0.317194,-0.418149,-0.469573,-0.248619,-0.494690,-0.357112,-0.417631,-0.443449,0.208640,0.170522,0.104389,-0.376888,0.269524,-0.268212,-0.387387,0.250664,-0.255364,-0.209983,0.317347,-0.491882,-0.172079,0.060808,-0.320399,-0.311335,0.111377,-0.145528,0.009079,-0.359004,0.215140,0.311090,0.384152,0.134571,0.317896,-0.065722,-0.324732,-0.086383,-0.381191,0.330073,-0.046373,-0.402554,0.262566,-0.442900,0.065172,0.082263,-0.241630,-0.005478,-0.347713,-0.398709,0.424436,0.133503,0.404111,0.099597,-0.110950,0.198965,-0.183859,0.079272,0.179617,0.007645,0.241356,-0.428220,0.430753,-0.031205,-0.486724,0.393460,0.030869,-0.366634,-0.077258,0.340388,0.221915,-0.301202,-0.170888,0.479217,-0.266625,-0.125324,-0.311884,0.189566,0.398526,-0.483764,-0.223716,0.114887,0.367367,0.431669,0.394345,-0.322108,-0.102069,-0.230766,-0.169942,0.316248,0.273278,0.391263,-0.137471,0.095630,-0.412229,-0.360012,0.088275,-0.144093,-0.066210,-0.097003,-0.148885,-0.453429,0.019944,-0.116932,0.056719,-0.091906,-0.247826,-0.020127,-0.346767,0.155171,-0.190664,-0.311213,0.059130,-0.181967,-0.256401,0.424039,0.319544,0.398526,-0.361995,-0.328669,0.272393,-0.003555,-0.148427,-0.122456,-0.494385,-0.436613,-0.116199,-0.017838,0.386654,-0.060808,-0.110645,-0.001724,-0.054918,0.328333,-0.125538,-0.451781,-0.109394,0.371700,0.106372,-0.239341,-0.453307,0.470611,-0.233512,0.435301,-0.018479,-0.481414,0.379604,-0.118671,0.117450,-0.301782,0.048967,0.336177,0.100391,0.498138,0.030015,0.370113,-0.290002,-0.392880,-0.327448,0.184042,0.092273,-0.158223,0.263939,0.205649,-0.404538,-0.236991,-0.196646,-0.109241,-0.008835,0.138813,0.239494,0.136219,-0.139119,-0.091510,0.201865,0.210044,0.430387,-0.194357,-0.242058,-0.394406,-0.367916,0.295068,0.226798,-0.274163,-0.322382,-0.019333,-0.419736,-0.196249,-0.078784,0.140217,0.464049,-0.034410,0.295221,-0.456603,0.368343,-0.157369,0.099414,0.209342,-0.019364,-0.361568,0.425047,0.259453,0.251427,0.056993,-0.005478,-0.477142,0.203543,0.119648,-0.055559,-0.307154,0.333430,-0.408139,0.264061,0.441465,0.217521,-0.205863,0.360988,0.236595,-0.017563,-0.176382,-0.026353,0.273797,0.309900,0.330927,-0.437193,0.432829,0.273766,0.454314,0.134083,-0.064226,-0.008499,-0.009720,0.351192,0.131794,-0.105152,-0.293390,0.221732,-0.435118,0.150807,0.204459,0.136311,-0.018265,0.264275,0.235099,-0.457457,0.434446,0.393674,-0.121479,0.035051,0.135914,0.410550,0.489257,0.142537,0.223075,0.234764,-0.183920,-0.406369,0.084613,0.476135,0.201956,0.342524,0.409482,-0.085986,0.270074,0.135273,-0.387814,-0.153798,0.002701,-0.101306,-0.208335,-0.162038,-0.381436,-0.267296,-0.120899,-0.097247,0.155812,-0.212577,0.131794,-0.353877,0.165578,-0.193869,-0.371090,0.403317,0.423887,-0.384274,-0.074602,-0.097491,0.066729,0.345576,-0.479644,0.484893,0.055803,-0.343867,0.296167,0.412015,0.380154,-0.241325,-0.415616,0.293023,-0.099628,-0.492950,0.015275,0.161672,0.242180,0.343349,-0.193838,0.235466,-0.355708,0.377865,-0.353908,-0.112751,0.168264,0.385464,-0.167928,-0.138691,0.175588,-0.001022,-0.186392,0.264580,0.478607,-0.118641,-0.198202,0.364742,0.071795,0.157216,-0.400998,-0.274071,-0.151021,-0.114277,0.305445,-0.286035,0.213431,-0.144307,0.059130,-0.098529,-0.013382,0.484069,0.465270,0.405210,-0.477935,0.099200,-0.128895,-0.314356,0.430784,0.390408,0.143056,-0.158528,-0.176290,0.304254,0.101825,-0.071398,0.478759,0.170003,0.271996,0.336634,-0.162923,0.334254,0.102466,-0.247459,0.236503,0.086962,0.313654,-0.255882,0.286828,0.159658,-0.471984,0.493225,-0.205496,-0.423093,-0.159932,-0.288995,0.141957,0.143147,0.481903,0.266228,-0.471496,0.344661,0.240867,-0.443083,-0.021104,-0.050279,-0.214621,0.158528,0.083728,-0.033860,-0.237510,-0.138874,0.376888,0.070086,-0.256767,-0.456847,-0.047777,-0.002731,0.449278,-0.379330,0.158406,-0.013627,-0.112445,0.403195,-0.424772,0.272942,-0.073626,0.061998,-0.138874,-0.135212,0.093463,-0.140126,0.189047,-0.141438,-0.248375,0.249931,0.075457,-0.421415,-0.192587,0.374538,0.007675,0.319117,-0.391049,-0.003830,-0.223319,-0.028581,0.189962,0.391293,-0.078967,0.316919,-0.484680,0.237907,0.188314,0.267418,-0.114856,0.028916,0.420713,-0.165822,0.152974,0.041917,-0.229759,0.106342,-0.084979,0.396939,-0.349239,0.020768,0.326228,0.233329,0.332148,0.203787,-0.300714,-0.462951,-0.416501,-0.333247,-0.456359,-0.350368,0.271630,-0.363735,0.199728,-0.010178,0.320307,0.300226,-0.274834,0.019639,-0.062334,-0.248527,0.189718,-0.014328,-0.482757,-0.090289,0.033891,0.467132,0.118854,-0.296686,-0.351131,0.261589,-0.063891],[-0.237022,0.363063,0.414823,-0.226707,0.282556,-0.497559,0.120014,0.024979,-0.230979,0.464385,0.183187,0.350032,0.166280,0.407346,0.194205,0.064653,-0.023545,-0.477294,-0.014176,-0.049486,-0.484649,0.381130,-0.208121,-0.031419,0.412107,0.058611,-0.005936,-0.355770,-0.420591,-0.149342,0.104968,-0.256981,0.311029,-0.394742,-0.106433,-0.481109,-0.338069,0.206442,0.059832,0.315821,-0.231315,0.239402,0.364193,-0.195700,0.264733,0.368709,-0.381802,-0.366146,0.448149,0.460295,0.443358,-0.217277,0.357479,-0.020859,0.202872,0.386013,0.411924,-0.306452,0.014328,0.323908,-0.227683,0.217124,0.248344,0.350490,0.079150,0.420103,0.419523,0.045244,-0.276605,0.241081,-0.123157,0.367702,0.307520,-0.069903,0.198630,0.097064,0.451323,0.255028,-0.300989,-0.062181,-0.399594,-0.298242,-0.047899,-0.427427,-0.007370,0.199973,-0.260338,0.443510,0.438841,0.405393,0.329310,-0.456725,0.074511,0.070147,0.488556,-0.002548,-0.261559,-0.467895,0.141835,-0.281182,0.134236,-0.145375,0.076159,-0.084796,0.431700,-0.352016,-0.398190,-0.267602,0.463652,0.103656,-0.425474,-0.187338,0.174764,0.272759,-0.314844,0.050829,0.478729,0.119953,0.423093,0.328791,0.179586,0.383816,-0.380154,-0.490326,0.114154,-0.224754,-0.020829,0.473296,0.171010,-0.454955,0.499268,0.473479,0.342891,-0.048296,0.194174,-0.400754,0.468596,-0.339076,0.020280,-0.379269,-0.179556,-0.391812,0.413999,0.000839,0.193869,0.355190,0.346919,0.354396,-0.345180,0.471801,0.305078,0.135853,-0.397763,-0.025224,0.098193,-0.163381,0.300684,0.354183,-0.094958,0.473510,-0.459868,0.218955,0.461730,-0.350764,-0.420957,0.093066,-0.201529,-0.033067,0.026841,0.393002,0.431822,0.078753,-0.178152,0.118488,0.417783,0.151021,-0.038316,0.287133,0.172903,0.026505,0.141346,-0.355617,0.468932,-0.135029,-0.043931,-0.319514,-0.492340,-0.456114,-0.175222,0.484893,0.482208,-0.400113,0.290460,0.470061,-0.469573,-0.007492,-0.146199,0.495727,0.488006,0.471618,-0.003647,0.424497,0.345454,-0.170705,-0.450896,-0.359371,-0.182394,-0.181845,0.063433,-0.437010,-0.069994,0.016587,0.339900,-0.317103,0.029130,0.422636,-0.228446,0.159383,0.123005,0.057512,-0.341670,-0.498413,-0.042070,0.360561,0.147755,0.370876,-0.262078,-0.344142,-0.040666,0.032975,-0.107196,0.472900,-0.451750,0.491974,-0.198569,0.001541,-0.135212,-0.162984,-0.123554,0.463439,0.365596,-0.166585,-0.083666,-0.319605,0.433287,0.288812,0.131428,-0.378475,-0.139515,0.226188,-0.249962,0.209738,-0.445463,0.394803,-0.389126,0.169790,0.119129,0.150166,-0.352107,0.198172,0.469146,0.234397,-0.325678,0.236686,0.134968,0.488281,0.371334,0.130879,0.412656,0.026231,-0.111560,0.454283,0.015793,-0.094684,-0.038804,-0.220084,0.385647,-0.180319,-0.047166,0.180715,0.315882,-0.148213,-0.274010,0.239128,0.047868,-0.188803,-0.249229,0.348140,0.492950,0.192923,0.355342,-0.415586,-0.262078,0.285730,-0.474853,-0.064928,-0.411222,-0.264733,0.089129,0.331660,-0.443388,-0.070116,0.448241,0.130665,0.415342,-0.067980,-0.330195,-0.106738,-0.488617,0.494201,0.426511,0.311090,0.141499,0.111408,-0.422422,0.273553,-0.264550,-0.300073,0.257500,0.227500,-0.161306,-0.445128,-0.253136,0.037767,0.312220,0.304926,-0.393399,0.178182,-0.414151,-0.161092,-0.378384,0.237236,0.231162,0.031358,-0.127918,0.363643,0.134480,-0.274316,-0.179525,-0.308039,-0.173757,0.028245,-0.445616,0.239158,-0.083728,-0.372158,-0.046770,0.029740,-0.156819,0.171896,-0.315241,-0.269372,0.094928,0.230186,0.438353,-0.422880,-0.443999,-0.121723,0.300348,-0.128956,0.137989,0.430876,-0.321223,-0.167714,0.349361,0.356990,-0.317377,0.085528,-0.038682,-0.091968,0.362819,-0.437529,0.425291,0.490051,-0.279443,0.101672,0.198691,0.311151,-0.110279,-0.473235,-0.364650,0.335902,0.399045,0.484527,-0.403684,0.077380,-0.079272,-0.176229,0.437834,0.258354,0.411924,-0.203177,-0.467620,-0.127003,0.054521,-0.135823,-0.020585,-0.319758,-0.099475,0.384182,-0.338496,-0.340144,-0.371670,-0.031510,0.302576,0.462767,0.316889,-0.214866,-0.315638,0.386715,-0.356502,-0.410337,-0.322687,-0.091144,0.411893,-0.233573,0.242180,0.305689,-0.183645,0.160726,0.058458,0.392605,0.348750,-0.016861,-0.063738,-0.086383,-0.246025,-0.432524,-0.332545,-0.387234,-0.058916,0.263695,0.472564,-0.481475,0.254997,0.246208,-0.300439,0.472015,0.016404,-0.479766,-0.068896,0.431028,-0.264733,-0.093890,0.155812,-0.419584,-0.095752,0.283654,0.160634,-0.219413,-0.221183,-0.122700,-0.200003,0.384823,0.049547,-0.136219,0.298151,-0.042772,-0.186453,0.083117,0.240898,-0.077624,-0.249199,0.134480,0.413297,-0.322382,-0.088031,-0.361995,0.138997,0.199698,0.023515,-0.056047,0.278039,-0.323328,-0.282983,0.070177,-0.461180,0.196585,-0.411710,0.149709,0.261132,0.023850,0.492950,0.169057,0.325800,0.495056,-0.015671,0.278863,0.347743,0.064684,0.300836,0.458159,-0.191672,-0.466887,-0.192495,-0.186789,0.283715,-0.012955,0.299707,0.292657,0.424802,0.483978,0.073778,0.099475,-0.154500,0.012650,0.172048,-0.417997,-0.424345,-0.240501,-0.292596,-0.115650,0.234367,0.213431,-0.325282,0.137776,-0.419584,0.139454],[-0.284051,-0.031999,-0.287652,0.314722,-0.354061,-0.240318,-0.474670,0.120228,-0.477233,-0.334834,-0.047166,0.149892,0.264977,-0.357845,0.319208,0.434080,0.436308,-0.464873,-0.015946,-0.285180,-0.151814,0.296838,0.427641,0.036271,0.413633,-0.447813,0.183554,0.071520,-0.208487,-0.210318,-0.109363,0.091937,0.103900,0.335231,-0.004624,-0.014695,-0.493866,-0.233909,0.135578,0.229209,-0.107685,-0.079791,-0.262627,0.225455,-0.483764,0.157613,-0.143971,-0.097522,-0.189901,0.029832,-0.207633,-0.008896,0.181417,0.014084,-0.484313,-0.119221,0.069781,0.467864,0.424680,0.461943,0.044633,0.460692,0.477355,-0.139058,0.225333,-0.361141,0.221488,0.474029,-0.195364,-0.220054,-0.243309,0.205985,-0.042741,0.192618,0.159291,0.320612,-0.086169,-0.381252,0.401334,-0.191672,0.482879,-0.206381,0.295221,-0.322138,-0.199301,0.320460,0.494629,0.078051,-0.408628,0.015763,0.083544,-0.344295,-0.282373,0.381741,-0.215476,0.056291,0.304010,0.361690,0.317072,-0.026536,0.213523,0.034898,-0.062273,-0.346614,0.159200,0.407437,-0.306635,0.260796,0.231468,-0.045396,0.418271,0.012223,0.122822,0.071947,0.006516,0.483459,-0.168752,0.090197,-0.008408,-0.003433,0.123188,0.011551,-0.036851,0.493957,-0.462676,-0.377560,-0.146504,-0.195791,0.211325,0.139637,-0.375881,-0.292505,0.311182,0.045824,0.384030,-0.294610,0.346126,0.270959,0.470824,-0.097339,0.149037,0.375393,-0.473846,-0.093951,-0.195608,-0.108661,0.096454,0.147237,0.304651,0.478851,-0.209922,-0.464080,0.216208,0.052202,-0.477294,-0.151051,0.136830,-0.466399,-0.118244,-0.237815,0.224845,0.389981,0.141011,-0.068743,-0.417814,-0.391140,-0.042894,0.027360,-0.227927,0.270745,0.278893,0.134205,0.252739,0.372494,-0.499298,0.412839,0.008316,0.059740,0.391446,0.440092,0.158528,-0.076861,-0.170248,0.127094,-0.172262,-0.484191,-0.122272,-0.375729,0.055376,-0.252647,0.223075,0.118915,0.028397,0.311182,-0.477752,-0.068865,0.417478,-0.198538,-0.325129,-0.184255,0.097552,-0.324427,-0.438780,-0.125446,0.035020,-0.281335,0.273766,-0.013016,-0.378445,0.166189,0.374111,0.163930,0.236961,0.141163,0.206626,-0.267846,0.321314,-0.438108,-0.200125,-0.245231,-0.261467,0.176992,0.387448,-0.405667,-0.287896,-0.117023,0.078600,0.024766,0.114093,-0.017808,-0.288659,-0.201651,0.389157,-0.464476,0.417722,0.074206,-0.105457,0.467895,-0.066515,-0.385983,-0.062670,-0.418912,0.183401,0.152028,0.290155,0.132099,0.172811,-0.155416,0.466674,0.131092,-0.282800,0.206503,-0.461852,0.017045,0.041093,0.439756,-0.227714,-0.133595,-0.222861,-0.439024,-0.124531,-0.209037,0.396878,0.234245,0.119770,-0.318079,-0.395596,-0.285211,0.136250,-0.044725,-0.275780,-0.189108,-0.344935,0.456084,-0.385495,0.268914,-0.025407,0.176534,0.136799,0.489013,0.439848,-0.054704,-0.286126,-0.023270,-0.287744,-0.256584,0.006607,0.437590,0.111560,-0.196371,0.241173,-0.080035,-0.188803,0.148976,0.218009,-0.086322,0.168600,-0.272759,-0.466338,-0.190695,-0.028703,-0.202628,0.046648,-0.374386,-0.119465,-0.276055,0.118824,0.410337,-0.146931,-0.163839,-0.336726,0.221335,-0.176870,-0.492309,-0.469604,0.094073,0.425169,0.113178,0.262688,-0.098468,0.038682,0.018174,-0.249840,-0.486938,-0.062853,0.258538,-0.182424,0.158193,-0.179006,0.065325,0.274133,0.401944,-0.482849,-0.108142,0.457640,-0.362453,0.125629,0.098865,-0.196036,-0.496765,0.394559,-0.045915,0.473205,0.128712,-0.394955,0.102710,-0.436522,-0.381710,-0.252617,0.164632,-0.055651,-0.323389,0.268822,-0.385220,0.239982,-0.217124,0.175466,-0.396664,-0.005325,-0.179434,-0.231376,-0.128773,-0.449400,-0.431944,-0.202506,0.417692,-0.329707,-0.042680,0.308649,0.076159,0.433958,-0.494049,-0.025742,-0.345515,0.443785,-0.170431,0.180410,-0.203970,-0.133839,-0.359493,-0.344203,0.217368,0.342860,0.139027,-0.076708,0.479431,0.302637,0.203360,0.354488,-0.051714,-0.295434,0.284845,0.109424,0.101215,-0.255760,0.414457,-0.257744,-0.164968,-0.445952,0.226768,-0.246055,-0.067553,0.428861,0.407956,-0.126270,0.342982,-0.391598,0.473601,0.350185,0.434599,0.147603,0.283044,0.033433,-0.127796,-0.094256,0.196249,-0.470367,0.279351,0.186422,0.279565,0.208823,0.339503,0.058885,0.466308,0.347499,0.492889,-0.107624,0.078967,0.187613,-0.114612,0.134510,-0.381069,0.192343,-0.274407,-0.134846,0.229972,0.280663,-0.293756,0.156850,-0.258385,0.321650,-0.353450,-0.226707,-0.300623,-0.330409,0.011246,0.236747,0.287011,0.021775,0.463012,-0.204123,-0.452116,0.379360,0.104328,0.325434,-0.188559,0.393246,-0.435026,-0.311396,-0.269158,-0.124042,-0.408567,-0.406461,-0.161763,-0.239280,0.294733,0.475494,0.024003,0.289117,-0.287652,0.435026,-0.154134,-0.291681,-0.158681,-0.235008,0.074389,0.259850,-0.202200,0.095874,0.381252,-0.260247,0.260186,-0.308222,-0.424039,0.413236,-0.148518,-0.071734,0.298120,-0.436674,-0.382443,0.482788,-0.429502,0.456023,0.257164,0.269372,0.120258,0.002335,0.260186,-0.351283,-0.126667,-0.100757,-0.389462,-0.054888,-0.470306,-0.469970,0.209586,-0.199332,-0.375881,0.405972,-0.323542,0.399411,-0.019791,0.429899,-0.318171,0.091205,-0.037309,-0.236229,0.470855],[-0.246910,0.292993,0.069109,-0.336268,-0.170339,0.482727,0.467742,-0.343776,0.231773,-0.133351,0.023576,0.430143,-0.107532,0.017624,-0.068651,0.345607,0.067827,0.212790,-0.276757,0.214560,-0.404080,-0.383999,0.373074,0.219840,0.116352,0.244804,-0.479797,-0.132588,0.338160,-0.209342,0.133534,-0.379635,0.263329,-0.425626,-0.229270,-0.254387,-0.228782,0.417234,0.089648,0.404904,0.470977,-0.290643,-0.232200,-0.478942,0.227134,0.456969,0.486541,0.451140,0.266106,-0.411161,0.135548,-0.002915,0.268334,0.304346,-0.105335,-0.214072,0.353420,-0.256706,0.348781,-0.450041,0.363765,-0.240287,0.291955,0.339076,0.353664,0.079913,0.377651,0.195273,-0.310572,-0.373012,0.270562,0.322199,-0.332881,0.292474,0.456938,0.279199,0.054338,-0.063738,0.369106,0.232688,0.461730,-0.103290,-0.019181,-0.204978,-0.048845,-0.208548,-0.470367,0.482696,-0.213675,-0.109485,-0.477721,0.324671,-0.267907,-0.156941,-0.320276,-0.347194,-0.190848,0.038835,-0.022263,-0.395230,-0.090350,0.385678,0.439451,0.371242,0.180898,-0.215903,-0.163656,-0.281579,-0.417692,0.080737,-0.046678,-0.182546,-0.476959,-0.218802,-0.425199,-0.088641,-0.014512,0.304193,-0.152486,-0.148640,0.041368,0.057756,0.176748,0.033494,0.167104,0.119068,0.311823,-0.233024,0.263787,-0.200858,-0.222678,-0.394772,-0.211386,-0.126789,0.306543,-0.328578,-0.095935,-0.241203,0.432646,-0.491058,0.050615,0.421964,-0.105274,0.488922,-0.150166,0.293359,0.014389,0.305322,-0.256432,-0.024400,-0.300836,-0.410520,0.275964,0.022599,0.229362,0.174825,0.423887,-0.427641,0.484283,0.043107,-0.117115,0.114917,-0.236045,0.484069,-0.285730,0.175832,-0.136769,0.498444,0.259758,0.197287,-0.446318,-0.022813,-0.270074,0.397580,0.130116,-0.313288,0.372890,-0.109638,0.177786,-0.407651,-0.370937,-0.155019,0.216636,-0.449187,0.178854,-0.031114,0.378658,-0.096881,0.288781,0.093829,-0.225486,-0.000931,0.362972,0.146596,-0.293573,0.184774,0.105792,0.285882,0.382321,0.284112,0.202353,0.486450,0.288598,0.105762,-0.077685,0.351650,-0.122578,0.006821,-0.445616,0.435850,-0.275658,0.044206,0.076739,-0.142109,-0.186727,-0.254631,-0.029984,0.486755,0.104297,0.029221,-0.420560,0.480560,0.041246,0.308893,-0.068224,0.460814,0.154805,0.307245,0.413633,0.102100,0.417692,-0.383450,0.217399,0.419553,-0.492279,-0.466399,-0.038987,-0.465636,-0.364040,0.201437,0.387814,0.199515,0.094836,-0.411130,-0.447356,-0.133839,0.183676,0.339381,0.400662,-0.427549,-0.332698,0.020157,0.144765,0.435942,0.424284,-0.197104,0.348415,0.030442,0.440367,0.107624,0.119465,0.429411,-0.195486,0.240257,0.321741,0.196036,-0.137288,-0.444060,0.210501,0.102283,0.186300,0.179006,0.397732,-0.072710,-0.302454,-0.452300,0.015763,-0.464141,-0.237175,-0.459990,-0.125019,0.248863,0.355647,-0.244102,-0.323908,0.204215,0.298090,-0.151387,-0.399442,-0.065600,0.262871,0.490112,0.062670,0.405972,0.222037,-0.350520,-0.000687,-0.224601,0.304041,-0.353145,-0.166494,0.123829,-0.284631,0.013810,0.017960,0.451140,-0.117420,-0.308344,-0.435148,-0.288720,0.471648,-0.400784,0.468596,0.169881,0.440123,0.100391,0.426817,-0.134816,-0.220817,0.403928,-0.233055,0.454009,0.101032,0.425687,-0.016007,0.223411,-0.271691,0.145344,-0.204306,-0.449980,0.441984,-0.011673,0.121662,-0.412503,-0.456847,0.264336,-0.107349,0.464019,0.386380,0.193808,0.096088,-0.229545,0.038896,-0.446257,-0.035875,-0.378597,0.224052,0.473571,-0.289331,0.069170,0.203543,0.412717,-0.276727,0.152577,-0.244377,-0.148640,-0.383419,0.362239,-0.094806,-0.274895,0.053209,-0.197439,-0.437864,0.134938,-0.261498,-0.167379,-0.275994,0.363948,0.495392,0.466552,0.399594,-0.267907,-0.174551,0.315210,-0.090808,0.319880,-0.137165,0.349849,-0.281610,0.092395,0.126637,0.269524,0.461028,0.455290,-0.021409,-0.246910,0.307947,-0.226707,0.192099,0.377407,0.337886,-0.116810,-0.461303,0.482513,0.066210,0.131855,-0.201437,-0.234367,-0.211600,-0.028855,0.100818,-0.115192,-0.105823,-0.359218,0.000320,-0.146443,-0.191641,-0.029923,0.197165,-0.492309,-0.284631,-0.169790,0.304773,-0.174154,-0.277245,0.268273,-0.426878,0.384701,-0.379452,-0.146168,-0.026566,-0.269951,-0.107166,0.270226,-0.449736,-0.054491,0.137013,-0.319544,0.447630,0.199301,-0.451903,-0.099414,-0.485168,-0.448912,-0.376736,-0.089679,-0.100787,-0.200125,-0.256493,-0.266900,-0.469176,-0.346156,-0.211478,0.216575,-0.093524,0.004074,0.441191,-0.255577,0.078448,-0.417234,0.337275,0.411588,0.254845,-0.212333,-0.282281,-0.306970,-0.082720,-0.046434,-0.261315,0.138478,-0.137349,-0.147420,0.096149,0.123280,0.074664,-0.296136,0.121326,0.187460,-0.168020,0.474700,0.002915,-0.005966,-0.041185,-0.246605,0.292566,0.437254,-0.375607,-0.023728,0.349910,-0.067125,-0.402646,0.288995,-0.116901,0.421384,0.361751,-0.176138,0.241539,0.114856,0.000320,-0.325098,-0.383450,-0.480193,0.251915,0.350795,-0.193197,-0.233665,-0.351375,-0.012040,-0.295984,-0.224815,0.139668,0.104785,0.156178,0.294061,0.107349,0.177633,0.363460,0.334254,0.182394,-0.179159,0.463836,0.038926,-0.236167,-0.148793,0.464385,-0.485717,-0.349208,0.018632],[0.324732,0.022080,-0.276879,0.486724,0.494598,-0.145100,0.225364,0.335566,0.113239,-0.363552,0.454405,0.468261,-0.367336,0.194601,-0.176748,0.054155,-0.016587,0.323389,0.491791,0.091205,0.470855,-0.177084,-0.281152,0.398740,0.083605,-0.127308,0.423002,0.173391,-0.243034,-0.113941,0.206320,-0.418424,-0.427854,0.377712,-0.250084,0.404874,0.210501,-0.274071,0.151753,0.150777,0.245598,0.421415,-0.194418,-0.459258,0.304559,-0.291681,0.102374,-0.468688,-0.370418,0.024491,-0.265007,-0.475372,0.071429,0.146474,-0.111957,-0.075243,0.045335,0.446013,0.093097,-0.304132,0.481597,0.164174,0.031785,0.078661,0.300989,0.109180,0.067156,0.121326,0.447447,-0.315729,-0.215323,0.181082,0.008011,-0.347804,0.324610,0.052690,0.452422,-0.458190,-0.213858,-0.119770,-0.477325,0.104022,0.485656,-0.491729,-0.195334,-0.277642,0.349055,0.428892,-0.487671,0.185171,0.220847,-0.019730,-0.483856,-0.274773,0.369869,-0.046007,0.146992,-0.266655,-0.026109,0.266503,-0.193533,0.051836,-0.136158,-0.148824,-0.084490,0.254509,0.309198,0.427732,0.231712,-0.180990,0.125233,0.304285,0.067217,-0.401669,-0.115528,-0.130512,0.438444,0.497131,-0.487762,-0.070147,-0.321772,-0.240715,0.048631,-0.450743,-0.457396,-0.226493,-0.142537,-0.453307,0.342799,-0.197806,0.064135,0.308405,0.133503,-0.459258,-0.497223,0.070513,0.489776,-0.086901,-0.045152,0.329188,-0.097613,0.009842,-0.040330,-0.466765,0.324030,-0.424955,-0.021317,-0.283105,-0.103229,-0.051469,0.194357,0.227714,0.392850,-0.131092,-0.274865,0.206839,0.399106,0.044694,-0.462157,-0.022843,-0.222709,-0.101001,-0.161855,-0.003708,0.430723,0.394436,0.221274,-0.470244,-0.091266,0.344142,0.363460,-0.298364,-0.119251,0.115528,-0.464171,0.078112,0.010086,0.133076,-0.278405,0.440428,0.260033,0.085650,-0.381802,-0.096210,0.162282,0.245659,0.305353,0.038163,0.079974,-0.194449,-0.139576,0.146992,-0.004257,-0.361751,-0.297632,0.360714,-0.143391,0.387539,-0.054704,-0.299188,0.006729,0.294824,-0.456969,-0.229057,-0.260735,-0.331416,-0.493713,0.231071,0.498749,0.402493,-0.027116,-0.288842,-0.235282,0.448729,0.412992,0.320643,0.148915,-0.347560,-0.249626,0.409726,-0.264122,-0.145802,-0.319056,-0.261010,0.199515,-0.334315,-0.030351,-0.286615,-0.274163,-0.174032,0.007157,-0.163137,0.274163,-0.456236,0.407926,0.044206,0.206778,-0.267327,-0.070116,0.065661,-0.180502,-0.455321,0.498383,0.481567,-0.196280,0.109272,-0.385922,-0.377987,0.171346,-0.116474,-0.072283,-0.030778,-0.326319,-0.480010,0.261406,0.217338,0.246239,-0.341670,-0.141133,-0.352626,-0.490631,-0.453154,0.145405,-0.027635,-0.142201,-0.099170,-0.221397,0.309687,0.168203,-0.097156,0.271722,0.436613,-0.341823,-0.247673,-0.029832,-0.014786,-0.073901,-0.329859,-0.336879,-0.266991,-0.295587,-0.235679,-0.389035,-0.354427,0.356594,-0.336451,0.269921,-0.172628,-0.350154,0.324427,0.495361,0.036943,-0.165578,-0.081317,-0.495239,-0.077074,-0.439421,0.207053,0.381954,-0.363033,-0.335139,0.305261,0.403073,-0.020127,0.356807,0.249260,-0.033341,-0.262963,-0.162832,0.265313,0.408109,0.359920,-0.120777,0.151509,0.480163,-0.350978,0.403897,-0.323328,-0.218986,-0.404324,-0.419462,0.403470,-0.089465,0.037584,0.484436,-0.158956,-0.363704,0.285546,-0.158223,0.334712,-0.149007,0.376980,-0.105762,-0.402646,-0.398404,0.112720,-0.086352,0.290582,-0.027512,-0.466826,0.398526,-0.439909,0.103046,-0.009751,0.483154,-0.066973,0.121418,0.471068,-0.408750,0.482513,0.275445,0.330195,-0.135273,-0.333827,0.042192,0.086077,0.399075,-0.255119,0.497314,0.438322,-0.183187,0.187368,-0.274957,0.161702,0.210074,-0.032060,-0.448912,0.033616,-0.016709,0.162740,0.378506,0.451079,-0.372066,-0.248985,0.408444,-0.107166,-0.040239,0.028062,0.027146,-0.115680,-0.149403,-0.464690,-0.359951,-0.380062,-0.014969,-0.085376,-0.265679,-0.099536,-0.325739,-0.407681,0.451262,-0.459288,0.257500,-0.300134,0.449675,-0.095538,0.122425,0.136952,0.341700,-0.277673,-0.123493,0.183279,0.481811,-0.150746,-0.300501,-0.434172,0.390896,0.117725,0.408963,0.387082,-0.403928,-0.057237,0.270012,-0.179220,0.168172,-0.164693,0.080401,-0.017991,-0.262841,0.479980,-0.437712,-0.123188,0.267937,-0.466582,-0.408292,-0.161702,0.376675,-0.200095,0.297540,0.355586,0.469695,-0.060198,-0.439665,-0.298853,0.485809,0.367733,-0.056444,0.263634,-0.476714,0.496216,-0.413205,-0.008286,0.133168,-0.018357,0.093890,-0.144307,-0.440794,0.127949,-0.053972,-0.267144,-0.292810,0.105152,0.471557,-0.377041,0.123371,0.138356,-0.096240,-0.400082,-0.235954,0.323847,-0.442137,0.406308,-0.162343,0.228294,-0.341914,0.096423,-0.499939,-0.072466,-0.153340,-0.365352,-0.315149,-0.359157,-0.094348,-0.145039,-0.150502,-0.382626,-0.277093,-0.311823,-0.081133,0.430692,0.033280,0.062944,0.207205,0.337733,-0.033311,0.386746,-0.400143,-0.141377,-0.065905,0.013352,-0.223777,0.233299,-0.117756,-0.397122,-0.245506,-0.088702,0.449278,-0.219474,-0.459502,-0.268853,0.051653,0.000443,0.160939,-0.054582,0.434172,0.021012,-0.137410,-0.252312,-0.286096,-0.102405,-0.240867,0.457640,0.449828,-0.100787,-0.293878,0.020768,-0.231254,0.255242],[-0.191610,0.265099,0.494598,0.483673,-0.433348,0.405667,-0.209738,-0.064745,0.093524,-0.130329,0.196066,-0.470763,0.262169,0.357570,0.213797,-0.356838,-0.415006,-0.102893,-0.434751,0.196097,-0.448515,-0.219993,-0.405515,-0.001785,-0.295862,-0.040391,0.199973,-0.420774,0.278527,-0.245109,-0.153096,-0.223655,-0.435667,0.392788,0.066027,-0.136799,-0.356502,0.419340,0.344661,-0.498749,-0.339015,-0.488647,-0.183126,0.294641,0.285516,-0.280236,-0.341304,0.229514,-0.484161,-0.324366,-0.405606,-0.220054,0.489074,-0.209342,0.420774,-0.039415,0.446867,-0.017228,-0.045335,0.108051,-0.483551,-0.041459,0.311426,-0.327876,0.462371,-0.416654,-0.081347,-0.202109,0.064653,0.370846,0.173543,-0.019852,0.280908,-0.377377,0.148152,-0.428739,-0.152699,0.249809,0.250511,0.424070,0.475585,-0.192892,0.246452,0.450346,0.301813,-0.228568,-0.450560,0.376919,-0.256401,-0.404263,0.184103,0.480285,0.421445,-0.430601,0.329646,-0.419462,0.300958,0.016617,-0.150166,0.077074,-0.287835,-0.136128,-0.284387,0.305719,0.401791,0.108020,-0.273766,0.000076,0.274957,0.215506,0.435697,0.137226,-0.017106,-0.014908,-0.309534,-0.050340,0.012467,-0.095721,-0.315058,0.384243,0.433531,-0.468780,-0.059740,-0.210105,-0.038591,-0.066546,0.113758,0.115131,0.489593,-0.285699,0.044389,0.396268,-0.250603,-0.341517,-0.059069,-0.181967,0.253319,-0.471740,0.118763,0.128132,0.177053,0.040941,0.192068,-0.314325,0.337947,-0.440519,0.127033,-0.073382,-0.075060,-0.472747,0.062822,-0.474334,0.136952,0.178060,0.306391,0.037187,0.385678,-0.447142,0.407163,0.295679,0.218863,0.354427,-0.281671,0.357265,-0.379055,-0.329066,0.350612,0.263512,-0.153462,0.100482,-0.075396,0.408811,0.443571,0.306452,0.028672,-0.207694,-0.378048,-0.463652,-0.212271,-0.063829,-0.375546,0.134816,0.449950,-0.249229,0.255547,-0.418546,0.396969,0.128651,0.224723,0.086077,0.484527,-0.451842,0.460753,0.271142,0.119037,0.468139,0.052599,-0.026261,-0.022843,-0.205344,-0.026322,-0.302087,-0.226127,0.201712,0.245598,-0.251457,-0.014237,-0.413755,-0.302484,-0.421934,-0.064470,0.439482,-0.022507,0.377529,0.144368,0.415220,-0.027909,0.442839,0.357784,-0.123005,0.290338,0.347835,0.151723,-0.295068,-0.031571,0.455016,-0.475005,0.143208,0.051439,-0.204367,0.384335,-0.029649,0.208213,-0.149861,0.327998,-0.227256,0.035539,0.260125,-0.365139,-0.397061,0.208426,0.003250,-0.135365,-0.196066,0.131764,0.062334,-0.024522,0.280938,0.250755,0.119861,0.365841,0.001267,-0.324488,0.309015,-0.254051,0.004440,0.276299,-0.447325,0.246117,-0.296991,-0.094195,-0.478393,-0.332972,-0.244346,-0.095141,-0.257073,0.279565,0.294031,-0.452940,-0.109790,0.078845,-0.215995,-0.420316,-0.213309,-0.099506,0.303308,-0.483856,0.152333,0.303888,-0.483825,-0.163106,-0.373592,-0.370663,0.126667,-0.245445,0.096850,0.135609,0.091510,-0.299982,-0.132801,-0.376644,0.374386,0.185324,-0.307031,0.451567,-0.478057,0.199637,0.218314,0.352443,-0.156087,-0.204978,-0.155843,-0.048387,0.477355,0.017655,-0.440428,0.399777,0.117450,-0.159078,-0.233085,0.021378,-0.304590,0.257103,-0.367306,0.387875,-0.215323,0.182974,-0.005203,-0.279626,0.017167,0.336604,0.357784,0.029130,0.290368,-0.259270,0.007218,-0.104663,0.046800,0.009751,-0.225394,0.301752,0.407010,0.075579,0.483551,0.418577,0.437101,-0.490173,-0.390805,-0.249596,0.332575,0.097552,0.181753,-0.448912,-0.200674,-0.180746,0.465117,-0.087909,0.413083,-0.102466,0.442534,0.431120,0.238639,0.064135,-0.360164,-0.133045,0.490265,-0.295801,0.318110,-0.312922,-0.485961,0.033708,-0.433683,-0.086108,-0.125813,-0.033891,0.326167,0.176168,-0.176321,-0.174947,-0.120808,0.371609,-0.058885,-0.441343,-0.171316,-0.152638,0.214927,-0.387539,0.106342,-0.495941,0.355861,0.116230,0.036027,-0.270012,-0.380520,-0.457976,-0.014786,-0.428373,-0.080401,0.489044,-0.364376,0.046770,-0.486236,-0.248772,0.404294,0.006516,0.042619,0.325312,0.046068,0.452208,0.203757,-0.486663,-0.030595,-0.286218,-0.158254,-0.221702,0.295862,0.395810,-0.264641,-0.492950,0.195273,0.497070,-0.136769,0.338343,-0.472564,-0.389554,0.429502,0.211051,0.321802,-0.390774,0.430265,-0.210257,0.126057,-0.274346,0.042314,0.423337,-0.244499,0.428465,-0.384426,0.292993,0.473632,0.005722,-0.449828,-0.093982,0.135945,0.258660,-0.160604,-0.408383,0.327693,0.213248,-0.439879,0.154714,0.027085,0.255516,0.091723,0.344417,-0.174734,-0.402890,0.344691,0.293054,0.233848,0.477142,-0.219779,-0.417753,0.111927,0.006149,-0.497772,0.092242,-0.256737,0.059862,0.202780,0.290368,-0.404630,0.127033,0.242180,0.115650,0.291131,-0.480865,-0.354732,0.115101,-0.175253,-0.152242,0.294946,-0.011765,-0.446806,0.175192,0.104083,0.196158,-0.005814,-0.254082,0.447325,-0.208792,-0.038163,-0.296228,-0.366176,0.123615,0.071947,-0.297998,-0.297571,-0.418607,0.147145,-0.187887,0.320063,0.019761,-0.445830,-0.362392,0.065081,0.035966,0.003586,0.039476,-0.123218,-0.253624,-0.156026,0.378719,-0.048235,0.221763,0.381314,-0.316858,-0.130726,0.236656,0.255150,-0.355983,0.225913,0.489990,0.402524,-0.150899,-0.438383,-0.047868,-0.358852],[-0.293603,-0.445097,-0.306391,-0.050493,0.389492,0.464904,-0.350948,-0.109699,0.210593,0.342067,0.498230,0.395047,0.057604,0.164510,-0.401517,0.416715,-0.051195,-0.149373,-0.224723,0.237571,0.262566,0.090136,-0.014695,0.409818,-0.424741,-0.045000,0.108814,-0.495911,0.040452,-0.112598,-0.389218,0.250999,-0.409879,0.220817,-0.397366,0.480865,-0.260521,-0.109394,0.335414,-0.230918,0.276543,0.490265,-0.343989,0.192557,-0.382351,0.329646,0.457671,0.103595,0.110553,-0.348537,-0.344722,0.328028,0.065447,-0.337916,-0.281854,-0.307092,-0.203635,-0.466796,0.290033,0.291101,0.453337,0.030259,-0.071581,0.387783,-0.073412,-0.075732,0.494568,0.376370,-0.395322,-0.156972,0.224723,-0.310724,0.267144,-0.281945,0.014451,0.069933,-0.106830,0.483245,-0.052843,0.112445,-0.332331,0.182150,-0.402249,0.475219,-0.034349,0.139363,0.143422,-0.325709,-0.403439,0.352809,-0.188437,-0.136341,0.089587,-0.237236,-0.302271,-0.492737,0.301141,-0.445585,0.483276,0.350734,0.125904,0.149617,0.084857,-0.402615,-0.407254,0.044267,-0.232933,-0.303613,0.126545,0.148000,-0.251183,-0.352382,0.257164,-0.218253,-0.164632,0.231132,-0.442839,-0.010086,0.106983,0.066118,0.089312,0.323176,0.195212,-0.093371,0.144765,-0.251732,0.178793,0.079516,-0.446165,-0.158925,-0.370510,0.471557,0.350307,-0.081042,-0.160115,-0.028764,0.070086,0.268975,-0.236290,-0.227653,0.466491,0.127918,-0.299188,0.444731,-0.077807,-0.429350,0.257042,0.179067,0.340266,-0.036973,-0.388974,0.111744,-0.205588,0.134999,-0.381100,0.136036,-0.279351,-0.083941,-0.144917,0.001511,0.378536,0.265007,-0.345943,-0.461760,-0.358699,-0.163839,-0.073565,-0.429899,-0.421384,0.185202,-0.382778,-0.377865,0.035875,0.014603,0.402463,-0.184988,-0.295892,-0.408505,-0.040025,0.178274,-0.194174,-0.184561,0.390347,-0.487823,0.133992,0.225974,-0.180410,-0.295129,-0.273980,0.105731,-0.285302,-0.089526,-0.046159,0.335597,-0.056627,0.495270,0.311060,0.157918,0.109027,0.157216,-0.321345,-0.495666,0.192526,0.126026,0.350642,0.044328,0.031877,-0.150929,-0.399625,-0.389615,-0.329035,0.070391,0.069597,0.156880,0.108631,-0.292077,-0.239433,-0.092090,0.479461,0.436522,-0.086840,-0.148671,0.197531,0.381497,-0.451964,0.234245,0.094226,-0.169393,-0.043016,0.217032,0.081347,0.369167,-0.078326,0.341853,0.371090,0.345485,-0.057543,-0.028581,-0.216330,0.072802,0.257866,0.355434,0.174276,-0.326472,-0.063341,0.479461,-0.489685,-0.027482,-0.176778,0.353877,-0.369625,0.345271,-0.382290,-0.101794,0.215873,-0.072497,-0.127644,0.077380,0.007187,0.092456,0.184866,0.446440,-0.205161,-0.398312,0.370449,-0.240623,0.217612,0.336451,-0.106433,-0.200949,-0.101764,0.014664,0.340846,0.083666,-0.051378,-0.198599,0.215812,-0.393338,0.375057,0.217338,-0.162191,0.266289,0.415250,0.252709,-0.374935,0.140187,0.338405,0.092730,-0.455840,0.262780,-0.260826,0.360134,0.006607,0.060198,-0.142811,0.281915,-0.006088,0.100055,-0.046953,-0.313959,-0.307428,0.311670,0.272393,0.234581,0.419919,0.333430,-0.370968,-0.201010,0.122181,0.143330,0.138508,0.384976,0.226463,-0.371242,0.133045,-0.488403,0.126881,0.252342,-0.210105,0.160665,-0.255547,-0.350581,-0.092486,-0.003006,0.289300,-0.225303,-0.401669,-0.312342,0.039201,-0.274804,0.147877,-0.170003,0.257134,0.083911,0.192648,-0.141530,0.106922,0.457274,0.118732,0.498383,0.262963,-0.228050,-0.202963,-0.315760,-0.220695,-0.208029,-0.343287,0.464995,0.000076,-0.487182,0.127796,-0.198752,-0.208060,-0.411039,-0.016190,-0.338343,-0.119831,0.450438,-0.383358,0.324458,-0.430509,0.265587,-0.226279,0.289850,-0.369045,0.405423,-0.210318,-0.289300,-0.364071,-0.433592,-0.156636,-0.253624,-0.481140,0.207480,0.271294,-0.252922,-0.350429,0.457945,0.469298,-0.325678,0.196677,0.152181,0.413022,-0.335871,0.063280,0.147847,0.329005,0.138844,0.176168,-0.416959,-0.452605,0.374203,0.409696,0.229789,0.067461,-0.072283,-0.074206,-0.401303,-0.132862,-0.165426,0.211234,-0.047258,0.488372,-0.022599,-0.406705,-0.115284,-0.071337,-0.463988,-0.484619,-0.384304,0.370724,-0.076342,0.353481,-0.329279,-0.218741,0.115741,0.054888,0.087054,-0.089892,-0.222648,0.380673,-0.187490,-0.279046,0.095965,0.032670,0.449156,-0.214866,-0.274712,0.446562,-0.001022,-0.330653,-0.252983,-0.467772,-0.232109,-0.151112,0.055956,0.142750,0.084155,0.177572,0.075701,-0.447203,-0.012711,0.445280,0.210257,-0.271508,-0.455718,0.055101,-0.061480,-0.330744,-0.051164,0.350429,-0.042619,-0.396756,0.059893,-0.376125,0.280053,0.317560,-0.463805,0.339198,-0.304468,0.404447,0.222678,-0.403012,0.496094,-0.295282,-0.055284,0.376400,-0.122211,-0.270043,0.367611,-0.417325,-0.077960,0.344050,0.075823,0.433439,-0.437315,0.486084,-0.470000,0.213279,0.446196,0.215323,0.056719,-0.070482,0.090258,-0.140187,-0.472381,-0.101001,0.247948,-0.450224,-0.115192,-0.201865,-0.117359,-0.083178,0.167470,0.206961,-0.338923,0.240623,0.197317,0.178518,0.369900,-0.176077,-0.421995,-0.134968,0.162191,-0.122303,0.165731,-0.268090,0.040788,-0.303247,-0.333827,0.390805,0.483734,0.408109,-0.484649,-0.416868,-0.381375,0.072497,-0.300653],[0.489715,-0.379604,0.475127,0.466582,0.362026,0.007492,0.012375,0.212363,0.352687,0.058123,0.021043,0.019181,0.490539,-0.200125,-0.160268,-0.098224,0.414579,-0.451537,0.322687,0.393735,-0.264397,0.337336,0.272393,-0.121082,0.427335,0.368954,0.210837,-0.096637,0.016404,0.069628,0.339930,-0.081683,0.477630,0.029130,-0.152058,-0.013474,0.240379,-0.393735,0.217582,0.482604,0.212699,0.481719,-0.307489,0.318537,0.229179,-0.060656,-0.441771,-0.273675,-0.171163,0.157460,0.393612,0.128040,-0.230522,0.290918,-0.050554,0.125141,0.184500,-0.374538,-0.189718,0.138478,-0.211356,-0.414182,0.495544,-0.270592,0.038713,-0.121723,0.156331,0.134419,-0.344386,-0.450591,-0.475494,0.043260,0.414212,0.242119,0.269616,0.153005,-0.393399,0.430052,0.420286,-0.471587,0.085894,-0.088122,0.006668,0.300378,0.295953,0.346736,-0.420560,-0.266747,0.193960,0.111499,-0.237724,0.192984,0.471801,0.262017,0.493561,0.046495,-0.017747,-0.121113,0.113941,0.024125,-0.223014,-0.420682,-0.044084,0.076281,-0.338435,0.476287,-0.408597,0.255272,-0.325190,0.365963,0.393918,-0.346004,0.397916,0.425321,-0.428709,-0.067553,0.499817,0.200400,0.325739,0.463256,0.425657,0.167104,0.296503,-0.372280,-0.366604,-0.354793,-0.057390,0.293634,0.286065,0.347560,0.020798,0.005570,-0.195120,0.344722,-0.184255,-0.080218,0.190390,-0.272576,0.278314,0.014237,-0.482940,-0.252678,-0.271630,-0.394742,-0.491760,-0.282556,0.278191,-0.297754,-0.402860,0.453703,-0.367153,0.231376,0.380825,-0.461394,0.423978,-0.340297,-0.127583,0.188925,-0.267388,0.051134,0.459166,0.007218,-0.041826,0.084796,-0.028977,0.400449,-0.310846,0.068163,-0.232505,-0.055010,-0.268090,0.475097,0.247887,0.480712,-0.045793,0.040635,-0.308374,0.214408,0.099261,-0.056017,-0.164693,-0.385342,0.226707,0.110157,0.091906,0.378689,-0.063097,0.162252,-0.181082,0.252647,0.034715,0.055559,-0.458220,-0.012986,-0.211325,-0.075823,-0.461699,0.207755,0.442656,0.172048,-0.308985,0.484741,0.135060,0.339198,0.012955,0.378780,-0.116840,-0.225150,-0.246086,-0.251579,-0.212363,-0.351833,0.492828,0.097674,0.114277,0.328333,0.122669,0.246117,0.408811,-0.335139,0.134327,0.102313,0.301294,0.199759,0.105518,-0.177633,0.156087,-0.157674,-0.199026,0.134083,0.223899,0.038285,-0.209738,0.108600,0.451903,-0.035752,-0.010666,0.160573,-0.391751,-0.221183,0.032304,-0.442015,-0.122181,0.461516,-0.120502,0.223228,-0.416074,0.270959,-0.431974,0.105945,0.194388,0.353389,-0.488800,-0.089984,0.265984,-0.467223,0.253166,0.454924,0.485443,-0.185934,0.084460,0.453063,0.461913,-0.369930,0.425871,-0.015244,0.427732,0.364223,0.385250,0.451323,-0.496246,0.179769,0.395169,0.287957,-0.314600,-0.313044,0.336421,0.218162,0.205313,0.479247,0.054277,-0.414335,-0.216758,-0.405026,0.402463,0.466369,-0.327357,-0.210990,-0.053484,0.316950,0.088458,0.390683,0.338435,0.318140,0.251457,0.310419,-0.371426,0.473540,0.186270,-0.132740,0.180563,0.229911,0.439909,0.258782,0.386715,-0.044267,-0.229362,0.118671,0.119770,0.210929,0.464263,0.193716,-0.172597,0.088580,0.433134,-0.328974,-0.324763,0.410642,-0.245018,0.187063,-0.354793,0.057909,-0.192648,0.049181,-0.004807,0.216422,-0.346187,-0.298090,-0.013962,-0.179220,-0.161336,-0.031999,0.282678,-0.023698,0.245781,0.096545,-0.064837,-0.359462,0.178518,0.148824,0.346248,0.346431,0.316187,-0.246757,0.130970,0.246910,-0.295953,-0.239128,0.275903,0.263878,0.432707,-0.167714,-0.497223,-0.378811,0.162801,0.487671,0.243828,-0.455748,0.152364,-0.349269,0.134449,0.406491,-0.058153,0.218375,0.430052,0.104450,0.353694,-0.313501,0.252495,-0.057268,-0.037248,0.364315,0.073351,-0.189993,-0.306452,0.207144,0.339412,-0.073016,-0.299188,-0.199759,0.387051,0.117969,0.112323,0.074541,0.176504,-0.333888,0.027055,0.305963,0.330897,0.330805,-0.372097,-0.216788,-0.133686,0.402982,-0.364223,0.307001,-0.009384,-0.070513,0.399014,-0.133900,0.136280,-0.083880,0.490509,0.470641,-0.413999,0.075793,-0.411588,0.135487,-0.352809,-0.069781,0.296045,0.045488,0.281365,-0.453581,0.057390,0.433561,-0.404935,-0.310877,-0.175161,0.202719,0.098437,-0.329493,-0.365017,-0.176168,0.137104,-0.321497,-0.251183,-0.460234,0.404874,-0.135304,-0.487274,0.407529,-0.057817,-0.026536,-0.403562,0.209494,-0.472564,-0.206778,-0.235923,-0.234977,-0.133045,0.211295,-0.165181,-0.326136,0.490265,0.153340,-0.010971,0.022202,-0.243614,0.189077,0.076678,0.083026,-0.121906,0.085101,0.083575,-0.458129,0.369655,0.086261,0.412381,0.279138,-0.175253,0.206809,0.134205,0.240257,0.430906,0.312525,-0.132984,0.425199,0.126179,0.275109,0.437559,-0.471801,-0.195029,-0.019822,-0.017624,0.259148,0.478851,0.470031,-0.355159,-0.122150,-0.201651,0.002060,-0.476012,-0.027421,-0.156941,0.305200,0.031510,0.013810,-0.415281,-0.185995,0.313257,-0.285241,-0.068834,0.163167,-0.108448,-0.270287,-0.244072,-0.277398,0.184286,-0.278466,-0.179098,0.455229,0.057237,0.329554,-0.002365,-0.122211,0.066088,0.069140,-0.306391,0.406888,-0.456389,-0.305933,-0.109821,-0.129383,0.189535,0.053209,-0.302423,0.467864],[0.436399,-0.005264,-0.096789,0.419462,0.192648,-0.063707,0.347224,0.194235,-0.102313,0.102130,-0.100757,-0.288446,-0.141499,-0.418363,-0.326350,-0.147053,-0.270135,0.012528,0.451231,-0.305445,-0.472076,0.112415,0.280602,-0.014634,-0.179220,0.232292,0.443358,0.377224,-0.336940,-0.322657,0.116199,-0.436857,-0.193808,0.201773,-0.488311,-0.019761,0.214957,-0.416501,-0.221213,0.232902,0.422147,-0.314447,0.444304,-0.106555,-0.247642,-0.090381,-0.323206,-0.164357,-0.053819,0.448576,0.153829,-0.242241,0.215873,0.244255,-0.185995,0.051439,0.264031,0.056383,0.275231,-0.327754,0.296564,-0.450865,0.199759,0.168844,-0.439268,-0.198569,0.388394,-0.473876,0.440123,0.147511,-0.116108,-0.020524,-0.362758,-0.246452,-0.134205,0.455779,-0.074206,-0.073809,-0.274499,0.267327,0.298669,0.306146,0.263848,0.096362,0.043962,-0.320460,0.395749,-0.296136,-0.067583,-0.280969,-0.351100,0.370632,0.030412,-0.000504,0.476745,-0.298334,0.126728,-0.157399,0.350368,0.475677,-0.190207,0.209891,-0.296075,-0.066607,0.226829,-0.448973,0.015030,-0.337672,0.055345,0.013596,-0.199332,-0.267083,-0.280694,-0.080096,-0.189108,0.243126,0.380398,-0.081652,0.200827,-0.072558,-0.264153,-0.285730,-0.037767,-0.013291,0.154653,-0.212546,0.396542,-0.205466,0.182211,0.002091,-0.090350,-0.362575,-0.054125,-0.484436,-0.089221,0.144002,0.492035,-0.107562,0.095508,-0.440062,-0.414060,-0.170461,-0.104816,-0.474914,0.005875,0.398892,0.373745,-0.491394,-0.137501,0.214133,0.352504,-0.441496,-0.024918,0.427549,0.045274,-0.477874,-0.164693,-0.037217,-0.015763,0.393338,0.190634,-0.109333,-0.481964,-0.057024,-0.222434,0.353511,-0.336421,0.289087,0.237083,-0.055315,-0.407712,-0.437925,-0.257591,-0.050493,-0.467193,0.322871,0.371487,0.353633,0.370540,-0.111774,-0.245720,0.025163,-0.274010,0.221335,0.027268,-0.022752,-0.207205,-0.457427,-0.374630,0.116565,-0.283288,0.317621,-0.056780,0.384548,-0.203116,-0.221702,0.396969,-0.302484,0.290704,-0.366512,-0.082720,-0.408231,0.103351,0.125080,0.405881,-0.019822,0.143422,0.086383,0.185476,-0.074023,-0.374233,0.158559,-0.024155,-0.159078,0.102832,-0.178640,0.425932,0.013077,-0.494140,0.394986,-0.265954,-0.128925,-0.022996,-0.331782,0.387570,-0.108814,-0.226310,0.310633,-0.447691,-0.447264,0.026719,-0.276635,0.144246,0.249046,-0.367244,0.486419,0.113636,-0.440550,0.063219,0.057115,-0.026444,-0.210898,0.370144,-0.122547,0.103656,0.182211,0.170766,-0.454558,-0.139332,-0.284112,-0.108264,0.207480,0.026841,-0.120075,0.054430,-0.172750,-0.372677,0.349361,-0.117634,0.488403,-0.351833,-0.044450,0.012558,0.386166,-0.314234,-0.137013,-0.409055,-0.335078,0.059374,0.356594,-0.465392,-0.242241,0.417570,0.147267,0.240654,0.384060,0.370327,-0.399045,-0.476226,-0.138417,0.177511,-0.202139,0.063952,-0.110492,0.025468,-0.172079,0.144490,0.458037,-0.077410,0.228965,-0.037004,0.041398,-0.254631,-0.026414,0.295312,-0.269555,0.465972,-0.088610,-0.205405,0.460692,0.092883,0.071947,-0.293664,-0.007675,0.355647,-0.263878,0.280450,-0.201315,-0.335261,-0.319514,-0.337916,-0.480987,0.378597,-0.497559,-0.457793,0.131764,-0.092090,0.431120,0.349086,-0.494903,-0.310419,-0.468780,0.261864,0.480621,-0.439116,-0.294275,-0.171682,0.146168,-0.434904,0.403287,0.466582,0.454955,-0.279687,0.437284,-0.366756,-0.154073,-0.217826,-0.177511,-0.060961,0.023026,-0.467833,0.035295,-0.007767,-0.451720,-0.377590,-0.395749,0.252647,0.406156,-0.491638,0.436827,-0.323847,0.194357,-0.499176,-0.211295,0.431608,0.098224,0.468078,0.282128,0.471252,0.304437,0.219779,-0.121052,0.236015,0.010239,0.103992,0.215506,0.276605,-0.314936,-0.152181,0.204459,0.072130,-0.260155,0.174001,0.311090,-0.173086,0.261162,0.223655,0.409207,-0.472533,-0.034135,0.317408,-0.376431,0.040117,0.032823,0.085101,0.065020,-0.468993,-0.032212,0.496429,-0.135945,-0.010056,0.157643,-0.177175,0.409970,0.138325,0.270440,0.062487,0.200797,-0.496216,0.157460,-0.140584,0.211386,-0.058336,0.413327,0.447844,0.184896,0.385189,0.250633,-0.346736,-0.245567,0.105243,-0.154714,0.481658,-0.198752,0.261467,-0.191122,0.327357,-0.044786,0.025254,-0.055986,0.331721,-0.355739,0.056536,-0.060564,-0.076708,-0.400967,-0.384823,0.160543,0.070727,0.218589,0.088488,0.192068,0.280145,-0.296136,0.215903,0.288812,-0.132374,0.364956,-0.207816,0.390988,-0.461577,0.008377,0.130696,-0.139851,-0.195883,-0.189138,0.067003,-0.407956,0.268883,-0.414548,-0.214408,-0.337123,0.316065,-0.153432,0.249413,0.164724,0.226524,-0.419736,-0.485534,0.386868,0.259758,0.125629,-0.289361,-0.000961,-0.270623,0.073748,-0.030747,0.392880,-0.396451,-0.409238,0.079516,-0.162282,-0.337428,0.070696,0.154866,-0.392697,-0.255943,-0.475249,0.089831,-0.266778,0.107196,-0.386776,0.089648,-0.458373,0.447691,-0.273888,0.053117,-0.370357,-0.405972,0.018906,0.090381,0.436949,0.416990,-0.190237,-0.043535,0.069903,-0.017289,0.244133,-0.317560,-0.466582,0.482025,-0.366909,0.184896,0.027665,-0.034532,0.372311,0.135060,0.465026,0.416959,-0.153493,-0.130787,-0.135578,0.196066,0.227287,-0.378780,-0.221244,0.381161,-0.430753],[0.084613,0.217185,-0.196738,0.003250,-0.420408,-0.014054,0.190298,0.318323,0.177297,-0.027909,-0.330683,0.242485,0.299585,-0.014298,0.293970,-0.047716,-0.321253,-0.457030,-0.124683,0.434751,-0.407376,-0.405545,-0.289117,-0.149281,-0.100970,0.045488,0.147572,0.470489,0.354030,0.427274,-0.306391,-0.037034,-0.130848,-0.250359,-0.414182,0.319758,-0.135151,0.066546,0.217551,0.194937,0.375240,-0.214377,0.334986,-0.057482,0.061632,0.253502,0.406613,0.131947,-0.209677,-0.352626,0.073199,-0.176229,-0.069170,-0.295373,0.083972,0.386196,0.031602,0.321711,-0.374722,0.133686,0.028336,-0.446959,0.448149,-0.430448,-0.357692,0.042100,-0.299097,-0.487243,0.124012,0.414853,-0.126698,-0.108753,-0.001114,-0.332331,-0.242119,0.482055,-0.028733,0.080615,-0.164510,0.380367,-0.357173,-0.312952,-0.009445,0.478118,0.201590,-0.168294,-0.036882,-0.266381,-0.262078,-0.152760,0.442930,-0.486541,0.343989,0.381832,0.212851,-0.211997,-0.347865,0.407681,0.247032,0.461516,-0.030381,0.443266,0.170461,-0.381619,-0.335322,0.018906,-0.013810,-0.033250,-0.038682,-0.081622,0.476409,0.260308,-0.201895,0.226737,0.183340,-0.019944,-0.091968,-0.283929,0.376827,0.057360,-0.224845,-0.399106,-0.085772,-0.081378,-0.375546,0.193075,0.399228,-0.365841,0.101093,0.489196,-0.454283,0.451323,-0.204489,0.220328,0.153188,0.493866,0.270409,0.396207,-0.400784,-0.091357,-0.254112,-0.125446,0.256340,0.240745,0.099109,-0.012680,-0.261315,0.318140,0.334620,-0.245445,0.384976,0.427946,0.181600,-0.282403,-0.115894,0.064287,-0.025529,-0.077380,0.449828,0.030198,0.472747,0.085711,0.449828,0.173849,-0.223319,0.470946,-0.103046,-0.458739,-0.005051,-0.487335,-0.292444,0.225913,-0.179647,-0.286981,0.133564,-0.303095,-0.329859,-0.153920,0.275018,-0.112873,-0.453032,0.000107,0.078570,-0.177816,0.276818,0.488708,-0.271142,0.071795,0.280053,0.162526,-0.161489,-0.195608,-0.467986,0.152547,0.343287,-0.272973,-0.130512,-0.423826,-0.491546,-0.309381,0.298547,0.237754,-0.046922,0.243034,0.461333,-0.146077,0.097552,-0.089679,-0.083270,-0.163594,-0.058061,0.488067,0.392087,0.161916,-0.420072,0.123157,-0.338374,0.361660,0.355922,0.468688,0.208365,0.161061,0.070482,-0.308527,0.325098,-0.198721,0.141438,-0.385006,-0.188589,-0.426572,0.125629,-0.221946,-0.077380,-0.403012,-0.491180,-0.309320,-0.273370,0.373714,0.169088,0.068743,-0.474425,0.148030,0.420438,0.328181,0.498077,-0.394528,0.042680,0.120167,0.218162,-0.059801,0.203970,0.188833,0.207968,-0.177236,-0.317927,0.332240,0.179311,0.299768,0.290826,-0.251854,0.121326,0.156301,-0.082354,-0.454009,-0.110096,-0.227653,0.079211,-0.294153,0.455443,0.005020,0.400174,0.266167,0.464812,0.126881,-0.077380,0.021012,0.274377,0.352565,-0.348415,-0.491272,0.109699,-0.015610,0.243034,-0.427671,-0.491485,-0.291589,0.240928,0.273827,-0.296686,0.072039,-0.230827,0.443175,0.099231,-0.325434,0.084948,-0.356868,-0.495666,0.101947,-0.100238,-0.168264,0.268059,0.136799,-0.125996,-0.497253,-0.016404,0.275170,0.191916,-0.413633,-0.088336,0.081103,-0.377285,-0.109302,-0.219169,0.410489,-0.025681,0.365505,0.121113,0.035081,0.345912,-0.030412,-0.212973,-0.301569,0.085559,0.422910,-0.173605,0.134419,-0.140767,-0.375576,0.351192,0.080157,-0.262627,0.017838,-0.433866,-0.185812,-0.294885,-0.314905,-0.387509,0.251335,-0.497040,0.450285,0.381924,0.125355,0.203391,-0.225913,-0.042558,0.290979,0.430296,-0.279077,-0.162099,-0.323969,-0.372890,-0.220817,-0.398434,-0.084490,0.280267,-0.183493,0.165456,0.198172,-0.496551,-0.048967,0.296808,0.357631,-0.109882,-0.380184,-0.467498,-0.261406,0.039293,-0.374111,0.163289,-0.129963,-0.338313,0.444975,0.438231,0.475768,-0.327815,-0.426756,-0.353481,-0.145405,0.174673,0.197470,0.232414,0.160848,-0.254021,-0.031541,-0.400662,-0.383877,-0.075182,0.159413,-0.239860,0.184439,0.311792,-0.009629,0.488952,-0.258812,0.187368,0.399686,0.131306,0.267754,0.053514,0.044176,-0.271050,0.102283,0.005264,-0.191000,-0.384976,-0.220939,0.338923,-0.391293,0.136464,0.486450,0.302423,-0.239799,-0.340663,-0.324732,0.395138,-0.290490,0.293573,-0.150685,0.121998,0.393277,0.035539,0.068072,-0.390347,0.016160,0.356594,0.194082,-0.010300,-0.474395,0.107898,0.415494,-0.043992,-0.434904,-0.316218,0.075243,0.402097,0.187155,0.228080,0.338282,-0.455412,0.107288,-0.003159,-0.272332,0.439787,-0.219535,0.254723,0.061357,0.298395,0.080737,0.360408,-0.179586,-0.494171,-0.134022,0.197928,0.480163,-0.246239,0.208304,-0.390133,-0.164418,0.188955,-0.427915,-0.011155,-0.148000,-0.013688,-0.279748,-0.316675,0.072375,0.251793,-0.369594,0.374233,0.112598,-0.338405,0.202048,0.078448,0.275872,-0.255791,0.035844,-0.064257,-0.182577,0.210898,0.066759,0.434721,-0.109027,0.241630,0.331660,0.234855,-0.291955,0.132038,-0.347011,0.240349,-0.058611,0.208243,-0.480193,0.082080,-0.096301,0.415189,-0.052629,-0.335719,-0.466643,0.485321,-0.403897,-0.068377,-0.282495,0.093463,-0.067736,-0.486602,-0.015244,-0.095569,-0.289850,0.400937,0.097980,-0.080920,-0.441588,0.314356,-0.421140,0.025895,-0.232139,0.000046,0.440886],[0.187094,0.435972,0.305750,0.477599,0.204825,-0.387295,-0.431364,-0.391110,-0.076312,-0.306421,-0.321894,0.030900,-0.013504,-0.221580,-0.175527,-0.273125,0.479614,-0.403104,0.352535,-0.438566,-0.387570,-0.388852,0.104846,-0.180258,-0.409452,-0.478759,-0.469573,0.006882,-0.157521,-0.289727,-0.025224,0.102496,-0.119037,-0.215171,-0.317042,-0.323481,-0.419370,-0.132282,-0.453185,-0.227287,0.152608,-0.201254,0.127552,-0.034165,-0.402280,-0.100024,-0.015122,0.498901,-0.080309,0.461608,-0.155721,-0.093005,-0.120991,-0.395016,-0.366878,0.033464,-0.430753,-0.321192,-0.082568,-0.155110,-0.403073,-0.155538,-0.229972,-0.048631,0.146107,0.007462,-0.398160,0.237815,-0.291253,-0.249382,-0.012894,-0.486816,-0.237022,0.425535,0.014206,-0.416807,0.179098,0.058367,0.192892,-0.346553,-0.364132,0.226554,0.449614,0.468535,-0.172292,-0.437712,0.241813,0.093921,-0.256005,0.039232,0.322871,-0.253136,-0.197867,-0.301263,0.188223,-0.418149,0.115131,-0.028184,-0.265038,-0.162038,-0.324671,0.252831,0.165120,0.253349,-0.264458,-0.118305,-0.335536,0.153859,0.168325,0.190390,-0.111835,0.121540,0.085376,-0.230003,-0.216086,-0.350429,0.497833,-0.384915,-0.215384,-0.310144,0.298669,0.300989,-0.098804,0.499176,0.348933,-0.149464,-0.252892,-0.309473,-0.051500,0.446715,0.025956,-0.103839,0.472869,-0.352931,-0.487274,-0.052416,0.457305,0.256462,0.061083,-0.020280,-0.090564,-0.485961,-0.333277,0.365261,0.131764,-0.248650,0.119037,-0.114978,-0.165120,0.176778,0.271599,0.041276,-0.176748,-0.056169,0.463286,-0.080615,0.034440,0.158437,0.120869,-0.494873,0.212851,-0.017838,0.074664,-0.137135,-0.000046,0.487335,-0.381924,0.081469,-0.278649,0.420133,-0.157125,0.394070,-0.347346,-0.471343,0.280724,0.378018,0.044786,-0.388760,0.382870,-0.359096,-0.309259,-0.058123,-0.131062,-0.100665,0.314234,0.228721,0.476104,-0.143513,-0.438017,-0.237632,0.139729,-0.215232,-0.118946,-0.090472,0.137165,0.219779,0.061571,-0.391293,0.225608,-0.328181,-0.272698,0.024308,0.305078,-0.238609,-0.445524,0.014695,-0.361415,-0.315485,-0.499512,-0.428343,0.159658,0.414548,-0.176565,-0.113788,-0.100787,-0.453459,0.174062,0.197897,0.063005,0.190542,-0.458739,0.083453,-0.209708,-0.180380,0.332331,0.341304,0.125874,0.479797,0.368923,0.127796,0.235862,0.266808,0.080767,-0.498169,0.399075,0.477508,-0.322321,0.033952,-0.194937,0.340663,-0.418851,-0.364254,-0.310114,-0.265526,-0.102741,0.266930,-0.158834,-0.203391,0.211661,-0.325159,0.003494,-0.167104,0.488159,-0.175893,0.215415,0.431303,0.352016,0.171285,-0.390683,0.187094,-0.460631,0.442228,-0.294244,-0.054308,-0.206259,0.066912,-0.267479,-0.030686,-0.008774,-0.070605,0.001083,-0.066454,-0.224723,-0.412076,-0.129688,0.160543,0.482788,-0.377712,0.329829,-0.005478,-0.357936,0.264367,-0.266625,-0.273766,-0.175344,-0.032060,-0.285913,-0.027451,0.131764,0.074572,-0.187582,-0.082842,0.096667,0.230949,-0.151540,0.319178,0.284448,-0.285180,-0.430631,-0.304865,0.370357,0.325373,-0.396207,-0.418363,-0.022355,-0.006119,0.253868,0.283807,0.056810,-0.228080,0.156423,0.016465,0.086657,0.352351,0.344722,-0.155599,-0.120746,-0.220115,-0.258263,0.327418,0.269524,-0.492615,-0.383755,0.276696,0.470702,0.454192,0.033311,-0.471038,0.377346,0.222221,-0.170248,0.144459,-0.403439,0.127338,0.146718,-0.065386,0.489319,0.200522,0.049821,-0.273461,0.002396,-0.183370,0.268487,0.269951,-0.427000,0.106098,-0.414243,0.192587,-0.113483,-0.193930,-0.090136,-0.088824,-0.230613,-0.292627,-0.441832,-0.096423,-0.002335,0.353389,-0.214011,0.248283,0.303125,0.146931,0.090106,-0.161977,0.357631,-0.477935,0.319514,0.173330,0.017502,0.336024,0.123615,0.142384,-0.391140,0.138508,-0.230277,-0.306330,-0.465056,0.474090,-0.138905,-0.192953,-0.012650,-0.126118,-0.013688,-0.329615,0.041795,-0.306726,-0.168203,0.467071,-0.080004,0.451262,-0.211661,-0.318598,-0.301263,-0.171896,-0.416929,0.327845,0.247490,-0.022416,-0.031877,0.009934,-0.324213,0.309809,-0.003006,0.216117,0.071764,0.400876,-0.079791,-0.242393,-0.187429,0.185995,0.231468,-0.244499,0.228843,0.091937,-0.104846,0.082781,-0.096606,0.265130,0.286950,-0.332484,0.386410,-0.448271,-0.121479,-0.436033,-0.118976,0.386074,0.197623,0.197165,-0.233604,0.243187,0.094775,-0.312098,-0.016068,-0.187429,-0.152058,-0.336238,0.492889,-0.451720,0.136189,0.462981,-0.347804,-0.247124,0.413968,0.136830,-0.435667,-0.149831,-0.283319,0.157460,-0.422941,0.004257,0.429746,0.236717,0.451781,-0.259941,0.050920,0.162801,0.478698,-0.277581,0.478881,0.060503,0.320917,0.349361,-0.142109,-0.018174,-0.132069,0.316218,-0.489349,0.232719,-0.119739,-0.193350,-0.009842,0.342250,-0.293542,0.466979,-0.218192,0.081133,-0.146474,-0.180288,-0.312464,0.434660,-0.308039,0.273217,0.422544,-0.062456,0.077288,0.382687,0.456145,0.275964,0.168172,-0.479949,-0.371792,-0.436430,0.223716,-0.392148,-0.427854,0.197684,-0.339930,0.073901,0.475707,-0.298547,0.148274,-0.317042,0.210868,0.459166,0.034196,0.401730,0.364589,-0.250267,-0.137806,-0.047044,0.200491,-0.014084,0.283532,0.215781,0.083941,-0.435820,0.130390,0.127308],[-0.260582,0.268609,0.464812,-0.237815,0.383450,-0.306177,-0.388241,-0.291467,0.172567,0.098926,0.120106,-0.110309,-0.120136,0.117420,-0.034410,-0.316645,0.408689,0.100421,0.411893,-0.151906,0.335383,0.262535,0.483581,-0.195395,0.414029,-0.206687,-0.243004,-0.111194,-0.057909,0.384793,-0.097156,0.348933,-0.105976,0.455992,0.136891,-0.381741,0.228294,-0.143513,0.235282,-0.105762,0.274895,0.329218,0.270440,-0.444334,-0.391049,-0.485504,-0.275872,0.448882,0.316981,-0.223472,0.133442,-0.425626,0.061846,-0.367122,-0.073626,0.205252,-0.146992,0.069353,-0.396817,-0.031785,-0.072008,-0.479644,-0.080432,-0.081011,-0.348659,-0.203024,0.228050,0.142994,-0.162343,-0.256829,-0.366085,-0.087298,0.404355,-0.098041,0.121876,-0.067125,-0.238914,-0.027360,0.309381,-0.295099,-0.158406,0.340114,-0.016373,-0.458312,0.184286,0.457884,0.077563,0.263970,-0.031846,0.365688,0.241905,0.109546,0.409757,0.123341,-0.331141,-0.113056,0.427946,0.441588,0.324396,-0.095965,-0.017716,0.291650,0.244499,-0.296380,-0.008164,-0.225517,0.052538,0.136738,0.239830,0.031083,0.353450,-0.194754,0.171224,0.475005,0.160939,0.404630,-0.010880,0.128346,0.014512,-0.001450,-0.043992,0.342769,-0.058092,-0.243583,0.306635,-0.313868,-0.076495,0.184683,-0.321925,0.276757,0.015091,0.384060,0.464202,0.345912,-0.214988,0.362941,-0.000504,0.310297,0.221915,-0.060961,-0.020066,0.135395,-0.230399,0.259880,0.025803,0.271233,-0.354915,0.473937,-0.206107,-0.058580,0.095904,-0.416868,-0.455687,0.067217,-0.246727,0.008621,-0.431028,-0.392575,-0.262627,-0.099719,0.387448,-0.404324,