[[[-0.315607,0.058367,0.440001,0.272027,-0.008438,0.332362,0.463958,0.403806,0.165761,-0.120899,0.010483,0.494873,-0.172536,-0.291650,0.221976,0.334956,0.166952,0.261132,0.398984,-0.348445,-0.386563,-0.085894,-0.082415,0.297601,0.165578,-0.499908,0.293847,0.182394,0.222556,-0.060839,-0.085681,0.205222,0.409421,-0.112110,-0.285913,0.346583,-0.072222,-0.187826,-0.416990,-0.425993,0.463256,0.390255,-0.218039,-0.281060,0.180471,-0.348170,0.149800,-0.020157,-0.162252,-0.239830,0.382962,0.209372,-0.448332,-0.157430,0.168325,-0.359737,0.243553,-0.223777,0.450987,0.207419,0.298669,0.335353,-0.382168,0.121632,0.469878,-0.394314,-0.121326,-0.148274,-0.443785,0.073351,-0.374386,0.171041,-0.111377,0.292993,0.052385,0.424619,0.153127,-0.457030,-0.185385,-0.326594,-0.416684,0.372860,0.012406,-0.128346,0.053484,0.449492,0.276269,-0.266442,0.102893,-0.391354,0.238090,0.446104,0.423276,-0.482330,0.167928,-0.116810,-0.159444,-0.144276,0.058061,0.478545,0.321589,0.417905,-0.064287,0.412809,0.037919,0.049547,-0.314692,0.271325,0.017136,-0.183340,0.162099,-0.171041,0.413694,0.319117,-0.122517,0.118122,-0.070360,-0.447539,0.038530,0.436155,0.417661,0.225150,0.221793,0.448515,0.196219,-0.063341,0.463225,0.043840,0.109607,0.123493,0.045427,0.097400,-0.137196,0.179067,-0.236473,-0.201407,-0.336756,-0.346767,-0.049455,-0.300287,-0.299463,-0.061144,0.043931,0.141041,0.495056,0.350154,-0.025498,0.209769,-0.352809,0.000412,0.158528,-0.112171,0.018174,0.384762,0.375027,-0.454131,-0.126392,0.073931,0.308649,0.438841,0.021439,0.425932,0.040239,0.359920,0.475036,-0.278680,0.265587,0.108997,-0.326899,-0.371181,-0.475982,-0.068285,-0.212485,0.406949,0.218253,-0.414487,0.149953,-0.251549,-0.293970,0.188833,0.329432,-0.326563,0.245842,-0.490173,-0.108966,0.377773,0.076861,-0.149190,0.367794,0.442473,0.415433,0.184591,0.476653,0.311060,-0.351772,-0.301080,0.109668,0.440458,-0.495392,0.405698,0.132191,0.032151,0.488128,-0.029466,-0.481445,-0.250542,0.349361,0.419492,-0.142811,0.327754,-0.119037,-0.121174,-0.244102,0.482940,-0.183676,0.004501,0.179067,0.025681,0.112781,0.257134,0.247398,-0.413572,0.400937,-0.321223,-0.467895,-0.141774,-0.118671,0.328547,0.374416,-0.236564,0.449644,0.031755,0.261437,0.450377,0.331294,-0.399442,-0.209616,-0.473785,0.007736,0.181234,0.251701,0.433012,-0.285669,-0.115558,0.362392,0.371517,0.292169,0.355525,0.181295,-0.318690,-0.325587,0.439817,-0.262780,0.081286,-0.211081,-0.399564,0.401028,-0.321925,0.157826,0.244163,-0.466887,0.148579,-0.024155,-0.388577,0.438017,0.001907,-0.051653,0.387509,0.156026,0.328333,-0.329737,-0.309656,0.124805,-0.059587,-0.172506,-0.408292,0.240928,0.313074,0.001663,-0.172262,0.353114,0.228690,0.359645,-0.144795,-0.281579,-0.466338,0.009262,-0.090258,0.452696,-0.087542,0.302087,0.222373,-0.493957,0.085314,-0.135243,0.050218,0.195395,0.336451,-0.359706,-0.321772,-0.175375,-0.221946,-0.280023,0.047685,0.424009,0.257500,0.248070,0.167837,0.139821,0.312708,0.179464,-0.032701,0.306024,0.083087,0.172628,-0.259178,-0.271661,-0.418393,0.398190,-0.151875,0.212821,0.234428,-0.455138,-0.178945,-0.130451,0.094440,-0.195853,-0.465087,0.223319,-0.365169,0.114429,-0.399045,-0.338282,-0.471038,0.446226,-0.364711,0.253014,0.322932,0.409848,-0.438688,0.463591,0.406827,-0.033555,-0.398373,-0.192129,0.191031,-0.476226,0.115528,-0.039445,-0.105792,0.198080,-0.061693,0.363247,-0.151662,-0.476867,0.379299,-0.143696,-0.272057,0.388028,-0.466460,0.367641,-0.390744,0.484252,0.065111,0.189047,0.265893,0.044450,0.116535,-0.128132,-0.393277,0.152913,-0.498138,0.273064,-0.337001,0.409726,-0.160634,-0.217246,0.030320,0.229728,-0.220725,0.264977,0.171987,-0.442351,-0.015732,-0.257897,0.489837,0.280114,0.017441,0.355251,-0.430937,0.116535,-0.204642,-0.369381,-0.496826,0.269555,-0.238639,-0.415464,-0.295129,-0.383450,0.435972,-0.303156,0.110065,-0.276360,-0.499481,0.285241,0.180197,0.462645,0.070391,0.310999,-0.390011,-0.486633,0.313471,0.147633,0.146565,-0.468200,0.071154,0.343837,0.425657,0.265252,-0.362880,-0.088519,0.232322,0.396268,0.350887,0.170736,0.091174,0.396359,0.161611,-0.317530,-0.406735,0.170614,-0.180593,0.300470,0.365444,-0.225394,-0.150502,-0.126576,0.088458,-0.015183,-0.034165,-0.370907,0.470336,0.003891,0.080584,-0.229087,-0.419126,0.081774,-0.434568,0.318995,0.454009,0.334254,-0.078753,-0.273492,0.363460,-0.460112,-0.488159,0.302606,-0.320795,0.196921,-0.480987,-0.026719,-0.290399,-0.379147,-0.226005,0.411435,0.436583,0.364650,-0.377743,0.067186,-0.450804,-0.257836,0.478118,0.129963,-0.317164,-0.263329,0.224448,-0.046556,0.269189,0.074969,0.114856,-0.025468,-0.095843,-0.250908,0.333857,-0.342067,-0.360530,-0.233512,-0.128681,0.497223,0.104419,0.409818,-0.131916,-0.396298,-0.136280,-0.212119,0.088000,-0.085192,-0.081591,-0.041185,-0.326441,-0.447722,-0.244957,0.406796,-0.159169,0.362636,-0.149678,0.153371,-0.329920,0.170034,0.036882,0.285028,-0.351650,-0.226463,-0.363247,0.177969,0.120319,0.219718,-0.231376],[-0.466216,0.070086,0.485809,0.049455,0.024400,0.376766,-0.103320,0.398495,-0.168996,-0.148183,-0.062792,0.428526,-0.360622,-0.329249,-0.070116,-0.442961,-0.431089,0.032426,0.106830,0.101856,0.123829,-0.448180,-0.259362,0.391934,0.376125,0.335444,0.043626,-0.304651,0.307306,-0.418027,0.490448,-0.124378,-0.035936,-0.260308,0.471221,0.057817,-0.415067,-0.248375,-0.319239,0.085742,0.353908,0.420011,0.150441,0.051286,-0.063036,0.420957,0.328852,-0.322474,0.458556,0.000931,0.117603,-0.163717,0.073199,-0.113849,0.268456,-0.018143,-0.210379,0.435850,0.047838,-0.218009,-0.297388,-0.428831,-0.424375,-0.272546,0.289605,-0.489288,-0.256615,0.001267,-0.072161,-0.156178,0.119556,0.388943,0.288690,-0.026902,-0.253227,-0.489013,-0.235221,0.457335,0.238273,0.159200,-0.412992,0.285974,0.079211,0.017106,-0.213004,-0.383389,-0.460570,-0.452818,-0.338466,0.006638,0.103809,0.324793,-0.104633,-0.330073,-0.173818,-0.399319,-0.001816,-0.209250,-0.486145,0.373623,0.212577,0.425047,0.147877,-0.246391,-0.451262,0.021104,0.446226,-0.102283,0.102588,0.090716,-0.024186,0.299066,0.313044,0.061571,-0.280602,-0.289087,0.315302,-0.156911,-0.495911,0.486694,0.045885,0.135945,0.197073,-0.383023,0.255974,0.017228,0.075426,0.245567,0.089129,-0.167989,0.276086,-0.055376,0.379788,-0.076708,-0.268212,-0.468383,0.328669,0.230338,-0.500000,-0.292230,-0.288659,0.288141,-0.109668,0.300562,0.276513,-0.341914,0.297266,0.390683,0.489410,0.321680,0.144093,0.105243,0.277825,0.068194,-0.155538,0.358058,-0.064013,0.408170,0.187796,0.318567,-0.157125,0.042985,0.054643,-0.109638,0.151387,0.422788,-0.131397,-0.018998,0.104205,0.423246,-0.309442,-0.156240,0.133351,-0.327082,0.361995,0.273278,0.398526,-0.437895,-0.396969,-0.064562,-0.078204,0.464690,0.472381,-0.386013,-0.026200,0.203970,0.094134,-0.346309,-0.131703,0.294183,0.059069,0.382473,-0.178732,-0.011734,0.405515,-0.206931,0.030534,-0.336024,-0.413114,0.266045,-0.367489,-0.421415,0.331660,-0.385464,-0.308008,-0.475433,-0.197897,0.233085,-0.118488,0.416471,-0.041734,-0.369320,0.006333,0.340754,-0.466887,0.130451,0.031510,0.100177,-0.474609,0.015885,-0.232994,-0.217093,-0.383786,-0.093768,-0.132740,0.388913,0.415799,-0.358730,0.301721,0.043626,-0.053545,0.457305,-0.048082,-0.168569,0.268242,-0.264824,0.492126,-0.221091,-0.346644,0.102100,0.209128,0.020157,0.215751,0.168081,-0.081927,-0.325251,0.401791,-0.321772,-0.370052,0.469970,0.248863,0.362819,0.127461,-0.361660,-0.182455,0.265130,0.105182,0.122059,-0.296075,-0.170248,0.030564,-0.385281,0.038377,-0.468413,0.381985,0.473022,-0.123463,0.327021,0.419614,0.027970,0.389645,-0.291284,0.146199,0.328608,-0.240532,-0.354579,-0.386746,-0.152242,0.185018,0.187338,0.229331,0.182669,-0.093677,0.018937,0.226341,0.280602,-0.347499,-0.259392,-0.059496,0.221152,0.419614,0.159566,0.064013,0.086474,-0.015061,0.372005,-0.476501,-0.049211,0.064013,-0.082354,0.141774,-0.479980,-0.484008,-0.212424,-0.261071,0.453307,-0.495239,-0.433042,-0.170492,-0.102893,0.020829,0.493896,-0.428953,0.264000,-0.329035,-0.284997,0.121418,-0.213889,0.141896,-0.479522,0.059984,-0.124104,0.243675,-0.162069,0.030259,-0.175649,-0.060259,-0.232200,0.258629,-0.131397,0.269372,0.440916,0.107044,0.159658,-0.431150,-0.020524,0.314722,-0.337916,-0.101856,-0.156911,0.085589,-0.483551,0.078326,0.340327,-0.322138,-0.104236,0.247063,-0.412046,-0.348170,-0.112476,0.337672,-0.301263,0.431700,0.432279,0.388333,0.478454,0.338679,-0.149892,0.087603,0.414579,-0.249382,-0.013596,0.462615,0.236869,-0.454802,-0.492431,0.115894,-0.168416,0.482177,0.379086,-0.082598,-0.209616,-0.318506,0.055620,-0.441984,0.375332,-0.146260,0.416166,-0.129749,0.181051,0.437986,-0.026231,0.323115,0.275567,0.304865,0.392453,-0.403073,0.100787,0.179952,-0.158284,-0.355464,-0.085925,0.444121,0.220481,0.144948,0.051897,0.467254,-0.219108,-0.244133,-0.202750,0.131184,0.184561,0.071581,0.131825,-0.301386,-0.479308,-0.308435,0.153859,-0.316187,0.319544,0.307367,0.443663,-0.118580,0.089984,0.212729,0.157491,0.210013,0.414853,0.144215,0.131092,-0.473998,0.133412,-0.142079,-0.225608,0.064928,-0.356685,0.348842,0.038530,-0.334651,-0.147084,0.119037,0.236137,0.432920,-0.184927,0.400937,-0.003494,-0.000534,-0.425932,-0.258110,0.137074,0.034593,0.256554,-0.143544,-0.268426,0.165090,-0.062365,0.152242,0.157247,-0.041093,0.314234,-0.163991,0.401547,0.130085,-0.284387,0.006272,0.409879,-0.379910,0.483703,-0.361995,-0.244316,-0.286981,0.253105,-0.133320,0.414060,-0.160268,0.163503,0.477020,-0.080126,0.227836,-0.465667,0.003220,-0.307611,0.053758,0.034043,0.346950,-0.193289,0.253014,-0.125660,0.318659,-0.006180,-0.355434,0.061480,0.009537,0.150716,-0.473510,0.235130,0.399442,0.141011,0.398007,0.126637,0.107440,0.168386,-0.034959,0.167318,-0.308557,-0.496887,0.085314,0.278893,0.402585,-0.156453,-0.191244,0.376370,-0.199026,0.093554,0.170309,-0.384823,0.139393,-0.345851,-0.109394,-0.085955,-0.079730,0.292505,-0.358699,-0.216178,-0.466826,0.023362,0.031022,-0.005081],[-0.033494,0.352809,-0.038408,0.140461,-0.352016,-0.442656,0.437590,0.317255,-0.418271,0.184530,0.366573,-0.188314,0.115436,-0.051439,-0.268822,0.491852,-0.479583,0.094378,0.119404,0.125629,0.397855,-0.395566,-0.273095,0.196524,-0.415281,-0.395444,-0.235282,-0.193411,0.070513,-0.259514,-0.045854,0.315638,-0.296197,0.181539,0.141408,-0.376797,-0.027909,0.407224,-0.437864,0.499207,-0.365474,0.433531,-0.211905,-0.130390,0.489685,-0.365230,-0.113758,0.463775,0.059221,-0.182516,-0.177786,-0.271233,0.468993,-0.297571,-0.360652,0.418241,0.308313,0.471160,0.443846,-0.239341,-0.250542,-0.466857,-0.271630,-0.385434,-0.292169,0.170095,0.064531,-0.484283,0.324549,0.213126,-0.304407,0.023637,-0.447661,0.409726,0.061327,0.272912,0.126698,-0.363796,-0.214927,0.135914,-0.297632,-0.387722,0.155629,-0.096850,0.437712,0.273644,-0.365993,-0.112659,-0.192862,0.459075,0.417173,-0.142384,-0.076312,0.068377,-0.410703,-0.289941,0.152272,0.347163,-0.107288,0.280877,0.295373,0.454772,-0.351283,-0.291772,0.132313,-0.028306,-0.139729,0.249321,-0.406888,-0.497101,0.027573,-0.041246,0.348567,0.032792,-0.292291,0.134388,0.097247,0.188467,0.349849,-0.062883,0.331599,0.067614,0.436857,0.090777,-0.136952,-0.213126,0.464904,0.068163,-0.111072,0.407376,-0.207724,-0.330134,-0.119037,0.393155,-0.111438,0.401852,0.077807,0.259423,0.015305,-0.442106,-0.138112,-0.433836,-0.130207,0.413968,-0.197317,-0.085833,0.222861,0.439299,-0.352931,0.098498,0.082018,-0.067919,0.038041,0.077258,0.411374,-0.015122,0.243492,-0.089434,-0.060625,0.186239,-0.324152,0.326533,0.085681,-0.034776,0.483947,0.070513,-0.461638,-0.015397,-0.001572,-0.306055,-0.487030,0.488983,0.312098,-0.061418,0.224174,0.014481,-0.224021,0.372860,-0.398312,0.365993,-0.307154,0.436613,-0.218101,0.267998,-0.010727,-0.450194,0.405423,-0.404263,0.147328,0.442625,0.253258,-0.407254,0.177358,0.361721,0.251701,-0.019395,-0.086932,0.310389,0.377773,0.367885,0.410062,-0.022233,0.496155,-0.136006,-0.270806,-0.486145,-0.340785,0.304529,-0.114154,-0.193411,-0.098865,-0.006180,0.246605,0.416898,0.057176,0.371822,0.154317,-0.171743,-0.360073,-0.489380,0.063066,0.167440,0.303247,-0.152364,-0.036027,0.051256,-0.074664,0.061022,0.383480,-0.282586,-0.157552,0.494324,-0.265191,0.094440,0.263817,0.035813,0.304804,-0.032853,0.399869,-0.140522,-0.344050,-0.105670,0.334315,-0.066637,-0.273522,0.034715,0.171804,-0.298181,0.408414,-0.463103,0.492126,-0.152120,-0.114490,-0.349300,-0.357723,-0.458129,-0.487457,0.214713,-0.102130,0.082659,-0.483551,-0.322321,0.024522,0.337794,0.301080,0.308924,0.271386,-0.111591,-0.363186,-0.245354,0.327174,0.286096,-0.483764,-0.403745,0.270592,0.326502,-0.042985,0.066698,0.045885,-0.252495,-0.467040,0.227683,0.495422,0.257164,-0.084338,0.239372,0.479675,0.297815,0.206137,-0.047044,0.116779,0.453032,0.339686,0.358364,-0.327754,-0.096606,0.343440,0.167318,0.130360,-0.162893,-0.270623,0.114002,-0.021500,0.222251,-0.197073,0.153859,0.235588,-0.153737,0.168874,0.070696,0.255913,0.029649,0.215842,0.148061,0.339564,-0.080584,-0.139210,0.061571,-0.319147,-0.231010,0.334040,-0.351924,-0.314173,0.110828,0.286920,-0.292047,0.190176,0.227531,0.002792,0.497040,-0.391415,-0.171590,-0.007035,0.063921,-0.452574,0.337184,-0.241600,0.089801,-0.088794,-0.302942,-0.000992,0.385830,0.034471,0.100208,0.050951,-0.294702,-0.129597,-0.453276,-0.165578,0.026749,-0.232444,-0.359737,0.091784,-0.036637,-0.134907,-0.473998,0.198263,0.456236,-0.360897,0.377865,0.326258,0.406674,-0.369839,0.340144,0.244133,0.404538,-0.116108,0.331294,-0.468627,0.208060,0.135609,-0.385556,0.490661,0.132435,0.270501,-0.457549,-0.461425,0.002335,0.090258,0.382626,0.356380,-0.174429,-0.082263,-0.372341,-0.418821,-0.156606,0.070757,-0.300165,0.320063,0.114093,-0.263939,0.453185,0.267174,0.286187,0.275414,0.381314,-0.294183,-0.282922,0.493927,-0.063707,0.176778,-0.406156,-0.096850,-0.134693,0.093280,0.212149,-0.490814,-0.029069,0.085223,0.069628,0.157521,0.201621,0.352626,-0.069994,-0.034318,0.478515,-0.189688,-0.485992,-0.124683,0.164754,0.304926,-0.026139,-0.145650,-0.416318,-0.314844,-0.193319,-0.219169,0.492187,0.007218,0.364162,-0.460143,-0.084887,-0.344264,-0.386410,0.364498,0.247703,-0.337428,0.307855,-0.048021,0.031327,0.003586,0.218955,0.386868,0.309748,0.155446,-0.406858,0.401822,-0.028611,-0.306513,0.482330,0.007614,-0.015519,0.211661,0.108997,0.023515,-0.069262,0.346156,-0.079424,-0.460692,-0.255699,0.183645,0.489532,-0.159627,0.061968,-0.164266,-0.084979,-0.173543,0.090991,0.460540,-0.116413,0.456481,0.400693,-0.487335,0.043352,0.249260,-0.455931,-0.496612,-0.150533,0.372921,-0.083941,0.051256,-0.463378,0.352596,-0.246025,-0.494629,0.374233,-0.070696,-0.313074,-0.077807,-0.138478,0.099933,-0.259545,-0.323206,0.018204,-0.129719,0.202292,0.490478,0.427122,-0.247734,0.255791,0.155354,0.184805,-0.463408,-0.212790,-0.262230,0.417051,0.371914,0.273064,-0.458770,-0.485351,-0.318110,0.153676,-0.389615,-0.253502,-0.048448,-0.400510,0.057421,0.405545],[0.185842,0.309229,-0.038499,-0.075640,-0.259941,0.334590,-0.343440,-0.239341,0.192740,0.299829,0.360012,-0.238762,0.133900,-0.178518,0.238029,0.362575,-0.069536,-0.289666,0.495575,-0.461760,0.396359,-0.180013,0.185598,-0.211997,-0.443541,0.004013,0.462828,0.001968,0.178488,0.145344,-0.379849,-0.024674,0.353633,0.039262,-0.434751,-0.394955,0.032273,0.411161,-0.107837,0.298914,-0.078722,-0.150014,0.205222,-0.370968,-0.351558,-0.060350,-0.148824,-0.239280,-0.398862,0.368160,-0.284326,-0.312006,0.344874,0.296960,0.240501,-0.193228,0.028031,-0.228629,0.317591,-0.142415,-0.320338,0.453001,0.216605,-0.231651,-0.194418,0.455779,0.201621,0.428983,0.189749,-0.433164,-0.006272,-0.071398,0.307092,-0.366573,-0.264611,0.287530,0.253777,0.396847,-0.386685,0.213828,-0.398709,-0.444884,-0.204550,-0.082934,0.080737,0.335627,-0.161245,-0.490112,-0.496826,0.358058,0.224204,0.028489,-0.176962,0.070482,0.174581,-0.396298,-0.250298,-0.461669,0.412107,-0.186239,-0.185141,-0.131611,0.011338,-0.250389,0.300623,0.048814,0.004563,-0.175130,-0.064531,0.486236,-0.105121,-0.139302,-0.235832,0.021592,-0.265923,0.477691,0.097400,-0.294244,-0.078967,0.325343,-0.051988,0.115864,0.377224,0.180868,-0.140217,0.494140,0.255119,0.448454,-0.465087,0.490326,-0.163472,0.089801,0.166707,-0.211325,-0.223716,-0.481964,-0.116474,0.401059,0.347896,0.485443,0.210410,-0.092730,-0.152577,0.496582,-0.045763,0.424039,-0.187887,-0.221702,0.419492,-0.416562,0.209311,0.337336,0.359798,0.302850,0.252434,0.137288,-0.427610,-0.373470,0.000381,-0.074175,-0.458708,0.421354,0.396146,-0.256371,0.035539,0.206839,-0.098834,-0.353786,0.068804,-0.098651,0.381802,-0.330134,0.126606,-0.234275,0.403836,-0.427183,0.067248,0.325129,-0.408658,0.383572,-0.397092,-0.449095,0.206717,0.286370,-0.232902,0.083300,-0.393033,-0.123554,0.274590,-0.223502,-0.266106,0.315394,0.180227,0.347316,0.293237,0.418119,-0.257134,0.408261,-0.220298,0.202811,-0.099384,-0.332911,0.004044,-0.064959,0.263512,-0.426511,0.278191,0.197165,0.030229,0.193930,-0.085223,0.014481,-0.265160,-0.403317,0.197684,-0.430845,0.229759,-0.472198,0.479186,-0.466613,-0.188681,-0.340846,-0.439573,-0.447081,-0.105670,0.190268,0.011521,-0.087756,0.141530,0.084582,-0.413022,-0.087420,0.454405,-0.277947,0.393582,-0.005936,-0.268365,0.248894,-0.034135,0.133473,-0.198569,0.405698,-0.093371,-0.451781,0.433714,0.115558,0.247887,0.238701,-0.161184,-0.386837,0.188589,0.399380,-0.441191,0.395871,0.365932,0.230522,0.157491,-0.221366,0.315882,0.181448,-0.384518,0.333766,0.279351,0.156697,-0.163167,-0.003922,0.010575,-0.283624,0.172903,0.116260,-0.256523,-0.198111,0.370388,0.241844,-0.027512,0.018235,-0.150868,-0.091449,0.204245,0.004227,-0.283380,0.222434,0.336055,-0.078082,0.424589,-0.485900,-0.182363,-0.403592,0.474883,-0.152944,0.252403,0.337214,0.080096,-0.340114,-0.405759,-0.027512,0.185873,0.325404,-0.403500,0.127583,-0.239677,-0.093616,-0.331111,0.278893,-0.242271,-0.109821,-0.200919,-0.385800,-0.337977,0.182943,-0.305078,0.231193,0.016709,0.144887,-0.196371,-0.295251,-0.152699,-0.052171,0.364040,-0.444823,0.382778,0.036332,0.148549,-0.352626,-0.018174,-0.026597,0.050584,0.053545,-0.329310,0.452422,0.174093,0.409604,0.198325,-0.243797,-0.418790,0.297113,0.015610,0.444700,0.354457,-0.317896,0.084582,-0.447752,0.129383,-0.058672,-0.076128,0.076128,-0.245323,-0.492096,-0.203055,0.037095,0.234886,-0.332423,0.448882,-0.106372,-0.387082,-0.463958,0.298517,-0.409085,-0.051653,-0.250267,0.491760,0.025834,0.047258,-0.099506,-0.277581,0.208945,0.100818,0.245476,0.227195,-0.094378,-0.112171,-0.275872,-0.139851,0.036271,-0.301721,-0.187399,-0.345790,-0.382076,-0.366237,0.247673,-0.225272,-0.471831,0.441160,0.150685,0.272057,-0.127705,-0.464568,-0.416471,-0.460845,0.235405,0.368862,0.067217,-0.119282,-0.399472,-0.198752,0.094684,0.099536,0.214072,-0.370724,0.169149,-0.493042,0.179464,-0.070238,0.398709,0.263451,0.060991,0.373531,0.179311,0.455077,0.278375,0.166738,-0.003494,-0.186819,-0.426267,-0.224937,-0.122242,0.482421,0.331996,0.087237,-0.473632,-0.255943,0.035966,0.174612,-0.331751,0.100543,-0.362239,0.302484,-0.357173,-0.372280,0.127277,0.349544,-0.230491,0.000748,0.078936,0.292016,-0.479461,0.100330,0.458708,-0.091723,0.031877,-0.395077,0.471770,0.360683,-0.016800,0.475951,-0.267418,-0.189871,0.378384,-0.258660,-0.461516,-0.279321,0.257439,0.484771,-0.472045,0.009476,-0.128498,0.445433,-0.495056,-0.301355,0.351833,0.136341,-0.289453,0.225608,0.404324,-0.114490,0.323054,0.067583,0.060594,-0.292016,0.467956,-0.162984,0.017014,0.413694,-0.481384,-0.496155,-0.407285,-0.141957,-0.030168,-0.098956,-0.161702,-0.258507,-0.335963,0.169454,-0.174245,-0.136006,-0.346889,0.298486,-0.348231,0.240806,0.475768,0.418790,0.184744,-0.014054,0.132069,0.002915,0.087390,0.369503,-0.462951,-0.369259,0.146046,-0.045152,-0.266533,0.475372,0.437742,0.222343,-0.354183,0.165944,0.366390,-0.414335,-0.343226,0.183859,0.099567,0.206717,-0.213095,0.448424,0.436705,-0.484161,-0.240715],[0.165822,-0.158101,-0.133839,-0.214133,0.261010,0.068438,-0.033677,0.208029,0.488952,-0.307794,0.252464,-0.362972,0.060350,0.240532,0.306330,-0.079730,0.253258,0.403256,-0.013657,0.197684,0.001663,-0.183706,-0.428983,-0.424223,-0.339503,-0.107898,-0.108234,-0.146260,0.451811,-0.394436,-0.399350,-0.154683,0.124195,-0.359004,0.354152,-0.047197,-0.143757,-0.193106,0.194052,0.148854,-0.064653,0.124439,-0.093005,0.023209,0.243187,0.495941,-0.356227,0.049883,0.079028,0.359981,-0.420469,-0.268792,0.352351,0.238670,-0.103595,-0.224723,-0.324396,-0.415891,-0.130543,-0.037217,0.388913,-0.170278,0.337581,-0.140492,0.047258,0.052965,0.340388,0.030869,0.402371,0.155660,0.202139,-0.085559,0.409360,-0.031907,-0.155385,0.007309,0.290551,0.183279,-0.390652,-0.476348,0.186850,-0.472716,0.370998,0.179830,0.428434,0.072741,0.223045,0.262108,-0.044298,0.100299,-0.482910,-0.365810,-0.077960,0.416074,-0.463286,-0.159444,0.009293,-0.470336,-0.412595,-0.038804,0.487457,-0.399686,-0.216147,0.375240,-0.450224,-0.443480,0.315638,0.088549,-0.045427,0.295892,0.472839,-0.217734,-0.495392,0.371334,0.212424,0.238151,0.396146,0.069720,-0.452788,0.297235,-0.032212,0.289605,-0.461913,0.007920,-0.118427,0.123646,0.171041,0.119709,0.266411,-0.447203,-0.099719,-0.421049,-0.144063,0.157765,0.138661,0.182791,-0.348140,0.254204,0.476531,0.047502,0.143757,0.358516,-0.089801,0.047624,-0.383389,0.389340,-0.138050,-0.118030,-0.421995,-0.008591,0.375973,0.357662,0.162221,-0.467589,0.471984,-0.202902,0.007126,0.470794,0.348964,-0.243858,0.362148,-0.296564,-0.224631,0.050829,-0.085620,0.263298,-0.130024,0.173147,0.143391,0.345027,-0.351314,-0.224876,0.494049,-0.088672,-0.168691,0.373440,-0.112568,0.285302,-0.310511,-0.068896,-0.399014,-0.364742,0.216575,0.472442,0.048692,-0.241234,0.401303,0.387234,0.493194,0.071459,-0.114002,-0.419126,0.220786,0.207144,-0.208914,0.126331,0.210410,0.135792,-0.013413,-0.425748,-0.171926,0.205008,-0.407865,-0.422330,-0.421873,0.011795,-0.012833,-0.012680,0.442045,-0.489349,0.111499,0.073931,-0.163381,0.264061,0.338710,0.033708,-0.277429,0.241966,-0.297296,0.433287,-0.105365,0.076312,-0.240684,-0.249626,-0.015397,0.176962,-0.136433,-0.333613,0.208487,-0.385067,0.144551,0.267205,0.389218,0.179830,-0.041368,-0.191549,0.285791,-0.482940,0.102435,0.201498,-0.239677,-0.248436,-0.433103,-0.123737,-0.185507,-0.496002,0.113666,0.177480,0.025987,-0.294183,0.454650,-0.049852,0.416837,0.119404,0.316797,0.470946,0.284692,-0.030442,0.172720,0.381191,0.028031,-0.407437,-0.081622,-0.221397,0.496948,-0.490997,0.279626,0.122974,-0.099597,-0.173208,0.228141,0.112812,-0.198447,0.380367,0.188833,0.188894,0.232139,-0.487426,0.319056,-0.179037,0.457152,-0.094501,-0.358394,0.234031,0.421323,0.365993,0.312586,-0.269921,0.408414,-0.027085,-0.195273,0.262200,-0.055315,0.491791,0.288812,0.416318,0.477691,0.463317,-0.007157,0.458007,-0.138325,-0.128101,-0.195578,0.140339,-0.260613,0.361080,0.297693,0.408383,-0.162313,0.196860,-0.115375,-0.094134,-0.052660,-0.069353,-0.112415,0.106098,0.252617,-0.302393,0.337275,0.108905,0.378140,0.350887,-0.006943,0.179556,0.397794,-0.440123,-0.326716,-0.116962,0.056566,0.269982,-0.498505,0.470489,0.236381,0.429502,0.349788,-0.326411,0.197562,0.390927,0.260887,-0.436125,-0.373379,-0.108173,0.129994,-0.367916,0.022416,0.022355,0.427396,-0.254906,0.450835,0.085162,0.243675,0.135701,0.200369,-0.245720,0.438108,0.081835,0.369198,0.438932,0.172170,0.431822,-0.085070,0.258812,-0.391354,-0.368892,0.198874,-0.463103,0.058519,0.407651,-0.444700,0.216025,0.355831,-0.228629,-0.082263,0.105609,-0.257286,0.484710,0.032792,0.364742,0.045305,-0.340419,0.293390,0.127583,0.421812,-0.361721,-0.277856,-0.321833,0.464263,-0.186880,0.136860,0.079577,-0.065020,-0.457884,0.028092,-0.335078,-0.080981,-0.183157,0.181814,0.295892,-0.326136,-0.162191,-0.423368,-0.205344,-0.042253,0.155171,-0.411740,0.456633,0.117603,0.068926,0.031510,0.048784,-0.281884,0.169118,0.071520,0.201102,-0.007004,-0.497314,-0.464476,-0.403592,-0.100146,0.138264,-0.343928,-0.134144,0.059709,0.170339,-0.222861,-0.404965,0.362545,0.487854,0.054582,0.348262,-0.479705,0.240745,-0.318354,0.116321,0.348201,0.120746,-0.328394,0.094531,0.055681,-0.387051,-0.272271,0.196921,0.328913,-0.125507,0.232810,0.213157,0.484893,0.396115,-0.111194,0.014176,0.479553,0.103442,0.038469,-0.286920,0.050462,0.053941,0.199454,0.187063,-0.224601,0.385647,-0.157216,-0.132832,0.328578,-0.325739,-0.053179,0.201773,-0.285150,0.354884,0.357509,-0.299799,-0.235801,0.363735,0.486999,-0.037370,-0.333064,-0.342189,0.380947,-0.397549,-0.168752,-0.232963,-0.313501,0.467833,-0.155812,0.036027,-0.448180,0.067766,-0.182363,-0.288293,-0.011399,-0.389828,-0.099963,-0.467162,-0.271661,-0.443114,0.235588,-0.022446,0.262413,-0.415525,0.300867,0.226463,0.357906,0.341853,0.446074,-0.107624,-0.005203,-0.291192,-0.032640,0.096728,0.172689,-0.484863,0.389584,-0.277459,0.369900,0.443663,-0.188803,-0.466674,-0.381344,-0.070727],[-0.129139,-0.223197,0.248222,0.364315,0.029008,0.330958,0.339076,-0.470550,-0.055528,0.349818,-0.144002,-0.349208,0.386166,0.140553,-0.463378,0.249168,0.274071,-0.382382,0.114704,0.192007,0.298944,0.328333,-0.410489,0.058245,0.494324,0.362056,-0.377071,-0.428343,0.060228,-0.496155,0.204123,0.232109,-0.404569,0.163198,-0.011979,-0.075152,0.393765,0.109424,0.213919,-0.210105,-0.038652,-0.454894,-0.389676,0.132344,0.410947,-0.451262,0.192679,-0.345241,-0.110889,0.417325,0.359218,-0.206626,-0.306818,-0.058885,0.192862,0.438871,0.233634,0.141011,0.373562,-0.176840,0.498718,-0.499939,-0.391171,-0.146382,0.176992,0.220603,-0.012253,-0.324396,0.094653,-0.462493,0.165181,-0.255119,0.123127,-0.379879,-0.217643,0.191031,0.214103,0.092517,0.029923,-0.246971,-0.282739,-0.295373,-0.240043,0.068651,-0.361934,0.185110,0.052904,-0.401852,-0.009445,-0.193472,-0.354061,-0.035569,-0.097308,-0.304559,0.128986,-0.009812,-0.370510,0.417112,0.314234,0.213675,0.131001,-0.132527,-0.313715,0.164174,0.370540,0.002762,0.338069,0.178610,-0.009812,0.438078,0.299646,0.040269,-0.480468,0.446654,-0.334193,0.221122,-0.226463,0.390652,0.428739,0.008957,-0.403592,0.114826,0.421842,0.300378,-0.392636,0.334346,0.281396,0.341273,0.104572,-0.452116,-0.168020,0.195517,-0.216666,-0.492248,-0.198111,0.223807,0.425474,-0.222739,0.274804,0.353206,0.215110,0.407956,-0.215720,0.419065,-0.161885,0.266594,0.456938,0.360469,0.020676,0.044298,0.110614,-0.449553,-0.336299,0.478210,-0.285913,0.042192,0.229270,-0.182608,0.114185,0.012497,-0.464965,0.064409,0.436796,0.183828,-0.386624,0.022996,0.067919,-0.493988,-0.208914,-0.315882,-0.378872,-0.120899,-0.354122,-0.019089,-0.202445,0.198263,-0.003494,0.444090,-0.455351,-0.497467,-0.418088,-0.211112,0.420072,-0.491974,-0.413755,-0.034776,-0.433073,0.307306,-0.333979,-0.298486,0.206687,-0.484100,-0.364956,0.074297,0.055589,-0.352351,0.464232,0.134205,-0.428526,-0.000626,-0.248161,0.120075,0.436888,-0.173177,0.320887,0.291986,0.184469,0.092944,0.099475,-0.085162,0.371639,-0.430570,-0.059130,0.423490,0.209891,-0.426664,-0.460875,0.300806,0.055834,0.119373,0.096637,-0.300165,-0.330470,-0.230308,-0.100055,0.341487,-0.353328,-0.037736,0.460082,-0.281457,-0.068957,0.098651,0.373409,0.138050,-0.186911,0.173238,-0.440367,-0.367611,0.321223,0.224448,0.032945,0.270959,0.411710,0.389584,-0.137532,-0.096576,-0.135914,-0.155690,0.478607,-0.133992,0.287469,0.408383,-0.018723,-0.318293,0.144520,0.098346,-0.393674,0.286096,0.199545,0.409085,0.006424,-0.190542,0.296258,-0.395199,-0.497345,0.447356,-0.127888,-0.198660,-0.036973,0.449675,0.115253,0.120380,0.464232,-0.239311,0.170034,-0.302484,0.392850,0.340266,0.297998,-0.174947,0.142232,-0.301782,0.399747,0.010422,0.061418,-0.327174,-0.195212,0.232505,-0.187918,-0.015427,-0.265069,0.175893,-0.209891,-0.403348,0.347987,-0.274773,-0.232170,0.413388,-0.232536,-0.499512,0.413114,0.347591,0.005295,-0.285455,-0.158284,0.288598,0.183004,0.134205,-0.140645,0.001816,-0.041917,0.425993,0.048814,0.491028,-0.438139,-0.331965,0.359767,-0.144978,0.354640,0.309229,0.356319,0.169607,0.304895,0.356685,-0.220878,0.426115,0.298425,0.073351,-0.421690,0.057909,-0.316034,-0.033799,0.073199,0.086108,-0.038652,0.347072,0.395260,0.415494,0.018204,0.246696,-0.129353,0.312189,-0.177816,-0.036241,0.498383,-0.405728,-0.025712,0.029832,0.180258,-0.433561,0.029710,-0.128376,-0.140645,0.230094,-0.007401,-0.048296,0.222739,-0.200034,-0.109058,-0.331019,0.124805,0.058916,-0.162282,-0.199698,0.387906,-0.418485,0.484649,-0.235740,0.135762,0.358364,0.274560,0.488372,0.316675,-0.148335,0.399350,0.161245,-0.427763,0.014084,-0.131306,-0.349239,0.108112,0.301508,-0.403195,-0.130757,-0.277154,0.211203,-0.087420,-0.132557,-0.348567,0.376705,0.400266,-0.061846,0.379208,-0.249413,0.476043,-0.489135,0.083026,-0.093646,-0.392422,0.118732,-0.144520,-0.009476,-0.417875,0.218863,0.368526,0.356838,-0.270226,0.147664,0.132984,0.412809,-0.491974,-0.007981,0.009812,-0.289209,0.354061,-0.342250,0.129688,-0.185690,0.210623,-0.083361,-0.122974,-0.028977,-0.367794,-0.414090,-0.486969,-0.230796,-0.386990,0.162252,0.020035,0.187582,0.190298,-0.017960,-0.240593,-0.187399,0.467345,-0.350520,0.395932,-0.417753,0.333918,-0.115375,0.102008,0.481506,-0.172323,0.096393,-0.415098,0.086474,-0.372951,-0.470763,-0.228233,0.133808,0.467864,-0.361568,-0.190725,0.146870,0.389981,-0.025346,-0.466033,-0.350429,0.220389,0.360134,0.069658,-0.000259,0.198904,-0.363399,-0.292322,0.372372,0.152333,-0.232688,-0.272851,-0.075030,0.124348,-0.426908,0.310358,-0.324396,-0.133992,-0.114856,0.210471,0.124958,0.094409,0.394498,0.327326,0.154042,-0.075213,-0.019517,-0.152272,0.228416,0.382962,-0.201346,0.106342,0.440184,0.403867,-0.090228,-0.176321,0.419401,0.222953,-0.268853,-0.122852,-0.354427,-0.433927,0.091479,0.261681,0.191183,-0.455229,0.170370,0.395962,0.427458,-0.337306,0.103931,0.430692,-0.274895,-0.160451,-0.462310,-0.285028,-0.320185,-0.140889,-0.092090,0.077319,-0.105365],[-0.319697,0.207053,0.441557,0.427915,-0.305750,-0.117054,-0.106006,0.169942,-0.206809,-0.065020,-0.119434,0.213706,0.356594,0.045579,0.492401,-0.489471,0.180532,0.096332,-0.225578,0.355678,-0.411069,-0.012986,-0.087359,0.035569,-0.310419,-0.007370,-0.212363,0.291620,-0.391568,0.184866,0.335292,0.363582,-0.015915,0.074267,0.245018,0.019608,-0.497131,0.129536,0.027390,0.478576,-0.243370,0.329737,-0.018143,-0.368435,0.203543,0.406278,0.096454,0.468169,-0.486023,-0.069750,0.410154,0.114124,0.082598,-0.097827,-0.130634,0.386837,-0.012894,-0.000626,0.210105,0.274255,0.176077,0.138356,-0.103717,0.244316,0.166311,-0.492584,-0.353511,-0.209769,0.031236,-0.273247,-0.420499,0.118824,-0.038469,0.291101,-0.489807,0.387326,0.179434,-0.047655,0.427458,0.395383,0.487457,0.197836,-0.315607,0.138478,0.233604,0.480132,-0.066546,0.128895,-0.026536,0.355617,0.336116,-0.109699,-0.388974,0.187063,0.079852,-0.467254,0.299188,-0.432768,-0.267418,-0.186270,-0.118915,0.119221,0.466674,-0.408078,0.154256,-0.169973,-0.317316,0.079821,-0.262383,-0.426237,0.065661,-0.198782,-0.176260,-0.019669,-0.396664,-0.339564,-0.403195,0.306055,-0.400723,0.028642,-0.401852,0.462889,0.210898,0.254295,-0.180136,-0.138508,-0.455626,-0.496399,-0.191305,0.225578,-0.162496,0.337428,-0.439482,0.032731,-0.238670,-0.069658,0.487365,-0.261162,0.372616,0.339198,0.237754,0.441679,-0.252281,-0.273980,-0.347957,0.140309,-0.170675,-0.057054,-0.366512,0.246452,-0.482513,0.384152,0.216880,-0.495941,-0.464171,-0.488098,-0.384732,-0.026566,0.104663,-0.037248,-0.472869,0.235618,-0.048296,-0.360195,0.483825,0.474425,-0.307733,-0.302210,-0.480346,-0.409024,0.109485,-0.173177,-0.054308,0.008408,0.366420,-0.258690,-0.492248,0.321528,-0.319056,0.280206,-0.288934,0.448973,0.494964,0.024766,-0.408444,0.443358,-0.331416,-0.159780,-0.283715,-0.384121,-0.268456,0.247368,-0.306940,0.131825,-0.278069,0.030778,-0.028459,-0.267479,-0.355495,-0.010758,0.216330,-0.258812,0.079119,0.235343,0.033555,0.007675,-0.029191,-0.050157,0.332575,-0.050920,0.133076,-0.002365,0.103198,0.342586,0.494812,0.311121,-0.109516,0.025987,-0.376919,0.447447,-0.251885,0.163137,-0.447722,0.225852,-0.048784,0.229820,0.451201,-0.148671,0.250542,0.376705,0.159352,0.430937,-0.051408,0.325465,0.123554,0.288629,-0.420286,0.454314,-0.233757,-0.014328,0.474334,0.229270,-0.183248,0.451933,-0.010208,-0.362484,-0.363582,0.134999,-0.311945,-0.221335,0.069506,-0.426939,0.242271,0.270684,-0.149678,0.297845,0.352626,-0.373440,0.098682,0.473846,0.453795,0.257775,-0.065783,0.180319,0.494171,0.261010,-0.258965,-0.258202,-0.431242,-0.355556,0.114307,0.014054,-0.312799,0.149617,0.019425,0.031022,0.457060,0.325220,0.195486,-0.080462,-0.034989,0.009201,0.334254,0.487884,-0.363552,-0.124683,0.065325,0.394284,0.354579,0.200217,0.279901,0.301843,-0.379360,-0.492248,-0.177084,-0.073901,0.036760,0.246330,0.086169,0.381252,-0.108386,0.155538,-0.467254,-0.268456,0.131611,0.478973,-0.315394,0.154103,0.497436,-0.321619,-0.396176,-0.380947,0.108325,-0.193258,0.399960,0.493866,0.274743,0.195029,-0.206717,-0.022721,-0.179434,-0.389798,0.266533,-0.229881,-0.303308,-0.459929,-0.164571,-0.111744,0.166555,-0.238853,-0.030290,0.024583,0.345393,-0.153798,-0.304254,0.365963,0.374172,-0.232719,0.412198,0.271630,0.009537,0.250999,0.449644,-0.280816,-0.088824,0.041643,-0.094440,-0.075762,0.407315,-0.270928,-0.213645,0.040269,0.020402,0.297235,-0.013382,0.344813,-0.466338,0.049272,0.138081,-0.181967,-0.120167,0.066515,-0.141285,-0.479339,-0.366634,-0.143696,0.433561,-0.323756,0.387783,0.345943,0.458312,-0.134754,-0.201590,-0.121815,0.477233,0.236747,-0.426969,0.365474,0.146290,0.143605,0.190664,0.258049,-0.046983,0.107959,-0.369900,0.483184,0.024339,-0.476867,-0.110309,0.011155,0.053301,-0.002091,-0.420804,0.204581,-0.123554,-0.250328,0.365291,-0.392972,-0.267266,-0.047258,-0.448393,0.327448,-0.264733,0.447966,-0.424863,-0.323511,-0.412748,-0.280175,-0.300348,0.211142,0.073473,-0.452422,-0.312433,-0.156362,0.357967,0.236198,-0.268059,0.171194,-0.379818,-0.166250,0.429044,-0.317225,0.059893,0.241569,0.073534,-0.001144,-0.197501,-0.377071,0.056963,-0.199271,-0.263848,0.016984,-0.348933,-0.394375,-0.188314,-0.436094,-0.042772,0.043596,-0.163350,0.247826,0.302942,-0.207266,0.294794,-0.436735,-0.132984,-0.171133,0.222129,0.012131,-0.185568,0.145772,-0.329127,-0.163594,-0.277734,-0.397458,-0.207144,-0.106006,-0.422147,0.054125,0.072619,0.083117,0.130482,0.421110,-0.257164,0.221763,-0.122211,-0.144490,-0.087573,-0.211447,0.468322,-0.341578,0.438536,0.431272,-0.198843,0.105640,0.074206,-0.351100,-0.395779,-0.161946,-0.077319,-0.445799,-0.227653,-0.027451,-0.270562,0.122211,0.246208,-0.410001,0.043474,-0.168569,-0.286462,-0.243706,-0.221152,0.104083,-0.085742,-0.267022,0.208182,0.451079,-0.170309,-0.466582,-0.081408,-0.271416,-0.461669,0.481231,-0.237754,0.412046,0.018723,-0.073565,0.331843,0.293970,-0.319269,-0.223319,-0.006882,-0.487915,-0.093249,-0.001541,0.005051,0.313440,0.383877,-0.254021],[-0.029038,-0.184774,0.200278,-0.327662,-0.309076,-0.357082,0.282525,-0.256340,0.120228,-0.489105,-0.123127,0.367550,0.021928,-0.496521,-0.246605,0.333460,-0.136799,0.186392,-0.187002,-0.355892,0.019211,-0.215751,-0.168508,0.123127,0.066668,-0.075121,0.351711,0.363247,0.063677,0.424589,0.452574,0.043840,-0.277642,0.395627,-0.448271,0.149098,-0.119953,0.457305,-0.102863,0.117176,0.175771,0.331843,-0.095294,0.452849,0.337794,-0.393826,-0.002304,-0.165975,-0.010849,-0.058916,0.104480,0.243767,0.376675,-0.491241,0.470580,0.158650,-0.069933,-0.059709,-0.058367,0.325678,0.057756,-0.436094,0.373074,0.157430,0.084582,0.215903,0.323176,0.278466,-0.260887,0.404538,-0.314539,0.252770,0.095447,0.109149,0.416959,0.024400,0.376583,-0.004898,0.018052,0.102130,-0.474578,0.326075,-0.078845,0.019578,-0.050462,0.354549,0.443144,0.101886,0.345790,0.472716,0.458983,0.070330,0.011704,-0.096332,0.452086,-0.483856,-0.450835,0.215415,0.098010,-0.225425,0.366939,0.437986,0.037400,0.230735,-0.111713,0.065722,-0.005142,-0.411740,-0.129994,-0.274804,-0.100330,0.132130,-0.261071,-0.209281,0.164693,-0.483184,0.352351,-0.271935,-0.220298,0.111286,0.088397,0.448241,0.375637,0.431516,-0.327143,0.451933,-0.084552,-0.307459,-0.351405,0.046709,0.168477,0.010788,-0.106311,0.417295,-0.375942,0.287713,0.094623,-0.169301,0.001053,0.306848,-0.418973,-0.242363,0.009049,0.074664,0.427763,0.190848,-0.482086,-0.063128,0.230857,-0.057909,-0.207938,-0.498505,0.463836,0.199057,-0.055193,-0.100391,-0.180227,0.122913,0.270226,0.415433,0.446623,-0.231376,-0.391964,0.016617,0.480743,0.108264,0.397885,-0.183554,-0.214042,0.439512,-0.420713,-0.001297,0.303827,-0.040117,-0.006180,0.236595,-0.078814,-0.211631,0.445036,0.137440,0.262078,0.215629,0.073229,-0.256462,0.309259,0.463775,0.200888,-0.378567,0.262291,-0.262719,0.304743,-0.430296,-0.461882,-0.153737,0.271477,0.477844,0.320673,0.183126,-0.407559,0.366085,-0.434935,0.333796,-0.345363,0.138691,-0.136219,0.105548,-0.217032,0.081103,0.079852,0.251488,0.191275,-0.367641,0.154225,-0.326136,0.497467,0.464599,-0.006943,0.387112,-0.040422,0.399930,-0.158589,0.021775,0.088610,0.196738,0.049425,0.150990,-0.205283,-0.263482,-0.362606,0.220145,-0.277306,-0.358119,-0.433988,0.361446,-0.066607,-0.142048,0.117664,-0.125385,-0.413266,0.227531,0.295618,-0.345332,-0.216666,-0.408139,-0.353175,0.348354,0.220298,0.448088,0.414945,-0.479919,-0.182241,-0.305750,0.429533,-0.390530,-0.027390,0.493988,-0.362087,-0.039659,0.081500,-0.462493,-0.399075,0.216269,0.115223,0.198874,0.060930,0.272088,0.337916,0.268609,-0.086322,-0.298517,-0.435087,-0.393887,0.152028,0.313837,-0.494415,0.171865,0.129444,-0.156026,0.068865,0.397641,-0.425596,-0.465300,-0.258110,-0.324030,0.247337,-0.209067,-0.248192,0.499969,-0.353908,-0.312250,-0.333216,0.284478,-0.333033,-0.386929,-0.406888,0.400754,-0.373379,-0.173666,-0.376095,0.454619,-0.448241,0.214652,-0.303735,0.340327,0.142811,0.026994,-0.487304,0.101215,0.317225,-0.131275,-0.316553,0.127888,-0.260399,-0.263146,-0.254479,-0.274224,0.244163,0.377377,0.215079,-0.416929,-0.444151,-0.253441,0.329432,0.170217,0.217063,-0.143361,-0.365749,-0.397702,0.125019,-0.212271,0.073443,-0.004257,-0.412717,0.146870,-0.263604,-0.149892,0.300958,-0.244316,-0.079516,0.486877,0.161519,-0.152211,-0.336329,0.075701,0.308802,-0.442900,0.404477,0.280328,0.314783,-0.021287,-0.075335,0.054277,-0.079333,-0.417295,0.232170,-0.381191,0.228935,0.263604,-0.461272,0.153371,-0.243522,-0.195151,-0.009568,0.230186,0.255852,0.041368,0.305689,-0.475585,-0.290338,-0.499847,-0.021836,-0.168996,0.405728,-0.199088,0.200247,-0.080950,0.498016,-0.402646,0.163320,0.255791,-0.039567,0.341273,-0.108448,0.130512,0.339442,-0.350337,0.264916,0.210623,0.211631,-0.443144,0.387844,0.060045,-0.247246,0.432707,-0.039903,-0.347713,0.324213,-0.152364,-0.194296,0.408444,0.483489,0.166952,0.216269,-0.207907,0.324519,0.154134,0.265007,-0.007828,-0.445433,0.365596,-0.252098,-0.275323,0.213584,-0.382351,-0.092029,-0.314905,0.442259,0.306970,-0.401212,-0.317866,0.205466,-0.134388,0.044053,-0.015305,0.376766,0.132405,-0.151112,-0.087298,0.090564,-0.078631,0.419401,0.203513,-0.231864,-0.431272,0.446562,0.184805,-0.276208,-0.260308,-0.388852,0.285516,-0.242943,0.276147,0.165334,-0.084155,-0.362056,0.366726,-0.452605,0.247612,-0.109485,-0.179495,-0.313776,-0.073717,-0.218039,-0.274834,0.151265,0.245933,-0.077319,0.271416,-0.195456,-0.181661,0.384213,0.024552,0.110767,0.267357,-0.259331,0.424589,-0.237968,-0.019913,-0.059313,-0.203818,-0.226829,0.445830,0.415311,-0.350459,-0.296075,0.214225,0.328516,-0.446471,0.164602,0.003800,0.376888,0.362423,0.260857,-0.007950,0.043901,0.077258,0.134480,-0.181417,-0.284021,0.123432,0.255974,0.332301,-0.434263,0.325343,-0.374752,-0.386135,-0.390713,0.359676,-0.463012,0.305170,-0.156331,-0.031663,0.066668,-0.223930,-0.129688,-0.287378,-0.066759,0.161092,-0.088519,-0.450560,-0.104480,-0.204306,-0.374844,0.011063,0.337550,0.084796,-0.374691,0.269738],[0.355342,-0.005417,-0.397305,0.252281,0.299341,-0.472991,0.398251,0.489441,-0.086749,-0.386471,-0.094501,0.427000,0.443480,-0.167653,0.307184,-0.411405,0.235527,0.494476,-0.401547,-0.295862,0.454009,-0.455687,0.132038,-0.342586,0.121632,0.390530,-0.248985,0.212455,-0.433958,-0.308527,0.056780,0.335383,0.078845,-0.497345,-0.407620,-0.231742,-0.181021,-0.308863,0.223960,0.011185,0.491913,0.024125,0.499847,0.368709,-0.165304,-0.162343,0.270012,0.217124,0.439634,-0.308710,0.346339,0.148671,-0.053392,-0.084216,0.485137,0.148793,0.136128,0.459349,0.473235,0.463012,-0.046281,-0.061052,-0.401273,0.309442,-0.002609,0.303186,0.287988,0.093310,0.499268,0.012436,0.189474,0.279595,0.332484,0.143086,0.486694,-0.419828,0.074786,0.321741,-0.279687,-0.388333,-0.339930,-0.104389,-0.098224,-0.319819,-0.350978,0.245842,0.198843,-0.150655,-0.350032,-0.350764,-0.025224,-0.052232,-0.078204,-0.404508,0.462340,-0.327845,-0.310724,-0.034684,-0.146229,0.442442,0.202872,-0.023484,0.087970,0.165059,0.073870,0.303674,0.116260,-0.439268,-0.084063,0.278008,-0.072100,0.212943,-0.175069,-0.426542,0.116657,-0.006729,-0.272546,0.285669,0.269494,0.020096,0.130238,-0.190909,-0.041002,-0.193319,0.300653,0.420164,-0.379574,-0.245109,0.410611,-0.029252,0.094714,-0.349116,-0.325739,-0.399808,0.118915,0.319178,0.011277,-0.129658,-0.454955,0.090838,0.266625,0.231101,-0.431242,0.242821,-0.481658,0.222251,-0.251030,0.063707,-0.495544,0.317774,0.099658,-0.296716,-0.299829,-0.180960,0.035569,0.460936,0.076830,-0.296838,0.452208,-0.329829,0.073748,-0.167562,-0.278008,-0.164876,-0.185965,0.431639,-0.111957,0.174795,0.096118,0.238884,-0.164144,0.232292,0.191519,0.236961,-0.274773,-0.295557,-0.019150,0.370418,0.463073,0.148640,0.458770,0.155843,0.498230,-0.277642,0.139332,-0.409543,-0.279656,-0.387173,0.393185,0.266137,-0.257012,0.311853,0.247276,0.094592,0.353053,0.392850,-0.320917,-0.449889,0.407315,-0.053972,-0.063952,-0.163686,-0.042375,0.328059,-0.088427,-0.117298,-0.114216,0.382351,0.109149,-0.422147,-0.170553,-0.213645,0.225364,0.144887,-0.319788,-0.317927,-0.116504,0.065966,0.435423,0.246055,-0.451262,0.461821,-0.315516,0.354884,0.156056,0.332606,-0.488495,0.002976,0.482574,-0.433744,0.094897,-0.371761,-0.205039,0.120838,-0.214408,0.002457,-0.196036,0.286798,-0.054765,-0.157888,0.456206,0.435636,0.325007,-0.203543,-0.404508,0.161092,0.267052,-0.031541,0.024735,0.219413,-0.490844,-0.374508,-0.001144,0.174215,-0.125385,0.255638,-0.318812,0.153188,-0.372646,-0.374264,-0.406217,-0.378109,-0.224723,-0.001938,-0.406919,-0.417997,0.101306,0.161000,0.402219,0.098865,0.204581,0.430723,0.231254,-0.434019,0.332728,0.279778,-0.483245,-0.388058,0.286218,-0.251335,0.311335,0.055956,0.176229,0.297327,0.355098,-0.181356,0.317499,0.251610,0.360073,0.194266,0.036790,-0.497406,-0.461516,0.390194,-0.320795,-0.386685,-0.093219,-0.259453,-0.407559,-0.009568,0.395932,0.499817,0.371090,0.276330,0.299829,-0.377438,0.141957,-0.381649,0.092853,0.436216,0.171621,-0.028733,0.147816,-0.388028,-0.422544,0.088855,0.385281,0.341670,0.423521,0.361660,0.386227,0.125050,-0.017808,0.156270,-0.001511,0.075365,0.443632,-0.186850,-0.031266,0.148457,-0.146962,-0.041246,-0.368923,0.201804,-0.441740,0.288324,0.183584,0.290185,-0.051775,0.475585,-0.416227,0.103778,-0.236686,0.365963,-0.405057,-0.044908,-0.240013,0.108814,0.013474,0.221000,0.009323,0.385800,-0.390439,-0.354061,-0.387722,0.390683,-0.188070,0.413144,0.111744,-0.282098,-0.332148,0.389004,0.383328,-0.184713,0.109882,0.448241,0.285974,0.157399,0.060503,0.284845,-0.146657,-0.204031,0.405850,-0.384121,0.307703,0.443693,0.369839,0.184194,-0.322840,-0.252953,0.320032,0.465697,0.297876,-0.094714,-0.463836,0.488708,-0.018021,0.291040,-0.026780,-0.329737,0.132984,0.229240,-0.450682,0.076678,-0.410215,-0.409482,-0.009201,0.013779,0.480163,0.355495,-0.235130,0.353877,-0.134632,-0.194601,0.131520,-0.494934,0.457305,0.496765,-0.154286,0.429380,0.188650,-0.325282,-0.458556,-0.383969,-0.081713,0.282769,0.328425,0.416196,0.052446,0.223807,-0.367031,-0.355129,0.363124,0.029923,-0.185476,-0.142781,-0.214805,-0.403775,-0.411527,0.204337,0.473144,0.135792,-0.212882,0.275903,-0.101367,0.010971,0.489593,-0.165029,0.270959,-0.401395,0.052171,-0.147969,0.060228,-0.155782,0.070666,-0.256401,-0.094073,-0.338038,-0.195120,0.222648,-0.308893,-0.163289,0.098071,-0.333674,0.064104,-0.415891,0.321162,0.407651,0.188559,0.425443,0.373959,-0.142933,0.003372,-0.467345,0.274041,-0.139332,-0.226341,0.200949,0.365017,0.200644,0.213797,-0.395993,-0.325037,-0.355190,-0.035875,0.489196,0.456664,0.451140,-0.297510,-0.032029,0.440458,-0.266503,-0.328303,0.058672,-0.168355,-0.404782,-0.095874,0.137226,-0.416898,0.436247,-0.074938,-0.047594,-0.025681,0.340388,0.215720,0.361873,0.028520,-0.050737,0.217277,0.444975,-0.200919,-0.271783,0.157094,0.148946,0.056139,0.031571,0.478637,0.124531,0.404782,-0.127338,0.155873,-0.092944,0.366176,-0.194571,-0.325892,0.099933,0.453154,-0.176626],[0.079485,-0.278954,-0.373531,-0.204611,0.332637,0.173055,-0.446043,-0.338832,0.220237,-0.490204,0.414029,-0.137471,0.093799,-0.010666,0.075213,0.378536,-0.349391,0.194021,0.267418,0.088397,-0.453673,-0.223441,-0.326533,-0.479797,-0.033219,0.369442,0.326411,0.284539,0.451903,-0.261925,0.273919,-0.294610,0.127705,-0.290033,-0.082965,0.429807,0.002884,-0.090106,-0.071337,0.296991,0.486023,-0.166555,0.158467,0.248741,-0.220420,0.289514,0.430357,-0.438170,0.307550,-0.256920,-0.361263,0.184286,-0.167959,-0.410092,0.050127,0.455901,0.415952,-0.106159,0.215567,-0.004593,-0.112690,-0.381558,0.401151,0.034318,-0.037919,-0.116077,-0.057970,-0.020219,-0.318812,0.280755,0.426695,0.486724,0.318567,-0.228874,0.117450,-0.178579,0.415616,0.209616,-0.486419,-0.202811,0.099445,0.014176,0.463225,0.063402,0.340327,0.018845,-0.269616,0.029618,0.304621,0.039262,0.423399,0.205405,0.460112,0.182363,0.190695,0.237663,-0.410764,0.431425,-0.409360,0.426420,0.366878,-0.462157,-0.458586,0.000107,-0.341395,-0.249199,0.257042,-0.067553,0.196493,0.415891,-0.423856,-0.419126,-0.212668,-0.025681,0.089648,-0.070849,-0.289026,0.393704,-0.026719,-0.285791,0.464049,-0.438231,-0.068468,0.219443,-0.494507,-0.325861,0.159383,0.014878,0.160878,0.147542,-0.272576,0.426176,0.340358,0.089618,0.297540,0.013230,0.228080,-0.143269,-0.425504,-0.160176,-0.401975,-0.269158,0.400510,-0.184500,-0.086596,0.246788,-0.101794,-0.108875,-0.134754,0.201041,-0.430937,0.388913,-0.493225,-0.126270,-0.247032,0.248711,-0.360042,0.494507,0.355342,0.471648,-0.390225,0.483764,0.248131,-0.458190,0.163472,-0.499268,0.250938,0.108325,-0.469909,-0.170614,0.098468,-0.292138,0.377316,0.133320,0.300409,-0.190085,-0.198843,0.111133,0.300256,-0.034806,0.005448,0.083697,-0.160665,0.339045,-0.173299,0.043779,-0.068102,0.410672,-0.238823,0.200278,0.357906,0.119953,-0.349910,-0.452300,0.079699,0.242363,-0.320795,0.492187,0.488800,0.273919,-0.150868,0.065508,-0.111316,-0.392850,-0.427335,-0.241813,0.120777,0.279199,-0.444639,-0.496826,-0.261589,0.073504,-0.384732,-0.159261,-0.363155,0.256279,-0.401242,-0.203299,-0.456297,-0.271020,0.048112,-0.495392,0.277642,-0.121998,-0.222831,0.103320,0.180441,-0.097003,0.011826,-0.058855,-0.370540,-0.095202,0.250847,-0.381985,0.036271,-0.485565,-0.496307,-0.103168,0.237846,0.344661,0.061968,0.014939,-0.313410,0.044389,0.459624,0.427488,0.345637,0.238548,-0.220664,-0.486358,-0.304865,0.133564,-0.039048,0.276940,-0.243583,0.070299,0.267632,-0.429228,-0.460204,-0.194723,-0.433134,-0.118946,-0.177358,-0.198050,-0.417875,0.196249,-0.336482,0.312891,-0.228782,-0.003281,-0.440916,-0.466094,-0.011765,-0.105335,-0.350124,-0.387539,-0.415464,-0.044511,-0.119037,-0.210044,0.105914,0.231986,-0.475921,0.460631,0.241173,-0.457213,-0.032670,0.427488,0.179311,0.026475,0.178610,0.136921,0.031114,-0.498383,-0.250755,0.172750,0.471221,0.165578,-0.076006,-0.208335,0.257317,-0.338435,-0.476775,-0.219199,-0.217368,0.046983,0.164693,0.418638,0.317560,-0.307398,-0.310602,-0.179067,0.097339,-0.354762,0.199789,0.452574,-0.088549,0.484161,-0.385281,0.086596,0.351344,0.203085,0.148793,-0.008103,0.372555,0.148824,-0.378567,-0.369411,0.327479,-0.452239,0.002487,-0.353572,0.125294,-0.348567,0.100299,0.425413,-0.325129,0.032609,-0.201407,0.009995,0.267235,0.062914,-0.251305,-0.351863,0.053606,0.103351,-0.077380,-0.241935,0.275780,0.439116,-0.065813,-0.409238,0.404080,0.489532,-0.466369,0.370479,-0.159597,0.324824,0.182608,0.195364,0.341609,0.020798,0.115101,0.478973,-0.180227,-0.117420,-0.208609,0.214072,-0.324000,0.068651,0.150533,-0.160054,0.323481,-0.353298,-0.432127,-0.005570,0.056078,-0.387600,-0.075671,-0.067888,-0.080676,-0.097949,-0.307428,-0.110462,-0.260857,-0.069079,0.447691,0.179159,-0.034715,-0.311945,-0.292596,0.293023,0.485565,-0.081072,-0.490875,-0.202719,0.066546,0.427519,-0.370937,0.299371,-0.421781,0.028336,-0.149434,0.268059,-0.342586,0.180563,0.187277,-0.010971,-0.032731,-0.165273,0.467833,0.435850,-0.291436,-0.476379,0.187979,0.338588,-0.460631,0.228782,0.036607,0.230674,-0.441099,0.053240,0.001755,-0.244163,-0.487579,0.232597,0.463164,0.015763,-0.127308,-0.485076,0.177053,0.240135,-0.044969,0.441252,-0.439879,-0.439787,-0.278527,-0.442686,0.178396,0.167257,0.430998,0.088946,-0.152669,-0.363308,-0.208762,0.110706,0.249748,-0.300165,-0.231101,-0.259331,0.477477,0.244041,-0.285669,0.391324,0.402829,-0.177602,-0.043291,-0.391446,0.286981,0.454924,-0.473418,-0.470061,-0.469756,0.001450,0.161153,0.493133,-0.028184,-0.111438,0.249290,-0.173971,-0.356014,0.470824,-0.127735,0.349879,0.388241,-0.191672,-0.403775,-0.373562,0.238487,0.141591,0.173116,0.480590,-0.021531,-0.155538,-0.194235,-0.170522,-0.221000,0.137440,0.134083,0.349788,0.321650,0.341548,-0.402249,0.013749,0.314966,-0.045305,0.332575,0.026078,-0.190481,0.331446,0.255730,0.192038,0.218162,0.247581,0.497436,0.248680,0.447264,0.130726,-0.166219,0.190207,0.046007,0.238243,0.278558,0.118641,-0.220847,-0.436552,0.488769,-0.348811],[-0.226310,0.175985,-0.440428,0.404416,-0.191275,-0.062944,-0.336146,-0.311396,-0.122578,0.386532,-0.461669,-0.171621,-0.126514,0.036973,0.016861,0.066118,0.251732,0.294000,0.072649,0.412351,-0.309961,0.495392,0.077624,0.095447,-0.029496,0.393155,-0.018723,0.150258,-0.161245,-0.299951,0.296167,-0.413419,0.123310,-0.143086,0.421140,-0.455901,-0.104236,-0.323420,0.334071,0.339930,-0.046495,0.021500,0.184500,-0.185263,0.405576,0.170370,-0.181600,-0.115558,-0.356410,0.030778,-0.234581,-0.297357,0.478698,-0.146321,-0.279443,0.341121,-0.274621,-0.394040,0.051134,0.393796,0.014389,-0.342280,0.360286,0.411069,0.114948,-0.059984,-0.361507,-0.429746,-0.451811,0.229667,0.034318,0.488861,-0.227012,-0.282769,-0.224693,-0.413755,-0.275201,-0.485443,0.270684,-0.099078,-0.010056,0.257836,-0.073138,-0.231346,0.395383,0.462645,-0.292779,0.268639,0.296075,-0.212638,-0.032823,-0.157002,0.340571,-0.139027,-0.404233,-0.003220,-0.003342,-0.168661,-0.004471,0.484069,-0.382138,0.290826,-0.069048,-0.113330,0.332240,-0.265282,-0.222159,-0.008225,-0.465484,0.209525,0.204031,-0.125446,0.263573,0.306482,-0.186972,0.092059,0.245048,0.157491,-0.218070,-0.105152,-0.118000,-0.411008,0.024522,-0.137623,-0.026231,0.090381,-0.088885,-0.131611,0.444517,-0.247124,0.076464,-0.217246,-0.137196,-0.164052,0.346431,-0.184225,0.033799,0.116230,0.315363,-0.088549,0.444426,-0.323725,-0.394986,0.095630,-0.156331,0.289209,0.336360,0.185751,-0.261193,0.054674,-0.154622,-0.232170,0.088916,0.443724,0.174612,-0.152333,-0.023209,0.407651,0.370998,0.081835,-0.459319,-0.292230,0.121784,-0.005020,-0.052690,0.122120,-0.240501,0.089953,-0.313440,-0.314844,0.167440,0.256645,-0.029679,-0.382687,-0.383511,0.385708,-0.484375,0.099841,0.065355,-0.406095,0.494201,-0.448119,-0.045610,-0.033067,-0.071215,-0.434416,0.025101,0.225913,0.318598,0.155843,0.196341,0.224235,-0.226157,0.480468,0.028214,-0.319514,0.441984,-0.312372,-0.194784,0.054155,-0.494415,0.046312,-0.230186,-0.030015,-0.465697,0.016221,-0.462493,0.097552,0.471129,0.413480,0.224937,-0.107959,0.034806,0.328089,0.322108,0.102771,-0.180197,-0.049974,-0.160115,0.455351,-0.125599,-0.040819,-0.235679,0.414029,0.038652,-0.363430,0.348720,0.430418,-0.176443,0.352107,0.274834,-0.415403,0.112232,-0.414335,0.214591,0.025376,0.464843,0.137928,-0.176626,0.115192,0.308039,-0.313684,-0.303827,-0.313196,-0.209372,0.343501,0.317957,0.317194,-0.413541,0.373623,-0.460814,0.025437,0.425779,-0.276757,-0.391537,0.300867,-0.363826,-0.476928,0.292566,-0.133015,0.475158,0.216330,0.115802,0.088763,-0.465941,0.470458,0.250023,0.427915,-0.003555,-0.471465,0.085681,-0.146077,0.030503,0.156026,0.016465,-0.383877,0.097827,-0.160451,0.467528,0.283258,0.459471,0.394223,-0.300623,0.456999,-0.339656,-0.365230,0.418424,0.065630,0.273705,0.268151,-0.274834,-0.356166,-0.313990,-0.337611,0.431974,-0.494690,0.204947,-0.350856,0.280633,0.213981,0.270074,0.015488,0.092242,0.260308,0.048936,-0.158681,0.379391,0.349239,0.198813,0.339015,0.452757,0.205344,0.075732,0.350948,-0.446867,0.301996,0.172262,0.161794,0.040117,0.420530,0.064745,-0.218833,0.168325,0.445799,-0.348231,0.353664,0.483276,0.304315,-0.035081,-0.148488,0.367275,0.451201,0.332789,-0.292627,-0.232871,-0.187948,0.180013,-0.457762,-0.365261,-0.413511,0.242271,-0.354274,0.111713,-0.180990,0.478515,0.364162,-0.010605,0.143666,0.461638,0.053545,0.475768,-0.391110,-0.470977,-0.247124,-0.200034,-0.011155,0.474212,0.234672,-0.314020,0.486938,0.060381,-0.411496,0.226920,0.238456,0.137959,-0.005875,0.190695,-0.481780,-0.353420,-0.159841,0.288720,0.059679,0.283166,-0.155019,0.438810,0.391171,0.117267,0.335505,-0.446745,-0.403500,-0.064989,0.340571,-0.116169,0.405484,-0.407346,-0.344874,0.454344,0.020371,0.161367,-0.468749,-0.387356,-0.414396,0.143880,0.152364,0.232902,-0.294153,-0.454802,-0.453154,-0.400571,-0.080859,0.077837,0.097583,-0.496399,-0.468322,0.282647,0.303217,-0.415311,-0.280145,-0.152303,-0.052232,0.446257,0.306330,-0.094867,0.334620,-0.421018,0.116108,-0.412107,-0.258873,-0.378079,0.318903,-0.372494,-0.249443,-0.008011,-0.335871,0.274255,-0.383419,0.414762,0.014817,0.320460,0.317988,0.386288,0.086322,-0.490875,0.458312,0.098071,-0.203299,0.108142,-0.331874,-0.143727,0.134449,-0.068224,-0.334895,-0.474090,-0.049913,-0.408994,-0.371303,0.032243,-0.422025,0.253227,0.045335,0.449461,-0.305750,-0.306726,-0.319178,-0.290948,0.317438,-0.083422,-0.164083,0.458281,0.357936,0.135762,-0.458892,0.100208,-0.377499,0.382199,-0.152638,-0.453093,-0.319849,-0.466643,-0.131336,-0.283380,0.495514,0.037736,-0.267083,0.306269,0.236045,0.117847,0.097125,-0.129292,0.159505,-0.266564,0.383358,-0.260125,-0.012497,0.085467,0.391690,-0.194937,-0.328272,-0.057756,0.446348,-0.294549,-0.040910,-0.430479,-0.268822,0.446593,-0.338221,-0.455168,-0.028916,-0.018754,0.038774,0.238243,0.115040,-0.214835,0.194906,0.240013,0.177755,-0.042589,-0.096301,-0.482818,-0.104633,-0.122150,-0.239677,-0.420408,0.352168,-0.047533,0.070971,0.437071,0.233970],[0.492981,0.337977,-0.177267,0.094531,0.073443,0.106372,-0.315699,0.286950,-0.130604,0.251305,0.317011,0.188437,-0.239525,-0.191092,-0.101276,-0.162465,0.155751,0.019303,-0.192495,0.305811,-0.276208,-0.273278,0.460234,-0.006577,-0.188620,-0.251091,0.329890,0.202658,-0.151784,0.287439,-0.160298,0.080279,-0.355495,-0.339900,0.290613,0.460417,-0.012680,0.137135,0.477935,-0.360836,0.441923,0.161916,0.153920,-0.387906,-0.235557,-0.262139,-0.007584,-0.194388,-0.167653,0.262627,0.211295,-0.165944,0.498383,-0.409513,-0.490295,0.313318,0.274804,-0.395047,0.476012,0.262230,0.254051,0.082141,0.122303,0.123218,0.171651,0.126209,-0.297296,-0.066546,0.018387,-0.041063,0.470611,-0.322718,0.107105,0.343349,-0.468139,0.352046,0.001144,0.423765,0.450041,-0.222495,0.210349,0.263146,-0.240593,-0.318842,0.060656,-0.141285,0.043077,0.089770,-0.356014,-0.082476,-0.268853,-0.440916,0.254509,0.172933,0.276299,0.272698,0.217185,-0.476501,-0.137684,-0.459166,-0.484527,-0.224815,0.302271,-0.268365,0.123981,0.268487,0.282189,0.164418,0.452269,0.171499,-0.393185,-0.002335,-0.193442,-0.279687,-0.396451,-0.357784,0.275140,0.187887,0.340876,-0.268822,-0.056383,-0.137440,-0.182760,0.177541,-0.153066,-0.182089,-0.222495,0.351161,-0.436430,-0.245476,0.311701,-0.094073,-0.141224,-0.304529,-0.105914,0.288812,0.282830,-0.183493,0.017411,0.461577,0.130696,0.192312,0.079241,-0.133351,-0.330927,-0.260094,-0.323450,0.168691,0.037584,0.140767,-0.035203,-0.197714,-0.270409,0.022416,0.237510,-0.141987,0.059923,0.181387,0.383023,0.337397,-0.475463,0.128162,0.374355,0.308191,0.459624,-0.264336,0.448454,-0.008408,-0.094806,0.272820,0.131306,0.312067,0.080645,-0.396420,-0.235069,-0.058611,0.377255,-0.166158,-0.307489,0.368191,0.274987,0.186331,-0.242058,0.024003,0.089099,0.385586,0.276330,-0.002731,-0.046739,0.333918,0.131184,0.366420,-0.054918,0.359462,0.154958,-0.316584,-0.239372,-0.182089,0.448943,-0.360927,-0.156117,0.329035,-0.201041,0.440794,0.377590,0.429044,-0.157064,-0.064989,0.041673,-0.079669,0.146809,0.004685,-0.054430,-0.300195,-0.155477,0.273583,-0.359523,0.346858,-0.000626,-0.351772,-0.382046,0.252281,0.341578,-0.270531,0.201376,-0.430265,-0.460479,-0.376308,0.235740,-0.229453,-0.339503,0.186575,0.482910,0.083087,-0.023362,0.228843,0.128193,-0.401456,-0.226585,-0.283135,0.304224,0.323847,0.316034,0.498321,0.038926,-0.037248,-0.369900,-0.415616,-0.466582,-0.292779,0.253594,-0.479797,0.176443,-0.180471,-0.385006,-0.125935,0.200919,0.286676,0.195364,0.377316,0.390011,0.328211,0.129292,-0.254357,-0.262474,0.039109,0.401944,-0.286431,0.470397,-0.051622,0.297845,0.312677,0.337947,-0.224906,0.258049,-0.074480,-0.424284,0.162832,-0.198569,0.146199,0.448882,-0.326014,-0.332881,-0.021378,-0.217826,-0.175008,-0.166433,0.403989,0.382443,0.444029,-0.429136,-0.151234,-0.240196,0.131733,0.182638,-0.415860,0.054338,0.107501,-0.406430,-0.411435,-0.426634,0.220908,0.438902,-0.095782,-0.152791,0.411069,-0.188040,0.018937,-0.392026,0.394131,0.326533,0.304926,-0.401059,-0.139332,-0.350551,0.045213,-0.380001,-0.035752,0.160604,0.079241,-0.284143,0.381893,-0.104205,-0.401151,-0.087146,-0.271722,0.429258,0.126148,0.411069,-0.395077,-0.148305,0.203757,-0.362423,0.064837,-0.499451,-0.170309,0.067614,-0.225059,-0.401852,0.167501,0.218986,-0.343226,0.454650,-0.437254,-0.272942,0.287072,0.391202,0.397977,-0.093951,-0.160939,0.040666,-0.183950,-0.297540,-0.153401,0.181173,-0.155324,0.447935,-0.428800,-0.241020,-0.048051,0.316736,0.254295,0.257561,-0.434873,-0.105274,0.035081,0.068011,-0.416532,-0.234001,-0.183828,0.018265,0.416349,-0.476806,-0.142628,-0.283715,-0.421842,0.107898,0.379177,-0.135731,0.371090,-0.112476,-0.042467,0.199637,-0.313074,0.109760,-0.077776,-0.012253,0.246727,0.010819,-0.127827,-0.003281,0.489044,-0.060869,-0.267174,-0.356227,0.362484,0.368984,-0.189535,-0.243187,-0.356349,-0.310297,0.279077,0.287011,-0.440214,0.478118,0.133656,-0.426145,-0.382076,0.135365,-0.096698,0.331568,0.271996,0.011063,-0.094867,0.011460,0.459166,-0.080767,0.320673,-0.301416,-0.463622,0.453398,-0.124531,0.196890,-0.351161,0.006821,0.404050,0.460723,0.060961,-0.096057,0.080004,0.027970,0.481719,-0.450652,-0.405667,-0.388455,-0.084490,0.000809,0.061510,-0.494751,0.069414,-0.127979,-0.064287,-0.039659,-0.151692,-0.027940,-0.282098,0.189047,-0.030503,-0.412839,-0.264550,0.151357,0.227256,-0.188528,-0.225181,-0.218802,0.439421,-0.167318,-0.150563,-0.191580,-0.393521,-0.420652,-0.116657,-0.167531,0.315302,-0.364711,-0.407895,-0.195364,-0.082324,-0.171651,0.342586,-0.425626,-0.484039,0.398770,0.271752,-0.343318,0.286462,0.154195,0.447417,-0.123798,0.171773,-0.482849,0.350459,0.044511,0.473876,-0.128559,0.461089,0.327082,0.378506,0.113300,0.229514,0.455748,-0.057299,-0.185629,0.212882,0.443114,-0.423704,-0.098163,-0.340632,-0.044664,-0.451079,0.262688,0.320826,-0.000809,-0.446379,0.177694,-0.225028,0.080004,-0.141804,-0.007767,0.039171,0.486267,0.076037,-0.070818,-0.244255,-0.142201,0.087024,0.450957,-0.268670],[0.346675,-0.242119,-0.079211,-0.047319,-0.330561,0.059465,-0.032670,0.413785,-0.147114,-0.165395,-0.410703,-0.066027,0.448271,-0.362972,0.246483,0.279015,-0.065477,0.202261,-0.284845,-0.329096,0.491485,-0.047746,0.345058,-0.286187,-0.151479,-0.425596,-0.052324,-0.147786,-0.466247,0.398831,0.289026,0.019303,-0.445097,0.481109,0.466399,-0.369411,0.042833,-0.203726,-0.048387,-0.420347,-0.110614,0.450468,-0.418638,0.392239,-0.089251,0.315973,0.276055,0.194296,-0.432890,-0.002915,-0.231651,-0.348598,-0.229484,-0.468383,0.123066,-0.465300,-0.188284,-0.264672,0.328822,0.070025,-0.062609,-0.404782,-0.256310,-0.273309,-0.390896,-0.382443,-0.324732,-0.398038,-0.024827,-0.462218,-0.123066,0.057299,-0.413541,0.297449,0.241325,-0.237083,-0.112140,-0.304804,0.472320,-0.193136,-0.483886,-0.381893,0.016800,0.024644,-0.064165,0.258843,0.037523,0.205985,0.444426,0.225730,-0.291986,0.334651,0.077410,-0.048479,-0.388760,-0.482330,0.445677,0.307459,-0.477111,-0.239372,0.035112,-0.171804,0.360714,0.244346,0.001022,0.454924,-0.418943,0.260186,-0.012741,0.201743,-0.195791,0.459716,0.002457,-0.347530,-0.050981,-0.424985,-0.115864,-0.306238,-0.340999,0.266015,0.381619,0.390500,0.300378,0.250847,0.389645,0.410367,0.313837,0.375973,0.363613,-0.096576,0.200919,-0.218345,0.447539,0.242912,-0.073412,-0.180258,0.346187,-0.466521,0.018845,-0.120655,0.472839,0.293847,0.147023,-0.222892,0.403378,0.218619,0.459807,-0.131764,0.168386,0.427458,0.464293,-0.465667,0.414548,0.105853,-0.272790,0.204642,-0.033891,-0.054399,0.179769,-0.433622,-0.181692,0.289636,0.307245,0.121296,0.093432,0.388638,0.004563,-0.256279,-0.008683,-0.324976,0.379116,0.397061,0.264794,0.460997,0.282220,-0.335414,0.252251,-0.033830,-0.149831,0.251213,-0.002152,0.082171,-0.163533,0.111835,0.490783,-0.220695,0.016099,0.363216,-0.444884,-0.437651,0.443693,-0.364925,0.421323,-0.118763,-0.154012,0.017136,-0.489746,-0.096728,-0.069262,0.257744,0.462065,-0.447417,-0.107410,0.371151,-0.060503,0.223960,-0.102435,0.308893,0.238823,0.076037,-0.172597,-0.147908,0.237968,0.311548,0.064806,0.380551,-0.286004,0.349574,-0.399106,-0.324915,-0.438780,0.297021,0.246483,0.409513,-0.059557,-0.375118,0.227592,0.487976,-0.108386,0.456084,-0.052355,-0.115528,0.440306,0.370571,0.196249,0.140736,-0.270348,0.134724,-0.412931,0.178060,0.209037,0.260399,-0.494964,-0.419675,0.410489,-0.199637,0.344905,0.003800,0.344295,0.286615,0.321711,-0.129994,0.045183,0.217215,-0.364772,-0.001755,0.299799,-0.001694,0.268700,0.333796,0.087298,-0.252586,0.203879,0.427915,-0.235832,-0.135517,0.333308,-0.173818,-0.475829,-0.223441,-0.149068,0.021348,0.165090,-0.237388,0.402860,0.126606,-0.306635,0.264702,-0.221488,-0.073778,-0.202139,-0.408353,0.424863,0.458953,-0.275964,0.421842,-0.436674,-0.208792,-0.420377,0.010514,0.192190,0.135975,-0.396573,-0.490967,-0.245598,-0.026780,0.428098,0.301263,-0.246849,0.329157,-0.131794,-0.236015,0.095691,-0.130726,0.265435,0.357418,0.446837,-0.037156,-0.079150,0.451842,0.373745,0.373592,-0.352748,-0.202841,-0.437101,-0.265923,-0.028886,0.041002,-0.109607,0.459563,0.016617,0.201834,-0.372799,0.257042,-0.397610,-0.496155,-0.439604,-0.113086,-0.417356,0.478973,0.311609,0.332423,-0.036790,-0.257286,-0.365963,0.033616,-0.175283,0.350642,-0.030747,0.342189,-0.416562,0.140400,0.044877,-0.147023,-0.378780,-0.033128,-0.205283,-0.231010,-0.184072,0.236045,0.382321,-0.044359,0.003494,-0.356227,-0.390805,-0.159230,-0.097217,-0.473937,0.489319,-0.183370,-0.465270,-0.273095,0.270592,0.300134,-0.333216,0.389798,-0.314966,0.107379,0.313959,-0.420530,-0.291314,0.299097,-0.172170,0.140126,-0.387539,0.152760,-0.395260,-0.304285,-0.414609,0.418393,-0.055712,0.199667,-0.288842,-0.486877,0.089373,-0.060869,-0.420255,-0.187765,-0.020554,0.401151,0.314814,-0.308649,-0.252464,-0.094256,0.298273,0.477691,0.492920,0.413419,0.373867,-0.035173,0.360317,0.412381,-0.190115,-0.350826,0.457030,0.292169,-0.196646,0.342524,-0.360897,0.109973,-0.193777,0.318232,-0.301813,0.155690,0.455382,-0.353084,-0.020432,0.221946,0.386868,-0.122272,-0.036546,-0.014298,-0.283197,-0.278680,-0.159627,0.407285,0.469176,-0.108386,-0.388302,-0.446898,-0.267968,-0.238487,-0.252770,-0.251091,-0.176138,-0.010544,-0.069781,0.468780,0.250542,-0.226981,-0.078173,-0.132923,-0.265130,-0.114246,0.076006,0.359279,0.099475,0.153188,-0.464354,0.157460,0.284570,-0.475219,-0.357784,0.167745,0.281518,0.397946,-0.411100,0.154592,0.264000,0.349879,-0.150380,-0.420377,-0.302667,-0.065844,0.414457,0.020035,-0.292077,-0.301996,0.362941,-0.426511,0.493377,0.076434,-0.193350,0.155751,0.055101,0.319483,-0.267815,0.096759,0.034410,0.109241,-0.224570,-0.057756,-0.066668,0.022233,0.459319,-0.133595,-0.498657,0.493957,-0.074999,-0.397916,-0.430357,0.441527,-0.310724,0.295007,0.113727,0.200797,0.457854,0.187918,-0.174429,-0.065661,-0.473174,-0.458800,-0.022629,0.166036,-0.196402,-0.304071,-0.142964,-0.400876,-0.022416,-0.314234,-0.442717,-0.126240,-0.126972,0.304102,0.399808,0.420103,-0.485443,0.032182],[-0.462859,0.242332,-0.075304,-0.081072,-0.463134,0.269677,-0.467559,-0.268578,-0.439299,0.129658,-0.254051,-0.053423,-0.360927,-0.150044,0.337977,0.054399,0.236381,-0.421110,-0.261101,-0.363002,0.485687,-0.220817,0.475280,0.151692,0.103046,0.204459,0.082263,0.257744,-0.260338,0.463652,-0.302087,-0.470031,-0.331202,0.128010,0.281060,0.257012,0.443205,-0.215995,-0.161641,-0.379666,0.413358,0.195059,0.134907,-0.340663,-0.042314,0.236106,0.014908,-0.066454,-0.379177,0.103870,-0.103351,-0.336695,-0.183615,-0.166555,0.347194,-0.369625,0.250359,-0.347041,0.143483,-0.380581,-0.278405,0.207358,-0.273705,-0.318232,0.455473,0.182455,0.452666,0.002823,-0.373257,0.360836,-0.446593,-0.345973,0.228690,-0.359523,0.202414,0.011002,-0.056597,0.047563,-0.397244,0.118915,0.171133,0.274682,0.497589,-0.213675,-0.126728,-0.224357,0.010025,-0.311151,0.386837,-0.051592,0.220511,0.263817,-0.134785,0.436705,0.385678,-0.322901,-0.497436,0.082446,0.206809,-0.356288,0.197409,-0.440397,0.053056,0.382870,-0.187887,0.221091,-0.453948,0.489227,-0.315790,0.189505,0.412046,0.001419,-0.454070,0.223746,0.007767,0.449065,-0.491729,0.391720,0.426847,0.159413,0.265679,0.081317,-0.408139,-0.394803,0.177633,0.380490,0.239647,0.074786,0.383663,0.357540,0.204825,0.445555,-0.392483,0.273156,-0.091205,0.342250,-0.192557,0.255455,0.460112,0.461455,0.327784,0.468871,0.272027,0.343043,-0.290582,0.308771,-0.395779,0.370510,-0.185568,-0.347499,-0.065294,0.280511,0.421262,-0.301660,-0.432585,-0.035844,-0.052904,0.423673,0.383297,-0.160085,0.453429,0.193472,0.139332,-0.419614,-0.409207,-0.449492,0.223411,0.473785,-0.360286,-0.281610,0.269951,0.201315,0.303064,-0.151296,-0.456694,0.312006,0.406980,-0.456359,0.495300,0.175863,0.166005,-0.314722,0.402066,-0.303034,0.169301,0.102527,0.488220,-0.432554,-0.256767,0.107562,0.442778,0.343837,-0.152150,0.432371,-0.265770,0.126667,0.162069,-0.402951,-0.369076,0.125446,-0.484771,0.241111,0.332270,-0.111194,0.320307,0.448485,0.117817,0.482757,0.165120,-0.401425,-0.079669,0.396695,0.218497,-0.226524,0.228568,0.459868,-0.393338,0.253075,-0.273461,-0.451811,0.416929,0.129627,-0.424467,0.364101,0.484222,-0.427580,-0.255333,0.068987,-0.382534,-0.225669,0.296655,0.051317,0.421567,0.110858,0.035020,-0.389889,0.370907,-0.456236,0.418607,-0.164022,0.291803,-0.200034,0.150227,0.470733,-0.091296,0.356777,0.345149,0.026353,-0.388394,-0.234581,-0.313990,-0.054338,0.100177,0.343623,0.470397,0.084552,0.060961,-0.231742,-0.043016,0.298212,-0.465575,-0.399869,-0.082904,0.411863,0.127461,0.271294,-0.202628,0.357631,-0.272393,-0.433500,0.399991,-0.241295,-0.123920,0.130451,0.486908,-0.258080,0.454619,0.031144,0.213919,0.260063,-0.156484,-0.088610,-0.198599,-0.294610,0.206320,-0.240410,0.347255,0.095325,0.057848,-0.169362,0.188833,-0.388577,-0.228385,-0.251396,-0.279931,-0.226341,0.183004,0.322260,0.069811,0.030045,-0.055620,0.104816,-0.452422,0.044115,-0.211692,0.228996,0.263604,0.460570,0.355525,-0.451262,-0.171682,0.430723,-0.256981,-0.381130,-0.461241,-0.320765,0.429991,-0.456206,-0.042680,0.392727,-0.264153,0.226615,0.289056,-0.287927,0.468871,0.050005,0.464599,0.109668,-0.080493,-0.480163,0.333979,0.432310,-0.143635,-0.096973,-0.121723,-0.108356,-0.319849,0.390713,-0.155141,-0.216910,0.391903,-0.181936,-0.287011,0.214377,-0.467895,0.472167,0.395505,-0.374783,-0.253044,0.018723,-0.416929,0.379330,0.137257,0.079455,0.137806,0.209738,0.047349,0.490936,0.440916,-0.200980,0.449492,-0.223594,0.102832,0.275597,-0.419919,-0.138173,-0.059893,-0.092944,-0.015549,-0.432981,-0.373562,-0.227683,-0.374447,-0.096210,-0.076128,-0.306726,0.213950,-0.288324,-0.099963,0.207663,0.414335,-0.336879,0.038316,-0.136006,0.085467,0.168691,-0.353572,-0.379757,0.209433,0.214194,0.470641,-0.372890,-0.333277,-0.339442,-0.079424,0.177328,-0.486785,0.038102,-0.187582,0.102283,-0.084704,0.365658,0.035325,0.397214,0.399503,0.026841,0.048082,0.355983,-0.427091,0.234214,-0.387692,-0.002884,-0.029557,0.112049,-0.332087,0.061815,0.185263,-0.069872,-0.242393,0.365810,-0.061205,-0.481170,-0.093554,-0.214408,0.246361,0.397214,0.362636,-0.338832,0.334742,-0.355037,0.105853,-0.104480,0.468078,0.050432,-0.470244,-0.467040,0.338008,-0.435545,0.204062,0.097217,0.174734,-0.407346,0.123341,0.470367,0.234886,0.156697,0.348140,-0.405881,-0.177358,0.455840,0.445219,-0.225303,-0.499695,-0.139729,-0.367519,-0.127613,-0.355434,-0.132679,0.035691,0.157125,0.004807,0.051836,-0.037767,0.111255,0.419370,-0.458403,-0.400754,-0.038865,0.346583,0.050066,0.041459,0.218070,0.366298,-0.003647,0.055406,0.010514,0.308466,-0.255364,0.486450,0.488495,0.164815,0.494079,-0.285699,0.081591,0.440123,-0.150014,0.063952,-0.108386,0.099017,-0.391629,-0.422330,0.001267,-0.235099,-0.215720,0.054643,-0.019791,0.327052,0.415555,-0.235435,0.369472,-0.388058,0.173360,-0.258843,0.425779,0.275780,0.310694,0.062120,-0.093188,-0.426756,-0.020402,0.021531,0.178762,0.160298,0.449400,-0.398709,0.427366,-0.414396,0.255852],[-0.126453,-0.323298,-0.414640,-0.290613,0.259239,0.137745,-0.475768,-0.412564,0.139332,-0.469787,-0.095080,-0.422330,0.351955,-0.397794,-0.219718,0.015366,-0.166128,-0.187399,0.057421,-0.171712,0.354884,-0.307398,0.121601,0.423429,-0.494995,-0.461211,0.382565,0.173849,-0.140919,0.045457,0.001907,0.360714,-0.224754,0.032853,0.333857,-0.023484,-0.389676,-0.072741,0.109851,0.296228,-0.368160,0.149281,-0.101337,-0.378140,0.408780,0.066607,-0.126942,0.107440,-0.037858,-0.332545,0.414548,0.069964,0.456481,-0.388882,-0.413114,-0.306696,-0.286370,-0.188681,0.010636,-0.469207,0.330164,0.209525,0.168477,-0.287255,-0.320795,-0.106372,-0.325800,0.265496,-0.421171,0.218680,-0.464538,0.447844,-0.092822,0.085833,-0.058092,-0.488372,-0.053514,0.035630,-0.389889,-0.207938,-0.263421,0.312311,0.216239,-0.465575,0.219657,-0.445433,-0.051988,0.363674,0.457183,0.270074,-0.293085,-0.197684,-0.299829,-0.251061,-0.007828,-0.256096,-0.405301,-0.426725,-0.002609,0.287652,0.302820,0.378475,-0.048235,-0.159627,-0.178915,0.022691,0.236137,-0.107288,0.277825,-0.178945,0.306146,0.375149,0.489502,0.000229,-0.046953,0.000351,-0.441252,0.030076,-0.066301,0.498230,-0.205557,-0.011429,-0.499054,0.149709,-0.264946,-0.383877,-0.134236,-0.474303,-0.442839,0.215629,0.121998,-0.162801,-0.350337,0.054277,-0.334437,-0.196829,-0.364467,0.424009,-0.361080,0.442137,-0.378231,0.015915,0.432096,-0.306177,-0.040605,-0.234275,-0.228355,0.277429,0.294336,-0.174062,0.428953,-0.308100,0.190603,-0.178457,0.078539,-0.234336,0.106891,0.044725,0.338374,-0.339106,0.008194,-0.254326,-0.477142,-0.260399,0.393155,0.175100,0.140095,0.196860,0.018693,-0.464873,-0.335749,-0.131916,0.103565,0.494476,-0.384854,0.116565,0.291070,0.424436,0.475066,0.206809,0.153188,0.011795,0.475036,0.071001,-0.483123,0.404996,-0.218345,-0.125965,0.394070,-0.450407,0.115284,0.283563,-0.204245,-0.130238,0.331111,-0.148488,0.213126,-0.048845,-0.005356,0.413236,0.045061,0.382687,0.482299,-0.089862,-0.245293,0.412259,-0.361202,-0.457060,0.035508,-0.426725,-0.477538,-0.339259,-0.231681,-0.061602,0.269463,0.292962,0.051012,0.156117,-0.391324,-0.270043,0.081133,-0.073046,0.058092,0.058916,0.173940,0.075426,0.334101,0.060900,-0.304224,-0.126148,0.004898,0.375393,0.195364,-0.225486,-0.080584,0.339015,-0.487030,0.205985,0.442747,0.403928,0.150044,-0.409574,0.029405,-0.457183,-0.320887,0.237907,0.166005,-0.453551,0.476714,0.273431,0.214103,-0.380215,-0.440977,0.254112,0.184591,0.183554,-0.196829,-0.368557,-0.024613,0.286920,0.333613,-0.284051,0.102710,-0.462279,0.356502,0.299768,0.458312,-0.043291,0.222343,-0.406308,0.122852,-0.338374,-0.001846,-0.364650,-0.232475,-0.212119,0.331111,-0.176412,-0.325343,-0.448515,-0.115894,-0.263329,-0.091296,-0.138844,0.124897,-0.110279,-0.331111,0.385250,-0.249901,-0.412107,0.354884,0.480041,-0.474792,-0.468627,0.376278,-0.114185,-0.178274,0.328730,0.237907,-0.403500,-0.367000,-0.425291,-0.068621,-0.190481,0.349635,-0.351314,0.164876,0.361995,0.076098,-0.109973,0.461699,-0.440703,-0.230461,0.306818,-0.340480,-0.197012,-0.017960,0.473754,-0.158712,-0.077013,0.487640,-0.223930,0.228629,-0.378109,-0.424436,-0.344691,0.069903,-0.063524,0.290551,0.013077,0.053331,0.122883,0.401517,0.429502,0.276788,-0.127766,0.380490,0.352351,0.305658,0.262413,0.172140,-0.086901,0.349635,0.352382,0.035600,-0.473937,0.089923,-0.174642,0.240104,-0.072771,0.188376,-0.412931,-0.105090,-0.191458,0.009049,-0.274499,-0.304132,-0.295740,-0.415738,-0.262169,-0.131428,0.285669,0.356044,0.431578,0.090594,-0.280175,-0.276269,0.405637,-0.326991,0.249535,-0.069658,-0.482269,-0.216483,-0.350154,0.317194,0.244377,-0.008866,-0.282037,0.479369,0.339656,-0.085070,0.452666,0.352962,-0.300897,0.257347,0.079058,-0.235313,-0.164968,0.003525,-0.424100,0.476287,-0.130757,0.067858,-0.139424,0.253685,0.449614,0.169240,0.288720,-0.006790,0.496948,0.215781,-0.375362,0.435697,0.187796,-0.019150,0.138630,0.499420,0.080309,0.351222,-0.012741,-0.236320,-0.211509,-0.071337,-0.466399,0.134083,0.111774,0.266594,-0.237297,0.220450,0.025895,-0.477813,0.449217,0.459044,0.441282,-0.193442,0.233207,-0.489868,0.135243,0.012680,0.260460,-0.037645,-0.235496,0.403470,-0.456633,-0.125355,0.363643,-0.259117,-0.301019,0.187521,0.236412,0.237175,0.219871,-0.465117,-0.354244,0.109699,-0.065020,0.487152,0.209189,0.020493,-0.184255,-0.242607,0.404813,0.181845,-0.215659,0.401944,0.095752,0.409207,-0.319880,-0.454344,0.477966,-0.097583,0.040544,-0.335322,0.358028,0.037156,-0.147359,-0.043565,0.167592,-0.053301,-0.068224,-0.170919,-0.379910,0.176626,0.083087,0.041276,0.416623,0.192648,-0.297052,-0.476379,-0.093463,0.023270,-0.024216,0.412931,0.109668,-0.181356,0.322810,0.330592,0.005844,-0.393612,0.259239,0.436613,0.498535,0.026231,0.315729,0.289850,-0.041581,0.324122,0.180624,0.046556,-0.246818,0.387600,-0.280938,0.027818,-0.329890,0.103381,0.025376,0.187429,-0.362606,-0.181692,0.164907,-0.488586,-0.349544,0.185293,-0.238456,-0.119434,0.309717,0.175039,0.087268],[-0.213248,0.353389,-0.086138,-0.084368,0.248955,0.478088,0.054064,0.183798,-0.222221,-0.122150,-0.063250,0.166738,0.305261,-0.240867,0.224204,-0.456267,0.356471,0.357540,0.276452,-0.465941,-0.124256,-0.466124,-0.070544,-0.125416,0.418699,-0.176778,0.473174,-0.489746,0.205344,-0.100299,0.381710,0.029008,-0.058672,-0.261193,-0.048357,0.371700,-0.187551,0.258232,-0.495209,-0.151265,-0.440428,-0.281823,0.311670,-0.005051,0.039872,-0.336879,-0.108264,0.293146,0.180349,-0.314570,-0.152669,0.298334,-0.269463,-0.207297,-0.113483,0.193411,-0.279778,-0.340052,0.191885,0.308069,0.028275,-0.452483,-0.208701,-0.368709,-0.030808,0.166677,0.086962,-0.150105,0.303552,0.273156,0.198477,-0.056902,-0.421537,0.271111,0.277306,-0.134602,0.204367,-0.392361,0.447539,0.348506,0.174215,0.239677,-0.469756,0.353420,-0.168111,-0.045579,0.207236,0.204520,-0.404599,-0.175375,-0.219749,-0.063677,0.041429,-0.420225,0.182577,-0.115589,0.257500,0.174490,0.398373,0.051744,-0.132008,0.335597,-0.053179,0.281640,-0.359645,0.368923,-0.413175,-0.231376,0.077258,0.006943,-0.101367,-0.061418,-0.098193,-0.420957,-0.101306,0.228904,-0.158803,0.284875,0.343989,-0.199332,-0.384243,-0.147328,-0.117908,-0.286340,-0.460997,0.363826,-0.296869,-0.404813,-0.364406,-0.475799,-0.150014,0.334834,-0.317194,0.164541,-0.157125,-0.164785,0.082385,0.250084,-0.225272,0.351314,-0.031602,0.181631,-0.466582,0.448393,0.458098,-0.331324,0.307398,0.110553,0.451109,-0.043840,0.030412,0.030992,-0.115955,-0.314295,-0.077593,-0.385067,-0.153523,0.173360,-0.218009,-0.273156,0.464141,0.384121,0.187246,-0.286920,-0.043779,0.385281,0.260949,-0.268914,-0.227073,-0.440580,0.156606,-0.083575,0.218833,0.358516,-0.078570,0.419187,0.469298,-0.120075,-0.107685,-0.159536,0.385434,0.046678,0.281426,0.100787,0.034318,-0.328364,0.107562,0.271233,0.320490,0.188314,0.129383,0.398709,-0.365139,0.328608,-0.063341,-0.143300,-0.072253,-0.470763,-0.143544,0.252709,0.111713,0.348018,-0.170583,0.423246,0.200888,-0.329432,-0.086474,-0.451537,0.092853,-0.009659,-0.429289,-0.083117,0.399319,-0.458953,0.393155,0.371639,0.231834,-0.435392,0.425108,-0.030107,0.348994,0.494873,-0.263329,-0.113605,-0.429044,0.338405,0.406186,0.092090,-0.131855,0.034257,-0.433775,-0.160298,0.029618,0.073016,-0.328669,0.487213,0.318140,0.157216,-0.358272,-0.309961,0.017533,0.183798,0.041093,0.494385,0.279199,0.330164,-0.056993,0.361324,0.173147,-0.474944,-0.356258,-0.345454,0.351161,0.085467,-0.123341,-0.378170,0.226737,-0.199515,-0.315149,0.401883,0.079363,0.244224,-0.391720,0.088122,-0.011216,-0.401975,0.341762,0.380032,0.005356,-0.236045,-0.480560,-0.146107,0.463317,0.050340,-0.216849,0.383724,-0.157399,0.211081,-0.210410,-0.256035,0.086047,0.119617,0.313623,-0.074938,-0.222556,-0.141224,0.103259,0.193136,0.087786,-0.491943,-0.356960,0.425047,-0.105274,0.409452,0.481933,-0.249931,-0.017350,0.192831,0.281396,0.029710,-0.271355,0.342586,0.241234,0.206259,0.181356,-0.413694,0.057909,0.051958,-0.061480,-0.112781,0.072863,0.349879,-0.270470,0.321162,-0.234031,0.037523,0.109546,-0.380276,0.251640,0.344691,0.170949,-0.339412,-0.067583,0.456694,-0.321314,-0.313593,-0.032426,-0.265954,-0.464171,-0.466582,-0.287866,0.020524,-0.014695,-0.348842,-0.217154,0.069658,0.454192,0.194327,-0.092395,-0.377651,0.446989,-0.031816,0.213889,0.165609,0.393918,-0.491150,0.113422,-0.095752,-0.139607,0.079516,0.438322,-0.022843,0.024339,-0.136219,-0.014206,0.448271,-0.172964,0.137837,0.127094,0.104755,-0.295709,-0.297906,-0.362819,-0.407163,0.303919,0.354030,0.401486,-0.077136,0.095477,-0.316797,0.155690,-0.125477,0.279443,-0.030168,-0.084887,0.334010,-0.099261,0.468139,0.249687,0.093921,-0.425810,-0.144429,0.060961,0.147389,-0.272698,0.129627,0.017289,0.007401,-0.233268,-0.267266,0.303430,0.083087,0.075152,0.187368,-0.159047,-0.356502,0.244255,0.021714,-0.364620,0.400906,0.450255,0.268059,0.406919,0.244194,0.378475,0.314325,0.160146,0.154103,-0.397275,0.390622,-0.150166,-0.168691,-0.173635,0.471587,-0.201468,0.068499,-0.109577,-0.123707,0.022263,0.398099,-0.043931,0.346400,0.120899,0.046312,-0.233177,-0.115986,-0.110920,-0.274560,0.397427,0.131031,0.304193,0.295007,0.394681,-0.429838,0.047288,-0.176595,-0.282067,0.329981,0.213919,0.081286,0.384030,-0.125843,0.370235,-0.002426,0.223624,0.357479,-0.388760,0.109943,-0.344447,-0.071703,-0.222678,-0.459594,-0.115497,-0.239799,0.485015,-0.472198,0.429014,0.093036,0.128590,0.047868,0.385708,0.065020,-0.491333,-0.447325,0.336268,-0.382809,0.244041,0.360500,0.303034,0.251427,-0.377468,-0.272942,-0.340236,-0.077013,0.048326,0.130055,0.403867,-0.150594,-0.259453,-0.202719,-0.304224,-0.483703,-0.159658,0.010880,0.072832,-0.338008,-0.417508,0.217338,0.242546,-0.478240,-0.312464,0.476287,-0.137318,0.112995,-0.369045,0.277703,0.213736,-0.157064,-0.054399,0.259941,0.170095,0.219565,0.213431,-0.140706,0.376644,-0.052507,-0.097003,0.422330,0.036302,0.189840,-0.290857,-0.187521,0.215476,0.277306,-0.449583,0.042070,0.073016,-0.354274],[0.285302,0.045488,-0.314051,0.475433,-0.467620,-0.486816,0.470550,0.334376,-0.269951,0.497040,0.087481,-0.118213,-0.417417,0.386746,0.281487,0.095172,0.402066,0.012314,-0.235740,-0.265740,-0.275750,-0.178640,-0.472594,0.321009,-0.006394,-0.049821,0.254479,0.027940,-0.477081,0.468352,0.211692,0.131001,-0.239586,-0.296350,-0.101428,0.182882,0.394223,0.053270,0.239433,-0.436552,0.326044,0.187399,-0.402829,-0.436460,0.045457,0.051866,0.390561,-0.342280,0.435636,-0.424161,-0.403745,0.123432,-0.458007,0.490783,-0.082873,-0.338710,0.335078,0.166799,-0.102680,0.174520,-0.001389,-0.126698,-0.233695,0.361812,-0.225364,0.369320,0.292474,0.281854,-0.104053,0.230247,0.427763,-0.455901,-0.361873,-0.182730,0.024613,0.283105,0.021836,0.295587,0.406400,-0.427793,0.196646,-0.392453,0.072619,0.433012,0.037858,-0.192587,0.320124,0.096515,-0.012528,-0.336634,0.061541,-0.327052,-0.329432,-0.066363,-0.377651,-0.114429,0.318140,0.222465,-0.202383,0.025529,-0.471953,-0.177358,-0.050218,-0.216666,0.395108,0.450438,0.428617,0.113971,-0.458739,0.279290,0.094897,-0.208975,0.077868,0.178976,0.228751,-0.193167,0.030412,-0.434446,-0.396176,0.274377,0.257775,-0.230705,0.009079,-0.012589,0.396451,0.326350,-0.001175,0.295373,-0.138142,0.100299,0.152608,0.448302,0.437315,-0.359676,-0.373928,0.069506,0.481994,-0.318232,0.274255,-0.089129,0.289575,0.195608,0.128162,-0.452177,-0.371609,-0.107166,-0.493744,0.169973,-0.005417,-0.409452,-0.458098,0.123768,-0.390988,0.345180,0.408200,0.363277,-0.309870,-0.240287,0.020981,0.465392,0.033036,0.371242,-0.497864,0.365871,0.426664,-0.475677,0.183462,0.472228,-0.060015,-0.362423,0.432920,0.309809,-0.391293,0.268395,0.084582,0.357479,-0.446440,-0.116779,-0.246910,0.228690,0.061449,-0.260857,-0.185659,-0.145039,-0.339351,-0.217215,0.333308,-0.172933,-0.278161,-0.026780,-0.279717,-0.448851,-0.384915,-0.065111,0.397305,0.375118,-0.044664,0.347011,0.254997,0.342250,-0.033341,-0.024705,0.182150,-0.272027,0.497070,-0.247246,0.448729,0.016099,-0.285058,-0.184622,0.223380,0.470550,0.018326,-0.100726,0.007309,-0.040635,0.188314,0.005295,0.265130,0.186758,0.317988,-0.262413,0.034532,-0.010514,-0.452269,0.222190,-0.204672,-0.145741,0.138844,0.011856,0.379971,0.311731,-0.084246,-0.116352,0.205832,0.363918,-0.390866,-0.064867,-0.388516,-0.398892,0.130329,-0.114124,-0.422483,0.164357,0.308863,-0.009903,-0.386837,0.209738,0.123859,0.467009,0.090655,0.031388,-0.038835,-0.145131,-0.192373,0.498413,-0.073107,0.195303,0.059771,-0.037309,-0.251152,0.453795,0.003922,0.293939,0.297266,0.082629,-0.406034,0.197348,0.255699,0.133137,-0.129963,0.471221,-0.026170,-0.177511,-0.117817,0.360134,0.032884,-0.037919,0.030686,-0.340052,-0.444609,0.153523,0.103076,-0.268700,-0.209647,0.158284,-0.210105,0.077105,0.004776,0.347652,-0.039628,-0.358882,0.213431,-0.361263,0.478698,0.483520,-0.222526,-0.176595,-0.156972,-0.010788,0.403836,-0.304407,0.427671,0.266198,-0.424284,-0.115772,-0.389737,-0.110828,-0.053514,-0.203085,-0.435240,-0.354701,-0.272607,-0.418332,0.001846,0.438200,-0.399258,-0.487671,-0.362178,0.006149,0.189840,-0.296136,-0.326807,-0.388546,-0.383297,-0.435881,0.062334,0.356258,0.178884,-0.111499,-0.144520,0.281793,-0.323206,0.002701,0.394040,-0.092730,0.422636,-0.138630,-0.359127,0.364071,0.462096,-0.492492,0.426572,-0.217795,0.040422,-0.200400,-0.107288,0.084857,-0.156301,-0.187185,-0.085894,-0.152669,0.046770,-0.180166,-0.219535,0.376888,-0.300775,0.258507,-0.080828,-0.330775,0.480255,-0.408414,-0.059771,0.398587,0.354152,0.465819,-0.214988,-0.403226,0.157338,0.075518,0.259484,0.178610,-0.351802,0.138081,-0.266472,-0.031632,0.051378,0.386654,0.287622,0.385434,-0.373135,-0.013321,0.087786,0.443663,0.296533,-0.217215,0.270806,0.221793,-0.142323,-0.218375,0.119709,0.460784,-0.183432,-0.222312,-0.187674,0.444273,0.371670,-0.472503,-0.477325,-0.181570,-0.421110,0.379360,0.157704,-0.492218,0.229759,-0.235954,-0.490661,0.382748,0.473418,0.453368,0.104755,-0.164754,-0.285760,-0.007797,-0.465911,-0.080676,-0.183737,0.211081,-0.461150,0.211875,0.145100,0.224631,-0.359218,0.050493,0.479156,-0.177023,-0.406888,0.304895,0.321406,-0.338313,0.435484,0.337092,-0.357295,0.157002,0.433409,0.308008,-0.412198,0.492157,-0.316034,0.485534,0.175863,-0.358394,-0.331416,-0.289056,-0.474090,-0.181143,-0.465514,-0.320063,-0.360500,0.254357,0.385769,0.194052,0.270653,-0.290216,0.365474,0.039201,-0.084582,-0.365047,-0.189779,-0.352382,0.451659,0.373531,0.257988,0.198843,0.460295,0.323664,-0.409238,0.316706,-0.240257,0.460265,0.093554,0.018174,0.184439,0.124500,-0.290124,0.070391,0.138386,0.487457,0.276788,0.412259,-0.044115,-0.406461,0.018723,-0.203513,-0.400174,0.390683,0.083056,0.308985,-0.270775,-0.347652,0.397458,-0.078967,-0.333064,0.199362,-0.368984,-0.268853,0.299463,0.325953,-0.459777,0.052751,0.439177,-0.162404,0.480529,0.003403,-0.319056,-0.393643,0.365566,-0.247337,0.284234,0.049913,-0.145100,0.084246,0.111377,0.440855,0.051317,0.428648,0.154408,0.452086],[-0.482879,-0.142689,-0.112659,0.354366,0.354793,-0.471953,-0.293207,0.101794,-0.457366,-0.415708,0.141591,-0.401639,-0.183828,-0.024125,-0.175405,0.493561,-0.254845,0.003586,0.322810,0.178854,0.378170,0.352382,-0.410459,0.269158,-0.054796,-0.391842,-0.460417,-0.496765,0.281152,-0.387692,0.110096,0.185385,-0.373684,-0.314417,-0.285577,0.448851,-0.040086,0.252068,0.494781,0.123615,-0.476806,-0.104877,0.279626,0.488159,-0.311762,0.376034,-0.347041,-0.312403,-0.171346,-0.353298,0.040666,0.099170,0.348506,0.388058,0.220878,0.425993,-0.474364,0.104694,0.164510,-0.199393,0.325983,0.307825,-0.387967,-0.320032,-0.155721,-0.183096,0.292840,-0.188040,-0.471374,-0.287774,0.193350,0.056139,-0.156026,-0.031449,-0.219657,0.338679,-0.468444,0.301965,-0.414365,-0.476165,0.120350,0.260979,0.058061,0.482299,-0.153523,0.092639,0.089587,0.138142,-0.362667,0.415708,0.121479,-0.224326,0.316248,0.231346,0.236473,0.387234,-0.315882,0.303308,0.144032,0.343104,-0.365566,0.438139,0.463958,0.165181,-0.042650,-0.302667,0.215323,-0.314631,-0.010086,0.072283,-0.083209,0.369716,-0.232047,-0.346797,0.204306,0.090167,-0.163747,-0.176229,0.372738,0.124622,0.373318,-0.487945,-0.252373,-0.333094,-0.213614,0.029649,0.293207,-0.372372,0.434233,-0.470306,0.363002,0.007248,-0.367946,0.383450,-0.489105,0.435636,-0.144673,0.045427,-0.464721,0.162160,-0.338496,-0.484771,-0.076403,0.215110,0.015000,0.419858,-0.191183,0.280084,0.105487,-0.049669,-0.163289,0.262047,0.191275,-0.087420,0.348140,0.363552,0.489349,-0.318751,-0.358699,-0.077258,-0.213462,-0.007920,-0.279443,-0.207602,0.427458,-0.397031,0.437559,-0.458770,-0.164693,0.355861,0.431181,0.258629,0.222861,-0.330287,-0.227012,0.244346,-0.351588,-0.003006,-0.276605,0.363948,0.074206,0.273766,-0.494110,0.351863,-0.417203,-0.104511,-0.495178,-0.157430,0.407895,0.249443,-0.206565,0.411832,-0.064074,0.334773,0.398068,0.408780,0.334834,-0.498016,0.205069,-0.139546,-0.034623,-0.157125,-0.083575,0.229667,0.232780,0.261559,-0.039354,0.307581,0.033311,-0.240928,-0.235282,0.022629,0.453276,-0.038163,0.293939,0.446471,-0.123951,0.425291,0.265191,-0.221702,0.153554,-0.255638,-0.059282,-0.410703,-0.001450,0.002182,-0.091998,0.107898,0.253746,-0.412870,-0.247826,-0.172842,0.194082,-0.088977,0.027360,0.216086,-0.481292,0.058580,0.433103,-0.184805,0.188528,-0.100238,-0.398007,0.498566,-0.234611,-0.303491,0.405179,0.182791,0.410123,-0.265465,0.181143,-0.235282,0.194418,0.012009,-0.204703,-0.431272,-0.116138,-0.483947,-0.064776,0.085314,-0.152486,0.118366,-0.451109,0.281426,0.251122,-0.378872,-0.168355,0.265069,0.189322,-0.015122,-0.331874,-0.416105,-0.085925,0.268853,-0.064348,-0.059587,-0.185507,0.315882,-0.424833,-0.395932,0.305353,-0.287805,-0.164022,0.302087,0.279717,0.054552,-0.399442,-0.130085,0.282495,0.054399,0.195761,0.442839,0.060747,-0.488067,-0.403562,0.469604,-0.352565,-0.309809,0.428190,0.329951,-0.365566,0.120746,-0.325220,-0.163472,-0.208762,0.372494,0.497406,0.403134,-0.314203,-0.185690,0.070849,0.159749,0.463378,-0.096515,-0.155782,-0.203116,0.439970,0.030442,0.131214,0.418851,-0.333644,0.451415,0.436949,0.188498,0.119251,0.340419,0.427274,0.044237,-0.324641,0.491546,-0.052965,0.270379,-0.474761,-0.297204,-0.006607,0.202322,0.182638,0.372982,0.050157,-0.152150,-0.254234,0.342463,-0.309778,-0.294427,-0.432951,-0.490234,-0.148427,-0.438139,-0.013077,0.254357,-0.306909,-0.452208,0.288690,0.197531,0.437315,0.236656,-0.469878,0.332484,0.105090,0.064196,0.408353,0.054674,-0.450377,-0.147847,-0.185873,0.123829,-0.304621,-0.283441,0.232017,0.088916,0.388119,0.142048,-0.357875,0.207236,-0.237266,-0.496551,0.080493,0.388730,-0.464934,-0.183950,-0.486389,0.197256,0.123432,-0.004715,0.183889,0.439543,0.006699,0.407834,0.081683,0.373226,0.224876,-0.005417,-0.298914,0.065416,0.428617,-0.252495,-0.265282,-0.067095,0.383633,-0.179006,-0.135578,-0.004776,0.336695,0.059404,0.303796,-0.128285,0.148885,0.221671,0.249077,0.054247,-0.397061,-0.315363,-0.105670,0.486358,-0.209403,-0.093890,0.167592,-0.019608,-0.013840,0.428831,-0.156514,-0.496185,-0.087146,-0.293298,0.189627,-0.134236,-0.192221,-0.465300,-0.198050,-0.164632,0.192129,0.363491,-0.213828,0.222983,-0.247398,0.279839,-0.059038,-0.044664,0.240562,-0.065386,0.099353,-0.323481,-0.205283,0.199149,0.284600,-0.094928,-0.405759,-0.168691,-0.163228,0.279351,0.248039,-0.067278,0.166433,-0.078143,-0.173513,0.478179,0.291162,0.454070,-0.348628,-0.459319,-0.461669,0.310511,-0.128040,-0.466338,0.070238,-0.284570,0.055712,-0.414426,-0.291253,-0.393338,0.393277,0.244133,-0.395871,-0.346950,0.019211,0.182394,0.007218,-0.207816,-0.449065,-0.242515,-0.281854,-0.491241,0.378536,-0.233360,-0.056444,-0.111469,-0.371944,0.181570,0.217978,0.478668,-0.294610,0.142720,-0.453887,0.486206,-0.174154,-0.005264,0.422117,0.345485,0.436949,-0.356197,-0.118397,0.186056,-0.060625,0.018845,0.243950,0.232292,-0.386196,-0.082720,-0.300623,-0.334284,0.158345,0.016861,0.398770,-0.018326,-0.256249,0.334742,0.201102,0.371120],[0.329340,0.313257,0.441069,0.424924,0.027146,-0.064837,-0.167440,0.324366,-0.347987,-0.305078,-0.316706,0.282586,-0.454955,-0.183584,-0.393460,-0.418851,-0.350917,-0.110523,0.077502,-0.439146,0.143727,0.270501,-0.158071,0.039445,-0.089923,-0.187551,0.351009,0.132618,-0.306757,-0.496612,0.471343,0.248894,-0.257134,-0.331019,-0.498352,0.164266,0.213797,-0.103870,0.027604,-0.416501,0.107410,0.333308,-0.354793,0.093860,0.035691,-0.475860,0.085284,-0.082476,-0.411771,0.430662,-0.230979,0.369411,-0.415433,-0.198202,0.326869,0.425993,-0.007859,-0.455565,0.111133,0.311975,-0.208365,0.252098,0.234336,-0.489410,-0.429105,-0.451689,0.164052,0.104175,0.128651,0.400998,0.405515,-0.149342,-0.131062,0.063036,0.303705,-0.096728,0.268242,-0.202963,0.495483,-0.421445,0.195853,0.038591,0.043413,0.079669,0.369015,0.155934,-0.217124,-0.419156,-0.275811,0.461241,-0.087298,-0.420133,-0.014389,-0.369961,0.361599,-0.076189,0.212088,0.185476,-0.038835,0.415189,-0.396023,0.202841,-0.043199,0.404355,0.350917,-0.108753,-0.112445,0.274560,-0.198386,0.208548,0.366695,0.225700,-0.262169,0.165700,-0.206473,0.263207,0.032395,-0.023362,-0.471404,-0.201712,0.473693,-0.289575,-0.437437,-0.234245,0.037126,-0.398679,0.210715,-0.334498,0.385434,-0.326533,-0.136006,0.434477,-0.121632,-0.163839,0.328181,-0.445616,-0.126148,0.106220,-0.218253,0.302667,-0.399167,0.113453,-0.115314,-0.448485,0.386319,-0.454405,0.068407,0.022843,-0.483581,-0.311029,-0.461119,0.403745,-0.485717,-0.278954,0.023911,0.230125,0.114429,-0.088672,-0.204367,-0.056078,-0.283868,0.386563,-0.000259,0.030442,-0.403470,-0.383419,-0.177389,-0.358150,-0.335414,0.277551,-0.472411,-0.386258,0.037309,-0.352290,-0.108417,0.279931,0.219626,0.193228,0.073382,-0.007462,0.168996,0.499268,0.444823,-0.246178,0.025956,0.203330,0.416105,-0.135151,-0.208060,0.086688,-0.213462,-0.001419,-0.264275,-0.019761,-0.348170,-0.397275,-0.190481,-0.358913,0.399380,0.039079,-0.143788,0.256096,-0.177450,0.365413,-0.111438,-0.271416,-0.114399,0.166005,0.222434,0.404721,0.170003,0.337672,-0.255760,0.395016,-0.466277,0.236564,0.094836,0.148640,0.014756,0.093066,0.050401,0.435240,-0.490173,0.100208,-0.118061,0.391324,0.260002,0.082263,-0.025376,-0.212210,-0.326106,0.149617,0.488006,0.173879,-0.479644,0.246269,0.338496,0.054582,0.021317,-0.003830,0.285577,-0.242607,-0.123859,-0.245323,0.402585,0.145039,-0.250725,0.271081,-0.286615,-0.170248,0.251793,-0.130940,0.276757,0.046037,-0.051836,-0.449187,0.498810,-0.162191,0.420133,-0.068804,-0.044664,-0.283837,-0.082080,0.408261,-0.494537,0.444304,-0.368892,0.476318,-0.022904,0.105365,0.109516,-0.411954,0.206198,0.109973,-0.134175,0.471404,-0.289392,0.299432,-0.308710,0.307855,-0.219718,-0.199393,-0.284692,-0.321528,0.264245,-0.210471,-0.259514,-0.316309,-0.163503,-0.181051,-0.115558,0.142964,0.021439,-0.133137,0.059435,0.281060,-0.239494,-0.238121,0.321039,-0.193197,-0.199179,0.141957,-0.382778,-0.209494,-0.312403,-0.397671,-0.030595,0.246849,-0.358730,0.189413,-0.384121,-0.171468,0.100452,-0.103626,0.149709,-0.461852,0.212333,0.317316,0.181936,-0.136708,0.051561,0.115284,-0.438597,0.242180,-0.151021,0.461791,-0.317316,0.265404,0.011093,0.102496,-0.087420,-0.479858,0.212180,0.206595,-0.332270,0.483703,0.339503,-0.344417,0.173452,0.371334,-0.426267,-0.072436,0.435392,0.346126,0.385098,0.233573,0.455626,-0.003830,-0.273339,0.062212,0.223930,0.485412,0.206748,-0.211417,-0.484283,0.284783,-0.479797,-0.495880,0.028092,-0.110248,-0.078387,-0.276849,-0.115436,0.430174,0.020035,0.122791,0.040635,-0.421049,-0.322291,-0.027818,-0.379238,-0.333674,0.293390,0.407743,-0.281579,0.404782,0.251610,0.209861,-0.310083,0.131855,-0.180715,0.238365,0.474120,-0.023026,0.271020,0.181875,-0.031663,-0.142079,-0.476348,-0.221671,-0.007553,-0.285974,0.062548,0.162282,-0.128010,-0.118305,0.439482,0.495239,0.171651,0.018937,0.124348,-0.464324,-0.389554,0.484710,-0.008164,0.304895,-0.310175,-0.420103,0.223685,-0.495819,0.065783,-0.444182,-0.091632,-0.158925,0.196463,-0.203726,0.119617,-0.080645,0.296411,0.080004,-0.245903,-0.149953,0.128712,0.329249,-0.089251,0.349208,-0.107593,0.377102,0.406369,-0.133778,0.350826,0.282586,-0.103259,-0.371944,-0.194021,0.376827,0.189840,0.156178,-0.404935,0.101978,0.098193,0.095508,0.035875,0.247490,-0.474364,0.418607,-0.341670,0.380154,-0.198599,-0.451506,0.461577,0.198447,0.242729,-0.204337,0.227409,-0.283380,0.227226,0.266015,0.422025,-0.314692,-0.443663,-0.104541,-0.283685,0.154530,0.391018,-0.231773,-0.342738,-0.414335,-0.459227,0.374020,-0.479766,0.418607,0.387844,-0.038682,-0.125233,0.499878,0.226981,-0.357601,-0.105792,0.278710,0.302728,0.406796,-0.059221,0.176809,0.325220,-0.301263,0.457274,0.038041,-0.254387,-0.283990,-0.303278,0.064776,-0.427274,0.085162,0.321192,0.146413,0.011734,0.069994,0.400754,-0.012864,-0.293573,-0.030076,-0.155568,-0.061541,-0.133473,-0.136464,-0.206107,-0.056810,0.060472,0.354457,0.011155,0.497040,-0.043992,0.475097,-0.208213,0.033921,-0.211020,0.405271],[0.363094,-0.188681,0.082965,0.060259,-0.487274,-0.286370,-0.088885,-0.012162,0.040727,-0.338496,0.075579,-0.340358,-0.038652,-0.203543,-0.134999,0.054247,0.451872,0.413419,0.414731,0.205618,-0.409574,0.237358,0.171163,0.409757,0.083239,-0.132984,-0.313684,0.466033,-0.334468,0.196738,0.477050,-0.274926,0.082751,0.098224,0.104358,0.474792,0.057817,0.143330,0.130482,-0.304926,0.151173,-0.350795,0.108509,-0.286401,-0.080340,-0.173269,0.261711,-0.207511,0.280358,0.313868,0.008683,0.178488,0.485778,-0.124989,-0.009781,-0.353114,-0.383328,-0.452330,-0.245415,0.071123,-0.001267,0.017502,-0.242973,0.048692,0.449156,-0.496826,-0.169759,0.115314,-0.240226,-0.067614,-0.218467,-0.422086,0.322748,-0.310114,0.273461,0.498352,0.304743,-0.280694,-0.356380,-0.141774,0.276727,0.259545,-0.179586,0.437407,-0.295343,-0.002853,-0.009354,0.435759,0.207938,-0.083789,0.175253,0.370998,-0.008347,-0.373501,0.369594,0.282922,0.359004,0.451567,0.404447,-0.224631,-0.290277,0.057604,0.183889,-0.072375,-0.068377,-0.095111,0.456481,-0.394101,-0.409604,0.302637,-0.224357,0.206839,-0.175039,0.348384,-0.193716,0.363460,0.353755,-0.466338,-0.367397,-0.354366,0.498871,0.297113,0.224906,-0.214164,-0.366115,0.305292,-0.279839,0.461272,-0.038041,-0.255638,-0.326167,0.164266,0.029954,0.402036,-0.061663,0.191672,-0.114673,-0.178182,0.324732,0.284631,0.281884,0.311274,-0.296045,-0.050188,-0.159597,0.084490,-0.296228,-0.005997,-0.429014,0.320826,-0.342433,0.302301,-0.337489,0.421018,-0.038591,0.392056,-0.053880,0.241539,0.495544,-0.226646,-0.061022,-0.411130,0.266655,-0.352626,-0.125965,-0.245048,-0.073016,-0.026139,-0.377468,0.374508,0.326777,0.438994,-0.084582,0.386135,-0.244072,0.355037,-0.230430,0.378292,0.031755,0.022629,-0.474395,0.100970,0.088244,-0.412503,0.403317,0.424955,0.223899,-0.077715,-0.019578,-0.470763,-0.336268,-0.434812,-0.497803,-0.401364,-0.407743,0.246513,0.426817,-0.188009,0.313166,0.034165,0.113300,-0.097003,-0.307703,-0.370174,0.058733,0.074297,-0.459807,-0.153462,-0.409787,-0.453612,0.090228,-0.200766,0.418058,-0.477172,0.228599,-0.160543,-0.043229,-0.147877,-0.367275,-0.234519,-0.180013,0.168722,0.474059,0.338984,0.395047,-0.206595,-0.158589,-0.360408,-0.095721,0.174917,-0.458586,0.288873,-0.141285,0.153706,0.432310,0.074175,0.310694,-0.170858,-0.053331,0.004654,-0.188620,0.311792,-0.039506,0.329890,0.479949,0.141346,-0.336238,-0.447478,0.089801,-0.348018,-0.410520,-0.033189,-0.420682,0.066393,0.456969,-0.246910,-0.107868,-0.400815,-0.014054,0.160878,-0.446196,0.351802,0.337672,-0.189566,-0.108661,0.279168,0.339045,-0.354701,0.301416,0.010300,0.146474,-0.434019,0.473388,-0.196432,-0.494934,0.276940,-0.025773,0.417661,0.260277,0.377377,0.100452,0.180258,0.277062,0.227653,0.404263,0.035020,0.424253,-0.377682,-0.200583,-0.151723,-0.220939,-0.199149,-0.346065,-0.243126,-0.291131,-0.172292,-0.225120,-0.161794,-0.014023,-0.127216,-0.307794,-0.116352,-0.408017,0.423337,0.147725,-0.442900,0.367855,-0.041002,0.195151,-0.280816,0.165792,0.120808,-0.181906,0.198874,-0.340449,-0.094317,0.471679,-0.206412,0.468932,-0.082446,0.454009,-0.220786,-0.244774,0.206229,-0.485504,-0.289178,-0.056566,-0.274377,-0.395718,-0.204062,-0.272149,-0.057604,0.175832,-0.378719,0.016892,-0.374264,-0.062822,-0.485900,-0.026200,0.350917,0.468139,0.319697,-0.190695,-0.253990,-0.396664,-0.123920,0.482330,0.014847,-0.010117,-0.032609,-0.034715,-0.234001,-0.275658,0.036760,0.230064,-0.320032,0.476562,0.440367,-0.389065,0.045518,0.005814,-0.476287,-0.299341,-0.303858,0.476073,0.301630,0.436064,0.378597,0.475829,0.022446,-0.470763,0.083819,0.149831,0.399045,-0.099017,0.372402,0.348018,-0.213675,0.271996,0.225303,0.198416,0.087878,-0.431211,0.451140,0.010086,-0.328089,0.300531,0.181356,-0.087603,0.078570,-0.437834,0.484832,0.136921,-0.200888,-0.178365,-0.367641,0.348079,-0.090777,0.145619,0.043413,-0.071123,-0.163717,0.021744,0.445036,-0.371792,0.043413,0.432340,0.275567,0.475219,-0.089679,0.336390,-0.136555,0.368007,-0.407224,0.216269,0.412595,0.242149,0.142018,-0.155263,0.325800,0.225608,-0.335261,-0.070727,-0.102680,-0.313715,-0.194021,-0.210746,-0.094409,-0.421812,0.334986,-0.277001,0.138020,-0.007065,0.115986,0.220084,0.378170,0.322474,0.245293,-0.324030,-0.112598,-0.060747,-0.364956,-0.235343,-0.088031,-0.199393,-0.173849,0.125690,0.246391,-0.117359,0.310541,-0.477813,0.385098,-0.148976,0.144459,0.125507,0.293023,-0.126087,0.134388,0.083270,0.326624,-0.015915,0.376003,0.026811,0.336543,-0.104236,0.428251,-0.325678,0.483093,-0.316981,-0.096698,0.185965,-0.203940,0.225791,-0.246300,0.427183,0.009751,-0.170492,0.038194,-0.203635,-0.295343,-0.074969,0.447264,-0.226463,0.287164,0.254662,0.369503,-0.154500,-0.161794,0.451079,-0.219352,-0.035325,0.362484,0.414670,-0.264336,0.196982,0.469237,0.396390,-0.254051,-0.284265,0.015885,0.191580,-0.177602,-0.202567,-0.254112,0.351650,0.465758,-0.024522,0.451994,-0.180776,0.385434,0.008774,-0.304102,-0.106067,0.228202,-0.179342,-0.383755,-0.066149,0.097949],[0.193869,-0.351314,0.129109,0.245415,-0.017899,-0.250053,0.023606,-0.345424,-0.477325,-0.214957,0.448271,0.456908,-0.111103,0.361080,-0.286218,-0.373135,-0.362453,-0.135121,0.376888,-0.157491,0.190085,0.165517,-0.069475,-0.175283,0.284814,-0.154714,-0.264336,-0.333216,-0.387143,0.417203,-0.005875,0.041307,-0.176748,0.434904,0.043443,0.439756,0.428098,-0.098560,-0.244346,0.102100,-0.360256,-0.116657,0.320551,-0.208396,-0.329249,-0.264306,0.194845,0.071947,-0.472076,-0.155141,0.499115,0.242363,-0.168294,0.295343,-0.357448,-0.412839,-0.307703,0.366237,0.458220,0.096332,0.173727,0.264458,-0.371487,0.312525,0.376919,0.000259,-0.316126,0.461699,-0.326838,-0.188314,0.353999,-0.476928,0.119465,0.044053,-0.445555,0.394894,-0.413663,-0.109119,-0.210685,-0.188345,-0.369839,-0.097797,0.250603,0.170370,-0.359249,-0.333033,0.396756,-0.079546,0.295587,-0.424833,0.290521,-0.325068,-0.148244,0.066729,0.478027,-0.301752,0.307581,0.272546,-0.309961,-0.072588,-0.036241,0.454588,0.146931,0.182516,0.417203,0.151173,-0.252068,-0.276940,-0.483306,0.433317,-0.072924,-0.193808,0.313654,0.178762,0.455870,0.403165,-0.462554,-0.230094,-0.025407,-0.269951,-0.371914,0.121815,-0.466338,-0.250450,-0.143727,0.446348,-0.074389,0.299432,-0.437284,-0.340876,0.089557,0.004227,0.048143,-0.164754,0.369106,-0.373531,0.144459,-0.380001,-0.094897,0.013657,-0.000809,0.000961,-0.055651,0.297021,0.103961,0.347591,0.345576,0.498596,0.098163,0.124928,0.063829,0.202750,0.379574,0.187002,-0.105060,0.448363,0.052690,0.056810,0.260674,0.498108,0.246178,0.098773,0.316218,-0.359462,0.330866,-0.009903,0.161367,-0.317621,0.069109,0.397122,0.436369,0.285516,0.227470,0.262963,